<?xml version="1.0"?>
<opencv_storage>
<stage2>
  <maxWeakCount>12</maxWeakCount>
  <stageThreshold>-1.0326101779937744e+00</stageThreshold>
  <weakClassifiers>
    <_>
      <internalNodes>
        0 -1 86417 -3.9961327274795622e-05</internalNodes>
      <leafValues>
        -8.5654008388519287e-01 5.1043915748596191e-01</leafValues></_>
    <_>
      <internalNodes>
        0 -1 125573 -1.9013077020645142e-02</internalNodes>
      <leafValues>
        6.2194192409515381e-01 -5.7609140872955322e-01</leafValues></_>
    <_>
      <internalNodes>
        0 -1 95338 5.3743999160360545e-05</internalNodes>
      <leafValues>
        3.4332171082496643e-01 -9.5197576284408569e-01</leafValues></_>
    <_>
      <internalNodes>
        0 -1 104013 5.0828370149247348e-05</internalNodes>
      <leafValues>
        3.4776309132575989e-01 -8.2396775484085083e-01</leafValues></_>
    <_>
      <internalNodes>
        0 -1 86318 5.4140393331181258e-05</internalNodes>
      <leafValues>
        2.7361023426055908e-01 -9.5523774623870850e-01</leafValues></_>
    <_>
      <internalNodes>
        0 -1 122329 1.4173144102096558e-01</internalNodes>
      <leafValues>
        -6.0315012931823730e-01 4.4422665238380432e-01</leafValues></_>
    <_>
      <internalNodes>
        0 -1 86318 -4.6721113903913647e-05</internalNodes>
      <leafValues>
        -7.2691923379898071e-01 3.5457792878150940e-01</leafValues></_>
    <_>
      <internalNodes>
        0 -1 95678 -4.1885934479068965e-05</internalNodes>
      <leafValues>
        -8.7824290990829468e-01 2.8077167272567749e-01</leafValues></_>
    <_>
      <internalNodes>
        0 -1 104909 4.3065346777439117e-02</internalNodes>
      <leafValues>
        -4.8667907714843750e-01 6.4228308200836182e-01</leafValues></_>
    <_>
      <internalNodes>
        0 -1 95631 3.5516099160304293e-05</internalNodes>
      <leafValues>
        2.6077264547348022e-01 -9.9791723489761353e-01</leafValues></_>
    <_>
      <internalNodes>
        0 -1 95631 -5.1776878535747528e-05</internalNodes>
      <leafValues>
        -8.8471215963363647e-01 3.0244597792625427e-01</leafValues></_>
    <_>
      <internalNodes>
        0 -1 6050 3.1143534928560257e-02</internalNodes>
      <leafValues>
        -4.3316966295242310e-01 6.5358734130859375e-01</leafValues></_></weakClassifiers></stage2>
</opencv_storage>
