<?xml version="1.0"?>
<opencv_storage>
<stage6>
  <maxWeakCount>14</maxWeakCount>
  <stageThreshold>-7.3803025484085083e-01</stageThreshold>
  <weakClassifiers>
    <_>
      <internalNodes>
        0 -1 126967 -1.4100524596869946e-02</internalNodes>
      <leafValues>
        6.1269843578338623e-01 -4.1471862792968750e-01</leafValues></_>
    <_>
      <internalNodes>
        0 -1 118287 2.6650050131138414e-05</internalNodes>
      <leafValues>
        -9.1111111640930176e-01 2.7054110169410706e-01</leafValues></_>
    <_>
      <internalNodes>
        0 -1 110223 2.1160629112273455e-03</internalNodes>
      <leafValues>
        4.6752282977104187e-01 -5.3159797191619873e-01</leafValues></_>
    <_>
      <internalNodes>
        0 -1 128297 3.3974148333072662e-02</internalNodes>
      <leafValues>
        -4.5505964756011963e-01 5.7017314434051514e-01</leafValues></_>
    <_>
      <internalNodes>
        0 -1 157013 2.3843592498451471e-03</internalNodes>
      <leafValues>
        -3.3063420653343201e-01 6.5937864780426025e-01</leafValues></_>
    <_>
      <internalNodes>
        0 -1 84516 2.0067898556590080e-02</internalNodes>
      <leafValues>
        2.9202929139137268e-01 -8.1716203689575195e-01</leafValues></_>
    <_>
      <internalNodes>
        0 -1 103199 1.4703069609822705e-05</internalNodes>
      <leafValues>
        -7.3758000135421753e-01 3.0203238129615784e-01</leafValues></_>
    <_>
      <internalNodes>
        0 -1 143441 1.5159487702476326e-05</internalNodes>
      <leafValues>
        -3.8911694288253784e-01 6.8131506443023682e-01</leafValues></_>
    <_>
      <internalNodes>
        0 -1 154393 -1.7861684318631887e-03</internalNodes>
      <leafValues>
        7.1719956398010254e-01 -2.1845021843910217e-01</leafValues></_>
    <_>
      <internalNodes>
        0 -1 5154 2.2817876189947128e-02</internalNodes>
      <leafValues>
        -2.9684635996818542e-01 5.6292289495468140e-01</leafValues></_>
    <_>
      <internalNodes>
        0 -1 106408 9.3328097136691213e-05</internalNodes>
      <leafValues>
        -3.2340466976165771e-01 5.2335470914840698e-01</leafValues></_>
    <_>
      <internalNodes>
        0 -1 84855 -1.5238490886986256e-02</internalNodes>
      <leafValues>
        -7.7792334556579590e-01 2.2153298556804657e-01</leafValues></_>
    <_>
      <internalNodes>
        0 -1 156685 3.4026480279862881e-03</internalNodes>
      <leafValues>
        -2.6574975252151489e-01 7.6856225728988647e-01</leafValues></_>
    <_>
      <internalNodes>
        0 -1 140029 -8.5553350800182670e-05</internalNodes>
      <leafValues>
        5.5465298891067505e-01 -3.1878772377967834e-01</leafValues></_></weakClassifiers></stage6>
</opencv_storage>
