<?xml version="1.0"?>
<opencv_storage>
<stage3>
  <maxWeakCount>13</maxWeakCount>
  <stageThreshold>-1.2780549526214600e+00</stageThreshold>
  <weakClassifiers>
    <_>
      <internalNodes>
        0 -1 86817 1.2631620847969316e-05</internalNodes>
      <leafValues>
        4.2170330882072449e-01 -7.9813665151596069e-01</leafValues></_>
    <_>
      <internalNodes>
        0 -1 119483 -4.1903875768184662e-02</internalNodes>
      <leafValues>
        4.0363079309463501e-01 -6.9161629676818848e-01</leafValues></_>
    <_>
      <internalNodes>
        0 -1 65256 2.8062490746378899e-02</internalNodes>
      <leafValues>
        -8.3053249120712280e-01 3.1634908914566040e-01</leafValues></_>
    <_>
      <internalNodes>
        0 -1 94270 3.5942292015533894e-05</internalNodes>
      <leafValues>
        3.1035017967224121e-01 -8.0221545696258545e-01</leafValues></_>
    <_>
      <internalNodes>
        0 -1 103608 -4.8079120460897684e-05</internalNodes>
      <leafValues>
        -9.1323447227478027e-01 2.0355619490146637e-01</leafValues></_>
    <_>
      <internalNodes>
        0 -1 103615 1.1598164564929903e-04</internalNodes>
      <leafValues>
        2.1132656931877136e-01 -9.5215755701065063e-01</leafValues></_>
    <_>
      <internalNodes>
        0 -1 146240 1.7943713814020157e-02</internalNodes>
      <leafValues>
        -4.5521974563598633e-01 5.3111022710800171e-01</leafValues></_>
    <_>
      <internalNodes>
        0 -1 111174 4.5935317757539451e-05</internalNodes>
      <leafValues>
        2.2744028270244598e-01 -9.2220598459243774e-01</leafValues></_>
    <_>
      <internalNodes>
        0 -1 111527 5.2972085541114211e-05</internalNodes>
      <leafValues>
        2.0534168183803558e-01 -8.7726068496704102e-01</leafValues></_>
    <_>
      <internalNodes>
        0 -1 103214 -2.5700990590848960e-05</internalNodes>
      <leafValues>
        -7.4206262826919556e-01 2.3051992058753967e-01</leafValues></_>
    <_>
      <internalNodes>
        0 -1 111013 5.2269806474214420e-05</internalNodes>
      <leafValues>
        1.7668816447257996e-01 -9.0597206354141235e-01</leafValues></_>
    <_>
      <internalNodes>
        0 -1 93007 4.1807927191257477e-02</internalNodes>
      <leafValues>
        -8.0576872825622559e-01 2.1272142231464386e-01</leafValues></_>
    <_>
      <internalNodes>
        0 -1 119027 -1.3872669114789460e-05</internalNodes>
      <leafValues>
        4.0463846921920776e-01 -4.7907927632331848e-01</leafValues></_></weakClassifiers></stage3>
</opencv_storage>
