<?xml version="1.0"?>
<opencv_storage>
<cascade>
  <stageType>BOOST</stageType>
  <featureType>HAAR</featureType>
  <height>24</height>
  <width>24</width>
  <stageParams>
    <boostType>GAB</boostType>
    <minHitRate>9.9900001287460327e-01</minHitRate>
    <maxFalseAlarm>1.0000000149011612e-01</maxFalseAlarm>
    <weightTrimRate>9.4999999999999996e-01</weightTrimRate>
    <maxDepth>1</maxDepth>
    <maxWeakCount>100</maxWeakCount></stageParams>
  <featureParams>
    <maxCatCount>0</maxCatCount>
    <featSize>1</featSize>
    <mode>BASIC</mode></featureParams>
  <stageNum>6</stageNum>
  <stages>
    <!-- stage 0 -->
    <_>
      <maxWeakCount>4</maxWeakCount>
      <stageThreshold>3.6675894260406494e-01</stageThreshold>
      <weakClassifiers>
        <_>
          <internalNodes>
            0 -1 22 1.5955172479152679e-02</internalNodes>
          <leafValues>
            -8.4115523099899292e-01 9.7370725870132446e-01</leafValues></_>
        <_>
          <internalNodes>
            0 -1 2 -2.3700514808297157e-02</internalNodes>
          <leafValues>
            9.4502586126327515e-01 -8.1732678413391113e-01</leafValues></_>
        <_>
          <internalNodes>
            0 -1 32 2.1627504378557205e-02</internalNodes>
          <leafValues>
            -6.2933337688446045e-01 9.3868398666381836e-01</leafValues></_>
        <_>
          <internalNodes>
            0 -1 20 -2.4379708338528872e-03</internalNodes>
          <leafValues>
            8.9222168922424316e-01 -6.3876068592071533e-01</leafValues></_></weakClassifiers></_>
    <!-- stage 1 -->
    <_>
      <maxWeakCount>6</maxWeakCount>
      <stageThreshold>1.7617228627204895e-01</stageThreshold>
      <weakClassifiers>
        <_>
          <internalNodes>
            0 -1 29 -8.1800501793622971e-03</internalNodes>
          <leafValues>
            9.6033829450607300e-01 -7.1217709779739380e-01</leafValues></_>
        <_>
          <internalNodes>
            0 -1 23 4.1014472953975201e-03</internalNodes>
          <leafValues>
            -5.8436208963394165e-01 9.5854061841964722e-01</leafValues></_>
        <_>
          <internalNodes>
            0 -1 35 -4.1306167840957642e-03</internalNodes>
          <leafValues>
            9.2837476730346680e-01 -6.1391693353652954e-01</leafValues></_>
        <_>
          <internalNodes>
            0 -1 33 -1.7319072037935257e-02</internalNodes>
          <leafValues>
            8.4198641777038574e-01 -6.6584056615829468e-01</leafValues></_>
        <_>
          <internalNodes>
            0 -1 14 3.9656482636928558e-02</internalNodes>
          <leafValues>
            -7.9187130928039551e-01 6.6459661722183228e-01</leafValues></_>
        <_>
          <internalNodes>
            0 -1 13 -3.8949027657508850e-02</internalNodes>
          <leafValues>
            5.4496967792510986e-01 -9.6015977859497070e-01</leafValues></_></weakClassifiers></_>
    <!-- stage 2 -->
    <_>
      <maxWeakCount>9</maxWeakCount>
      <stageThreshold>-6.3830250501632690e-01</stageThreshold>
      <weakClassifiers>
        <_>
          <internalNodes>
            0 -1 36 -2.1980733145028353e-03</internalNodes>
          <leafValues>
            9.6628534793853760e-01 -2.9100528359413147e-01</leafValues></_>
        <_>
          <internalNodes>
            0 -1 9 -1.6416970174759626e-03</internalNodes>
          <leafValues>
            8.2567238807678223e-01 -9.2996078729629517e-01</leafValues></_>
        <_>
          <internalNodes>
            0 -1 10 -4.4650051859207451e-04</internalNodes>
          <leafValues>
            -9.4794690608978271e-01 6.8082988262176514e-01</leafValues></_>
        <_>
          <internalNodes>
            0 -1 32 4.2392790317535400e-02</internalNodes>
          <leafValues>
            -6.8020939826965332e-01 8.0566185712814331e-01</leafValues></_>
        <_>
          <internalNodes>
            0 -1 18 -4.6019311994314194e-03</internalNodes>
          <leafValues>
            7.1476131677627563e-01 -6.5696382522583008e-01</leafValues></_>
        <_>
          <internalNodes>
            0 -1 4 -7.4855476617813110e-02</internalNodes>
          <leafValues>
            6.5731364488601685e-01 -6.9041007757186890e-01</leafValues></_>
        <_>
          <internalNodes>
            0 -1 8 5.4036686196923256e-04</internalNodes>
          <leafValues>
            3.6757466197013855e-01 -9.5931953191757202e-01</leafValues></_>
        <_>
          <internalNodes>
            0 -1 37 3.8575818762183189e-03</internalNodes>
          <leafValues>
            -5.7330477237701416e-01 7.0832628011703491e-01</leafValues></_>
        <_>
          <internalNodes>
            0 -1 15 -6.5927265677601099e-04</internalNodes>
          <leafValues>
            -9.7772377729415894e-01 3.7951388955116272e-01</leafValues></_></weakClassifiers></_>
    <!-- stage 3 -->
    <_>
      <maxWeakCount>7</maxWeakCount>
      <stageThreshold>1.9912254810333252e-01</stageThreshold>
      <weakClassifiers>
        <_>
          <internalNodes>
            0 -1 7 1.4226320199668407e-03</internalNodes>
          <leafValues>
            9.2412233352661133e-01 -9.7619044780731201e-01</leafValues></_>
        <_>
          <internalNodes>
            0 -1 0 -8.1438053166493773e-04</internalNodes>
          <leafValues>
            9.1306811571121216e-01 -5.6131696701049805e-01</leafValues></_>
        <_>
          <internalNodes>
            0 -1 31 6.2773404642939568e-03</internalNodes>
          <leafValues>
            -8.2813543081283569e-01 7.4064683914184570e-01</leafValues></_>
        <_>
          <internalNodes>
            0 -1 28 9.5356145175173879e-04</internalNodes>
          <leafValues>
            -8.0028694868087769e-01 5.7387566566467285e-01</leafValues></_>
        <_>
          <internalNodes>
            0 -1 17 7.3585170321166515e-03</internalNodes>
          <leafValues>
            -7.1659052371978760e-01 6.7660725116729736e-01</leafValues></_>
        <_>
          <internalNodes>
            0 -1 12 3.1631506863050163e-04</internalNodes>
          <leafValues>
            -9.3220728635787964e-01 4.4569692015647888e-01</leafValues></_>
        <_>
          <internalNodes>
            0 -1 27 -3.6209193058311939e-04</internalNodes>
          <leafValues>
            -9.1960883140563965e-01 3.6147058010101318e-01</leafValues></_></weakClassifiers></_>
    <!-- stage 4 -->
    <_>
      <maxWeakCount>8</maxWeakCount>
      <stageThreshold>-2.7228876948356628e-01</stageThreshold>
      <weakClassifiers>
        <_>
          <internalNodes>
            0 -1 11 -3.6664709448814392e-02</internalNodes>
          <leafValues>
            9.2802053689956665e-01 -7.4874371290206909e-01</leafValues></_>
        <_>
          <internalNodes>
            0 -1 6 -2.9267353238537908e-04</internalNodes>
          <leafValues>
            -8.7279355525970459e-01 7.9495573043823242e-01</leafValues></_>
        <_>
          <internalNodes>
            0 -1 38 2.5446438230574131e-03</internalNodes>
          <leafValues>
            -7.4609977006912231e-01 7.2980439662933350e-01</leafValues></_>
        <_>
          <internalNodes>
            0 -1 1 -5.3060392383486032e-04</internalNodes>
          <leafValues>
            7.2501736879348755e-01 -6.7944008111953735e-01</leafValues></_>
        <_>
          <internalNodes>
            0 -1 24 4.0643100510351360e-04</internalNodes>
          <leafValues>
            4.6413633227348328e-01 -9.5304858684539795e-01</leafValues></_>
        <_>
          <internalNodes>
            0 -1 25 -2.8057419694960117e-03</internalNodes>
          <leafValues>
            5.7149899005889893e-01 -7.2546315193176270e-01</leafValues></_>
        <_>
          <internalNodes>
            0 -1 19 -5.7344132801517844e-04</internalNodes>
          <leafValues>
            -9.5263183116912842e-01 4.1096210479736328e-01</leafValues></_>
        <_>
          <internalNodes>
            0 -1 34 1.9639221951365471e-02</internalNodes>
          <leafValues>
            -7.1936053037643433e-01 4.9093344807624817e-01</leafValues></_></weakClassifiers></_>
    <!-- stage 5 -->
    <_>
      <maxWeakCount>8</maxWeakCount>
      <stageThreshold>1.2989291548728943e-01</stageThreshold>
      <weakClassifiers>
        <_>
          <internalNodes>
            0 -1 6 6.2519439961761236e-04</internalNodes>
          <leafValues>
            9.3942856788635254e-01 -9.3999999761581421e-01</leafValues></_>
        <_>
          <internalNodes>
            0 -1 5 -5.4357043700292706e-04</internalNodes>
          <leafValues>
            -8.5451912879943848e-01 8.8378036022186279e-01</leafValues></_>
        <_>
          <internalNodes>
            0 -1 26 -8.8074259459972382e-02</internalNodes>
          <leafValues>
            7.1896034479141235e-01 -8.0446797609329224e-01</leafValues></_>
        <_>
          <internalNodes>
            0 -1 30 -1.6268137842416763e-02</internalNodes>
          <leafValues>
            5.8476823568344116e-01 -7.9813337326049805e-01</leafValues></_>
        <_>
          <internalNodes>
            0 -1 21 3.5464880056679249e-04</internalNodes>
          <leafValues>
            4.1648671030998230e-01 -9.6392065286636353e-01</leafValues></_>
        <_>
          <internalNodes>
            0 -1 3 8.7988097220659256e-05</internalNodes>
          <leafValues>
            -9.3318754434585571e-01 3.9087635278701782e-01</leafValues></_>
        <_>
          <internalNodes>
            0 -1 5 2.8999315691180527e-04</internalNodes>
          <leafValues>
            3.4258687496185303e-01 -9.3981778621673584e-01</leafValues></_>
        <_>
          <internalNodes>
            0 -1 16 4.8544676974415779e-04</internalNodes>
          <leafValues>
            2.9827043414115906e-01 -9.5409137010574341e-01</leafValues></_></weakClassifiers></_></stages>
  <features>
    <_>
      <rects>
        <_>
          0 10 3 3 -1.</_>
        <_>
          1 10 1 3 3.</_></rects>
      <tilted>0</tilted></_>
    <_>
      <rects>
        <_>
          0 12 2 1 -1.</_>
        <_>
          1 12 1 1 2.</_></rects>
      <tilted>0</tilted></_>
    <_>
      <rects>
        <_>
          0 13 20 6 -1.</_>
        <_>
          0 13 10 3 2.</_>
        <_>
          10 16 10 3 2.</_></rects>
      <tilted>0</tilted></_>
    <_>
      <rects>
        <_>
          2 11 16 2 -1.</_>
        <_>
          2 11 8 1 2.</_>
        <_>
          10 12 8 1 2.</_></rects>
      <tilted>0</tilted></_>
    <_>
      <rects>
        <_>
          2 11 16 10 -1.</_>
        <_>
          2 11 8 5 2.</_>
        <_>
          10 16 8 5 2.</_></rects>
      <tilted>0</tilted></_>
    <_>
      <rects>
        <_>
          3 9 3 6 -1.</_>
        <_>
          3 11 3 2 3.</_></rects>
      <tilted>0</tilted></_>
    <_>
      <rects>
        <_>
          4 9 2 6 -1.</_>
        <_>
          4 11 2 2 3.</_></rects>
      <tilted>0</tilted></_>
    <_>
      <rects>
        <_>
          5 6 3 9 -1.</_>
        <_>
          5 9 3 3 3.</_></rects>
      <tilted>0</tilted></_>
    <_>
      <rects>
        <_>
          5 6 13 3 -1.</_>
        <_>
          5 7 13 1 3.</_></rects>
      <tilted>0</tilted></_>
    <_>
      <rects>
        <_>
          6 3 6 15 -1.</_>
        <_>
          6 8 6 5 3.</_></rects>
      <tilted>0</tilted></_>
    <_>
      <rects>
        <_>
          6 6 1 9 -1.</_>
        <_>
          6 9 1 3 3.</_></rects>
      <tilted>0</tilted></_>
    <_>
      <rects>
        <_>
          6 15 10 9 -1.</_>
        <_>
          6 18 10 3 3.</_></rects>
      <tilted>0</tilted></_>
    <_>
      <rects>
        <_>
          7 8 13 2 -1.</_>
        <_>
          7 9 13 1 2.</_></rects>
      <tilted>0</tilted></_>
    <_>
      <rects>
        <_>
          7 15 11 9 -1.</_>
        <_>
          7 18 11 3 3.</_></rects>
      <tilted>0</tilted></_>
    <_>
      <rects>
        <_>
          8 3 16 10 -1.</_>
        <_>
          16 3 8 10 2.</_></rects>
      <tilted>0</tilted></_>
    <_>
      <rects>
        <_>
          8 5 3 6 -1.</_>
        <_>
          8 7 3 2 3.</_></rects>
      <tilted>0</tilted></_>
    <_>
      <rects>
        <_>
          8 7 8 3 -1.</_>
        <_>
          8 8 8 1 3.</_></rects>
      <tilted>0</tilted></_>
    <_>
      <rects>
        <_>
          8 22 6 2 -1.</_>
        <_>
          8 23 6 1 2.</_></rects>
      <tilted>0</tilted></_>
    <_>
      <rects>
        <_>
          9 0 6 2 -1.</_>
        <_>
          9 1 6 1 2.</_></rects>
      <tilted>0</tilted></_>
    <_>
      <rects>
        <_>
          9 3 4 8 -1.</_>
        <_>
          9 3 2 4 2.</_>
        <_>
          11 7 2 4 2.</_></rects>
      <tilted>0</tilted></_>
    <_>
      <rects>
        <_>
          10 0 3 2 -1.</_>
        <_>
          10 1 3 1 2.</_></rects>
      <tilted>0</tilted></_>
    <_>
      <rects>
        <_>
          10 1 1 6 -1.</_>
        <_>
          10 3 1 2 3.</_></rects>
      <tilted>0</tilted></_>
    <_>
      <rects>
        <_>
          10 15 12 6 -1.</_>
        <_>
          10 15 6 3 2.</_>
        <_>
          16 18 6 3 2.</_></rects>
      <tilted>0</tilted></_>
    <_>
      <rects>
        <_>
          10 22 5 2 -1.</_>
        <_>
          10 23 5 1 2.</_></rects>
      <tilted>0</tilted></_>
    <_>
      <rects>
        <_>
          11 8 6 3 -1.</_>
        <_>
          11 9 6 1 3.</_></rects>
      <tilted>0</tilted></_>
    <_>
      <rects>
        <_>
          12 0 3 2 -1.</_>
        <_>
          12 1 3 1 2.</_></rects>
      <tilted>0</tilted></_>
    <_>
      <rects>
        <_>
          12 12 9 12 -1.</_>
        <_>
          12 16 9 4 3.</_></rects>
      <tilted>0</tilted></_>
    <_>
      <rects>
        <_>
          12 18 2 3 -1.</_>
        <_>
          12 19 2 1 3.</_></rects>
      <tilted>0</tilted></_>
    <_>
      <rects>
        <_>
          13 1 2 15 -1.</_>
        <_>
          14 1 1 15 2.</_></rects>
      <tilted>0</tilted></_>
    <_>
      <rects>
        <_>
          14 7 6 10 -1.</_>
        <_>
          14 7 3 5 2.</_>
        <_>
          17 12 3 5 2.</_></rects>
      <tilted>0</tilted></_>
    <_>
      <rects>
        <_>
          16 4 6 10 -1.</_>
        <_>
          16 4 3 5 2.</_>
        <_>
          19 9 3 5 2.</_></rects>
      <tilted>0</tilted></_>
    <_>
      <rects>
        <_>
          16 13 4 8 -1.</_>
        <_>
          16 13 2 4 2.</_>
        <_>
          18 17 2 4 2.</_></rects>
      <tilted>0</tilted></_>
    <_>
      <rects>
        <_>
          17 11 6 10 -1.</_>
        <_>
          17 11 3 5 2.</_>
        <_>
          20 16 3 5 2.</_></rects>
      <tilted>0</tilted></_>
    <_>
      <rects>
        <_>
          18 8 2 12 -1.</_>
        <_>
          18 14 2 6 2.</_></rects>
      <tilted>0</tilted></_>
    <_>
      <rects>
        <_>
          19 8 4 12 -1.</_>
        <_>
          19 8 2 6 2.</_>
        <_>
          21 14 2 6 2.</_></rects>
      <tilted>0</tilted></_>
    <_>
      <rects>
        <_>
          21 9 3 7 -1.</_>
        <_>
          22 9 1 7 3.</_></rects>
      <tilted>0</tilted></_>
    <_>
      <rects>
        <_>
          21 11 3 2 -1.</_>
        <_>
          22 11 1 2 3.</_></rects>
      <tilted>0</tilted></_>
    <_>
      <rects>
        <_>
          22 9 2 4 -1.</_>
        <_>
          23 9 1 4 2.</_></rects>
      <tilted>0</tilted></_>
    <_>
      <rects>
        <_>
          22 12 2 2 -1.</_>
        <_>
          23 12 1 2 2.</_></rects>
      <tilted>0</tilted></_></features></cascade>
</opencv_storage>
