<?xml version="1.0"?>
<opencv_storage>
<stage4>
  <maxWeakCount>10</maxWeakCount>
  <stageThreshold>-1.0157729387283325e+00</stageThreshold>
  <weakClassifiers>
    <_>
      <internalNodes>
        0 -1 161870 1.2291935272514820e-03</internalNodes>
      <leafValues>
        -7.3009121417999268e-01 6.9267642498016357e-01</leafValues></_>
    <_>
      <internalNodes>
        0 -1 128005 5.4287756793200970e-03</internalNodes>
      <leafValues>
        -6.3331431150436401e-01 6.0696858167648315e-01</leafValues></_>
    <_>
      <internalNodes>
        0 -1 84897 -4.4067311682738364e-04</internalNodes>
      <leafValues>
        -9.1808027029037476e-01 3.7829345464706421e-01</leafValues></_>
    <_>
      <internalNodes>
        0 -1 156080 -3.3790916204452515e-02</internalNodes>
      <leafValues>
        3.8940045237541199e-01 -7.3885905742645264e-01</leafValues></_>
    <_>
      <internalNodes>
        0 -1 114580 -1.3362282188609242e-03</internalNodes>
      <leafValues>
        3.2903581857681274e-01 -8.7961161136627197e-01</leafValues></_>
    <_>
      <internalNodes>
        0 -1 115600 5.1896163495257497e-04</internalNodes>
      <leafValues>
        2.4904064834117889e-01 -9.7255569696426392e-01</leafValues></_>
    <_>
      <internalNodes>
        0 -1 108658 -3.1251614564098418e-04</internalNodes>
      <leafValues>
        -9.5395016670227051e-01 2.4648153781890869e-01</leafValues></_>
    <_>
      <internalNodes>
        0 -1 119001 3.6380783421918750e-04</internalNodes>
      <leafValues>
        -8.6550754308700562e-01 2.7551615238189697e-01</leafValues></_>
    <_>
      <internalNodes>
        0 -1 133392 -1.7019655206240714e-04</internalNodes>
      <leafValues>
        -9.0759313106536865e-01 2.5251725316047668e-01</leafValues></_>
    <_>
      <internalNodes>
        0 -1 37143 -8.4555353969335556e-03</internalNodes>
      <leafValues>
        2.6576712727546692e-01 -8.5851341485977173e-01</leafValues></_></weakClassifiers></stage4>
</opencv_storage>
