<?xml version="1.0"?>
<opencv_storage>
<cascade>
  <stageType>BOOST</stageType>
  <featureType>HAAR</featureType>
  <height>24</height>
  <width>24</width>
  <stageParams>
    <boostType>GAB</boostType>
    <minHitRate>9.9900001287460327e-01</minHitRate>
    <maxFalseAlarm>2.0000000298023224e-01</maxFalseAlarm>
    <weightTrimRate>9.4999999999999996e-01</weightTrimRate>
    <maxDepth>1</maxDepth>
    <maxWeakCount>100</maxWeakCount></stageParams>
  <featureParams>
    <maxCatCount>0</maxCatCount>
    <featSize>1</featSize>
    <mode>BASIC</mode></featureParams>
  <stageNum>10</stageNum>
  <stages>
    <!-- stage 0 -->
    <_>
      <maxWeakCount>7</maxWeakCount>
      <stageThreshold>-9.2381805181503296e-01</stageThreshold>
      <weakClassifiers>
        <_>
          <internalNodes>
            0 -1 84 -5.5250171571969986e-02</internalNodes>
          <leafValues>
            8.3518517017364502e-01 -7.8627449274063110e-01</leafValues></_>
        <_>
          <internalNodes>
            0 -1 59 6.3127474859356880e-03</internalNodes>
          <leafValues>
            -8.8847208023071289e-01 5.3074812889099121e-01</leafValues></_>
        <_>
          <internalNodes>
            0 -1 97 -3.0761487782001495e-02</internalNodes>
          <leafValues>
            6.2327653169631958e-01 -6.5162801742553711e-01</leafValues></_>
        <_>
          <internalNodes>
            0 -1 23 1.2734578376694117e-05</internalNodes>
          <leafValues>
            3.6612027883529663e-01 -9.6616524457931519e-01</leafValues></_>
        <_>
          <internalNodes>
            0 -1 23 -2.5140048819594085e-05</internalNodes>
          <leafValues>
            -8.9212709665298462e-01 4.4663023948669434e-01</leafValues></_>
        <_>
          <internalNodes>
            0 -1 27 3.7443292967509478e-05</internalNodes>
          <leafValues>
            2.6681357622146606e-01 -9.6117341518402100e-01</leafValues></_>
        <_>
          <internalNodes>
            0 -1 41 -2.9647242627106607e-05</internalNodes>
          <leafValues>
            -8.8649392127990723e-01 3.2299241423606873e-01</leafValues></_></weakClassifiers></_>
    <!-- stage 1 -->
    <_>
      <maxWeakCount>7</maxWeakCount>
      <stageThreshold>-8.6570471525192261e-01</stageThreshold>
      <weakClassifiers>
        <_>
          <internalNodes>
            0 -1 88 8.7981313467025757e-02</internalNodes>
          <leafValues>
            -7.2486770153045654e-01 6.7965370416641235e-01</leafValues></_>
        <_>
          <internalNodes>
            0 -1 61 2.7219673938816413e-05</internalNodes>
          <leafValues>
            4.4485253095626831e-01 -9.6569043397903442e-01</leafValues></_>
        <_>
          <internalNodes>
            0 -1 77 -2.2261306643486023e-02</internalNodes>
          <leafValues>
            7.4335271120071411e-01 -5.3193652629852295e-01</leafValues></_>
        <_>
          <internalNodes>
            0 -1 18 2.6529709430178627e-05</internalNodes>
          <leafValues>
            4.4284114241600037e-01 -8.8125228881835938e-01</leafValues></_>
        <_>
          <internalNodes>
            0 -1 64 -1.3070200111542363e-05</internalNodes>
          <leafValues>
            -9.3740808963775635e-01 3.4054526686668396e-01</leafValues></_>
        <_>
          <internalNodes>
            0 -1 43 1.0166363790631294e-04</internalNodes>
          <leafValues>
            3.5248836874961853e-01 -9.0793991088867188e-01</leafValues></_>
        <_>
          <internalNodes>
            0 -1 45 3.5588687751442194e-05</internalNodes>
          <leafValues>
            2.0605428516864777e-01 -9.8782736063003540e-01</leafValues></_></weakClassifiers></_>
    <!-- stage 2 -->
    <_>
      <maxWeakCount>9</maxWeakCount>
      <stageThreshold>-8.8351726531982422e-01</stageThreshold>
      <weakClassifiers>
        <_>
          <internalNodes>
            0 -1 46 -3.4240176319144666e-05</internalNodes>
          <leafValues>
            -9.1867470741271973e-01 4.9442896246910095e-01</leafValues></_>
        <_>
          <internalNodes>
            0 -1 29 -5.9809972299262881e-05</internalNodes>
          <leafValues>
            -8.6197000741958618e-01 3.6521202325820923e-01</leafValues></_>
        <_>
          <internalNodes>
            0 -1 94 7.7975243330001831e-02</internalNodes>
          <leafValues>
            -5.5784773826599121e-01 6.2816751003265381e-01</leafValues></_>
        <_>
          <internalNodes>
            0 -1 46 2.5385546905454248e-05</internalNodes>
          <leafValues>
            4.3895021080970764e-01 -9.7072023153305054e-01</leafValues></_>
        <_>
          <internalNodes>
            0 -1 31 4.7824491048231721e-05</internalNodes>
          <leafValues>
            2.2116348147392273e-01 -9.1943246126174927e-01</leafValues></_>
        <_>
          <internalNodes>
            0 -1 30 4.7561210521962494e-05</internalNodes>
          <leafValues>
            2.6720669865608215e-01 -8.8152241706848145e-01</leafValues></_>
        <_>
          <internalNodes>
            0 -1 85 2.0760480314493179e-02</internalNodes>
          <leafValues>
            -4.8980563879013062e-01 5.8697187900543213e-01</leafValues></_>
        <_>
          <internalNodes>
            0 -1 65 -3.4940843761432916e-05</internalNodes>
          <leafValues>
            -8.4647011756896973e-01 3.2015368342399597e-01</leafValues></_>
        <_>
          <internalNodes>
            0 -1 100 1.2896373867988586e-02</internalNodes>
          <leafValues>
            -4.2489019036293030e-01 7.5289320945739746e-01</leafValues></_></weakClassifiers></_>
    <!-- stage 3 -->
    <_>
      <maxWeakCount>11</maxWeakCount>
      <stageThreshold>-1.0765990018844604e+00</stageThreshold>
      <weakClassifiers>
        <_>
          <internalNodes>
            0 -1 15 -6.9378823041915894e-02</internalNodes>
          <leafValues>
            5.1201200485229492e-01 -7.5781250000000000e-01</leafValues></_>
        <_>
          <internalNodes>
            0 -1 42 -4.2644751374609768e-05</internalNodes>
          <leafValues>
            -7.7278310060501099e-01 3.9328703284263611e-01</leafValues></_>
        <_>
          <internalNodes>
            0 -1 33 -3.7712674384238198e-05</internalNodes>
          <leafValues>
            -9.3181389570236206e-01 3.0576035380363464e-01</leafValues></_>
        <_>
          <internalNodes>
            0 -1 34 6.4485633629374206e-05</internalNodes>
          <leafValues>
            3.0917441844940186e-01 -8.6283087730407715e-01</leafValues></_>
        <_>
          <internalNodes>
            0 -1 52 7.9063266515731812e-02</internalNodes>
          <leafValues>
            -5.9473043680191040e-01 4.9522152543067932e-01</leafValues></_>
        <_>
          <internalNodes>
            0 -1 24 -4.1903396777343005e-05</internalNodes>
          <leafValues>
            -8.7302440404891968e-01 3.3050367236137390e-01</leafValues></_>
        <_>
          <internalNodes>
            0 -1 24 4.5792330638505518e-05</internalNodes>
          <leafValues>
            2.7305310964584351e-01 -8.6228168010711670e-01</leafValues></_>
        <_>
          <internalNodes>
            0 -1 26 5.4333970183506608e-05</internalNodes>
          <leafValues>
            1.5791292488574982e-01 -9.0471804141998291e-01</leafValues></_>
        <_>
          <internalNodes>
            0 -1 2 5.2120506763458252e-02</internalNodes>
          <leafValues>
            -6.4086914062500000e-01 4.0502965450286865e-01</leafValues></_>
        <_>
          <internalNodes>
            0 -1 47 1.7714902060106397e-04</internalNodes>
          <leafValues>
            2.3491407930850983e-01 -8.5058158636093140e-01</leafValues></_>
        <_>
          <internalNodes>
            0 -1 66 5.3400362958200276e-05</internalNodes>
          <leafValues>
            2.0438401401042938e-01 -8.9970463514328003e-01</leafValues></_></weakClassifiers></_>
    <!-- stage 4 -->
    <_>
      <maxWeakCount>13</maxWeakCount>
      <stageThreshold>-1.1558811664581299e+00</stageThreshold>
      <weakClassifiers>
        <_>
          <internalNodes>
            0 -1 14 2.5729447603225708e-02</internalNodes>
          <leafValues>
            -8.6806595325469971e-01 4.7383111715316772e-01</leafValues></_>
        <_>
          <internalNodes>
            0 -1 83 4.0388092398643494e-02</internalNodes>
          <leafValues>
            -3.8279885053634644e-01 7.9405629634857178e-01</leafValues></_>
        <_>
          <internalNodes>
            0 -1 28 -1.3304967069416307e-05</internalNodes>
          <leafValues>
            -7.9612720012664795e-01 3.4096959233283997e-01</leafValues></_>
        <_>
          <internalNodes>
            0 -1 95 -3.1385757029056549e-02</internalNodes>
          <leafValues>
            4.4233259558677673e-01 -6.1356204748153687e-01</leafValues></_>
        <_>
          <internalNodes>
            0 -1 55 5.4675841965945438e-05</internalNodes>
          <leafValues>
            2.6487228274345398e-01 -8.8203936815261841e-01</leafValues></_>
        <_>
          <internalNodes>
            0 -1 48 1.4735080185346305e-05</internalNodes>
          <leafValues>
            2.0922832190990448e-01 -8.1941384077072144e-01</leafValues></_>
        <_>
          <internalNodes>
            0 -1 0 1.5667745843529701e-02</internalNodes>
          <leafValues>
            -4.2913904786109924e-01 5.2536380290985107e-01</leafValues></_>
        <_>
          <internalNodes>
            0 -1 16 3.3786636777222157e-05</internalNodes>
          <leafValues>
            2.8859454393386841e-01 -8.1868696212768555e-01</leafValues></_>
        <_>
          <internalNodes>
            0 -1 75 7.7537180914077908e-05</internalNodes>
          <leafValues>
            -8.6649942398071289e-01 1.9777724146842957e-01</leafValues></_>
        <_>
          <internalNodes>
            0 -1 40 2.8623429898289032e-05</internalNodes>
          <leafValues>
            1.4838416874408722e-01 -8.6763882637023926e-01</leafValues></_>
        <_>
          <internalNodes>
            0 -1 101 7.1094194427132607e-03</internalNodes>
          <leafValues>
            -3.2216006517410278e-01 5.9293073415756226e-01</leafValues></_>
        <_>
          <internalNodes>
            0 -1 81 -3.6128275096416473e-02</internalNodes>
          <leafValues>
            7.4477756023406982e-01 -2.9320070147514343e-01</leafValues></_>
        <_>
          <internalNodes>
            0 -1 58 -3.6555903498083353e-03</internalNodes>
          <leafValues>
            5.6531226634979248e-01 -3.8966339826583862e-01</leafValues></_></weakClassifiers></_>
    <!-- stage 5 -->
    <_>
      <maxWeakCount>12</maxWeakCount>
      <stageThreshold>-9.6302312612533569e-01</stageThreshold>
      <weakClassifiers>
        <_>
          <internalNodes>
            0 -1 6 -3.8851745426654816e-02</internalNodes>
          <leafValues>
            3.8980716466903687e-01 -7.1913582086563110e-01</leafValues></_>
        <_>
          <internalNodes>
            0 -1 54 4.4530592276714742e-05</internalNodes>
          <leafValues>
            2.4370902776718140e-01 -8.6022806167602539e-01</leafValues></_>
        <_>
          <internalNodes>
            0 -1 80 1.7576894606463611e-04</internalNodes>
          <leafValues>
            -8.7693589925765991e-01 2.4548561871051788e-01</leafValues></_>
        <_>
          <internalNodes>
            0 -1 29 7.7611271990463138e-05</internalNodes>
          <leafValues>
            2.1828901767730713e-01 -8.8293945789337158e-01</leafValues></_>
        <_>
          <internalNodes>
            0 -1 57 5.4987936891848221e-05</internalNodes>
          <leafValues>
            1.3356997072696686e-01 -8.9220541715621948e-01</leafValues></_>
        <_>
          <internalNodes>
            0 -1 90 6.6870609298348427e-03</internalNodes>
          <leafValues>
            -3.4266856312751770e-01 6.7457646131515503e-01</leafValues></_>
        <_>
          <internalNodes>
            0 -1 20 2.1653372049331665e-01</internalNodes>
          <leafValues>
            -4.9116131663322449e-01 4.3805435299873352e-01</leafValues></_>
        <_>
          <internalNodes>
            0 -1 102 4.3200245127081871e-03</internalNodes>
          <leafValues>
            -3.4787723422050476e-01 6.6679817438125610e-01</leafValues></_>
        <_>
          <internalNodes>
            0 -1 19 3.0266095564002171e-05</internalNodes>
          <leafValues>
            2.7822387218475342e-01 -8.1279659271240234e-01</leafValues></_>
        <_>
          <internalNodes>
            0 -1 53 1.4338035725813825e-05</internalNodes>
          <leafValues>
            -6.7572301626205444e-01 2.4550881981849670e-01</leafValues></_>
        <_>
          <internalNodes>
            0 -1 11 1.2349181622266769e-01</internalNodes>
          <leafValues>
            2.0313109457492828e-01 -8.9772880077362061e-01</leafValues></_>
        <_>
          <internalNodes>
            0 -1 93 -8.7142419070005417e-03</internalNodes>
          <leafValues>
            5.6965088844299316e-01 -3.5033875703811646e-01</leafValues></_></weakClassifiers></_>
    <!-- stage 6 -->
    <_>
      <maxWeakCount>15</maxWeakCount>
      <stageThreshold>-5.7465040683746338e-01</stageThreshold>
      <weakClassifiers>
        <_>
          <internalNodes>
            0 -1 91 -3.0143501237034798e-02</internalNodes>
          <leafValues>
            4.7304481267929077e-01 -6.6794383525848389e-01</leafValues></_>
        <_>
          <internalNodes>
            0 -1 103 3.3832890912890434e-03</internalNodes>
          <leafValues>
            -3.8137567043304443e-01 7.1132409572601318e-01</leafValues></_>
        <_>
          <internalNodes>
            0 -1 72 3.3409716561436653e-03</internalNodes>
          <leafValues>
            -7.7954590320587158e-01 3.2017368078231812e-01</leafValues></_>
        <_>
          <internalNodes>
            0 -1 12 8.4792234003543854e-02</internalNodes>
          <leafValues>
            -5.8640480041503906e-01 3.5893011093139648e-01</leafValues></_>
        <_>
          <internalNodes>
            0 -1 4 2.1098181605339050e-03</internalNodes>
          <leafValues>
            -3.2282873988151550e-01 6.1783826351165771e-01</leafValues></_>
        <_>
          <internalNodes>
            0 -1 62 -3.1630686862627044e-05</internalNodes>
          <leafValues>
            -7.4620777368545532e-01 2.4715426564216614e-01</leafValues></_>
        <_>
          <internalNodes>
            0 -1 63 -2.8699592803604901e-05</internalNodes>
          <leafValues>
            3.2104107737541199e-01 -5.5041921138763428e-01</leafValues></_>
        <_>
          <internalNodes>
            0 -1 86 -3.0781507957726717e-03</internalNodes>
          <leafValues>
            7.5878489017486572e-01 -2.5768634676933289e-01</leafValues></_>
        <_>
          <internalNodes>
            0 -1 96 1.1946358717978001e-03</internalNodes>
          <leafValues>
            -2.3854452371597290e-01 6.8948900699615479e-01</leafValues></_>
        <_>
          <internalNodes>
            0 -1 89 2.0398611202836037e-02</internalNodes>
          <leafValues>
            -2.4307702481746674e-01 8.2747155427932739e-01</leafValues></_>
        <_>
          <internalNodes>
            0 -1 76 -1.3490421224560123e-05</internalNodes>
          <leafValues>
            4.6173810958862305e-01 -4.2605823278427124e-01</leafValues></_>
        <_>
          <internalNodes>
            0 -1 105 -5.9806229546666145e-03</internalNodes>
          <leafValues>
            7.8382289409637451e-01 -2.6751741766929626e-01</leafValues></_>
        <_>
          <internalNodes>
            0 -1 104 2.7128378860652447e-03</internalNodes>
          <leafValues>
            -3.0213105678558350e-01 7.6873457431793213e-01</leafValues></_>
        <_>
          <internalNodes>
            0 -1 87 3.5229258239269257e-02</internalNodes>
          <leafValues>
            -3.0411052703857422e-01 5.5034136772155762e-01</leafValues></_>
        <_>
          <internalNodes>
            0 -1 98 -1.5280374791473150e-03</internalNodes>
          <leafValues>
            7.4916213750839233e-01 -2.2650609910488129e-01</leafValues></_></weakClassifiers></_>
    <!-- stage 7 -->
    <_>
      <maxWeakCount>11</maxWeakCount>
      <stageThreshold>-8.6401200294494629e-01</stageThreshold>
      <weakClassifiers>
        <_>
          <internalNodes>
            0 -1 78 1.5649889974156395e-05</internalNodes>
          <leafValues>
            -6.7832165956497192e-01 5.4911434650421143e-01</leafValues></_>
        <_>
          <internalNodes>
            0 -1 68 1.6161275198101066e-05</internalNodes>
          <leafValues>
            -8.7487834692001343e-01 2.5718507170677185e-01</leafValues></_>
        <_>
          <internalNodes>
            0 -1 67 3.8080392405390739e-03</internalNodes>
          <leafValues>
            1.8521550297737122e-01 -8.3450877666473389e-01</leafValues></_>
        <_>
          <internalNodes>
            0 -1 22 -1.3106749975122511e-05</internalNodes>
          <leafValues>
            3.6800676584243774e-01 -5.2185106277465820e-01</leafValues></_>
        <_>
          <internalNodes>
            0 -1 21 2.9532369226217270e-02</internalNodes>
          <leafValues>
            2.1381187438964844e-01 -9.7421848773956299e-01</leafValues></_>
        <_>
          <internalNodes>
            0 -1 36 7.4695883085951209e-04</internalNodes>
          <leafValues>
            -4.8005628585815430e-01 4.8773998022079468e-01</leafValues></_>
        <_>
          <internalNodes>
            0 -1 92 -8.3888713270425797e-03</internalNodes>
          <leafValues>
            5.9358572959899902e-01 -3.2271900773048401e-01</leafValues></_>
        <_>
          <internalNodes>
            0 -1 5 3.4699146635830402e-04</internalNodes>
          <leafValues>
            -2.5604966282844543e-01 7.5633049011230469e-01</leafValues></_>
        <_>
          <internalNodes>
            0 -1 7 -1.4291224943008274e-05</internalNodes>
          <leafValues>
            6.0112154483795166e-01 -2.7830207347869873e-01</leafValues></_>
        <_>
          <internalNodes>
            0 -1 51 -1.3545476576837245e-05</internalNodes>
          <leafValues>
            5.6097066402435303e-01 -2.9524949193000793e-01</leafValues></_>
        <_>
          <internalNodes>
            0 -1 108 -3.0784300179220736e-05</internalNodes>
          <leafValues>
            5.9407824277877808e-01 -2.4596314132213593e-01</leafValues></_></weakClassifiers></_>
    <!-- stage 8 -->
    <_>
      <maxWeakCount>14</maxWeakCount>
      <stageThreshold>-8.1100767850875854e-01</stageThreshold>
      <weakClassifiers>
        <_>
          <internalNodes>
            0 -1 77 -2.4244993925094604e-02</internalNodes>
          <leafValues>
            6.2577962875366211e-01 -4.4112476706504822e-01</leafValues></_>
        <_>
          <internalNodes>
            0 -1 60 1.0361305612605065e-04</internalNodes>
          <leafValues>
            2.3527517914772034e-01 -9.4358021020889282e-01</leafValues></_>
        <_>
          <internalNodes>
            0 -1 10 1.3598412806459237e-05</internalNodes>
          <leafValues>
            -3.4283357858657837e-01 5.0589722394943237e-01</leafValues></_>
        <_>
          <internalNodes>
            0 -1 10 -1.2639055967156310e-05</internalNodes>
          <leafValues>
            5.7542103528976440e-01 -3.0994307994842529e-01</leafValues></_>
        <_>
          <internalNodes>
            0 -1 38 3.6731129512190819e-05</internalNodes>
          <leafValues>
            2.6611617207527161e-01 -7.0746630430221558e-01</leafValues></_>
        <_>
          <internalNodes>
            0 -1 13 2.3065782443154603e-05</internalNodes>
          <leafValues>
            -3.2196497917175293e-01 5.0646764039993286e-01</leafValues></_>
        <_>
          <internalNodes>
            0 -1 32 -1.7546300659887493e-04</internalNodes>
          <leafValues>
            -7.3892992734909058e-01 1.9027672708034515e-01</leafValues></_>
        <_>
          <internalNodes>
            0 -1 1 2.7188165113329887e-02</internalNodes>
          <leafValues>
            -4.0462204813957214e-01 3.9803823828697205e-01</leafValues></_>
        <_>
          <internalNodes>
            0 -1 82 -2.5252666324377060e-02</internalNodes>
          <leafValues>
            7.3800086975097656e-01 -1.9661520421504974e-01</leafValues></_>
        <_>
          <internalNodes>
            0 -1 49 -4.8917863750830293e-05</internalNodes>
          <leafValues>
            5.5744963884353638e-01 -4.2789566516876221e-01</leafValues></_>
        <_>
          <internalNodes>
            0 -1 99 9.6950419247150421e-03</internalNodes>
          <leafValues>
            -1.9791367650032043e-01 7.3631292581558228e-01</leafValues></_>
        <_>
          <internalNodes>
            0 -1 79 -1.8488015979528427e-02</internalNodes>
          <leafValues>
            7.7807474136352539e-01 -2.0020513236522675e-01</leafValues></_>
        <_>
          <internalNodes>
            0 -1 37 4.1432626545429230e-02</internalNodes>
          <leafValues>
            1.9014437496662140e-01 -9.3546491861343384e-01</leafValues></_>
        <_>
          <internalNodes>
            0 -1 13 -2.8576701879501343e-05</internalNodes>
          <leafValues>
            4.7248929738998413e-01 -3.3214470744132996e-01</leafValues></_></weakClassifiers></_>
    <!-- stage 9 -->
    <_>
      <maxWeakCount>17</maxWeakCount>
      <stageThreshold>-9.0513640642166138e-01</stageThreshold>
      <weakClassifiers>
        <_>
          <internalNodes>
            0 -1 69 1.4257801696658134e-02</internalNodes>
          <leafValues>
            2.9411765933036804e-01 -7.3705178499221802e-01</leafValues></_>
        <_>
          <internalNodes>
            0 -1 56 1.4703069609822705e-05</internalNodes>
          <leafValues>
            -7.1799796819686890e-01 2.3516200482845306e-01</leafValues></_>
        <_>
          <internalNodes>
            0 -1 74 3.1901156762614846e-04</internalNodes>
          <leafValues>
            2.1710944175720215e-01 -8.2709515094757080e-01</leafValues></_>
        <_>
          <internalNodes>
            0 -1 35 1.8999417079612613e-04</internalNodes>
          <leafValues>
            2.1680040657520294e-01 -7.8417414426803589e-01</leafValues></_>
        <_>
          <internalNodes>
            0 -1 73 1.3872669114789460e-05</internalNodes>
          <leafValues>
            -9.3155372142791748e-01 1.3260985910892487e-01</leafValues></_>
        <_>
          <internalNodes>
            0 -1 25 -4.1162519482895732e-04</internalNodes>
          <leafValues>
            -7.8019630908966064e-01 1.6247616708278656e-01</leafValues></_>
        <_>
          <internalNodes>
            0 -1 50 7.4103963561356068e-04</internalNodes>
          <leafValues>
            -2.9122558236122131e-01 5.4040485620498657e-01</leafValues></_>
        <_>
          <internalNodes>
            0 -1 71 -1.7766553908586502e-02</internalNodes>
          <leafValues>
            7.6056581735610962e-01 -2.0950318872928619e-01</leafValues></_>
        <_>
          <internalNodes>
            0 -1 9 1.9339908659458160e-01</internalNodes>
          <leafValues>
            -4.2437252402305603e-01 3.8537585735321045e-01</leafValues></_>
        <_>
          <internalNodes>
            0 -1 17 -2.2106481992523186e-05</internalNodes>
          <leafValues>
            3.3031859993934631e-01 -4.8004332184791565e-01</leafValues></_>
        <_>
          <internalNodes>
            0 -1 44 2.7226988459005952e-04</internalNodes>
          <leafValues>
            1.8347425758838654e-01 -9.8761558532714844e-01</leafValues></_>
        <_>
          <internalNodes>
            0 -1 8 -1.5252721823344473e-05</internalNodes>
          <leafValues>
            4.2544040083885193e-01 -3.7071424722671509e-01</leafValues></_>
        <_>
          <internalNodes>
            0 -1 70 -2.1077739074826241e-03</internalNodes>
          <leafValues>
            -8.2052075862884521e-01 2.2444905340671539e-01</leafValues></_>
        <_>
          <internalNodes>
            0 -1 106 4.2289569973945618e-03</internalNodes>
          <leafValues>
            -2.6697701215744019e-01 7.5092720985412598e-01</leafValues></_>
        <_>
          <internalNodes>
            0 -1 3 8.7443329393863678e-02</internalNodes>
          <leafValues>
            1.9039647281169891e-01 -8.8315880298614502e-01</leafValues></_>
        <_>
          <internalNodes>
            0 -1 107 1.4504329556075390e-05</internalNodes>
          <leafValues>
            -3.1687822937965393e-01 4.9755477905273438e-01</leafValues></_>
        <_>
          <internalNodes>
            0 -1 39 -4.9969956307904795e-05</internalNodes>
          <leafValues>
            -7.5514334440231323e-01 1.9273838400840759e-01</leafValues></_></weakClassifiers></_></stages>
  <features>
    <_>
      <rects>
        <_>
          0 5 8 7 -1.</_>
        <_>
          4 5 4 7 2.</_></rects>
      <tilted>0</tilted></_>
    <_>
      <rects>
        <_>
          0 5 8 17 -1.</_>
        <_>
          4 5 4 17 2.</_></rects>
      <tilted>0</tilted></_>
    <_>
      <rects>
        <_>
          0 6 20 7 -1.</_>
        <_>
          10 6 10 7 2.</_></rects>
      <tilted>0</tilted></_>
    <_>
      <rects>
        <_>
          1 9 22 3 -1.</_>
        <_>
          12 9 11 3 2.</_></rects>
      <tilted>0</tilted></_>
    <_>
      <rects>
        <_>
          1 15 6 1 -1.</_>
        <_>
          3 15 2 1 3.</_></rects>
      <tilted>0</tilted></_>
    <_>
      <rects>
        <_>
          2 7 2 2 -1.</_>
        <_>
          2 7 1 1 2.</_>
        <_>
          3 8 1 1 2.</_></rects>
      <tilted>0</tilted></_>
    <_>
      <rects>
        <_>
          2 11 15 8 -1.</_>
        <_>
          2 15 15 4 2.</_></rects>
      <tilted>0</tilted></_>
    <_>
      <rects>
        <_>
          2 13 2 2 -1.</_>
        <_>
          2 13 1 1 2.</_>
        <_>
          3 14 1 1 2.</_></rects>
      <tilted>0</tilted></_>
    <_>
      <rects>
        <_>
          2 14 2 2 -1.</_>
        <_>
          2 14 1 1 2.</_>
        <_>
          3 15 1 1 2.</_></rects>
      <tilted>0</tilted></_>
    <_>
      <rects>
        <_>
          3 2 13 21 -1.</_>
        <_>
          3 9 13 7 3.</_></rects>
      <tilted>0</tilted></_>
    <_>
      <rects>
        <_>
          3 6 2 2 -1.</_>
        <_>
          3 6 1 1 2.</_>
        <_>
          4 7 1 1 2.</_></rects>
      <tilted>0</tilted></_>
    <_>
      <rects>
        <_>
          4 8 16 10 -1.</_>
        <_>
          12 8 8 10 2.</_></rects>
      <tilted>0</tilted></_>
    <_>
      <rects>
        <_>
          5 3 17 15 -1.</_>
        <_>
          5 8 17 5 3.</_></rects>
      <tilted>0</tilted></_>
    <_>
      <rects>
        <_>
          5 4 2 2 -1.</_>
        <_>
          5 4 1 1 2.</_>
        <_>
          6 5 1 1 2.</_></rects>
      <tilted>0</tilted></_>
    <_>
      <rects>
        <_>
          5 7 12 8 -1.</_>
        <_>
          11 7 6 8 2.</_></rects>
      <tilted>0</tilted></_>
    <_>
      <rects>
        <_>
          5 10 13 10 -1.</_>
        <_>
          5 15 13 5 2.</_></rects>
      <tilted>0</tilted></_>
    <_>
      <rects>
        <_>
          5 11 3 2 -1.</_>
        <_>
          6 11 1 2 3.</_></rects>
      <tilted>0</tilted></_>
    <_>
      <rects>
        <_>
          5 12 9 3 -1.</_>
        <_>
          5 13 9 1 3.</_></rects>
      <tilted>0</tilted></_>
    <_>
      <rects>
        <_>
          6 8 2 2 -1.</_>
        <_>
          7 8 1 2 2.</_></rects>
      <tilted>0</tilted></_>
    <_>
      <rects>
        <_>
          6 11 3 2 -1.</_>
        <_>
          7 11 1 2 3.</_></rects>
      <tilted>0</tilted></_>
    <_>
      <rects>
        <_>
          7 0 12 21 -1.</_>
        <_>
          7 7 12 7 3.</_></rects>
      <tilted>0</tilted></_>
    <_>
      <rects>
        <_>
          7 6 5 14 -1.</_>
        <_>
          7 13 5 7 2.</_></rects>
      <tilted>0</tilted></_>
    <_>
      <rects>
        <_>
          7 8 3 9 -1.</_>
        <_>
          8 8 1 9 3.</_></rects>
      <tilted>0</tilted></_>
    <_>
      <rects>
        <_>
          7 9 2 1 -1.</_>
        <_>
          8 9 1 1 2.</_></rects>
      <tilted>0</tilted></_>
    <_>
      <rects>
        <_>
          7 9 3 2 -1.</_>
        <_>
          8 9 1 2 3.</_></rects>
      <tilted>0</tilted></_>
    <_>
      <rects>
        <_>
          7 9 2 6 -1.</_>
        <_>
          8 9 1 6 2.</_></rects>
      <tilted>0</tilted></_>
    <_>
      <rects>
        <_>
          7 9 4 1 -1.</_>
        <_>
          9 9 2 1 2.</_></rects>
      <tilted>0</tilted></_>
    <_>
      <rects>
        <_>
          7 9 2 2 -1.</_>
        <_>
          7 10 2 1 2.</_></rects>
      <tilted>0</tilted></_>
    <_>
      <rects>
        <_>
          7 9 4 2 -1.</_>
        <_>
          9 9 2 2 2.</_></rects>
      <tilted>0</tilted></_>
    <_>
      <rects>
        <_>
          7 9 4 2 -1.</_>
        <_>
          7 10 4 1 2.</_></rects>
      <tilted>0</tilted></_>
    <_>
      <rects>
        <_>
          7 9 5 3 -1.</_>
        <_>
          7 10 5 1 3.</_></rects>
      <tilted>0</tilted></_>
    <_>
      <rects>
        <_>
          7 10 3 1 -1.</_>
        <_>
          8 10 1 1 3.</_></rects>
      <tilted>0</tilted></_>
    <_>
      <rects>
        <_>
          7 10 4 4 -1.</_>
        <_>
          7 12 4 2 2.</_></rects>
      <tilted>0</tilted></_>
    <_>
      <rects>
        <_>
          7 11 2 2 -1.</_>
        <_>
          8 11 1 2 2.</_></rects>
      <tilted>0</tilted></_>
    <_>
      <rects>
        <_>
          7 11 3 3 -1.</_>
        <_>
          8 11 1 3 3.</_></rects>
      <tilted>0</tilted></_>
    <_>
      <rects>
        <_>
          7 11 4 1 -1.</_>
        <_>
          9 11 2 1 2.</_></rects>
      <tilted>0</tilted></_>
    <_>
      <rects>
        <_>
          7 13 7 2 -1.</_>
        <_>
          7 14 7 1 2.</_></rects>
      <tilted>0</tilted></_>
    <_>
      <rects>
        <_>
          8 5 5 14 -1.</_>
        <_>
          8 12 5 7 2.</_></rects>
      <tilted>0</tilted></_>
    <_>
      <rects>
        <_>
          8 7 4 2 -1.</_>
        <_>
          10 7 2 2 2.</_></rects>
      <tilted>0</tilted></_>
    <_>
      <rects>
        <_>
          8 8 4 2 -1.</_>
        <_>
          10 8 2 2 2.</_></rects>
      <tilted>0</tilted></_>
    <_>
      <rects>
        <_>
          8 9 2 2 -1.</_>
        <_>
          9 9 1 2 2.</_></rects>
      <tilted>0</tilted></_>
    <_>
      <rects>
        <_>
          8 9 2 2 -1.</_>
        <_>
          8 10 2 1 2.</_></rects>
      <tilted>0</tilted></_>
    <_>
      <rects>
        <_>
          8 9 2 3 -1.</_>
        <_>
          8 10 2 1 3.</_></rects>
      <tilted>0</tilted></_>
    <_>
      <rects>
        <_>
          8 9 3 2 -1.</_>
        <_>
          8 10 3 1 2.</_></rects>
      <tilted>0</tilted></_>
    <_>
      <rects>
        <_>
          8 9 4 3 -1.</_>
        <_>
          8 10 4 1 3.</_></rects>
      <tilted>0</tilted></_>
    <_>
      <rects>
        <_>
          8 10 2 1 -1.</_>
        <_>
          9 10 1 1 2.</_></rects>
      <tilted>0</tilted></_>
    <_>
      <rects>
        <_>
          8 10 3 1 -1.</_>
        <_>
          9 10 1 1 3.</_></rects>
      <tilted>0</tilted></_>
    <_>
      <rects>
        <_>
          8 10 3 4 -1.</_>
        <_>
          9 10 1 4 3.</_></rects>
      <tilted>0</tilted></_>
    <_>
      <rects>
        <_>
          8 10 3 3 -1.</_>
        <_>
          8 11 3 1 3.</_></rects>
      <tilted>0</tilted></_>
    <_>
      <rects>
        <_>
          8 11 7 3 -1.</_>
        <_>
          8 12 7 1 3.</_></rects>
      <tilted>0</tilted></_>
    <_>
      <rects>
        <_>
          8 14 5 2 -1.</_>
        <_>
          8 15 5 1 2.</_></rects>
      <tilted>0</tilted></_>
    <_>
      <rects>
        <_>
          8 19 2 2 -1.</_>
        <_>
          8 19 1 1 2.</_>
        <_>
          9 20 1 1 2.</_></rects>
      <tilted>0</tilted></_>
    <_>
      <rects>
        <_>
          9 6 15 8 -1.</_>
        <_>
          14 6 5 8 3.</_></rects>
      <tilted>0</tilted></_>
    <_>
      <rects>
        <_>
          9 7 2 10 -1.</_>
        <_>
          10 7 1 10 2.</_></rects>
      <tilted>0</tilted></_>
    <_>
      <rects>
        <_>
          9 7 3 3 -1.</_>
        <_>
          9 8 3 1 3.</_></rects>
      <tilted>0</tilted></_>
    <_>
      <rects>
        <_>
          9 8 2 2 -1.</_>
        <_>
          10 8 1 2 2.</_></rects>
      <tilted>0</tilted></_>
    <_>
      <rects>
        <_>
          9 8 2 10 -1.</_>
        <_>
          10 8 1 10 2.</_></rects>
      <tilted>0</tilted></_>
    <_>
      <rects>
        <_>
          9 8 2 3 -1.</_>
        <_>
          9 9 2 1 3.</_></rects>
      <tilted>0</tilted></_>
    <_>
      <rects>
        <_>
          9 8 9 4 -1.</_>
        <_>
          12 8 3 4 3.</_></rects>
      <tilted>0</tilted></_>
    <_>
      <rects>
        <_>
          9 8 6 8 -1.</_>
        <_>
          12 8 3 8 2.</_></rects>
      <tilted>0</tilted></_>
    <_>
      <rects>
        <_>
          9 8 5 3 -1.</_>
        <_>
          9 9 5 1 3.</_></rects>
      <tilted>0</tilted></_>
    <_>
      <rects>
        <_>
          9 9 1 2 -1.</_>
        <_>
          9 10 1 1 2.</_></rects>
      <tilted>0</tilted></_>
    <_>
      <rects>
        <_>
          9 9 3 1 -1.</_>
        <_>
          10 9 1 1 3.</_></rects>
      <tilted>0</tilted></_>
    <_>
      <rects>
        <_>
          9 9 3 9 -1.</_>
        <_>
          10 9 1 9 3.</_></rects>
      <tilted>0</tilted></_>
    <_>
      <rects>
        <_>
          9 9 2 2 -1.</_>
        <_>
          9 10 2 1 2.</_></rects>
      <tilted>0</tilted></_>
    <_>
      <rects>
        <_>
          9 9 4 2 -1.</_>
        <_>
          9 9 2 1 2.</_>
        <_>
          11 10 2 1 2.</_></rects>
      <tilted>0</tilted></_>
    <_>
      <rects>
        <_>
          9 9 4 3 -1.</_>
        <_>
          9 10 4 1 3.</_></rects>
      <tilted>0</tilted></_>
    <_>
      <rects>
        <_>
          10 7 2 12 -1.</_>
        <_>
          11 7 1 12 2.</_></rects>
      <tilted>0</tilted></_>
    <_>
      <rects>
        <_>
          10 9 2 8 -1.</_>
        <_>
          11 9 1 8 2.</_></rects>
      <tilted>0</tilted></_>
    <_>
      <rects>
        <_>
          10 10 4 9 -1.</_>
        <_>
          12 10 2 9 2.</_></rects>
      <tilted>0</tilted></_>
    <_>
      <rects>
        <_>
          10 12 3 6 -1.</_>
        <_>
          11 12 1 6 3.</_></rects>
      <tilted>0</tilted></_>
    <_>
      <rects>
        <_>
          10 13 3 6 -1.</_>
        <_>
          10 15 3 2 3.</_></rects>
      <tilted>0</tilted></_>
    <_>
      <rects>
        <_>
          11 6 4 12 -1.</_>
        <_>
          13 6 2 12 2.</_></rects>
      <tilted>0</tilted></_>
    <_>
      <rects>
        <_>
          11 7 2 9 -1.</_>
        <_>
          12 7 1 9 2.</_></rects>
      <tilted>0</tilted></_>
    <_>
      <rects>
        <_>
          11 7 4 3 -1.</_>
        <_>
          11 8 4 1 3.</_></rects>
      <tilted>0</tilted></_>
    <_>
      <rects>
        <_>
          11 9 2 8 -1.</_>
        <_>
          12 9 1 8 2.</_></rects>
      <tilted>0</tilted></_>
    <_>
      <rects>
        <_>
          11 9 5 3 -1.</_>
        <_>
          11 10 5 1 3.</_></rects>
      <tilted>0</tilted></_>
    <_>
      <rects>
        <_>
          11 10 8 6 -1.</_>
        <_>
          11 10 4 3 2.</_>
        <_>
          15 13 4 3 2.</_></rects>
      <tilted>0</tilted></_>
    <_>
      <rects>
        <_>
          11 11 4 2 -1.</_>
        <_>
          11 12 4 1 2.</_></rects>
      <tilted>0</tilted></_>
    <_>
      <rects>
        <_>
          12 7 4 8 -1.</_>
        <_>
          12 7 2 4 2.</_>
        <_>
          14 11 2 4 2.</_></rects>
      <tilted>0</tilted></_>
    <_>
      <rects>
        <_>
          12 8 2 9 -1.</_>
        <_>
          13 8 1 9 2.</_></rects>
      <tilted>0</tilted></_>
    <_>
      <rects>
        <_>
          12 8 8 6 -1.</_>
        <_>
          16 8 4 6 2.</_></rects>
      <tilted>0</tilted></_>
    <_>
      <rects>
        <_>
          12 10 3 6 -1.</_>
        <_>
          12 13 3 3 2.</_></rects>
      <tilted>0</tilted></_>
    <_>
      <rects>
        <_>
          12 10 3 9 -1.</_>
        <_>
          12 13 3 3 3.</_></rects>
      <tilted>0</tilted></_>
    <_>
      <rects>
        <_>
          12 10 6 10 -1.</_>
        <_>
          12 15 6 5 2.</_></rects>
      <tilted>0</tilted></_>
    <_>
      <rects>
        <_>
          12 13 10 6 -1.</_>
        <_>
          12 13 5 3 2.</_>
        <_>
          17 16 5 3 2.</_></rects>
      <tilted>0</tilted></_>
    <_>
      <rects>
        <_>
          12 16 2 3 -1.</_>
        <_>
          12 17 2 1 3.</_></rects>
      <tilted>0</tilted></_>
    <_>
      <rects>
        <_>
          13 0 5 10 -1.</_>
        <_>
          13 5 5 5 2.</_></rects>
      <tilted>0</tilted></_>
    <_>
      <rects>
        <_>
          13 1 4 21 -1.</_>
        <_>
          13 8 4 7 3.</_></rects>
      <tilted>0</tilted></_>
    <_>
      <rects>
        <_>
          13 10 6 8 -1.</_>
        <_>
          13 10 3 4 2.</_>
        <_>
          16 14 3 4 2.</_></rects>
      <tilted>0</tilted></_>
    <_>
      <rects>
        <_>
          13 12 1 6 -1.</_>
        <_>
          13 14 1 2 3.</_></rects>
      <tilted>0</tilted></_>
    <_>
      <rects>
        <_>
          14 0 10 14 -1.</_>
        <_>
          19 0 5 14 2.</_></rects>
      <tilted>0</tilted></_>
    <_>
      <rects>
        <_>
          14 9 1 8 -1.</_>
        <_>
          14 13 1 4 2.</_></rects>
      <tilted>0</tilted></_>
    <_>
      <rects>
        <_>
          14 12 2 6 -1.</_>
        <_>
          14 14 2 2 3.</_></rects>
      <tilted>0</tilted></_>
    <_>
      <rects>
        <_>
          16 1 3 18 -1.</_>
        <_>
          16 7 3 6 3.</_></rects>
      <tilted>0</tilted></_>
    <_>
      <rects>
        <_>
          16 6 8 7 -1.</_>
        <_>
          20 6 4 7 2.</_></rects>
      <tilted>0</tilted></_>
    <_>
      <rects>
        <_>
          16 7 2 4 -1.</_>
        <_>
          16 7 1 2 2.</_>
        <_>
          17 9 1 2 2.</_></rects>
      <tilted>0</tilted></_>
    <_>
      <rects>
        <_>
          16 7 8 7 -1.</_>
        <_>
          20 7 4 7 2.</_></rects>
      <tilted>0</tilted></_>
    <_>
      <rects>
        <_>
          16 12 2 4 -1.</_>
        <_>
          16 12 1 2 2.</_>
        <_>
          17 14 1 2 2.</_></rects>
      <tilted>0</tilted></_>
    <_>
      <rects>
        <_>
          17 8 6 2 -1.</_>
        <_>
          19 8 2 2 3.</_></rects>
      <tilted>0</tilted></_>
    <_>
      <rects>
        <_>
          17 9 6 3 -1.</_>
        <_>
          19 9 2 3 3.</_></rects>
      <tilted>0</tilted></_>
    <_>
      <rects>
        <_>
          17 12 4 4 -1.</_>
        <_>
          17 12 2 2 2.</_>
        <_>
          19 14 2 2 2.</_></rects>
      <tilted>0</tilted></_>
    <_>
      <rects>
        <_>
          18 8 3 5 -1.</_>
        <_>
          19 8 1 5 3.</_></rects>
      <tilted>0</tilted></_>
    <_>
      <rects>
        <_>
          18 12 2 6 -1.</_>
        <_>
          18 12 1 3 2.</_>
        <_>
          19 15 1 3 2.</_></rects>
      <tilted>0</tilted></_>
    <_>
      <rects>
        <_>
          19 9 3 3 -1.</_>
        <_>
          20 9 1 3 3.</_></rects>
      <tilted>0</tilted></_>
    <_>
      <rects>
        <_>
          19 9 3 8 -1.</_>
        <_>
          20 9 1 8 3.</_></rects>
      <tilted>0</tilted></_>
    <_>
      <rects>
        <_>
          19 10 3 2 -1.</_>
        <_>
          20 10 1 2 3.</_></rects>
      <tilted>0</tilted></_>
    <_>
      <rects>
        <_>
          19 14 2 1 -1.</_>
        <_>
          20 14 1 1 2.</_></rects>
      <tilted>0</tilted></_>
    <_>
      <rects>
        <_>
          20 14 2 2 -1.</_>
        <_>
          20 14 1 1 2.</_>
        <_>
          21 15 1 1 2.</_></rects>
      <tilted>0</tilted></_></features></cascade>
</opencv_storage>
