<?xml version="1.0"?>
<opencv_storage>
<stage2>
  <maxWeakCount>9</maxWeakCount>
  <stageThreshold>-8.8351726531982422e-01</stageThreshold>
  <weakClassifiers>
    <_>
      <internalNodes>
        0 -1 95633 -3.4240176319144666e-05</internalNodes>
      <leafValues>
        -9.1867470741271973e-01 4.9442896246910095e-01</leafValues></_>
    <_>
      <internalNodes>
        0 -1 86417 -5.9809972299262881e-05</internalNodes>
      <leafValues>
        -8.6197000741958618e-01 3.6521202325820923e-01</leafValues></_>
    <_>
      <internalNodes>
        0 -1 144560 7.7975243330001831e-02</internalNodes>
      <leafValues>
        -5.5784773826599121e-01 6.2816751003265381e-01</leafValues></_>
    <_>
      <internalNodes>
        0 -1 95633 2.5385546905454248e-05</internalNodes>
      <leafValues>
        4.3895021080970764e-01 -9.7072023153305054e-01</leafValues></_>
    <_>
      <internalNodes>
        0 -1 86726 4.7824491048231721e-05</internalNodes>
      <leafValues>
        2.2116348147392273e-01 -9.1943246126174927e-01</leafValues></_>
    <_>
      <internalNodes>
        0 -1 86468 4.7561210521962494e-05</internalNodes>
      <leafValues>
        2.6720669865608215e-01 -8.8152241706848145e-01</leafValues></_>
    <_>
      <internalNodes>
        0 -1 126775 2.0760480314493179e-02</internalNodes>
      <leafValues>
        -4.8980563879013062e-01 5.8697187900543213e-01</leafValues></_>
    <_>
      <internalNodes>
        0 -1 103656 -3.4940843761432916e-05</internalNodes>
      <leafValues>
        -8.4647011756896973e-01 3.2015368342399597e-01</leafValues></_>
    <_>
      <internalNodes>
        0 -1 150540 1.2896373867988586e-02</internalNodes>
      <leafValues>
        -4.2489019036293030e-01 7.5289320945739746e-01</leafValues></_></weakClassifiers></stage2>
</opencv_storage>
