<?xml version="1.0"?>
<opencv_storage>
<stage3>
  <maxWeakCount>11</maxWeakCount>
  <stageThreshold>-1.0765990018844604e+00</stageThreshold>
  <weakClassifiers>
    <_>
      <internalNodes>
        0 -1 67612 -6.9378823041915894e-02</internalNodes>
      <leafValues>
        5.1201200485229492e-01 -7.5781250000000000e-01</leafValues></_>
    <_>
      <internalNodes>
        0 -1 95240 -4.2644751374609768e-05</internalNodes>
      <leafValues>
        -7.7278310060501099e-01 3.9328703284263611e-01</leafValues></_>
    <_>
      <internalNodes>
        0 -1 87154 -3.7712674384238198e-05</internalNodes>
      <leafValues>
        -9.3181389570236206e-01 3.0576035380363464e-01</leafValues></_>
    <_>
      <internalNodes>
        0 -1 87161 6.4485633629374206e-05</internalNodes>
      <leafValues>
        3.0917441844940186e-01 -8.6283087730407715e-01</leafValues></_>
    <_>
      <internalNodes>
        0 -1 102477 7.9063266515731812e-02</internalNodes>
      <leafValues>
        -5.9473043680191040e-01 4.9522152543067932e-01</leafValues></_>
    <_>
      <internalNodes>
        0 -1 86276 -4.1903396777343005e-05</internalNodes>
      <leafValues>
        -8.7302440404891968e-01 3.3050367236137390e-01</leafValues></_>
    <_>
      <internalNodes>
        0 -1 86276 4.5792330638505518e-05</internalNodes>
      <leafValues>
        2.7305310964584351e-01 -8.6228168010711670e-01</leafValues></_>
    <_>
      <internalNodes>
        0 -1 86318 5.4333970183506608e-05</internalNodes>
      <leafValues>
        1.5791292488574982e-01 -9.0471804141998291e-01</leafValues></_>
    <_>
      <internalNodes>
        0 -1 6378 5.2120506763458252e-02</internalNodes>
      <leafValues>
        -6.4086914062500000e-01 4.0502965450286865e-01</leafValues></_>
    <_>
      <internalNodes>
        0 -1 95648 1.7714902060106397e-04</internalNodes>
      <leafValues>
        2.3491407930850983e-01 -8.5058158636093140e-01</leafValues></_>
    <_>
      <internalNodes>
        0 -1 103753 5.3400362958200276e-05</internalNodes>
      <leafValues>
        2.0438401401042938e-01 -8.9970463514328003e-01</leafValues></_></weakClassifiers></stage3>
</opencv_storage>
