<?xml version="1.0"?>
<opencv_storage>
<stage4>
  <maxWeakCount>13</maxWeakCount>
  <stageThreshold>-1.1558811664581299e+00</stageThreshold>
  <weakClassifiers>
    <_>
      <internalNodes>
        0 -1 65858 2.5729447603225708e-02</internalNodes>
      <leafValues>
        -8.6806595325469971e-01 4.7383111715316772e-01</leafValues></_>
    <_>
      <internalNodes>
        0 -1 125853 4.0388092398643494e-02</internalNodes>
      <leafValues>
        -3.8279885053634644e-01 7.9405629634857178e-01</leafValues></_>
    <_>
      <internalNodes>
        0 -1 86323 -1.3304967069416307e-05</internalNodes>
      <leafValues>
        -7.9612720012664795e-01 3.4096959233283997e-01</leafValues></_>
    <_>
      <internalNodes>
        0 -1 146080 -3.1385757029056549e-02</internalNodes>
      <leafValues>
        4.4233259558677673e-01 -6.1356204748153687e-01</leafValues></_>
    <_>
      <internalNodes>
        0 -1 103165 5.4675841965945438e-05</internalNodes>
      <leafValues>
        2.6487228274345398e-01 -8.8203936815261841e-01</leafValues></_>
    <_>
      <internalNodes>
        0 -1 95726 1.4735080185346305e-05</internalNodes>
      <leafValues>
        2.0922832190990448e-01 -8.1941384077072144e-01</leafValues></_>
    <_>
      <internalNodes>
        0 -1 5200 1.5667745843529701e-02</internalNodes>
      <leafValues>
        -4.2913904786109924e-01 5.2536380290985107e-01</leafValues></_>
    <_>
      <internalNodes>
        0 -1 67688 3.3786636777222157e-05</internalNodes>
      <leafValues>
        2.8859454393386841e-01 -8.1868696212768555e-01</leafValues></_>
    <_>
      <internalNodes>
        0 -1 118658 7.7537180914077908e-05</internalNodes>
      <leafValues>
        -8.6649942398071289e-01 1.9777724146842957e-01</leafValues></_>
    <_>
      <internalNodes>
        0 -1 95193 2.8623429898289032e-05</internalNodes>
      <leafValues>
        1.4838416874408722e-01 -8.6763882637023926e-01</leafValues></_>
    <_>
      <internalNodes>
        0 -1 151029 7.1094194427132607e-03</internalNodes>
      <leafValues>
        -3.2216006517410278e-01 5.9293073415756226e-01</leafValues></_>
    <_>
      <internalNodes>
        0 -1 125232 -3.6128275096416473e-02</internalNodes>
      <leafValues>
        7.4477756023406982e-01 -2.9320070147514343e-01</leafValues></_>
    <_>
      <internalNodes>
        0 -1 103283 -3.6555903498083353e-03</internalNodes>
      <leafValues>
        5.6531226634979248e-01 -3.8966339826583862e-01</leafValues></_></weakClassifiers></stage4>
</opencv_storage>
