<?xml version="1.0"?>
<opencv_storage>
<stage7>
  <maxWeakCount>11</maxWeakCount>
  <stageThreshold>-8.6401200294494629e-01</stageThreshold>
  <weakClassifiers>
    <_>
      <internalNodes>
        0 -1 119425 1.5649889974156395e-05</internalNodes>
      <leafValues>
        -6.7832165956497192e-01 5.4911434650421143e-01</leafValues></_>
    <_>
      <internalNodes>
        0 -1 111459 1.6161275198101066e-05</internalNodes>
      <leafValues>
        -8.7487834692001343e-01 2.5718507170677185e-01</leafValues></_>
    <_>
      <internalNodes>
        0 -1 110630 3.8080392405390739e-03</internalNodes>
      <leafValues>
        1.8521550297737122e-01 -8.3450877666473389e-01</leafValues></_>
    <_>
      <internalNodes>
        0 -1 85814 -1.3106749975122511e-05</internalNodes>
      <leafValues>
        3.6800676584243774e-01 -5.2185106277465820e-01</leafValues></_>
    <_>
      <internalNodes>
        0 -1 84980 2.9532369226217270e-02</internalNodes>
      <leafValues>
        2.1381187438964844e-01 -9.7421848773956299e-01</leafValues></_>
    <_>
      <internalNodes>
        0 -1 88110 7.4695883085951209e-04</internalNodes>
      <leafValues>
        -4.8005628585815430e-01 4.8773998022079468e-01</leafValues></_>
    <_>
      <internalNodes>
        0 -1 137102 -8.3888713270425797e-03</internalNodes>
      <leafValues>
        5.9358572959899902e-01 -3.2271900773048401e-01</leafValues></_>
    <_>
      <internalNodes>
        0 -1 31864 3.4699146635830402e-04</internalNodes>
      <leafValues>
        -2.5604966282844543e-01 7.5633049011230469e-01</leafValues></_>
    <_>
      <internalNodes>
        0 -1 35410 -1.4291224943008274e-05</internalNodes>
      <leafValues>
        6.0112154483795166e-01 -2.7830207347869873e-01</leafValues></_>
    <_>
      <internalNodes>
        0 -1 98269 -1.3545476576837245e-05</internalNodes>
      <leafValues>
        5.6097066402435303e-01 -2.9524949193000793e-01</leafValues></_>
    <_>
      <internalNodes>
        0 -1 159361 -3.0784300179220736e-05</internalNodes>
      <leafValues>
        5.9407824277877808e-01 -2.4596314132213593e-01</leafValues></_></weakClassifiers></stage7>
</opencv_storage>
