<?xml version="1.0"?>
<opencv_storage>
<stage5>
  <maxWeakCount>12</maxWeakCount>
  <stageThreshold>-9.6302312612533569e-01</stageThreshold>
  <weakClassifiers>
    <_>
      <internalNodes>
        0 -1 34830 -3.8851745426654816e-02</internalNodes>
      <leafValues>
        3.8980716466903687e-01 -7.1913582086563110e-01</leafValues></_>
    <_>
      <internalNodes>
        0 -1 102818 4.4530592276714742e-05</internalNodes>
      <leafValues>
        2.4370902776718140e-01 -8.6022806167602539e-01</leafValues></_>
    <_>
      <internalNodes>
        0 -1 125085 1.7576894606463611e-04</internalNodes>
      <leafValues>
        -8.7693589925765991e-01 2.4548561871051788e-01</leafValues></_>
    <_>
      <internalNodes>
        0 -1 86417 7.7611271990463138e-05</internalNodes>
      <leafValues>
        2.1828901767730713e-01 -8.8293945789337158e-01</leafValues></_>
    <_>
      <internalNodes>
        0 -1 103216 5.4987936891848221e-05</internalNodes>
      <leafValues>
        1.3356997072696686e-01 -8.9220541715621948e-01</leafValues></_>
    <_>
      <internalNodes>
        0 -1 132322 6.6870609298348427e-03</internalNodes>
      <leafValues>
        -3.4266856312751770e-01 6.7457646131515503e-01</leafValues></_>
    <_>
      <internalNodes>
        0 -1 81401 2.1653372049331665e-01</internalNodes>
      <leafValues>
        -4.9116131663322449e-01 4.3805435299873352e-01</leafValues></_>
    <_>
      <internalNodes>
        0 -1 153758 4.3200245127081871e-03</internalNodes>
      <leafValues>
        -3.4787723422050476e-01 6.6679817438125610e-01</leafValues></_>
    <_>
      <internalNodes>
        0 -1 77800 3.0266095564002171e-05</internalNodes>
      <leafValues>
        2.7822387218475342e-01 -8.1279659271240234e-01</leafValues></_>
    <_>
      <internalNodes>
        0 -1 102744 1.4338035725813825e-05</internalNodes>
      <leafValues>
        -6.7572301626205444e-01 2.4550881981849670e-01</leafValues></_>
    <_>
      <internalNodes>
        0 -1 55925 1.2349181622266769e-01</internalNodes>
      <leafValues>
        2.0313109457492828e-01 -8.9772880077362061e-01</leafValues></_>
    <_>
      <internalNodes>
        0 -1 137900 -8.7142419070005417e-03</internalNodes>
      <leafValues>
        5.6965088844299316e-01 -3.5033875703811646e-01</leafValues></_></weakClassifiers></stage5>
</opencv_storage>
