<?xml version="1.0"?>
<opencv_storage>
<stage9>
  <maxWeakCount>17</maxWeakCount>
  <stageThreshold>-9.0513640642166138e-01</stageThreshold>
  <weakClassifiers>
    <_>
      <internalNodes>
        0 -1 111888 1.4257801696658134e-02</internalNodes>
      <leafValues>
        2.9411765933036804e-01 -7.3705178499221802e-01</leafValues></_>
    <_>
      <internalNodes>
        0 -1 103199 1.4703069609822705e-05</internalNodes>
      <leafValues>
        -7.1799796819686890e-01 2.3516200482845306e-01</leafValues></_>
    <_>
      <internalNodes>
        0 -1 118029 3.1901156762614846e-04</internalNodes>
      <leafValues>
        2.1710944175720215e-01 -8.2709515094757080e-01</leafValues></_>
    <_>
      <internalNodes>
        0 -1 87191 1.8999417079612613e-04</internalNodes>
      <leafValues>
        2.1680040657520294e-01 -7.8417414426803589e-01</leafValues></_>
    <_>
      <internalNodes>
        0 -1 117898 1.3872669114789460e-05</internalNodes>
      <leafValues>
        -9.3155372142791748e-01 1.3260985910892487e-01</leafValues></_>
    <_>
      <internalNodes>
        0 -1 86294 -4.1162519482895732e-04</internalNodes>
      <leafValues>
        -7.8019630908966064e-01 1.6247616708278656e-01</leafValues></_>
    <_>
      <internalNodes>
        0 -1 97230 7.4103963561356068e-04</internalNodes>
      <leafValues>
        -2.9122558236122131e-01 5.4040485620498657e-01</leafValues></_>
    <_>
      <internalNodes>
        0 -1 112882 -1.7766553908586502e-02</internalNodes>
      <leafValues>
        7.6056581735610962e-01 -2.0950318872928619e-01</leafValues></_>
    <_>
      <internalNodes>
        0 -1 40520 1.9339908659458160e-01</internalNodes>
      <leafValues>
        -4.2437252402305603e-01 3.8537585735321045e-01</leafValues></_>
    <_>
      <internalNodes>
        0 -1 68418 -2.2106481992523186e-05</internalNodes>
      <leafValues>
        3.3031859993934631e-01 -4.8004332184791565e-01</leafValues></_>
    <_>
      <internalNodes>
        0 -1 95338 2.7226988459005952e-04</internalNodes>
      <leafValues>
        1.8347425758838654e-01 -9.8761558532714844e-01</leafValues></_>
    <_>
      <internalNodes>
        0 -1 35839 -1.5252721823344473e-05</internalNodes>
      <leafValues>
        4.2544040083885193e-01 -3.7071424722671509e-01</leafValues></_>
    <_>
      <internalNodes>
        0 -1 112516 -2.1077739074826241e-03</internalNodes>
      <leafValues>
        -8.2052075862884521e-01 2.2444905340671539e-01</leafValues></_>
    <_>
      <internalNodes>
        0 -1 156799 4.2289569973945618e-03</internalNodes>
      <leafValues>
        -2.6697701215744019e-01 7.5092720985412598e-01</leafValues></_>
    <_>
      <internalNodes>
        0 -1 21388 8.7443329393863678e-02</internalNodes>
      <leafValues>
        1.9039647281169891e-01 -8.8315880298614502e-01</leafValues></_>
    <_>
      <internalNodes>
        0 -1 157185 1.4504329556075390e-05</internalNodes>
      <leafValues>
        -3.1687822937965393e-01 4.9755477905273438e-01</leafValues></_>
    <_>
      <internalNodes>
        0 -1 94766 -4.9969956307904795e-05</internalNodes>
      <leafValues>
        -7.5514334440231323e-01 1.9273838400840759e-01</leafValues></_></weakClassifiers></stage9>
</opencv_storage>
