<?xml version="1.0"?>
<opencv_storage>
<stage3>
  <maxWeakCount>10</maxWeakCount>
  <stageThreshold>-1.0120460987091064e+00</stageThreshold>
  <weakClassifiers>
    <_>
      <internalNodes>
        0 -1 43821 -1.2251862790435553e-03</internalNodes>
      <leafValues>
        -9.1117691993713379e-01 5.9746932983398438e-01</leafValues></_>
    <_>
      <internalNodes>
        0 -1 11277 -5.5757004767656326e-02</internalNodes>
      <leafValues>
        6.6665136814117432e-01 -7.2170591354370117e-01</leafValues></_>
    <_>
      <internalNodes>
        0 -1 140589 -4.6544514596462250e-02</internalNodes>
      <leafValues>
        6.1098659038543701e-01 -6.8165653944015503e-01</leafValues></_>
    <_>
      <internalNodes>
        0 -1 121355 -3.2719585578888655e-04</internalNodes>
      <leafValues>
        4.3128776550292969e-01 -8.7986040115356445e-01</leafValues></_>
    <_>
      <internalNodes>
        0 -1 85784 -3.7514281575568020e-04</internalNodes>
      <leafValues>
        -9.5892602205276489e-01 3.5278943181037903e-01</leafValues></_>
    <_>
      <internalNodes>
        0 -1 133430 -2.0388152915984392e-04</internalNodes>
      <leafValues>
        -9.4377106428146362e-01 3.3132353425025940e-01</leafValues></_>
    <_>
      <internalNodes>
        0 -1 133430 2.2840438759885728e-04</internalNodes>
      <leafValues>
        2.6026672124862671e-01 -9.5099389553070068e-01</leafValues></_>
    <_>
      <internalNodes>
        0 -1 128011 7.0668132975697517e-03</internalNodes>
      <leafValues>
        -6.2652319669723511e-01 5.7800173759460449e-01</leafValues></_>
    <_>
      <internalNodes>
        0 -1 92344 -2.2149083670228720e-03</internalNodes>
      <leafValues>
        3.1028476357460022e-01 -9.6798944473266602e-01</leafValues></_>
    <_>
      <internalNodes>
        0 -1 93180 -4.9698306247591972e-04</internalNodes>
      <leafValues>
        -9.9323159456253052e-01 2.4306416511535645e-01</leafValues></_></weakClassifiers></stage3>
</opencv_storage>
