<?xml version="1.0"?>
<opencv_storage>
<stage9>
  <maxWeakCount>13</maxWeakCount>
  <stageThreshold>-6.4048689603805542e-01</stageThreshold>
  <weakClassifiers>
    <_>
      <internalNodes>
        0 -1 111576 1.0479785123607144e-04</internalNodes>
      <leafValues>
        2.6772114634513855e-01 -9.0839695930480957e-01</leafValues></_>
    <_>
      <internalNodes>
        0 -1 102928 5.6051336287055165e-05</internalNodes>
      <leafValues>
        1.9351111352443695e-01 -8.4369885921478271e-01</leafValues></_>
    <_>
      <internalNodes>
        0 -1 105219 1.5295804478228092e-03</internalNodes>
      <leafValues>
        -3.9348629117012024e-01 5.1752173900604248e-01</leafValues></_>
    <_>
      <internalNodes>
        0 -1 38881 2.3095059394836426e-01</internalNodes>
      <leafValues>
        -5.4948842525482178e-01 3.6319032311439514e-01</leafValues></_>
    <_>
      <internalNodes>
        0 -1 102251 3.6110833752900362e-03</internalNodes>
      <leafValues>
        2.5029358267784119e-01 -8.3922767639160156e-01</leafValues></_>
    <_>
      <internalNodes>
        0 -1 95421 7.7189959585666656e-02</internalNodes>
      <leafValues>
        1.2541048228740692e-01 -9.2642700672149658e-01</leafValues></_>
    <_>
      <internalNodes>
        0 -1 100559 -2.7770603992394172e-05</internalNodes>
      <leafValues>
        5.2703744173049927e-01 -3.0321419239044189e-01</leafValues></_>
    <_>
      <internalNodes>
        0 -1 82885 2.8414444386726245e-05</internalNodes>
      <leafValues>
        -3.0996719002723694e-01 4.9682402610778809e-01</leafValues></_>
    <_>
      <internalNodes>
        0 -1 85885 -6.5558982896618545e-05</internalNodes>
      <leafValues>
        -7.3943716287612915e-01 2.4072793126106262e-01</leafValues></_>
    <_>
      <internalNodes>
        0 -1 85890 1.5471872757188976e-04</internalNodes>
      <leafValues>
        1.4040939509868622e-01 -7.5157302618026733e-01</leafValues></_>
    <_>
      <internalNodes>
        0 -1 111052 -2.5611883029341698e-03</internalNodes>
      <leafValues>
        -7.3307669162750244e-01 2.1050818264484406e-01</leafValues></_>
    <_>
      <internalNodes>
        0 -1 156561 5.8669773861765862e-03</internalNodes>
      <leafValues>
        -2.4990396201610565e-01 7.0196712017059326e-01</leafValues></_>
    <_>
      <internalNodes>
        0 -1 110629 2.2355585824698210e-03</internalNodes>
      <leafValues>
        2.1340960264205933e-01 -9.3669331073760986e-01</leafValues></_></weakClassifiers></stage9>
</opencv_storage>
