<?xml version="1.0"?>
<opencv_storage>
<stage7>
  <maxWeakCount>12</maxWeakCount>
  <stageThreshold>-9.0472924709320068e-01</stageThreshold>
  <weakClassifiers>
    <_>
      <internalNodes>
        0 -1 104766 1.4703069609822705e-05</internalNodes>
      <leafValues>
        -7.2890025377273560e-01 5.0834596157073975e-01</leafValues></_>
    <_>
      <internalNodes>
        0 -1 144275 -2.3593794554471970e-02</internalNodes>
      <leafValues>
        5.0616204738616943e-01 -5.8747315406799316e-01</leafValues></_>
    <_>
      <internalNodes>
        0 -1 143591 1.5881110812188126e-05</internalNodes>
      <leafValues>
        -3.8199025392532349e-01 5.4613137245178223e-01</leafValues></_>
    <_>
      <internalNodes>
        0 -1 117896 -1.3866486369806807e-05</internalNodes>
      <leafValues>
        3.4736451506614685e-01 -5.5366808176040649e-01</leafValues></_>
    <_>
      <internalNodes>
        0 -1 31864 1.2587923265527934e-05</internalNodes>
      <leafValues>
        -2.9277366399765015e-01 5.9326136112213135e-01</leafValues></_>
    <_>
      <internalNodes>
        0 -1 31864 -1.0855295113287866e-04</internalNodes>
      <leafValues>
        7.3503720760345459e-01 -3.5199722647666931e-01</leafValues></_>
    <_>
      <internalNodes>
        0 -1 20348 1.2695597484707832e-02</internalNodes>
      <leafValues>
        -2.2179758548736572e-01 7.1893042325973511e-01</leafValues></_>
    <_>
      <internalNodes>
        0 -1 104045 -1.3106749975122511e-05</internalNodes>
      <leafValues>
        3.8656446337699890e-01 -4.6088716387748718e-01</leafValues></_>
    <_>
      <internalNodes>
        0 -1 95809 5.4122023284435272e-02</internalNodes>
      <leafValues>
        2.0916382968425751e-01 -9.1854190826416016e-01</leafValues></_>
    <_>
      <internalNodes>
        0 -1 69636 1.9265204173279926e-05</internalNodes>
      <leafValues>
        -3.9009210467338562e-01 5.2794981002807617e-01</leafValues></_>
    <_>
      <internalNodes>
        0 -1 59204 -9.0331770479679108e-04</internalNodes>
      <leafValues>
        8.1044799089431763e-01 -1.8471626937389374e-01</leafValues></_>
    <_>
      <internalNodes>
        0 -1 130952 1.5626395121216774e-02</internalNodes>
      <leafValues>
        -1.7651385068893433e-01 8.2257986068725586e-01</leafValues></_></weakClassifiers></stage7>
</opencv_storage>
