<?xml version="1.0"?>
<opencv_storage>
<stage5>
  <maxWeakCount>9</maxWeakCount>
  <stageThreshold>-9.1101050376892090e-01</stageThreshold>
  <weakClassifiers>
    <_>
      <internalNodes>
        0 -1 122813 9.8088413476943970e-02</internalNodes>
      <leafValues>
        -7.7150535583496094e-01 4.9705013632774353e-01</leafValues></_>
    <_>
      <internalNodes>
        0 -1 140259 -3.8761764764785767e-02</internalNodes>
      <leafValues>
        4.9611076712608337e-01 -5.9423011541366577e-01</leafValues></_>
    <_>
      <internalNodes>
        0 -1 118287 2.9231893131509423e-04</internalNodes>
      <leafValues>
        -9.1023039817810059e-01 2.4116817116737366e-01</leafValues></_>
    <_>
      <internalNodes>
        0 -1 153166 4.7149881720542908e-03</internalNodes>
      <leafValues>
        -3.9686030149459839e-01 6.4791506528854370e-01</leafValues></_>
    <_>
      <internalNodes>
        0 -1 86323 1.0139795631403103e-04</internalNodes>
      <leafValues>
        2.3771826922893524e-01 -9.2587733268737793e-01</leafValues></_>
    <_>
      <internalNodes>
        0 -1 120263 1.3763757422566414e-02</internalNodes>
      <leafValues>
        -4.2030513286590576e-01 5.2530753612518311e-01</leafValues></_>
    <_>
      <internalNodes>
        0 -1 131859 -1.5942210331559181e-02</internalNodes>
      <leafValues>
        8.6486876010894775e-01 -3.0456891655921936e-01</leafValues></_>
    <_>
      <internalNodes>
        0 -1 132362 1.3767050579190254e-02</internalNodes>
      <leafValues>
        -2.3007202148437500e-01 8.2673650979995728e-01</leafValues></_>
    <_>
      <internalNodes>
        0 -1 64615 1.7733395099639893e-02</internalNodes>
      <leafValues>
        -9.2225998640060425e-01 2.7702751755714417e-01</leafValues></_></weakClassifiers></stage5>
</opencv_storage>
