<?xml version="1.0"?>
<opencv_storage>
<cascade>
  <stageType>BOOST</stageType>
  <featureType>HAAR</featureType>
  <height>24</height>
  <width>24</width>
  <stageParams>
    <boostType>GAB</boostType>
    <minHitRate>9.9900001287460327e-01</minHitRate>
    <maxFalseAlarm>2.0000000298023224e-01</maxFalseAlarm>
    <weightTrimRate>9.4999999999999996e-01</weightTrimRate>
    <maxDepth>1</maxDepth>
    <maxWeakCount>100</maxWeakCount></stageParams>
  <featureParams>
    <maxCatCount>0</maxCatCount>
    <featSize>1</featSize>
    <mode>BASIC</mode></featureParams>
  <stageNum>12</stageNum>
  <stages>
    <!-- stage 0 -->
    <_>
      <maxWeakCount>8</maxWeakCount>
      <stageThreshold>-1.4954979419708252e+00</stageThreshold>
      <weakClassifiers>
        <_>
          <internalNodes>
            0 -1 143 -4.9267187714576721e-02</internalNodes>
          <leafValues>
            8.3444339036941528e-01 -8.2902139425277710e-01</leafValues></_>
        <_>
          <internalNodes>
            0 -1 91 5.6085428223013878e-03</internalNodes>
          <leafValues>
            -9.3659693002700806e-01 4.6760499477386475e-01</leafValues></_>
        <_>
          <internalNodes>
            0 -1 112 -2.4661302566528320e-02</internalNodes>
          <leafValues>
            8.1537699699401855e-01 -4.9043262004852295e-01</leafValues></_>
        <_>
          <internalNodes>
            0 -1 76 2.7391215553507209e-05</internalNodes>
          <leafValues>
            3.7160205841064453e-01 -9.5398616790771484e-01</leafValues></_>
        <_>
          <internalNodes>
            0 -1 76 -1.2025082469335757e-05</internalNodes>
          <leafValues>
            -9.4353902339935303e-01 5.2421689033508301e-01</leafValues></_>
        <_>
          <internalNodes>
            0 -1 95 1.2971782780368812e-05</internalNodes>
          <leafValues>
            1.9667138159275055e-01 -9.0835797786712646e-01</leafValues></_>
        <_>
          <internalNodes>
            0 -1 95 -2.5482611818006262e-05</internalNodes>
          <leafValues>
            -8.5501551628112793e-01 3.3768489956855774e-01</leafValues></_>
        <_>
          <internalNodes>
            0 -1 163 -3.9431296288967133e-02</internalNodes>
          <leafValues>
            5.8663213253021240e-01 -5.3240591287612915e-01</leafValues></_></weakClassifiers></_>
    <!-- stage 1 -->
    <_>
      <maxWeakCount>11</maxWeakCount>
      <stageThreshold>-1.3198924064636230e+00</stageThreshold>
      <weakClassifiers>
        <_>
          <internalNodes>
            0 -1 145 9.4003967940807343e-02</internalNodes>
          <leafValues>
            -6.6887414455413818e-01 7.2146999835968018e-01</leafValues></_>
        <_>
          <internalNodes>
            0 -1 48 2.7559546651900746e-05</internalNodes>
          <leafValues>
            4.1849827766418457e-01 -8.8632357120513916e-01</leafValues></_>
        <_>
          <internalNodes>
            0 -1 48 -4.1646064346423373e-05</internalNodes>
          <leafValues>
            -7.9474991559982300e-01 3.8830354809761047e-01</leafValues></_>
        <_>
          <internalNodes>
            0 -1 155 -2.6446931064128876e-02</internalNodes>
          <leafValues>
            8.4611541032791138e-01 -4.5187151432037354e-01</leafValues></_>
        <_>
          <internalNodes>
            0 -1 43 4.5732966100331396e-05</internalNodes>
          <leafValues>
            3.8621920347213745e-01 -9.0157854557037354e-01</leafValues></_>
        <_>
          <internalNodes>
            0 -1 82 -2.8774080419680104e-05</internalNodes>
          <leafValues>
            -9.4000411033630371e-01 2.7050930261611938e-01</leafValues></_>
        <_>
          <internalNodes>
            0 -1 56 -3.8557831430807710e-05</internalNodes>
          <leafValues>
            -7.8921991586685181e-01 2.8199183940887451e-01</leafValues></_>
        <_>
          <internalNodes>
            0 -1 56 3.6457582609727979e-05</internalNodes>
          <leafValues>
            2.3073533177375793e-01 -7.9411458969116211e-01</leafValues></_>
        <_>
          <internalNodes>
            0 -1 154 -1.2371897697448730e-02</internalNodes>
          <leafValues>
            5.1236057281494141e-01 -4.7328862547874451e-01</leafValues></_>
        <_>
          <internalNodes>
            0 -1 110 4.1157727537211031e-05</internalNodes>
          <leafValues>
            3.5407137870788574e-01 -8.6082190275192261e-01</leafValues></_>
        <_>
          <internalNodes>
            0 -1 166 4.1356380097568035e-03</internalNodes>
          <leafValues>
            -4.0963301062583923e-01 6.2199515104293823e-01</leafValues></_></weakClassifiers></_>
    <!-- stage 2 -->
    <_>
      <maxWeakCount>11</maxWeakCount>
      <stageThreshold>-1.1134785413742065e+00</stageThreshold>
      <weakClassifiers>
        <_>
          <internalNodes>
            0 -1 148 3.9878688752651215e-02</internalNodes>
          <leafValues>
            -5.4981547594070435e-01 6.6717094182968140e-01</leafValues></_>
        <_>
          <internalNodes>
            0 -1 108 -4.0592640289105475e-05</internalNodes>
          <leafValues>
            -8.3546185493469238e-01 4.2608481645584106e-01</leafValues></_>
        <_>
          <internalNodes>
            0 -1 53 -1.2017871995340101e-05</internalNodes>
          <leafValues>
            -8.5222154855728149e-01 3.2622778415679932e-01</leafValues></_>
        <_>
          <internalNodes>
            0 -1 152 5.7254780083894730e-02</internalNodes>
          <leafValues>
            -5.1009845733642578e-01 5.2895623445510864e-01</leafValues></_>
        <_>
          <internalNodes>
            0 -1 94 3.1701027182862163e-05</internalNodes>
          <leafValues>
            2.9012238979339600e-01 -8.6293745040893555e-01</leafValues></_>
        <_>
          <internalNodes>
            0 -1 130 -1.9061110913753510e-02</internalNodes>
          <leafValues>
            7.2057485580444336e-01 -4.0061652660369873e-01</leafValues></_>
        <_>
          <internalNodes>
            0 -1 63 4.9776276573538780e-03</internalNodes>
          <leafValues>
            -9.2431730031967163e-01 2.9716101288795471e-01</leafValues></_>
        <_>
          <internalNodes>
            0 -1 92 -1.3836808648193255e-05</internalNodes>
          <leafValues>
            -7.7779567241668701e-01 2.5646302103996277e-01</leafValues></_>
        <_>
          <internalNodes>
            0 -1 54 4.5388740545604378e-05</internalNodes>
          <leafValues>
            1.9048604369163513e-01 -8.2083094120025635e-01</leafValues></_>
        <_>
          <internalNodes>
            0 -1 167 1.2606725096702576e-02</internalNodes>
          <leafValues>
            -3.3985522389411926e-01 6.4989453554153442e-01</leafValues></_>
        <_>
          <internalNodes>
            0 -1 5 -3.4434206783771515e-02</internalNodes>
          <leafValues>
            3.4433236718177795e-01 -6.7911654710769653e-01</leafValues></_></weakClassifiers></_>
    <!-- stage 3 -->
    <_>
      <maxWeakCount>14</maxWeakCount>
      <stageThreshold>-1.4158217906951904e+00</stageThreshold>
      <weakClassifiers>
        <_>
          <internalNodes>
            0 -1 68 1.4144599845167249e-05</internalNodes>
          <leafValues>
            3.8792219758033752e-01 -9.0305584669113159e-01</leafValues></_>
        <_>
          <internalNodes>
            0 -1 72 -4.3772182834800333e-05</internalNodes>
          <leafValues>
            -8.4746158123016357e-01 3.3856797218322754e-01</leafValues></_>
        <_>
          <internalNodes>
            0 -1 126 3.9508111774921417e-02</internalNodes>
          <leafValues>
            -5.2512621879577637e-01 5.5198466777801514e-01</leafValues></_>
        <_>
          <internalNodes>
            0 -1 49 3.0889554182067513e-05</internalNodes>
          <leafValues>
            2.5917637348175049e-01 -8.3746141195297241e-01</leafValues></_>
        <_>
          <internalNodes>
            0 -1 49 -4.8378613428212702e-05</internalNodes>
          <leafValues>
            -7.0383423566818237e-01 4.1768282651901245e-01</leafValues></_>
        <_>
          <internalNodes>
            0 -1 51 8.6342040449380875e-03</internalNodes>
          <leafValues>
            -8.1181180477142334e-01 1.3881979882717133e-01</leafValues></_>
        <_>
          <internalNodes>
            0 -1 74 5.3042342187836766e-05</internalNodes>
          <leafValues>
            1.9700135290622711e-01 -8.4705728292465210e-01</leafValues></_>
        <_>
          <internalNodes>
            0 -1 138 -7.9228706657886505e-02</internalNodes>
          <leafValues>
            3.3308160305023193e-01 -5.2851748466491699e-01</leafValues></_>
        <_>
          <internalNodes>
            0 -1 81 -1.1199151049368083e-04</internalNodes>
          <leafValues>
            -8.6929631233215332e-01 2.0625898241996765e-01</leafValues></_>
        <_>
          <internalNodes>
            0 -1 2 2.1175075322389603e-02</internalNodes>
          <leafValues>
            -3.7446263432502747e-01 5.4642575979232788e-01</leafValues></_>
        <_>
          <internalNodes>
            0 -1 85 1.5480434522032738e-03</internalNodes>
          <leafValues>
            -3.2553440332412720e-01 5.1960235834121704e-01</leafValues></_>
        <_>
          <internalNodes>
            0 -1 141 -3.2135847955942154e-02</internalNodes>
          <leafValues>
            8.2681751251220703e-01 -2.3440094292163849e-01</leafValues></_>
        <_>
          <internalNodes>
            0 -1 97 6.0830032452940941e-05</internalNodes>
          <leafValues>
            3.9306810498237610e-01 -4.3353816866874695e-01</leafValues></_>
        <_>
          <internalNodes>
            0 -1 102 1.4360720342665445e-05</internalNodes>
          <leafValues>
            2.7610123157501221e-01 -6.2032634019851685e-01</leafValues></_></weakClassifiers></_>
    <!-- stage 4 -->
    <_>
      <maxWeakCount>10</maxWeakCount>
      <stageThreshold>-1.3886179924011230e+00</stageThreshold>
      <weakClassifiers>
        <_>
          <internalNodes>
            0 -1 47 1.8244538456201553e-02</internalNodes>
          <leafValues>
            -9.1940897703170776e-01 6.8966960906982422e-01</leafValues></_>
        <_>
          <internalNodes>
            0 -1 149 6.0158379375934601e-02</internalNodes>
          <leafValues>
            -5.4721224308013916e-01 7.9533904790878296e-01</leafValues></_>
        <_>
          <internalNodes>
            0 -1 122 2.0013187895528972e-04</internalNodes>
          <leafValues>
            -9.0067619085311890e-01 4.1178667545318604e-01</leafValues></_>
        <_>
          <internalNodes>
            0 -1 38 7.1128331124782562e-02</internalNodes>
          <leafValues>
            -6.7619270086288452e-01 3.4338611364364624e-01</leafValues></_>
        <_>
          <internalNodes>
            0 -1 83 -8.8716056197881699e-03</internalNodes>
          <leafValues>
            -8.1108516454696655e-01 2.7047035098075867e-01</leafValues></_>
        <_>
          <internalNodes>
            0 -1 117 1.4960746467113495e-01</internalNodes>
          <leafValues>
            -3.7563079595565796e-01 6.0475832223892212e-01</leafValues></_>
        <_>
          <internalNodes>
            0 -1 136 3.5101940738968551e-05</internalNodes>
          <leafValues>
            -7.2930544614791870e-01 3.4724834561347961e-01</leafValues></_>
        <_>
          <internalNodes>
            0 -1 165 1.6710568219423294e-02</internalNodes>
          <leafValues>
            -3.9254021644592285e-01 5.8814787864685059e-01</leafValues></_>
        <_>
          <internalNodes>
            0 -1 18 1.6620379686355591e-01</internalNodes>
          <leafValues>
            2.7766823768615723e-01 -9.2493087053298950e-01</leafValues></_>
        <_>
          <internalNodes>
            0 -1 40 9.6271142363548279e-02</internalNodes>
          <leafValues>
            -3.7644609808921814e-01 7.8129768371582031e-01</leafValues></_></weakClassifiers></_>
    <!-- stage 5 -->
    <_>
      <maxWeakCount>17</maxWeakCount>
      <stageThreshold>-1.2868361473083496e+00</stageThreshold>
      <weakClassifiers>
        <_>
          <internalNodes>
            0 -1 59 5.6674660299904644e-05</internalNodes>
          <leafValues>
            4.2127966880798340e-01 -8.1238615512847900e-01</leafValues></_>
        <_>
          <internalNodes>
            0 -1 52 -6.9763526320457458e-02</internalNodes>
          <leafValues>
            2.9721432924270630e-01 -7.4783629179000854e-01</leafValues></_>
        <_>
          <internalNodes>
            0 -1 105 7.9450284829363227e-05</internalNodes>
          <leafValues>
            2.8403979539871216e-01 -8.9176267385482788e-01</leafValues></_>
        <_>
          <internalNodes>
            0 -1 107 5.4956195526756346e-05</internalNodes>
          <leafValues>
            1.6730946302413940e-01 -9.1721785068511963e-01</leafValues></_>
        <_>
          <internalNodes>
            0 -1 109 1.5995432477211580e-05</internalNodes>
          <leafValues>
            -8.1865984201431274e-01 1.9732998311519623e-01</leafValues></_>
        <_>
          <internalNodes>
            0 -1 77 -1.0359240695834160e-02</internalNodes>
          <leafValues>
            5.8730888366699219e-01 -3.8656285405158997e-01</leafValues></_>
        <_>
          <internalNodes>
            0 -1 46 3.7231999158393592e-05</internalNodes>
          <leafValues>
            2.5545683503150940e-01 -7.3982560634613037e-01</leafValues></_>
        <_>
          <internalNodes>
            0 -1 90 -2.5954688899219036e-03</internalNodes>
          <leafValues>
            -7.7736634016036987e-01 1.8506327271461487e-01</leafValues></_>
        <_>
          <internalNodes>
            0 -1 70 -1.0538155947870109e-05</internalNodes>
          <leafValues>
            -7.6272541284561157e-01 1.8805521726608276e-01</leafValues></_>
        <_>
          <internalNodes>
            0 -1 95 8.4085280832368881e-05</internalNodes>
          <leafValues>
            1.2951605021953583e-01 -9.1427719593048096e-01</leafValues></_>
        <_>
          <internalNodes>
            0 -1 1 -7.0583477616310120e-02</internalNodes>
          <leafValues>
            3.5834723711013794e-01 -4.4976866245269775e-01</leafValues></_>
        <_>
          <internalNodes>
            0 -1 0 1.0009535402059555e-01</internalNodes>
          <leafValues>
            -3.8021117448806763e-01 3.7013837695121765e-01</leafValues></_>
        <_>
          <internalNodes>
            0 -1 34 -6.6820852225646377e-05</internalNodes>
          <leafValues>
            3.2818904519081116e-01 -4.6534782648086548e-01</leafValues></_>
        <_>
          <internalNodes>
            0 -1 76 7.3652423452585936e-05</internalNodes>
          <leafValues>
            1.6007339954376221e-01 -8.3554518222808838e-01</leafValues></_>
        <_>
          <internalNodes>
            0 -1 125 -3.0718881171196699e-03</internalNodes>
          <leafValues>
            -8.4485721588134766e-01 1.2041360139846802e-01</leafValues></_>
        <_>
          <internalNodes>
            0 -1 137 1.4625357289332896e-04</internalNodes>
          <leafValues>
            -7.1873277425765991e-01 1.6209131479263306e-01</leafValues></_>
        <_>
          <internalNodes>
            0 -1 8 4.7808192903175950e-04</internalNodes>
          <leafValues>
            -3.7776538729667664e-01 3.5086080431938171e-01</leafValues></_></weakClassifiers></_>
    <!-- stage 6 -->
    <_>
      <maxWeakCount>17</maxWeakCount>
      <stageThreshold>-1.1396216154098511e+00</stageThreshold>
      <weakClassifiers>
        <_>
          <internalNodes>
            0 -1 12 7.6815813779830933e-02</internalNodes>
          <leafValues>
            -5.3940135240554810e-01 5.1850199699401855e-01</leafValues></_>
        <_>
          <internalNodes>
            0 -1 147 5.8507616631686687e-04</internalNodes>
          <leafValues>
            -6.5581893920898438e-01 3.4663978219032288e-01</leafValues></_>
        <_>
          <internalNodes>
            0 -1 73 3.0320425139507279e-05</internalNodes>
          <leafValues>
            2.0691159367561340e-01 -8.8384634256362915e-01</leafValues></_>
        <_>
          <internalNodes>
            0 -1 78 1.2529987543530297e-05</internalNodes>
          <leafValues>
            1.7104507982730865e-01 -8.5680156946182251e-01</leafValues></_>
        <_>
          <internalNodes>
            0 -1 104 2.8656002541538328e-05</internalNodes>
          <leafValues>
            -7.8428417444229126e-01 1.4448893070220947e-01</leafValues></_>
        <_>
          <internalNodes>
            0 -1 103 -2.5790959625737742e-05</internalNodes>
          <leafValues>
            2.8621861338615417e-01 -5.5589431524276733e-01</leafValues></_>
        <_>
          <internalNodes>
            0 -1 89 1.2131281197071075e-02</internalNodes>
          <leafValues>
            1.5527890622615814e-01 -8.9342379570007324e-01</leafValues></_>
        <_>
          <internalNodes>
            0 -1 57 4.5054053771309555e-05</internalNodes>
          <leafValues>
            1.7985253036022186e-01 -8.1113076210021973e-01</leafValues></_>
        <_>
          <internalNodes>
            0 -1 168 2.1626731380820274e-02</internalNodes>
          <leafValues>
            -3.3519762754440308e-01 5.8296149969100952e-01</leafValues></_>
        <_>
          <internalNodes>
            0 -1 50 -7.3393464845139533e-05</internalNodes>
          <leafValues>
            -7.5172597169876099e-01 2.0027817785739899e-01</leafValues></_>
        <_>
          <internalNodes>
            0 -1 87 -2.1435178816318512e-02</internalNodes>
          <leafValues>
            -6.6810357570648193e-01 1.8913017213344574e-01</leafValues></_>
        <_>
          <internalNodes>
            0 -1 30 1.2688046693801880e-01</internalNodes>
          <leafValues>
            1.3674870133399963e-01 -9.2216402292251587e-01</leafValues></_>
        <_>
          <internalNodes>
            0 -1 142 -4.2759705334901810e-02</internalNodes>
          <leafValues>
            6.5949881076812744e-01 -2.4073876440525055e-01</leafValues></_>
        <_>
          <internalNodes>
            0 -1 61 -2.6967623853124678e-05</internalNodes>
          <leafValues>
            4.8785570263862610e-01 -4.5139393210411072e-01</leafValues></_>
        <_>
          <internalNodes>
            0 -1 33 -1.4539934454660397e-05</internalNodes>
          <leafValues>
            2.9251611232757568e-01 -5.1833981275558472e-01</leafValues></_>
        <_>
          <internalNodes>
            0 -1 62 1.1654786765575409e-01</internalNodes>
          <leafValues>
            -1.8944779038429260e-01 7.6783037185668945e-01</leafValues></_>
        <_>
          <internalNodes>
            0 -1 118 -2.8804433532059193e-04</internalNodes>
          <leafValues>
            4.7550284862518311e-01 -3.8265225291252136e-01</leafValues></_></weakClassifiers></_>
    <!-- stage 7 -->
    <_>
      <maxWeakCount>15</maxWeakCount>
      <stageThreshold>-1.3613373041152954e+00</stageThreshold>
      <weakClassifiers>
        <_>
          <internalNodes>
            0 -1 89 8.6787836626172066e-03</internalNodes>
          <leafValues>
            6.0031658411026001e-01 -9.1426461935043335e-01</leafValues></_>
        <_>
          <internalNodes>
            0 -1 144 -2.1118018776178360e-02</internalNodes>
          <leafValues>
            5.9515804052352905e-01 -4.6992975473403931e-01</leafValues></_>
        <_>
          <internalNodes>
            0 -1 161 -1.6114331083372235e-04</internalNodes>
          <leafValues>
            4.0377581119537354e-01 -5.7384771108627319e-01</leafValues></_>
        <_>
          <internalNodes>
            0 -1 7 2.1804970502853394e-01</internalNodes>
          <leafValues>
            -3.9547121524810791e-01 4.6212592720985413e-01</leafValues></_>
        <_>
          <internalNodes>
            0 -1 80 -3.3255881135119125e-05</internalNodes>
          <leafValues>
            -8.2772785425186157e-01 2.5378051400184631e-01</leafValues></_>
        <_>
          <internalNodes>
            0 -1 176 4.2615095153450966e-03</internalNodes>
          <leafValues>
            -2.6967912912368774e-01 7.3320931196212769e-01</leafValues></_>
        <_>
          <internalNodes>
            0 -1 80 1.3536316146200988e-05</internalNodes>
          <leafValues>
            2.0114599168300629e-01 -9.2386519908905029e-01</leafValues></_>
        <_>
          <internalNodes>
            0 -1 178 -4.2403787374496460e-03</internalNodes>
          <leafValues>
            7.0150631666183472e-01 -3.1299450993537903e-01</leafValues></_>
        <_>
          <internalNodes>
            0 -1 131 1.9857417792081833e-02</internalNodes>
          <leafValues>
            -1.8819324672222137e-01 7.5539833307266235e-01</leafValues></_>
        <_>
          <internalNodes>
            0 -1 157 -1.2465959414839745e-02</internalNodes>
          <leafValues>
            6.2683957815170288e-01 -2.9034903645515442e-01</leafValues></_>
        <_>
          <internalNodes>
            0 -1 75 -1.2947862160217483e-05</internalNodes>
          <leafValues>
            3.3780092000961304e-01 -4.8778879642486572e-01</leafValues></_>
        <_>
          <internalNodes>
            0 -1 96 -1.2789588254236151e-05</internalNodes>
          <leafValues>
            2.4133101105690002e-01 -4.9121496081352234e-01</leafValues></_>
        <_>
          <internalNodes>
            0 -1 150 6.2218416132964194e-05</internalNodes>
          <leafValues>
            2.9192614555358887e-01 -4.7092106938362122e-01</leafValues></_>
        <_>
          <internalNodes>
            0 -1 172 -3.5661915317177773e-03</internalNodes>
          <leafValues>
            6.3797438144683838e-01 -2.0246869325637817e-01</leafValues></_>
        <_>
          <internalNodes>
            0 -1 166 2.6567676104605198e-03</internalNodes>
          <leafValues>
            -2.4599863588809967e-01 4.8306825757026672e-01</leafValues></_></weakClassifiers></_>
    <!-- stage 8 -->
    <_>
      <maxWeakCount>20</maxWeakCount>
      <stageThreshold>-1.4449044466018677e+00</stageThreshold>
      <weakClassifiers>
        <_>
          <internalNodes>
            0 -1 127 -1.3416385278105736e-02</internalNodes>
          <leafValues>
            6.3960188627243042e-01 -4.7742262482643127e-01</leafValues></_>
        <_>
          <internalNodes>
            0 -1 134 3.4305152948945761e-03</internalNodes>
          <leafValues>
            -3.1313979625701904e-01 6.3994848728179932e-01</leafValues></_>
        <_>
          <internalNodes>
            0 -1 15 -4.8753852024674416e-03</internalNodes>
          <leafValues>
            6.4638710021972656e-01 -3.1205603480339050e-01</leafValues></_>
        <_>
          <internalNodes>
            0 -1 160 -1.3438994064927101e-02</internalNodes>
          <leafValues>
            4.3344739079475403e-01 -4.2440038919448853e-01</leafValues></_>
        <_>
          <internalNodes>
            0 -1 67 1.3571615454566199e-05</internalNodes>
          <leafValues>
            -5.1627498865127563e-01 3.5556840896606445e-01</leafValues></_>
        <_>
          <internalNodes>
            0 -1 16 1.8886430561542511e-01</internalNodes>
          <leafValues>
            2.1702435612678528e-01 -8.5954004526138306e-01</leafValues></_>
        <_>
          <internalNodes>
            0 -1 175 4.6650292351841927e-03</internalNodes>
          <leafValues>
            -3.5055726766586304e-01 5.8963042497634888e-01</leafValues></_>
        <_>
          <internalNodes>
            0 -1 20 2.9955164063721895e-04</internalNodes>
          <leafValues>
            -1.8295146524906158e-01 7.7226823568344116e-01</leafValues></_>
        <_>
          <internalNodes>
            0 -1 22 6.5942015498876572e-04</internalNodes>
          <leafValues>
            -2.0329631865024567e-01 7.6276308298110962e-01</leafValues></_>
        <_>
          <internalNodes>
            0 -1 19 1.2692297786998097e-05</internalNodes>
          <leafValues>
            -2.4660900235176086e-01 6.1199980974197388e-01</leafValues></_>
        <_>
          <internalNodes>
            0 -1 35 1.3673137800651602e-05</internalNodes>
          <leafValues>
            -3.1657949090003967e-01 4.9486285448074341e-01</leafValues></_>
        <_>
          <internalNodes>
            0 -1 86 -1.7617303878068924e-02</internalNodes>
          <leafValues>
            6.4836907386779785e-01 -2.4793007969856262e-01</leafValues></_>
        <_>
          <internalNodes>
            0 -1 88 2.5040055625140667e-03</internalNodes>
          <leafValues>
            -2.9019415378570557e-01 4.7900170087814331e-01</leafValues></_>
        <_>
          <internalNodes>
            0 -1 174 -7.5139838736504316e-04</internalNodes>
          <leafValues>
            6.3491839170455933e-01 -2.4275942146778107e-01</leafValues></_>
        <_>
          <internalNodes>
            0 -1 29 4.1603716090321541e-04</internalNodes>
          <leafValues>
            -1.7040170729160309e-01 7.4278789758682251e-01</leafValues></_>
        <_>
          <internalNodes>
            0 -1 171 3.1996048055589199e-03</internalNodes>
          <leafValues>
            -2.4726790189743042e-01 5.3326737880706787e-01</leafValues></_>
        <_>
          <internalNodes>
            0 -1 124 -6.2899038312025368e-05</internalNodes>
          <leafValues>
            -7.2152948379516602e-01 1.9670154154300690e-01</leafValues></_>
        <_>
          <internalNodes>
            0 -1 115 -1.0740622383309528e-04</internalNodes>
          <leafValues>
            3.5339158773422241e-01 -3.8258057832717896e-01</leafValues></_>
        <_>
          <internalNodes>
            0 -1 36 -3.4128548577427864e-04</internalNodes>
          <leafValues>
            5.9936672449111938e-01 -2.4040539562702179e-01</leafValues></_>
        <_>
          <internalNodes>
            0 -1 26 5.3162605036050081e-04</internalNodes>
          <leafValues>
            -3.1959807872772217e-01 5.8322244882583618e-01</leafValues></_></weakClassifiers></_>
    <!-- stage 9 -->
    <_>
      <maxWeakCount>17</maxWeakCount>
      <stageThreshold>-1.2087676525115967e+00</stageThreshold>
      <weakClassifiers>
        <_>
          <internalNodes>
            0 -1 128 2.9779173928545788e-05</internalNodes>
          <leafValues>
            -6.2640661001205444e-01 4.3776991963386536e-01</leafValues></_>
        <_>
          <internalNodes>
            0 -1 13 1.2900280125904828e-05</internalNodes>
          <leafValues>
            -3.2699346542358398e-01 5.2355527877807617e-01</leafValues></_>
        <_>
          <internalNodes>
            0 -1 13 -1.2042009984725155e-05</internalNodes>
          <leafValues>
            6.0852074623107910e-01 -2.9387611150741577e-01</leafValues></_>
        <_>
          <internalNodes>
            0 -1 42 3.7607777630910277e-04</internalNodes>
          <leafValues>
            2.3202306032180786e-01 -7.3429906368255615e-01</leafValues></_>
        <_>
          <internalNodes>
            0 -1 3 2.1109599620103836e-02</internalNodes>
          <leafValues>
            -5.2173066139221191e-01 3.2028788328170776e-01</leafValues></_>
        <_>
          <internalNodes>
            0 -1 93 1.2947862160217483e-05</internalNodes>
          <leafValues>
            -6.3135856389999390e-01 2.2737209498882294e-01</leafValues></_>
        <_>
          <internalNodes>
            0 -1 58 4.1907221078872681e-02</internalNodes>
          <leafValues>
            1.8452401459217072e-01 -7.8078192472457886e-01</leafValues></_>
        <_>
          <internalNodes>
            0 -1 151 8.1974975764751434e-03</internalNodes>
          <leafValues>
            -2.7784112095832825e-01 5.8529597520828247e-01</leafValues></_>
        <_>
          <internalNodes>
            0 -1 153 3.2614864408969879e-02</internalNodes>
          <leafValues>
            -1.9286994636058807e-01 8.3963912725448608e-01</leafValues></_>
        <_>
          <internalNodes>
            0 -1 10 8.4227509796619415e-03</internalNodes>
          <leafValues>
            -2.4138340353965759e-01 5.5891495943069458e-01</leafValues></_>
        <_>
          <internalNodes>
            0 -1 66 -1.4791050925850868e-03</internalNodes>
          <leafValues>
            -5.8827960491180420e-01 2.6373925805091858e-01</leafValues></_>
        <_>
          <internalNodes>
            0 -1 28 1.3075186870992184e-05</internalNodes>
          <leafValues>
            -2.7841854095458984e-01 5.3735095262527466e-01</leafValues></_>
        <_>
          <internalNodes>
            0 -1 66 -1.2947862160217483e-05</internalNodes>
          <leafValues>
            2.5955495238304138e-01 -4.8564231395721436e-01</leafValues></_>
        <_>
          <internalNodes>
            0 -1 27 -1.4395082871487830e-05</internalNodes>
          <leafValues>
            4.7327151894569397e-01 -2.5767719745635986e-01</leafValues></_>
        <_>
          <internalNodes>
            0 -1 27 1.3833050616085529e-05</internalNodes>
          <leafValues>
            -2.9974144697189331e-01 5.2113491296768188e-01</leafValues></_>
        <_>
          <internalNodes>
            0 -1 55 -9.5006806077435613e-05</internalNodes>
          <leafValues>
            -7.3323696851730347e-01 1.9320252537727356e-01</leafValues></_>
        <_>
          <internalNodes>
            0 -1 173 8.9787337929010391e-03</internalNodes>
          <leafValues>
            -2.4465982615947723e-01 5.5761981010437012e-01</leafValues></_></weakClassifiers></_>
    <!-- stage 10 -->
    <_>
      <maxWeakCount>28</maxWeakCount>
      <stageThreshold>-1.1096749305725098e+00</stageThreshold>
      <weakClassifiers>
        <_>
          <internalNodes>
            0 -1 69 -4.0437240386381745e-05</internalNodes>
          <leafValues>
            -7.8242677450180054e-01 2.6588681340217590e-01</leafValues></_>
        <_>
          <internalNodes>
            0 -1 69 4.8665362555766478e-05</internalNodes>
          <leafValues>
            1.9501908123493195e-01 -8.3533245325088501e-01</leafValues></_>
        <_>
          <internalNodes>
            0 -1 24 -5.8974578976631165e-02</internalNodes>
          <leafValues>
            1.4652201533317566e-01 -7.0416516065597534e-01</leafValues></_>
        <_>
          <internalNodes>
            0 -1 119 -1.3607324945041910e-05</internalNodes>
          <leafValues>
            2.8295525908470154e-01 -4.8655226826667786e-01</leafValues></_>
        <_>
          <internalNodes>
            0 -1 98 3.4193638712167740e-03</internalNodes>
          <leafValues>
            1.6253331303596497e-01 -8.3704590797424316e-01</leafValues></_>
        <_>
          <internalNodes>
            0 -1 162 3.2045044004917145e-02</internalNodes>
          <leafValues>
            -2.6441016793251038e-01 4.9770411849021912e-01</leafValues></_>
        <_>
          <internalNodes>
            0 -1 158 -1.5089774504303932e-02</internalNodes>
          <leafValues>
            6.4424747228622437e-01 -1.8202672898769379e-01</leafValues></_>
        <_>
          <internalNodes>
            0 -1 123 -1.5793018974363804e-03</internalNodes>
          <leafValues>
            -6.8213105201721191e-01 1.7201615869998932e-01</leafValues></_>
        <_>
          <internalNodes>
            0 -1 32 8.3610677393153310e-05</internalNodes>
          <leafValues>
            1.4675141870975494e-01 -7.5573843717575073e-01</leafValues></_>
        <_>
          <internalNodes>
            0 -1 9 -3.0049197375774384e-03</internalNodes>
          <leafValues>
            5.9876525402069092e-01 -1.8655624985694885e-01</leafValues></_>
        <_>
          <internalNodes>
            0 -1 4 1.6407566145062447e-02</internalNodes>
          <leafValues>
            -1.7842611670494080e-01 6.2817341089248657e-01</leafValues></_>
        <_>
          <internalNodes>
            0 -1 111 3.5148932511219755e-05</internalNodes>
          <leafValues>
            1.3781535625457764e-01 -8.5017377138137817e-01</leafValues></_>
        <_>
          <internalNodes>
            0 -1 164 -2.4157846346497536e-03</internalNodes>
          <leafValues>
            4.0093532204627991e-01 -2.9897099733352661e-01</leafValues></_>
        <_>
          <internalNodes>
            0 -1 135 4.7473432496190071e-03</internalNodes>
          <leafValues>
            -2.7217864990234375e-01 4.1350701451301575e-01</leafValues></_>
        <_>
          <internalNodes>
            0 -1 41 1.2569698691368103e-01</internalNodes>
          <leafValues>
            1.0076623409986496e-01 -8.6096107959747314e-01</leafValues></_>
        <_>
          <internalNodes>
            0 -1 64 1.1021355167031288e-02</internalNodes>
          <leafValues>
            9.6594892442226410e-02 -9.6454346179962158e-01</leafValues></_>
        <_>
          <internalNodes>
            0 -1 14 4.9370601773262024e-03</internalNodes>
          <leafValues>
            -6.1763209104537964e-01 1.5021742880344391e-01</leafValues></_>
        <_>
          <internalNodes>
            0 -1 132 2.3238412104547024e-03</internalNodes>
          <leafValues>
            -1.7924632132053375e-01 5.9652185440063477e-01</leafValues></_>
        <_>
          <internalNodes>
            0 -1 116 -8.1758871674537659e-03</internalNodes>
          <leafValues>
            4.6574437618255615e-01 -2.1790976822376251e-01</leafValues></_>
        <_>
          <internalNodes>
            0 -1 146 -5.5443201214075089e-02</internalNodes>
          <leafValues>
            8.0969882011413574e-01 -1.0847996920347214e-01</leafValues></_>
        <_>
          <internalNodes>
            0 -1 71 3.0425721779465675e-03</internalNodes>
          <leafValues>
            1.7660668492317200e-01 -6.7797189950942993e-01</leafValues></_>
        <_>
          <internalNodes>
            0 -1 175 7.3464475572109222e-03</internalNodes>
          <leafValues>
            -1.5978096425533295e-01 6.2920427322387695e-01</leafValues></_>
        <_>
          <internalNodes>
            0 -1 177 -4.4557172805070877e-03</internalNodes>
          <leafValues>
            6.6681760549545288e-01 -1.8267901241779327e-01</leafValues></_>
        <_>
          <internalNodes>
            0 -1 114 -2.0008641295135021e-03</internalNodes>
          <leafValues>
            -7.0100867748260498e-01 1.9181539118289948e-01</leafValues></_>
        <_>
          <internalNodes>
            0 -1 133 2.0977151580154896e-03</internalNodes>
          <leafValues>
            -1.6589990258216858e-01 7.1171808242797852e-01</leafValues></_>
        <_>
          <internalNodes>
            0 -1 44 2.0469876471906900e-04</internalNodes>
          <leafValues>
            1.5663464367389679e-01 -7.1820777654647827e-01</leafValues></_>
        <_>
          <internalNodes>
            0 -1 169 3.2021875958889723e-03</internalNodes>
          <leafValues>
            -1.7679059505462646e-01 6.9335210323333740e-01</leafValues></_>
        <_>
          <internalNodes>
            0 -1 39 4.4761812314391136e-03</internalNodes>
          <leafValues>
            -3.9541357755661011e-01 3.0035251379013062e-01</leafValues></_></weakClassifiers></_>
    <!-- stage 11 -->
    <_>
      <maxWeakCount>27</maxWeakCount>
      <stageThreshold>-1.0865479707717896e+00</stageThreshold>
      <weakClassifiers>
        <_>
          <internalNodes>
            0 -1 60 -3.2046868000179529e-05</internalNodes>
          <leafValues>
            4.1000878810882568e-01 -4.0823969244956970e-01</leafValues></_>
        <_>
          <internalNodes>
            0 -1 121 4.4128228182671592e-05</internalNodes>
          <leafValues>
            1.8419627845287323e-01 -7.3175829648971558e-01</leafValues></_>
        <_>
          <internalNodes>
            0 -1 106 -1.0530960571486503e-04</internalNodes>
          <leafValues>
            -5.8721297979354858e-01 2.1320104598999023e-01</leafValues></_>
        <_>
          <internalNodes>
            0 -1 139 -1.2947862160217483e-05</internalNodes>
          <leafValues>
            2.6056718826293945e-01 -4.4911286234855652e-01</leafValues></_>
        <_>
          <internalNodes>
            0 -1 31 1.0298308916389942e-04</internalNodes>
          <leafValues>
            1.3014873862266541e-01 -7.0247846841812134e-01</leafValues></_>
        <_>
          <internalNodes>
            0 -1 11 1.2063401192426682e-01</internalNodes>
          <leafValues>
            -2.5227665901184082e-01 4.3054446578025818e-01</leafValues></_>
        <_>
          <internalNodes>
            0 -1 129 -1.2133456766605377e-02</internalNodes>
          <leafValues>
            7.2974032163619995e-01 -2.0071524381637573e-01</leafValues></_>
        <_>
          <internalNodes>
            0 -1 45 4.6794824302196503e-03</internalNodes>
          <leafValues>
            2.5306496024131775e-01 -6.6194880008697510e-01</leafValues></_>
        <_>
          <internalNodes>
            0 -1 113 1.4385460417543072e-05</internalNodes>
          <leafValues>
            -4.5515382289886475e-01 2.2757500410079956e-01</leafValues></_>
        <_>
          <internalNodes>
            0 -1 159 4.4790771789848804e-03</internalNodes>
          <leafValues>
            -2.6547205448150635e-01 4.5719337463378906e-01</leafValues></_>
        <_>
          <internalNodes>
            0 -1 120 1.3952132576378062e-05</internalNodes>
          <leafValues>
            -8.8863170146942139e-01 1.3998353481292725e-01</leafValues></_>
        <_>
          <internalNodes>
            0 -1 99 5.9562280512182042e-05</internalNodes>
          <leafValues>
            1.1641664057970047e-01 -6.7389917373657227e-01</leafValues></_>
        <_>
          <internalNodes>
            0 -1 37 2.7752752430387773e-05</internalNodes>
          <leafValues>
            -2.5044104456901550e-01 3.8535821437835693e-01</leafValues></_>
        <_>
          <internalNodes>
            0 -1 37 -1.3511275028577074e-05</internalNodes>
          <leafValues>
            4.7129485011100769e-01 -2.8057205677032471e-01</leafValues></_>
        <_>
          <internalNodes>
            0 -1 79 -4.7329893277492374e-05</internalNodes>
          <leafValues>
            -8.0437391996383667e-01 1.2589812278747559e-01</leafValues></_>
        <_>
          <internalNodes>
            0 -1 6 1.1524155735969543e-02</internalNodes>
          <leafValues>
            -2.6864832639694214e-01 3.9960727095603943e-01</leafValues></_>
        <_>
          <internalNodes>
            0 -1 25 -6.1796527006663382e-05</internalNodes>
          <leafValues>
            3.8392820954322815e-01 -2.7603316307067871e-01</leafValues></_>
        <_>
          <internalNodes>
            0 -1 23 2.9286642529768869e-05</internalNodes>
          <leafValues>
            -2.3681820929050446e-01 3.9958459138870239e-01</leafValues></_>
        <_>
          <internalNodes>
            0 -1 100 3.5121469409205019e-05</internalNodes>
          <leafValues>
            2.8271394968032837e-01 -3.0723550915718079e-01</leafValues></_>
        <_>
          <internalNodes>
            0 -1 21 4.6608209609985352e-02</internalNodes>
          <leafValues>
            -3.0443394184112549e-01 4.5379590988159180e-01</leafValues></_>
        <_>
          <internalNodes>
            0 -1 140 -1.5898206038400531e-03</internalNodes>
          <leafValues>
            -6.9281578063964844e-01 1.5991447865962982e-01</leafValues></_>
        <_>
          <internalNodes>
            0 -1 84 -4.6024834737181664e-03</internalNodes>
          <leafValues>
            4.6186548471450806e-01 -2.0197667181491852e-01</leafValues></_>
        <_>
          <internalNodes>
            0 -1 101 -1.4171175658702850e-02</internalNodes>
          <leafValues>
            7.7400130033493042e-01 -1.5172660350799561e-01</leafValues></_>
        <_>
          <internalNodes>
            0 -1 65 2.7992307877866551e-05</internalNodes>
          <leafValues>
            1.8836437165737152e-01 -5.6805914640426636e-01</leafValues></_>
        <_>
          <internalNodes>
            0 -1 156 -5.7061323896050453e-03</internalNodes>
          <leafValues>
            6.4367902278900146e-01 -1.5045772492885590e-01</leafValues></_>
        <_>
          <internalNodes>
            0 -1 17 2.4709764868021011e-02</internalNodes>
          <leafValues>
            -2.8790226578712463e-01 3.3595755696296692e-01</leafValues></_>
        <_>
          <internalNodes>
            0 -1 170 2.8567682020366192e-03</internalNodes>
          <leafValues>
            -2.5520971417427063e-01 3.4426185488700867e-01</leafValues></_></weakClassifiers></_></stages>
  <features>
    <_>
      <rects>
        <_>
          0 4 24 12 -1.</_>
        <_>
          8 4 8 12 3.</_></rects>
      <tilted>0</tilted></_>
    <_>
      <rects>
        <_>
          0 6 20 14 -1.</_>
        <_>
          0 6 10 7 2.</_>
        <_>
          10 13 10 7 2.</_></rects>
      <tilted>0</tilted></_>
    <_>
      <rects>
        <_>
          0 7 6 10 -1.</_>
        <_>
          3 7 3 10 2.</_></rects>
      <tilted>0</tilted></_>
    <_>
      <rects>
        <_>
          0 8 20 3 -1.</_>
        <_>
          10 8 10 3 2.</_></rects>
      <tilted>0</tilted></_>
    <_>
      <rects>
        <_>
          0 9 6 6 -1.</_>
        <_>
          2 9 2 6 3.</_></rects>
      <tilted>0</tilted></_>
    <_>
      <rects>
        <_>
          0 11 19 8 -1.</_>
        <_>
          0 15 19 4 2.</_></rects>
      <tilted>0</tilted></_>
    <_>
      <rects>
        <_>
          0 16 15 2 -1.</_>
        <_>
          5 16 5 2 3.</_></rects>
      <tilted>0</tilted></_>
    <_>
      <rects>
        <_>
          1 0 17 21 -1.</_>
        <_>
          1 7 17 7 3.</_></rects>
      <tilted>0</tilted></_>
    <_>
      <rects>
        <_>
          1 8 6 1 -1.</_>
        <_>
          3 8 2 1 3.</_></rects>
      <tilted>0</tilted></_>
    <_>
      <rects>
        <_>
          1 10 3 3 -1.</_>
        <_>
          2 10 1 3 3.</_></rects>
      <tilted>0</tilted></_>
    <_>
      <rects>
        <_>
          1 11 6 5 -1.</_>
        <_>
          3 11 2 5 3.</_></rects>
      <tilted>0</tilted></_>
    <_>
      <rects>
        <_>
          2 1 19 10 -1.</_>
        <_>
          2 6 19 5 2.</_></rects>
      <tilted>0</tilted></_>
    <_>
      <rects>
        <_>
          2 6 13 15 -1.</_>
        <_>
          2 11 13 5 3.</_></rects>
      <tilted>0</tilted></_>
    <_>
      <rects>
        <_>
          2 7 2 2 -1.</_>
        <_>
          2 7 1 1 2.</_>
        <_>
          3 8 1 1 2.</_></rects>
      <tilted>0</tilted></_>
    <_>
      <rects>
        <_>
          2 10 18 1 -1.</_>
        <_>
          11 10 9 1 2.</_></rects>
      <tilted>0</tilted></_>
    <_>
      <rects>
        <_>
          3 4 6 8 -1.</_>
        <_>
          3 4 3 4 2.</_>
        <_>
          6 8 3 4 2.</_></rects>
      <tilted>0</tilted></_>
    <_>
      <rects>
        <_>
          3 5 18 16 -1.</_>
        <_>
          12 5 9 16 2.</_></rects>
      <tilted>0</tilted></_>
    <_>
      <rects>
        <_>
          3 14 21 1 -1.</_>
        <_>
          10 14 7 1 3.</_></rects>
      <tilted>0</tilted></_>
    <_>
      <rects>
        <_>
          4 4 16 15 -1.</_>
        <_>
          12 4 8 15 2.</_></rects>
      <tilted>0</tilted></_>
    <_>
      <rects>
        <_>
          4 5 2 2 -1.</_>
        <_>
          4 5 1 1 2.</_>
        <_>
          5 6 1 1 2.</_></rects>
      <tilted>0</tilted></_>
    <_>
      <rects>
        <_>
          4 6 2 2 -1.</_>
        <_>
          4 6 1 1 2.</_>
        <_>
          5 7 1 1 2.</_></rects>
      <tilted>0</tilted></_>
    <_>
      <rects>
        <_>
          4 6 14 5 -1.</_>
        <_>
          11 6 7 5 2.</_></rects>
      <tilted>0</tilted></_>
    <_>
      <rects>
        <_>
          4 7 4 2 -1.</_>
        <_>
          4 7 2 1 2.</_>
        <_>
          6 8 2 1 2.</_></rects>
      <tilted>0</tilted></_>
    <_>
      <rects>
        <_>
          4 8 6 2 -1.</_>
        <_>
          4 8 3 1 2.</_>
        <_>
          7 9 3 1 2.</_></rects>
      <tilted>0</tilted></_>
    <_>
      <rects>
        <_>
          4 10 14 10 -1.</_>
        <_>
          4 15 14 5 2.</_></rects>
      <tilted>0</tilted></_>
    <_>
      <rects>
        <_>
          4 15 3 1 -1.</_>
        <_>
          5 15 1 1 3.</_></rects>
      <tilted>0</tilted></_>
    <_>
      <rects>
        <_>
          4 16 4 2 -1.</_>
        <_>
          4 16 2 1 2.</_>
        <_>
          6 17 2 1 2.</_></rects>
      <tilted>0</tilted></_>
    <_>
      <rects>
        <_>
          4 17 2 2 -1.</_>
        <_>
          4 17 1 1 2.</_>
        <_>
          5 18 1 1 2.</_></rects>
      <tilted>0</tilted></_>
    <_>
      <rects>
        <_>
          5 5 2 2 -1.</_>
        <_>
          5 5 1 1 2.</_>
        <_>
          6 6 1 1 2.</_></rects>
      <tilted>0</tilted></_>
    <_>
      <rects>
        <_>
          5 6 2 2 -1.</_>
        <_>
          5 6 1 1 2.</_>
        <_>
          6 7 1 1 2.</_></rects>
      <tilted>0</tilted></_>
    <_>
      <rects>
        <_>
          5 7 14 12 -1.</_>
        <_>
          12 7 7 12 2.</_></rects>
      <tilted>0</tilted></_>
    <_>
      <rects>
        <_>
          5 9 6 2 -1.</_>
        <_>
          8 9 3 2 2.</_></rects>
      <tilted>0</tilted></_>
    <_>
      <rects>
        <_>
          5 11 3 2 -1.</_>
        <_>
          6 11 1 2 3.</_></rects>
      <tilted>0</tilted></_>
    <_>
      <rects>
        <_>
          5 12 6 5 -1.</_>
        <_>
          7 12 2 5 3.</_></rects>
      <tilted>0</tilted></_>
    <_>
      <rects>
        <_>
          5 12 9 3 -1.</_>
        <_>
          5 13 9 1 3.</_></rects>
      <tilted>0</tilted></_>
    <_>
      <rects>
        <_>
          5 15 4 2 -1.</_>
        <_>
          5 16 4 1 2.</_></rects>
      <tilted>0</tilted></_>
    <_>
      <rects>
        <_>
          5 16 2 2 -1.</_>
        <_>
          5 16 1 1 2.</_>
        <_>
          6 17 1 1 2.</_></rects>
      <tilted>0</tilted></_>
    <_>
      <rects>
        <_>
          6 3 2 2 -1.</_>
        <_>
          6 3 1 1 2.</_>
        <_>
          7 4 1 1 2.</_></rects>
      <tilted>0</tilted></_>
    <_>
      <rects>
        <_>
          6 3 18 12 -1.</_>
        <_>
          12 3 6 12 3.</_></rects>
      <tilted>0</tilted></_>
    <_>
      <rects>
        <_>
          6 5 6 11 -1.</_>
        <_>
          9 5 3 11 2.</_></rects>
      <tilted>0</tilted></_>
    <_>
      <rects>
        <_>
          6 7 15 6 -1.</_>
        <_>
          11 7 5 6 3.</_></rects>
      <tilted>0</tilted></_>
    <_>
      <rects>
        <_>
          6 7 14 12 -1.</_>
        <_>
          13 7 7 12 2.</_></rects>
      <tilted>0</tilted></_>
    <_>
      <rects>
        <_>
          6 8 6 2 -1.</_>
        <_>
          9 8 3 2 2.</_></rects>
      <tilted>0</tilted></_>
    <_>
      <rects>
        <_>
          6 10 4 1 -1.</_>
        <_>
          8 10 2 1 2.</_></rects>
      <tilted>0</tilted></_>
    <_>
      <rects>
        <_>
          6 10 6 3 -1.</_>
        <_>
          8 10 2 3 3.</_></rects>
      <tilted>0</tilted></_>
    <_>
      <rects>
        <_>
          6 10 15 3 -1.</_>
        <_>
          6 11 15 1 3.</_></rects>
      <tilted>0</tilted></_>
    <_>
      <rects>
        <_>
          6 11 3 3 -1.</_>
        <_>
          6 12 3 1 3.</_></rects>
      <tilted>0</tilted></_>
    <_>
      <rects>
        <_>
          7 7 10 8 -1.</_>
        <_>
          12 7 5 8 2.</_></rects>
      <tilted>0</tilted></_>
    <_>
      <rects>
        <_>
          7 8 4 2 -1.</_>
        <_>
          9 8 2 2 2.</_></rects>
      <tilted>0</tilted></_>
    <_>
      <rects>
        <_>
          7 9 2 3 -1.</_>
        <_>
          7 10 2 1 3.</_></rects>
      <tilted>0</tilted></_>
    <_>
      <rects>
        <_>
          7 9 4 2 -1.</_>
        <_>
          9 9 2 2 2.</_></rects>
      <tilted>0</tilted></_>
    <_>
      <rects>
        <_>
          7 9 8 7 -1.</_>
        <_>
          11 9 4 7 2.</_></rects>
      <tilted>0</tilted></_>
    <_>
      <rects>
        <_>
          7 9 11 12 -1.</_>
        <_>
          7 15 11 6 2.</_></rects>
      <tilted>0</tilted></_>
    <_>
      <rects>
        <_>
          7 10 2 2 -1.</_>
        <_>
          8 10 1 2 2.</_></rects>
      <tilted>0</tilted></_>
    <_>
      <rects>
        <_>
          7 10 3 2 -1.</_>
        <_>
          8 10 1 2 3.</_></rects>
      <tilted>0</tilted></_>
    <_>
      <rects>
        <_>
          7 10 2 4 -1.</_>
        <_>
          8 10 1 4 2.</_></rects>
      <tilted>0</tilted></_>
    <_>
      <rects>
        <_>
          7 10 4 1 -1.</_>
        <_>
          9 10 2 1 2.</_></rects>
      <tilted>0</tilted></_>
    <_>
      <rects>
        <_>
          7 10 3 3 -1.</_>
        <_>
          7 11 3 1 3.</_></rects>
      <tilted>0</tilted></_>
    <_>
      <rects>
        <_>
          7 10 8 11 -1.</_>
        <_>
          11 10 4 11 2.</_></rects>
      <tilted>0</tilted></_>
    <_>
      <rects>
        <_>
          7 10 6 3 -1.</_>
        <_>
          7 11 6 1 3.</_></rects>
      <tilted>0</tilted></_>
    <_>
      <rects>
        <_>
          7 11 7 3 -1.</_>
        <_>
          7 12 7 1 3.</_></rects>
      <tilted>0</tilted></_>
    <_>
      <rects>
        <_>
          7 11 8 3 -1.</_>
        <_>
          7 12 8 1 3.</_></rects>
      <tilted>0</tilted></_>
    <_>
      <rects>
        <_>
          8 5 12 7 -1.</_>
        <_>
          12 5 4 7 3.</_></rects>
      <tilted>0</tilted></_>
    <_>
      <rects>
        <_>
          8 5 8 12 -1.</_>
        <_>
          12 5 4 12 2.</_></rects>
      <tilted>0</tilted></_>
    <_>
      <rects>
        <_>
          8 7 2 12 -1.</_>
        <_>
          8 13 2 6 2.</_></rects>
      <tilted>0</tilted></_>
    <_>
      <rects>
        <_>
          8 7 5 3 -1.</_>
        <_>
          8 8 5 1 3.</_></rects>
      <tilted>0</tilted></_>
    <_>
      <rects>
        <_>
          8 8 3 9 -1.</_>
        <_>
          9 8 1 9 3.</_></rects>
      <tilted>0</tilted></_>
    <_>
      <rects>
        <_>
          8 8 2 10 -1.</_>
        <_>
          9 8 1 10 2.</_></rects>
      <tilted>0</tilted></_>
    <_>
      <rects>
        <_>
          8 8 2 3 -1.</_>
        <_>
          8 9 2 1 3.</_></rects>
      <tilted>0</tilted></_>
    <_>
      <rects>
        <_>
          8 8 4 2 -1.</_>
        <_>
          10 8 2 2 2.</_></rects>
      <tilted>0</tilted></_>
    <_>
      <rects>
        <_>
          8 8 2 4 -1.</_>
        <_>
          8 10 2 2 2.</_></rects>
      <tilted>0</tilted></_>
    <_>
      <rects>
        <_>
          8 8 6 10 -1.</_>
        <_>
          10 8 2 10 3.</_></rects>
      <tilted>0</tilted></_>
    <_>
      <rects>
        <_>
          8 8 3 3 -1.</_>
        <_>
          8 9 3 1 3.</_></rects>
      <tilted>0</tilted></_>
    <_>
      <rects>
        <_>
          8 8 6 3 -1.</_>
        <_>
          8 9 6 1 3.</_></rects>
      <tilted>0</tilted></_>
    <_>
      <rects>
        <_>
          8 9 2 2 -1.</_>
        <_>
          9 9 1 2 2.</_></rects>
      <tilted>0</tilted></_>
    <_>
      <rects>
        <_>
          8 9 3 8 -1.</_>
        <_>
          9 9 1 8 3.</_></rects>
      <tilted>0</tilted></_>
    <_>
      <rects>
        <_>
          8 9 2 2 -1.</_>
        <_>
          8 10 2 1 2.</_></rects>
      <tilted>0</tilted></_>
    <_>
      <rects>
        <_>
          8 9 12 2 -1.</_>
        <_>
          12 9 4 2 3.</_></rects>
      <tilted>0</tilted></_>
    <_>
      <rects>
        <_>
          8 9 5 3 -1.</_>
        <_>
          8 10 5 1 3.</_></rects>
      <tilted>0</tilted></_>
    <_>
      <rects>
        <_>
          8 10 2 1 -1.</_>
        <_>
          9 10 1 1 2.</_></rects>
      <tilted>0</tilted></_>
    <_>
      <rects>
        <_>
          8 10 3 1 -1.</_>
        <_>
          9 10 1 1 3.</_></rects>
      <tilted>0</tilted></_>
    <_>
      <rects>
        <_>
          8 10 2 2 -1.</_>
        <_>
          8 11 2 1 2.</_></rects>
      <tilted>0</tilted></_>
    <_>
      <rects>
        <_>
          8 10 4 2 -1.</_>
        <_>
          8 10 2 1 2.</_>
        <_>
          10 11 2 1 2.</_></rects>
      <tilted>0</tilted></_>
    <_>
      <rects>
        <_>
          8 10 6 8 -1.</_>
        <_>
          10 10 2 8 3.</_></rects>
      <tilted>0</tilted></_>
    <_>
      <rects>
        <_>
          8 12 9 1 -1.</_>
        <_>
          11 12 3 1 3.</_></rects>
      <tilted>0</tilted></_>
    <_>
      <rects>
        <_>
          8 13 7 2 -1.</_>
        <_>
          8 14 7 1 2.</_></rects>
      <tilted>0</tilted></_>
    <_>
      <rects>
        <_>
          8 14 4 6 -1.</_>
        <_>
          8 16 4 2 3.</_></rects>
      <tilted>0</tilted></_>
    <_>
      <rects>
        <_>
          9 2 3 18 -1.</_>
        <_>
          9 11 3 9 2.</_></rects>
      <tilted>0</tilted></_>
    <_>
      <rects>
        <_>
          9 4 8 4 -1.</_>
        <_>
          9 4 4 2 2.</_>
        <_>
          13 6 4 2 2.</_></rects>
      <tilted>0</tilted></_>
    <_>
      <rects>
        <_>
          9 6 2 14 -1.</_>
        <_>
          9 13 2 7 2.</_></rects>
      <tilted>0</tilted></_>
    <_>
      <rects>
        <_>
          9 7 3 11 -1.</_>
        <_>
          10 7 1 11 3.</_></rects>
      <tilted>0</tilted></_>
    <_>
      <rects>
        <_>
          9 7 6 9 -1.</_>
        <_>
          12 7 3 9 2.</_></rects>
      <tilted>0</tilted></_>
    <_>
      <rects>
        <_>
          9 8 1 3 -1.</_>
        <_>
          9 9 1 1 3.</_></rects>
      <tilted>0</tilted></_>
    <_>
      <rects>
        <_>
          9 8 2 9 -1.</_>
        <_>
          10 8 1 9 2.</_></rects>
      <tilted>0</tilted></_>
    <_>
      <rects>
        <_>
          9 8 2 3 -1.</_>
        <_>
          9 9 2 1 3.</_></rects>
      <tilted>0</tilted></_>
    <_>
      <rects>
        <_>
          9 9 2 1 -1.</_>
        <_>
          10 9 1 1 2.</_></rects>
      <tilted>0</tilted></_>
    <_>
      <rects>
        <_>
          9 9 3 9 -1.</_>
        <_>
          10 9 1 9 3.</_></rects>
      <tilted>0</tilted></_>
    <_>
      <rects>
        <_>
          9 9 4 2 -1.</_>
        <_>
          11 9 2 2 2.</_></rects>
      <tilted>0</tilted></_>
    <_>
      <rects>
        <_>
          9 9 12 3 -1.</_>
        <_>
          9 10 12 1 3.</_></rects>
      <tilted>0</tilted></_>
    <_>
      <rects>
        <_>
          9 10 3 4 -1.</_>
        <_>
          10 10 1 4 3.</_></rects>
      <tilted>0</tilted></_>
    <_>
      <rects>
        <_>
          9 10 4 1 -1.</_>
        <_>
          11 10 2 1 2.</_></rects>
      <tilted>0</tilted></_>
    <_>
      <rects>
        <_>
          9 13 2 4 -1.</_>
        <_>
          9 15 2 2 2.</_></rects>
      <tilted>0</tilted></_>
    <_>
      <rects>
        <_>
          10 6 4 3 -1.</_>
        <_>
          10 7 4 1 3.</_></rects>
      <tilted>0</tilted></_>
    <_>
      <rects>
        <_>
          10 7 3 9 -1.</_>
        <_>
          11 7 1 9 3.</_></rects>
      <tilted>0</tilted></_>
    <_>
      <rects>
        <_>
          10 7 2 10 -1.</_>
        <_>
          11 7 1 10 2.</_></rects>
      <tilted>0</tilted></_>
    <_>
      <rects>
        <_>
          10 7 4 3 -1.</_>
        <_>
          10 8 4 1 3.</_></rects>
      <tilted>0</tilted></_>
    <_>
      <rects>
        <_>
          10 7 6 2 -1.</_>
        <_>
          10 8 6 1 2.</_></rects>
      <tilted>0</tilted></_>
    <_>
      <rects>
        <_>
          10 8 1 2 -1.</_>
        <_>
          10 9 1 1 2.</_></rects>
      <tilted>0</tilted></_>
    <_>
      <rects>
        <_>
          10 8 1 3 -1.</_>
        <_>
          10 9 1 1 3.</_></rects>
      <tilted>0</tilted></_>
    <_>
      <rects>
        <_>
          10 8 2 9 -1.</_>
        <_>
          11 8 1 9 2.</_></rects>
      <tilted>0</tilted></_>
    <_>
      <rects>
        <_>
          10 8 3 3 -1.</_>
        <_>
          10 9 3 1 3.</_></rects>
      <tilted>0</tilted></_>
    <_>
      <rects>
        <_>
          10 8 4 3 -1.</_>
        <_>
          10 9 4 1 3.</_></rects>
      <tilted>0</tilted></_>
    <_>
      <rects>
        <_>
          10 10 10 6 -1.</_>
        <_>
          10 10 5 3 2.</_>
        <_>
          15 13 5 3 2.</_></rects>
      <tilted>0</tilted></_>
    <_>
      <rects>
        <_>
          10 10 11 3 -1.</_>
        <_>
          10 11 11 1 3.</_></rects>
      <tilted>0</tilted></_>
    <_>
      <rects>
        <_>
          10 12 3 7 -1.</_>
        <_>
          11 12 1 7 3.</_></rects>
      <tilted>0</tilted></_>
    <_>
      <rects>
        <_>
          10 12 4 3 -1.</_>
        <_>
          10 13 4 1 3.</_></rects>
      <tilted>0</tilted></_>
    <_>
      <rects>
        <_>
          10 14 2 6 -1.</_>
        <_>
          10 16 2 2 3.</_></rects>
      <tilted>0</tilted></_>
    <_>
      <rects>
        <_>
          11 0 9 18 -1.</_>
        <_>
          11 6 9 6 3.</_></rects>
      <tilted>0</tilted></_>
    <_>
      <rects>
        <_>
          11 6 6 6 -1.</_>
        <_>
          13 6 2 6 3.</_></rects>
      <tilted>0</tilted></_>
    <_>
      <rects>
        <_>
          11 7 3 8 -1.</_>
        <_>
          12 7 1 8 3.</_></rects>
      <tilted>0</tilted></_>
    <_>
      <rects>
        <_>
          11 7 2 9 -1.</_>
        <_>
          12 7 1 9 2.</_></rects>
      <tilted>0</tilted></_>
    <_>
      <rects>
        <_>
          11 7 5 3 -1.</_>
        <_>
          11 8 5 1 3.</_></rects>
      <tilted>0</tilted></_>
    <_>
      <rects>
        <_>
          11 8 2 9 -1.</_>
        <_>
          12 8 1 9 2.</_></rects>
      <tilted>0</tilted></_>
    <_>
      <rects>
        <_>
          11 8 3 9 -1.</_>
        <_>
          12 8 1 9 3.</_></rects>
      <tilted>0</tilted></_>
    <_>
      <rects>
        <_>
          11 8 4 2 -1.</_>
        <_>
          11 9 4 1 2.</_></rects>
      <tilted>0</tilted></_>
    <_>
      <rects>
        <_>
          11 10 3 8 -1.</_>
        <_>
          12 10 1 8 3.</_></rects>
      <tilted>0</tilted></_>
    <_>
      <rects>
        <_>
          11 10 12 3 -1.</_>
        <_>
          15 10 4 3 3.</_></rects>
      <tilted>0</tilted></_>
    <_>
      <rects>
        <_>
          11 10 10 4 -1.</_>
        <_>
          11 10 5 2 2.</_>
        <_>
          16 12 5 2 2.</_></rects>
      <tilted>0</tilted></_>
    <_>
      <rects>
        <_>
          11 11 5 2 -1.</_>
        <_>
          11 12 5 1 2.</_></rects>
      <tilted>0</tilted></_>
    <_>
      <rects>
        <_>
          11 12 2 6 -1.</_>
        <_>
          11 14 2 2 3.</_></rects>
      <tilted>0</tilted></_>
    <_>
      <rects>
        <_>
          11 12 8 4 -1.</_>
        <_>
          11 12 4 2 2.</_>
        <_>
          15 14 4 2 2.</_></rects>
      <tilted>0</tilted></_>
    <_>
      <rects>
        <_>
          11 13 4 6 -1.</_>
        <_>
          11 15 4 2 3.</_></rects>
      <tilted>0</tilted></_>
    <_>
      <rects>
        <_>
          11 15 1 3 -1.</_>
        <_>
          11 16 1 1 3.</_></rects>
      <tilted>0</tilted></_>
    <_>
      <rects>
        <_>
          11 16 1 3 -1.</_>
        <_>
          11 17 1 1 3.</_></rects>
      <tilted>0</tilted></_>
    <_>
      <rects>
        <_>
          11 16 8 2 -1.</_>
        <_>
          11 16 4 1 2.</_>
        <_>
          15 17 4 1 2.</_></rects>
      <tilted>0</tilted></_>
    <_>
      <rects>
        <_>
          12 5 4 10 -1.</_>
        <_>
          12 5 2 5 2.</_>
        <_>
          14 10 2 5 2.</_></rects>
      <tilted>0</tilted></_>
    <_>
      <rects>
        <_>
          12 6 2 12 -1.</_>
        <_>
          13 6 1 12 2.</_></rects>
      <tilted>0</tilted></_>
    <_>
      <rects>
        <_>
          12 7 2 9 -1.</_>
        <_>
          13 7 1 9 2.</_></rects>
      <tilted>0</tilted></_>
    <_>
      <rects>
        <_>
          12 7 9 12 -1.</_>
        <_>
          12 13 9 6 2.</_></rects>
      <tilted>0</tilted></_>
    <_>
      <rects>
        <_>
          12 8 5 3 -1.</_>
        <_>
          12 9 5 1 3.</_></rects>
      <tilted>0</tilted></_>
    <_>
      <rects>
        <_>
          12 9 3 8 -1.</_>
        <_>
          13 9 1 8 3.</_></rects>
      <tilted>0</tilted></_>
    <_>
      <rects>
        <_>
          12 9 8 4 -1.</_>
        <_>
          16 9 4 4 2.</_></rects>
      <tilted>0</tilted></_>
    <_>
      <rects>
        <_>
          12 9 4 8 -1.</_>
        <_>
          12 13 4 4 2.</_></rects>
      <tilted>0</tilted></_>
    <_>
      <rects>
        <_>
          12 10 6 10 -1.</_>
        <_>
          12 15 6 5 2.</_></rects>
      <tilted>0</tilted></_>
    <_>
      <rects>
        <_>
          12 14 5 6 -1.</_>
        <_>
          12 16 5 2 3.</_></rects>
      <tilted>0</tilted></_>
    <_>
      <rects>
        <_>
          13 1 4 21 -1.</_>
        <_>
          13 8 4 7 3.</_></rects>
      <tilted>0</tilted></_>
    <_>
      <rects>
        <_>
          13 4 6 8 -1.</_>
        <_>
          16 4 3 8 2.</_></rects>
      <tilted>0</tilted></_>
    <_>
      <rects>
        <_>
          13 6 2 12 -1.</_>
        <_>
          14 6 1 12 2.</_></rects>
      <tilted>0</tilted></_>
    <_>
      <rects>
        <_>
          13 7 3 12 -1.</_>
        <_>
          13 11 3 4 3.</_></rects>
      <tilted>0</tilted></_>
    <_>
      <rects>
        <_>
          13 7 4 12 -1.</_>
        <_>
          13 11 4 4 3.</_></rects>
      <tilted>0</tilted></_>
    <_>
      <rects>
        <_>
          13 9 2 1 -1.</_>
        <_>
          14 9 1 1 2.</_></rects>
      <tilted>0</tilted></_>
    <_>
      <rects>
        <_>
          13 12 1 6 -1.</_>
        <_>
          13 14 1 2 3.</_></rects>
      <tilted>0</tilted></_>
    <_>
      <rects>
        <_>
          14 1 7 15 -1.</_>
        <_>
          14 6 7 5 3.</_></rects>
      <tilted>0</tilted></_>
    <_>
      <rects>
        <_>
          14 7 6 10 -1.</_>
        <_>
          14 7 3 5 2.</_>
        <_>
          17 12 3 5 2.</_></rects>
      <tilted>0</tilted></_>
    <_>
      <rects>
        <_>
          14 7 10 2 -1.</_>
        <_>
          19 7 5 2 2.</_></rects>
      <tilted>0</tilted></_>
    <_>
      <rects>
        <_>
          14 8 6 8 -1.</_>
        <_>
          14 8 3 4 2.</_>
        <_>
          17 12 3 4 2.</_></rects>
      <tilted>0</tilted></_>
    <_>
      <rects>
        <_>
          14 11 1 6 -1.</_>
        <_>
          14 13 1 2 3.</_></rects>
      <tilted>0</tilted></_>
    <_>
      <rects>
        <_>
          14 11 2 9 -1.</_>
        <_>
          14 14 2 3 3.</_></rects>
      <tilted>0</tilted></_>
    <_>
      <rects>
        <_>
          15 6 3 15 -1.</_>
        <_>
          15 11 3 5 3.</_></rects>
      <tilted>0</tilted></_>
    <_>
      <rects>
        <_>
          15 13 6 1 -1.</_>
        <_>
          17 13 2 1 3.</_></rects>
      <tilted>0</tilted></_>
    <_>
      <rects>
        <_>
          16 0 8 10 -1.</_>
        <_>
          16 0 4 5 2.</_>
        <_>
          20 5 4 5 2.</_></rects>
      <tilted>0</tilted></_>
    <_>
      <rects>
        <_>
          16 4 8 4 -1.</_>
        <_>
          20 4 4 4 2.</_></rects>
      <tilted>0</tilted></_>
    <_>
      <rects>
        <_>
          16 5 6 8 -1.</_>
        <_>
          18 5 2 8 3.</_></rects>
      <tilted>0</tilted></_>
    <_>
      <rects>
        <_>
          16 6 8 8 -1.</_>
        <_>
          20 6 4 8 2.</_></rects>
      <tilted>0</tilted></_>
    <_>
      <rects>
        <_>
          16 7 4 1 -1.</_>
        <_>
          18 7 2 1 2.</_></rects>
      <tilted>0</tilted></_>
    <_>
      <rects>
        <_>
          16 8 6 5 -1.</_>
        <_>
          18 8 2 5 3.</_></rects>
      <tilted>0</tilted></_>
    <_>
      <rects>
        <_>
          16 12 6 1 -1.</_>
        <_>
          18 12 2 1 3.</_></rects>
      <tilted>0</tilted></_>
    <_>
      <rects>
        <_>
          17 9 6 3 -1.</_>
        <_>
          19 9 2 3 3.</_></rects>
      <tilted>0</tilted></_>
    <_>
      <rects>
        <_>
          18 5 1 12 -1.</_>
        <_>
          18 9 1 4 3.</_></rects>
      <tilted>0</tilted></_>
    <_>
      <rects>
        <_>
          18 6 2 4 -1.</_>
        <_>
          18 6 1 2 2.</_>
        <_>
          19 8 1 2 2.</_></rects>
      <tilted>0</tilted></_>
    <_>
      <rects>
        <_>
          18 6 3 11 -1.</_>
        <_>
          19 6 1 11 3.</_></rects>
      <tilted>0</tilted></_>
    <_>
      <rects>
        <_>
          18 8 3 5 -1.</_>
        <_>
          19 8 1 5 3.</_></rects>
      <tilted>0</tilted></_>
    <_>
      <rects>
        <_>
          18 11 3 3 -1.</_>
        <_>
          19 11 1 3 3.</_></rects>
      <tilted>0</tilted></_>
    <_>
      <rects>
        <_>
          18 12 4 4 -1.</_>
        <_>
          18 12 2 2 2.</_>
        <_>
          20 14 2 2 2.</_></rects>
      <tilted>0</tilted></_>
    <_>
      <rects>
        <_>
          18 14 3 1 -1.</_>
        <_>
          19 14 1 1 3.</_></rects>
      <tilted>0</tilted></_>
    <_>
      <rects>
        <_>
          19 8 3 5 -1.</_>
        <_>
          20 8 1 5 3.</_></rects>
      <tilted>0</tilted></_>
    <_>
      <rects>
        <_>
          19 9 3 3 -1.</_>
        <_>
          20 9 1 3 3.</_></rects>
      <tilted>0</tilted></_>
    <_>
      <rects>
        <_>
          19 11 3 2 -1.</_>
        <_>
          20 11 1 2 3.</_></rects>
      <tilted>0</tilted></_>
    <_>
      <rects>
        <_>
          19 11 3 3 -1.</_>
        <_>
          20 11 1 3 3.</_></rects>
      <tilted>0</tilted></_></features></cascade>
</opencv_storage>
