<?xml version="1.0"?>
<opencv_storage>
<stage10>
  <maxWeakCount>28</maxWeakCount>
  <stageThreshold>-1.1096749305725098e+00</stageThreshold>
  <weakClassifiers>
    <_>
      <internalNodes>
        0 -1 94766 -4.0437240386381745e-05</internalNodes>
      <leafValues>
        -7.8242677450180054e-01 2.6588681340217590e-01</leafValues></_>
    <_>
      <internalNodes>
        0 -1 94766 4.8665362555766478e-05</internalNodes>
      <leafValues>
        1.9501908123493195e-01 -8.3533245325088501e-01</leafValues></_>
    <_>
      <internalNodes>
        0 -1 57131 -5.8974578976631165e-02</internalNodes>
      <leafValues>
        1.4652201533317566e-01 -7.0416516065597534e-01</leafValues></_>
    <_>
      <internalNodes>
        0 -1 117896 -1.3607324945041910e-05</internalNodes>
      <leafValues>
        2.8295525908470154e-01 -4.8655226826667786e-01</leafValues></_>
    <_>
      <internalNodes>
        0 -1 103965 3.4193638712167740e-03</internalNodes>
      <leafValues>
        1.6253331303596497e-01 -8.3704590797424316e-01</leafValues></_>
    <_>
      <internalNodes>
        0 -1 145722 3.2045044004917145e-02</internalNodes>
      <leafValues>
        -2.6441016793251038e-01 4.9770411849021912e-01</leafValues></_>
    <_>
      <internalNodes>
        0 -1 141470 -1.5089774504303932e-02</internalNodes>
      <leafValues>
        6.4424747228622437e-01 -1.8202672898769379e-01</leafValues></_>
    <_>
      <internalNodes>
        0 -1 118286 -1.5793018974363804e-03</internalNodes>
      <leafValues>
        -6.8213105201721191e-01 1.7201615869998932e-01</leafValues></_>
    <_>
      <internalNodes>
        0 -1 67688 8.3610677393153310e-05</internalNodes>
      <leafValues>
        1.4675141870975494e-01 -7.5573843717575073e-01</leafValues></_>
    <_>
      <internalNodes>
        0 -1 21570 -3.0049197375774384e-03</internalNodes>
      <leafValues>
        5.9876525402069092e-01 -1.8655624985694885e-01</leafValues></_>
    <_>
      <internalNodes>
        0 -1 8212 1.6407566145062447e-02</internalNodes>
      <leafValues>
        -1.7842611670494080e-01 6.2817341089248657e-01</leafValues></_>
    <_>
      <internalNodes>
        0 -1 111174 3.5148932511219755e-05</internalNodes>
      <leafValues>
        1.3781535625457764e-01 -8.5017377138137817e-01</leafValues></_>
    <_>
      <internalNodes>
        0 -1 146213 -2.4157846346497536e-03</internalNodes>
      <leafValues>
        4.0093532204627991e-01 -2.9897099733352661e-01</leafValues></_>
    <_>
      <internalNodes>
        0 -1 123922 4.7473432496190071e-03</internalNodes>
      <leafValues>
        -2.7217864990234375e-01 4.1350701451301575e-01</leafValues></_>
    <_>
      <internalNodes>
        0 -1 76073 1.2569698691368103e-01</internalNodes>
      <leafValues>
        1.0076623409986496e-01 -8.6096107959747314e-01</leafValues></_>
    <_>
      <internalNodes>
        0 -1 94296 1.1021355167031288e-02</internalNodes>
      <leafValues>
        9.6594892442226410e-02 -9.6454346179962158e-01</leafValues></_>
    <_>
      <internalNodes>
        0 -1 34167 4.9370601773262024e-03</internalNodes>
      <leafValues>
        -6.1763209104537964e-01 1.5021742880344391e-01</leafValues></_>
    <_>
      <internalNodes>
        0 -1 120361 2.3238412104547024e-03</internalNodes>
      <leafValues>
        -1.7924632132053375e-01 5.9652185440063477e-01</leafValues></_>
    <_>
      <internalNodes>
        0 -1 113113 -8.1758871674537659e-03</internalNodes>
      <leafValues>
        4.6574437618255615e-01 -2.1790976822376251e-01</leafValues></_>
    <_>
      <internalNodes>
        0 -1 129949 -5.5443201214075089e-02</internalNodes>
      <leafValues>
        8.0969882011413574e-01 -1.0847996920347214e-01</leafValues></_>
    <_>
      <internalNodes>
        0 -1 94801 3.0425721779465675e-03</internalNodes>
      <leafValues>
        1.7660668492317200e-01 -6.7797189950942993e-01</leafValues></_>
    <_>
      <internalNodes>
        0 -1 156566 7.3464475572109222e-03</internalNodes>
      <leafValues>
        -1.5978096425533295e-01 6.2920427322387695e-01</leafValues></_>
    <_>
      <internalNodes>
        0 -1 156910 -4.4557172805070877e-03</internalNodes>
      <leafValues>
        6.6681760549545288e-01 -1.8267901241779327e-01</leafValues></_>
    <_>
      <internalNodes>
        0 -1 112519 -2.0008641295135021e-03</internalNodes>
      <leafValues>
        -7.0100867748260498e-01 1.9181539118289948e-01</leafValues></_>
    <_>
      <internalNodes>
        0 -1 120566 2.0977151580154896e-03</internalNodes>
      <leafValues>
        -1.6589990258216858e-01 7.1171808242797852e-01</leafValues></_>
    <_>
      <internalNodes>
        0 -1 77380 2.0469876471906900e-04</internalNodes>
      <leafValues>
        1.5663464367389679e-01 -7.1820777654647827e-01</leafValues></_>
    <_>
      <internalNodes>
        0 -1 153351 3.2021875958889723e-03</internalNodes>
      <leafValues>
        -1.7679059505462646e-01 6.9335210323333740e-01</leafValues></_>
    <_>
      <internalNodes>
        0 -1 74622 4.4761812314391136e-03</internalNodes>
      <leafValues>
        -3.9541357755661011e-01 3.0035251379013062e-01</leafValues></_></weakClassifiers></stage10>
</opencv_storage>
