<?xml version="1.0"?>
<opencv_storage>
<stage4>
  <maxWeakCount>9</maxWeakCount>
  <stageThreshold>-4.7998529672622681e-01</stageThreshold>
  <weakClassifiers>
    <_>
      <internalNodes>
        0 -1 96921 -3.8083329796791077e-02</internalNodes>
      <leafValues>
        9.2156863212585449e-01 -6.8518519401550293e-01</leafValues></_>
    <_>
      <internalNodes>
        0 -1 203074 3.2545905560255051e-02</internalNodes>
      <leafValues>
        -5.1038628816604614e-01 8.2609003782272339e-01</leafValues></_>
    <_>
      <internalNodes>
        0 -1 156766 -3.1789357308298349e-03</internalNodes>
      <leafValues>
        6.5515398979187012e-01 -7.7725028991699219e-01</leafValues></_>
    <_>
      <internalNodes>
        0 -1 247992 -4.3778181076049805e-02</internalNodes>
      <leafValues>
        6.3772904872894287e-01 -6.4403915405273438e-01</leafValues></_>
    <_>
      <internalNodes>
        0 -1 146634 1.1455372441560030e-03</internalNodes>
      <leafValues>
        4.1644072532653809e-01 -9.8304635286331177e-01</leafValues></_>
    <_>
      <internalNodes>
        0 -1 119320 -5.6183821288868785e-04</internalNodes>
      <leafValues>
        -9.9306857585906982e-01 2.7332803606987000e-01</leafValues></_>
    <_>
      <internalNodes>
        0 -1 129703 -2.5344393216073513e-03</internalNodes>
      <leafValues>
        2.9051190614700317e-01 -9.3217623233795166e-01</leafValues></_>
    <_>
      <internalNodes>
        0 -1 117178 -2.5440859608352184e-03</internalNodes>
      <leafValues>
        -8.8958513736724854e-01 3.4715133905410767e-01</leafValues></_>
    <_>
      <internalNodes>
        0 -1 118569 1.5705695841461420e-03</internalNodes>
      <leafValues>
        3.3474263548851013e-01 -8.5639023780822754e-01</leafValues></_></weakClassifiers></stage4>
</opencv_storage>
