<?xml version="1.0"?>
<opencv_storage>
<stage0>
  <maxWeakCount>6</maxWeakCount>
  <stageThreshold>-7.3617535235825926e-05</stageThreshold>
  <weakClassifiers>
    <_>
      <internalNodes>
        0 -1 203074 1.6929563134908676e-02</internalNodes>
      <leafValues>
        -8.6105263233184814e-01 9.6613138914108276e-01</leafValues></_>
    <_>
      <internalNodes>
        0 -1 112418 -2.5976113975048065e-02</internalNodes>
      <leafValues>
        9.1443634033203125e-01 -8.3269220590591431e-01</leafValues></_>
    <_>
      <internalNodes>
        0 -1 217384 -3.2810121774673462e-02</internalNodes>
      <leafValues>
        9.3910253047943115e-01 -7.0045715570449829e-01</leafValues></_>
    <_>
      <internalNodes>
        0 -1 61725 -5.3258426487445831e-02</internalNodes>
      <leafValues>
        9.0257358551025391e-01 -7.0187205076217651e-01</leafValues></_>
    <_>
      <internalNodes>
        0 -1 254572 -4.9338894896209240e-03</internalNodes>
      <leafValues>
        7.9901367425918579e-01 -8.0147194862365723e-01</leafValues></_>
    <_>
      <internalNodes>
        0 -1 168018 1.8138227984309196e-02</internalNodes>
      <leafValues>
        -7.7924382686614990e-01 6.9254118204116821e-01</leafValues></_></weakClassifiers></stage0>
</opencv_storage>
