<?xml version="1.0"?>
<opencv_storage>
<stage1>
  <maxWeakCount>11</maxWeakCount>
  <stageThreshold>-1.3198924064636230e+00</stageThreshold>
  <weakClassifiers>
    <_>
      <internalNodes>
        0 -1 128763 9.4003967940807343e-02</internalNodes>
      <leafValues>
        -6.6887414455413818e-01 7.2146999835968018e-01</leafValues></_>
    <_>
      <internalNodes>
        0 -1 85834 2.7559546651900746e-05</internalNodes>
      <leafValues>
        4.1849827766418457e-01 -8.8632357120513916e-01</leafValues></_>
    <_>
      <internalNodes>
        0 -1 85834 -4.1646064346423373e-05</internalNodes>
      <leafValues>
        -7.9474991559982300e-01 3.8830354809761047e-01</leafValues></_>
    <_>
      <internalNodes>
        0 -1 136913 -2.6446931064128876e-02</internalNodes>
      <leafValues>
        8.4611541032791138e-01 -4.5187151432037354e-01</leafValues></_>
    <_>
      <internalNodes>
        0 -1 77368 4.5732966100331396e-05</internalNodes>
      <leafValues>
        3.8621920347213745e-01 -9.0157854557037354e-01</leafValues></_>
    <_>
      <internalNodes>
        0 -1 95681 -2.8774080419680104e-05</internalNodes>
      <leafValues>
        -9.4000411033630371e-01 2.7050930261611938e-01</leafValues></_>
    <_>
      <internalNodes>
        0 -1 86770 -3.8557831430807710e-05</internalNodes>
      <leafValues>
        -7.8921991586685181e-01 2.8199183940887451e-01</leafValues></_>
    <_>
      <internalNodes>
        0 -1 86770 3.6457582609727979e-05</internalNodes>
      <leafValues>
        2.3073533177375793e-01 -7.9411458969116211e-01</leafValues></_>
    <_>
      <internalNodes>
        0 -1 136689 -1.2371897697448730e-02</internalNodes>
      <leafValues>
        5.1236057281494141e-01 -4.7328862547874451e-01</leafValues></_>
    <_>
      <internalNodes>
        0 -1 111121 4.1157727537211031e-05</internalNodes>
      <leafValues>
        3.5407137870788574e-01 -8.6082190275192261e-01</leafValues></_>
    <_>
      <internalNodes>
        0 -1 147266 4.1356380097568035e-03</internalNodes>
      <leafValues>
        -4.0963301062583923e-01 6.2199515104293823e-01</leafValues></_></weakClassifiers></stage1>
</opencv_storage>
