<?xml version="1.0"?>
<opencv_storage>
<stage5>
  <maxWeakCount>8</maxWeakCount>
  <stageThreshold>3.1976029276847839e-01</stageThreshold>
  <weakClassifiers>
    <_>
      <internalNodes>
        0 -1 173698 -5.5004586465656757e-04</internalNodes>
      <leafValues>
        -9.2086333036422729e-01 8.7134182453155518e-01</leafValues></_>
    <_>
      <internalNodes>
        0 -1 258136 -1.0742489248514175e-02</internalNodes>
      <leafValues>
        8.2713812589645386e-01 -5.2310395240783691e-01</leafValues></_>
    <_>
      <internalNodes>
        0 -1 90400 6.5018679015338421e-04</internalNodes>
      <leafValues>
        5.4665875434875488e-01 -9.7054648399353027e-01</leafValues></_>
    <_>
      <internalNodes>
        0 -1 261336 1.6609007492661476e-02</internalNodes>
      <leafValues>
        -6.9277799129486084e-01 5.6836658716201782e-01</leafValues></_>
    <_>
      <internalNodes>
        0 -1 142633 8.6033642292022705e-03</internalNodes>
      <leafValues>
        -7.6513987779617310e-01 4.5829975605010986e-01</leafValues></_>
    <_>
      <internalNodes>
        0 -1 118313 -2.9415107565000653e-04</internalNodes>
      <leafValues>
        -9.0791738033294678e-01 3.8124424219131470e-01</leafValues></_>
    <_>
      <internalNodes>
        0 -1 59062 -5.3603295236825943e-04</internalNodes>
      <leafValues>
        3.1646913290023804e-01 -9.5704531669616699e-01</leafValues></_>
    <_>
      <internalNodes>
        0 -1 106829 -5.7365605607628822e-03</internalNodes>
      <leafValues>
        -9.8789715766906738e-01 2.5079026818275452e-01</leafValues></_></weakClassifiers></stage5>
</opencv_storage>
