<?xml version="1.0"?>
<opencv_storage>
<stage6>
  <maxWeakCount>17</maxWeakCount>
  <stageThreshold>-1.1396216154098511e+00</stageThreshold>
  <weakClassifiers>
    <_>
      <internalNodes>
        0 -1 31719 7.6815813779830933e-02</internalNodes>
      <leafValues>
        -5.3940135240554810e-01 5.1850199699401855e-01</leafValues></_>
    <_>
      <internalNodes>
        0 -1 130577 5.8507616631686687e-04</internalNodes>
      <leafValues>
        -6.5581893920898438e-01 3.4663978219032288e-01</leafValues></_>
    <_>
      <internalNodes>
        0 -1 94975 3.0320425139507279e-05</internalNodes>
      <leafValues>
        2.0691159367561340e-01 -8.8384634256362915e-01</leafValues></_>
    <_>
      <internalNodes>
        0 -1 95387 1.2529987543530297e-05</internalNodes>
      <leafValues>
        1.7104507982730865e-01 -8.5680156946182251e-01</leafValues></_>
    <_>
      <internalNodes>
        0 -1 110626 2.8656002541538328e-05</internalNodes>
      <leafValues>
        -7.8428417444229126e-01 1.4448893070220947e-01</leafValues></_>
    <_>
      <internalNodes>
        0 -1 110625 -2.5790959625737742e-05</internalNodes>
      <leafValues>
        2.8621861338615417e-01 -5.5589431524276733e-01</leafValues></_>
    <_>
      <internalNodes>
        0 -1 102292 1.2131281197071075e-02</internalNodes>
      <leafValues>
        1.5527890622615814e-01 -8.9342379570007324e-01</leafValues></_>
    <_>
      <internalNodes>
        0 -1 86819 4.5054053771309555e-05</internalNodes>
      <leafValues>
        1.7985253036022186e-01 -8.1113076210021973e-01</leafValues></_>
    <_>
      <internalNodes>
        0 -1 153148 2.1626731380820274e-02</internalNodes>
      <leafValues>
        -3.3519762754440308e-01 5.8296149969100952e-01</leafValues></_>
    <_>
      <internalNodes>
        0 -1 86323 -7.3393464845139533e-05</internalNodes>
      <leafValues>
        -7.5172597169876099e-01 2.0027817785739899e-01</leafValues></_>
    <_>
      <internalNodes>
        0 -1 100133 -2.1435178816318512e-02</internalNodes>
      <leafValues>
        -6.6810357570648193e-01 1.8913017213344574e-01</leafValues></_>
    <_>
      <internalNodes>
        0 -1 65912 1.2688046693801880e-01</internalNodes>
      <leafValues>
        1.3674870133399963e-01 -9.2216402292251587e-01</leafValues></_>
    <_>
      <internalNodes>
        0 -1 125575 -4.2759705334901810e-02</internalNodes>
      <leafValues>
        6.5949881076812744e-01 -2.4073876440525055e-01</leafValues></_>
    <_>
      <internalNodes>
        0 -1 87419 -2.6967623853124678e-05</internalNodes>
      <leafValues>
        4.8785570263862610e-01 -4.5139393210411072e-01</leafValues></_>
    <_>
      <internalNodes>
        0 -1 68182 -1.4539934454660397e-05</internalNodes>
      <leafValues>
        2.9251611232757568e-01 -5.1833981275558472e-01</leafValues></_>
    <_>
      <internalNodes>
        0 -1 93328 1.1654786765575409e-01</internalNodes>
      <leafValues>
        -1.8944779038429260e-01 7.6783037185668945e-01</leafValues></_>
    <_>
      <internalNodes>
        0 -1 117519 -2.8804433532059193e-04</internalNodes>
      <leafValues>
        4.7550284862518311e-01 -3.8265225291252136e-01</leafValues></_></weakClassifiers></stage6>
</opencv_storage>
