<?xml version="1.0"?>
<opencv_storage>
<stage1>
  <maxWeakCount>8</maxWeakCount>
  <stageThreshold>-4.5852094888687134e-01</stageThreshold>
  <weakClassifiers>
    <_>
      <internalNodes>
        0 -1 187657 -1.5703862532973289e-02</internalNodes>
      <leafValues>
        9.2573404312133789e-01 -7.4178403615951538e-01</leafValues></_>
    <_>
      <internalNodes>
        0 -1 169285 4.3482063338160515e-03</internalNodes>
      <leafValues>
        -6.6653937101364136e-01 9.1069686412811279e-01</leafValues></_>
    <_>
      <internalNodes>
        0 -1 156754 -3.1738416291773319e-03</internalNodes>
      <leafValues>
        8.6230236291885376e-01 -7.0016252994537354e-01</leafValues></_>
    <_>
      <internalNodes>
        0 -1 12378 -5.2615627646446228e-04</internalNodes>
      <leafValues>
        7.7346062660217285e-01 -7.0361101627349854e-01</leafValues></_>
    <_>
      <internalNodes>
        0 -1 164942 7.2085727006196976e-03</internalNodes>
      <leafValues>
        -8.6951917409896851e-01 5.9823125600814819e-01</leafValues></_>
    <_>
      <internalNodes>
        0 -1 110354 1.9546959083527327e-04</internalNodes>
      <leafValues>
        4.0083587169647217e-01 -9.4383966922760010e-01</leafValues></_>
    <_>
      <internalNodes>
        0 -1 245110 -5.1339343190193176e-02</internalNodes>
      <leafValues>
        7.0319217443466187e-01 -6.0678738355636597e-01</leafValues></_>
    <_>
      <internalNodes>
        0 -1 158729 4.8750714631751180e-04</internalNodes>
      <leafValues>
        3.8951009511947632e-01 -9.8239558935165405e-01</leafValues></_></weakClassifiers></stage1>
</opencv_storage>
