<?xml version="1.0"?>
<opencv_storage>
<stage8>
  <maxWeakCount>20</maxWeakCount>
  <stageThreshold>-1.4449044466018677e+00</stageThreshold>
  <weakClassifiers>
    <_>
      <internalNodes>
        0 -1 119164 -1.3416385278105736e-02</internalNodes>
      <leafValues>
        6.3960188627243042e-01 -4.7742262482643127e-01</leafValues></_>
    <_>
      <internalNodes>
        0 -1 120645 3.4305152948945761e-03</internalNodes>
      <leafValues>
        -3.1313979625701904e-01 6.3994848728179932e-01</leafValues></_>
    <_>
      <internalNodes>
        0 -1 41634 -4.8753852024674416e-03</internalNodes>
      <leafValues>
        6.4638710021972656e-01 -3.1205603480339050e-01</leafValues></_>
    <_>
      <internalNodes>
        0 -1 144271 -1.3438994064927101e-02</internalNodes>
      <leafValues>
        4.3344739079475403e-01 -4.2440038919448853e-01</leafValues></_>
    <_>
      <internalNodes>
        0 -1 94747 1.3571615454566199e-05</internalNodes>
      <leafValues>
        -5.1627498865127563e-01 3.5556840896606445e-01</leafValues></_>
    <_>
      <internalNodes>
        0 -1 42775 1.8886430561542511e-01</internalNodes>
      <leafValues>
        2.1702435612678528e-01 -8.5954004526138306e-01</leafValues></_>
    <_>
      <internalNodes>
        0 -1 156566 4.6650292351841927e-03</internalNodes>
      <leafValues>
        -3.5055726766586304e-01 5.8963042497634888e-01</leafValues></_>
    <_>
      <internalNodes>
        0 -1 54254 2.9955164063721895e-04</internalNodes>
      <leafValues>
        -1.8295146524906158e-01 7.7226823568344116e-01</leafValues></_>
    <_>
      <internalNodes>
        0 -1 54987 6.5942015498876572e-04</internalNodes>
      <leafValues>
        -2.0329631865024567e-01 7.6276308298110962e-01</leafValues></_>
    <_>
      <internalNodes>
        0 -1 53560 1.2692297786998097e-05</internalNodes>
      <leafValues>
        -2.4660900235176086e-01 6.1199980974197388e-01</leafValues></_>
    <_>
      <internalNodes>
        0 -1 69341 1.3673137800651602e-05</internalNodes>
      <leafValues>
        -3.1657949090003967e-01 4.9486285448074341e-01</leafValues></_>
    <_>
      <internalNodes>
        0 -1 97204 -1.7617303878068924e-02</internalNodes>
      <leafValues>
        6.4836907386779785e-01 -2.4793007969856262e-01</leafValues></_>
    <_>
      <internalNodes>
        0 -1 101342 2.5040055625140667e-03</internalNodes>
      <leafValues>
        -2.9019415378570557e-01 4.7900170087814331e-01</leafValues></_>
    <_>
      <internalNodes>
        0 -1 154644 -7.5139838736504316e-04</internalNodes>
      <leafValues>
        6.3491839170455933e-01 -2.4275942146778107e-01</leafValues></_>
    <_>
      <internalNodes>
        0 -1 64918 4.1603716090321541e-04</internalNodes>
      <leafValues>
        -1.7040170729160309e-01 7.4278789758682251e-01</leafValues></_>
    <_>
      <internalNodes>
        0 -1 153758 3.1996048055589199e-03</internalNodes>
      <leafValues>
        -2.4726790189743042e-01 5.3326737880706787e-01</leafValues></_>
    <_>
      <internalNodes>
        0 -1 118408 -6.2899038312025368e-05</internalNodes>
      <leafValues>
        -7.2152948379516602e-01 1.9670154154300690e-01</leafValues></_>
    <_>
      <internalNodes>
        0 -1 112613 -1.0740622383309528e-04</internalNodes>
      <leafValues>
        3.5339158773422241e-01 -3.8258057832717896e-01</leafValues></_>
    <_>
      <internalNodes>
        0 -1 69561 -3.4128548577427864e-04</internalNodes>
      <leafValues>
        5.9936672449111938e-01 -2.4040539562702179e-01</leafValues></_>
    <_>
      <internalNodes>
        0 -1 59230 5.3162605036050081e-04</internalNodes>
      <leafValues>
        -3.1959807872772217e-01 5.8322244882583618e-01</leafValues></_></weakClassifiers></stage8>
</opencv_storage>
