<?xml version="1.0"?>
<opencv_storage>
<stage9>
  <maxWeakCount>17</maxWeakCount>
  <stageThreshold>-1.2087676525115967e+00</stageThreshold>
  <weakClassifiers>
    <_>
      <internalNodes>
        0 -1 119467 2.9779173928545788e-05</internalNodes>
      <leafValues>
        -6.2640661001205444e-01 4.3776991963386536e-01</leafValues></_>
    <_>
      <internalNodes>
        0 -1 31864 1.2900280125904828e-05</internalNodes>
      <leafValues>
        -3.2699346542358398e-01 5.2355527877807617e-01</leafValues></_>
    <_>
      <internalNodes>
        0 -1 31864 -1.2042009984725155e-05</internalNodes>
      <leafValues>
        6.0852074623107910e-01 -2.9387611150741577e-01</leafValues></_>
    <_>
      <internalNodes>
        0 -1 76383 3.7607777630910277e-04</internalNodes>
      <leafValues>
        2.3202306032180786e-01 -7.3429906368255615e-01</leafValues></_>
    <_>
      <internalNodes>
        0 -1 7877 2.1109599620103836e-02</internalNodes>
      <leafValues>
        -5.2173066139221191e-01 3.2028788328170776e-01</leafValues></_>
    <_>
      <internalNodes>
        0 -1 103197 1.2947862160217483e-05</internalNodes>
      <leafValues>
        -6.3135856389999390e-01 2.2737209498882294e-01</leafValues></_>
    <_>
      <internalNodes>
        0 -1 86900 4.1907221078872681e-02</internalNodes>
      <leafValues>
        1.8452401459217072e-01 -7.8078192472457886e-01</leafValues></_>
    <_>
      <internalNodes>
        0 -1 132322 8.1974975764751434e-03</internalNodes>
      <leafValues>
        -2.7784112095832825e-01 5.8529597520828247e-01</leafValues></_>
    <_>
      <internalNodes>
        0 -1 136616 3.2614864408969879e-02</internalNodes>
      <leafValues>
        -1.9286994636058807e-01 8.3963912725448608e-01</leafValues></_>
    <_>
      <internalNodes>
        0 -1 22204 8.4227509796619415e-03</internalNodes>
      <leafValues>
        -2.4138340353965759e-01 5.5891495943069458e-01</leafValues></_>
    <_>
      <internalNodes>
        0 -1 94746 -1.4791050925850868e-03</internalNodes>
      <leafValues>
        -5.8827960491180420e-01 2.6373925805091858e-01</leafValues></_>
    <_>
      <internalNodes>
        0 -1 64267 1.3075186870992184e-05</internalNodes>
      <leafValues>
        -2.7841854095458984e-01 5.3735095262527466e-01</leafValues></_>
    <_>
      <internalNodes>
        0 -1 94746 -1.2947862160217483e-05</internalNodes>
      <leafValues>
        2.5955495238304138e-01 -4.8564231395721436e-01</leafValues></_>
    <_>
      <internalNodes>
        0 -1 59492 -1.4395082871487830e-05</internalNodes>
      <leafValues>
        4.7327151894569397e-01 -2.5767719745635986e-01</leafValues></_>
    <_>
      <internalNodes>
        0 -1 59492 1.3833050616085529e-05</internalNodes>
      <leafValues>
        -2.9974144697189331e-01 5.2113491296768188e-01</leafValues></_>
    <_>
      <internalNodes>
        0 -1 86739 -9.5006806077435613e-05</internalNodes>
      <leafValues>
        -7.3323696851730347e-01 1.9320252537727356e-01</leafValues></_>
    <_>
      <internalNodes>
        0 -1 154435 8.9787337929010391e-03</internalNodes>
      <leafValues>
        -2.4465982615947723e-01 5.5761981010437012e-01</leafValues></_></weakClassifiers></stage9>
</opencv_storage>
