<?xml version="1.0"?>
<opencv_storage>
<stage7>
  <maxWeakCount>15</maxWeakCount>
  <stageThreshold>-1.3613373041152954e+00</stageThreshold>
  <weakClassifiers>
    <_>
      <internalNodes>
        0 -1 102292 8.6787836626172066e-03</internalNodes>
      <leafValues>
        6.0031658411026001e-01 -9.1426461935043335e-01</leafValues></_>
    <_>
      <internalNodes>
        0 -1 126998 -2.1118018776178360e-02</internalNodes>
      <leafValues>
        5.9515804052352905e-01 -4.6992975473403931e-01</leafValues></_>
    <_>
      <internalNodes>
        0 -1 145526 -1.6114331083372235e-04</internalNodes>
      <leafValues>
        4.0377581119537354e-01 -5.7384771108627319e-01</leafValues></_>
    <_>
      <internalNodes>
        0 -1 14289 2.1804970502853394e-01</internalNodes>
      <leafValues>
        -3.9547121524810791e-01 4.6212592720985413e-01</leafValues></_>
    <_>
      <internalNodes>
        0 -1 95633 -3.3255881135119125e-05</internalNodes>
      <leafValues>
        -8.2772785425186157e-01 2.5378051400184631e-01</leafValues></_>
    <_>
      <internalNodes>
        0 -1 156685 4.2615095153450966e-03</internalNodes>
      <leafValues>
        -2.6967912912368774e-01 7.3320931196212769e-01</leafValues></_>
    <_>
      <internalNodes>
        0 -1 95633 1.3536316146200988e-05</internalNodes>
      <leafValues>
        2.0114599168300629e-01 -9.2386519908905029e-01</leafValues></_>
    <_>
      <internalNodes>
        0 -1 156915 -4.2403787374496460e-03</internalNodes>
      <leafValues>
        7.0150631666183472e-01 -3.1299450993537903e-01</leafValues></_>
    <_>
      <internalNodes>
        0 -1 119993 1.9857417792081833e-02</internalNodes>
      <leafValues>
        -1.8819324672222137e-01 7.5539833307266235e-01</leafValues></_>
    <_>
      <internalNodes>
        0 -1 137673 -1.2465959414839745e-02</internalNodes>
      <leafValues>
        6.2683957815170288e-01 -2.9034903645515442e-01</leafValues></_>
    <_>
      <internalNodes>
        0 -1 95222 -1.2947862160217483e-05</internalNodes>
      <leafValues>
        3.3780092000961304e-01 -4.8778879642486572e-01</leafValues></_>
    <_>
      <internalNodes>
        0 -1 103639 -1.2789588254236151e-05</internalNodes>
      <leafValues>
        2.4133101105690002e-01 -4.9121496081352234e-01</leafValues></_>
    <_>
      <internalNodes>
        0 -1 131515 6.2218416132964194e-05</internalNodes>
      <leafValues>
        2.9192614555358887e-01 -4.7092106938362122e-01</leafValues></_>
    <_>
      <internalNodes>
        0 -1 154255 -3.5661915317177773e-03</internalNodes>
      <leafValues>
        6.3797438144683838e-01 -2.0246869325637817e-01</leafValues></_>
    <_>
      <internalNodes>
        0 -1 147266 2.6567676104605198e-03</internalNodes>
      <leafValues>
        -2.4599863588809967e-01 4.8306825757026672e-01</leafValues></_></weakClassifiers></stage7>
</opencv_storage>
