<?xml version="1.0"?>
<opencv_storage>
<stage2>
  <maxWeakCount>9</maxWeakCount>
  <stageThreshold>-4.2790791392326355e-01</stageThreshold>
  <weakClassifiers>
    <_>
      <internalNodes>
        0 -1 258278 -5.6821303442120552e-03</internalNodes>
      <leafValues>
        9.6273672580718994e-01 -4.0255591273307800e-01</leafValues></_>
    <_>
      <internalNodes>
        0 -1 191587 -5.6840233504772186e-02</internalNodes>
      <leafValues>
        7.9344636201858521e-01 -8.5355007648468018e-01</leafValues></_>
    <_>
      <internalNodes>
        0 -1 46700 -5.9829778969287872e-02</internalNodes>
      <leafValues>
        7.2230947017669678e-01 -6.8183189630508423e-01</leafValues></_>
    <_>
      <internalNodes>
        0 -1 181770 -1.4991000061854720e-03</internalNodes>
      <leafValues>
        6.6960346698760986e-01 -6.7852610349655151e-01</leafValues></_>
    <_>
      <internalNodes>
        0 -1 134803 -3.8126824074424803e-04</internalNodes>
      <leafValues>
        -9.6891725063323975e-01 3.9197066426277161e-01</leafValues></_>
    <_>
      <internalNodes>
        0 -1 134683 2.2794403776060790e-04</internalNodes>
      <leafValues>
        3.6632394790649414e-01 -9.8388153314590454e-01</leafValues></_>
    <_>
      <internalNodes>
        0 -1 260597 1.2973307166248560e-03</internalNodes>
      <leafValues>
        -6.8290835618972778e-01 5.6845825910568237e-01</leafValues></_>
    <_>
      <internalNodes>
        0 -1 62054 4.8216164577752352e-04</internalNodes>
      <leafValues>
        4.0327632427215576e-01 -9.2638927698135376e-01</leafValues></_>
    <_>
      <internalNodes>
        0 -1 229159 6.4231837168335915e-03</internalNodes>
      <leafValues>
        -9.2265850305557251e-01 3.0575215816497803e-01</leafValues></_></weakClassifiers></stage2>
</opencv_storage>
