<?xml version="1.0"?>
<opencv_storage>
<cascade>
  <stageType>BOOST</stageType>
  <featureType>HAAR</featureType>
  <height>24</height>
  <width>24</width>
  <stageParams>
    <boostType>GAB</boostType>
    <minHitRate>9.9900001287460327e-01</minHitRate>
    <maxFalseAlarm>1.0000000149011612e-01</maxFalseAlarm>
    <weightTrimRate>9.4999999999999996e-01</weightTrimRate>
    <maxDepth>1</maxDepth>
    <maxWeakCount>100</maxWeakCount></stageParams>
  <featureParams>
    <maxCatCount>0</maxCatCount>
    <featSize>1</featSize>
    <mode>BASIC</mode></featureParams>
  <stageNum>4</stageNum>
  <stages>
    <!-- stage 0 -->
    <_>
      <maxWeakCount>1</maxWeakCount>
      <stageThreshold>9.8018020391464233e-01</stageThreshold>
      <weakClassifiers>
        <_>
          <internalNodes>
            0 -1 1 -1.5780426561832428e-02</internalNodes>
          <leafValues>
            9.8018020391464233e-01 -9.9797981977462769e-01</leafValues></_></weakClassifiers></_>
    <!-- stage 1 -->
    <_>
      <maxWeakCount>4</maxWeakCount>
      <stageThreshold>-3.8972684741020203e-01</stageThreshold>
      <weakClassifiers>
        <_>
          <internalNodes>
            0 -1 0 -6.1724841594696045e-02</internalNodes>
          <leafValues>
            8.9592367410659790e-01 -9.8521649837493896e-01</leafValues></_>
        <_>
          <internalNodes>
            0 -1 13 2.0621339790523052e-03</internalNodes>
          <leafValues>
            -9.8485064506530762e-01 8.4031420946121216e-01</leafValues></_>
        <_>
          <internalNodes>
            0 -1 9 -3.3186852931976318e-02</internalNodes>
          <leafValues>
            8.3233982324600220e-01 -9.3264865875244141e-01</leafValues></_>
        <_>
          <internalNodes>
            0 -1 12 -3.9560748264193535e-03</internalNodes>
          <leafValues>
            6.8782407045364380e-01 -9.9870800971984863e-01</leafValues></_></weakClassifiers></_>
    <!-- stage 2 -->
    <_>
      <maxWeakCount>4</maxWeakCount>
      <stageThreshold>-3.3791723847389221e-01</stageThreshold>
      <weakClassifiers>
        <_>
          <internalNodes>
            0 -1 15 -2.1373252384364605e-03</internalNodes>
          <leafValues>
            8.9100348949432373e-01 -9.8516947031021118e-01</leafValues></_>
        <_>
          <internalNodes>
            0 -1 5 -1.6408939845860004e-03</internalNodes>
          <leafValues>
            8.2721263170242310e-01 -9.6485549211502075e-01</leafValues></_>
        <_>
          <internalNodes>
            0 -1 8 -1.4134836383163929e-03</internalNodes>
          <leafValues>
            7.8897458314895630e-01 -9.8491638898849487e-01</leafValues></_>
        <_>
          <internalNodes>
            0 -1 3 9.0816900134086609e-02</internalNodes>
          <leafValues>
            -8.7269008159637451e-01 8.2313317060470581e-01</leafValues></_></weakClassifiers></_>
    <!-- stage 3 -->
    <_>
      <maxWeakCount>7</maxWeakCount>
      <stageThreshold>-8.0330187082290649e-01</stageThreshold>
      <weakClassifiers>
        <_>
          <internalNodes>
            0 -1 14 -1.1278912425041199e-03</internalNodes>
          <leafValues>
            7.1677213907241821e-01 -9.6411484479904175e-01</leafValues></_>
        <_>
          <internalNodes>
            0 -1 11 5.4226578213274479e-03</internalNodes>
          <leafValues>
            -9.6983999013900757e-01 6.1455231904983521e-01</leafValues></_>
        <_>
          <internalNodes>
            0 -1 6 1.0810187086462975e-03</internalNodes>
          <leafValues>
            -9.8994827270507813e-01 4.5467641949653625e-01</leafValues></_>
        <_>
          <internalNodes>
            0 -1 2 -3.1694453209638596e-03</internalNodes>
          <leafValues>
            7.0283520221710205e-01 -7.4003952741622925e-01</leafValues></_>
        <_>
          <internalNodes>
            0 -1 4 -4.6883994946256280e-04</internalNodes>
          <leafValues>
            4.8090910911560059e-01 -9.8825192451477051e-01</leafValues></_>
        <_>
          <internalNodes>
            0 -1 10 -1.4004473341628909e-03</internalNodes>
          <leafValues>
            4.5407888293266296e-01 -9.5133215188980103e-01</leafValues></_>
        <_>
          <internalNodes>
            0 -1 7 -3.2393340952694416e-03</internalNodes>
          <leafValues>
            4.8102805018424988e-01 -9.6733921766281128e-01</leafValues></_></weakClassifiers></_></stages>
  <features>
    <_>
      <rects>
        <_>
          9 12 5 10 -1.</_>
        <_>
          9 17 5 5 2.</_></rects>
      <tilted>0</tilted></_>
    <_>
      <rects>
        <_>
          9 14 6 4 -1.</_>
        <_>
          9 14 3 2 2.</_>
        <_>
          12 16 3 2 2.</_></rects>
      <tilted>0</tilted></_>
    <_>
      <rects>
        <_>
          9 17 1 2 -1.</_>
        <_>
          9 18 1 1 2.</_></rects>
      <tilted>0</tilted></_>
    <_>
      <rects>
        <_>
          10 6 12 9 -1.</_>
        <_>
          14 6 4 9 3.</_></rects>
      <tilted>0</tilted></_>
    <_>
      <rects>
        <_>
          10 8 1 14 -1.</_>
        <_>
          10 15 1 7 2.</_></rects>
      <tilted>0</tilted></_>
    <_>
      <rects>
        <_>
          10 13 3 1 -1.</_>
        <_>
          11 13 1 1 3.</_></rects>
      <tilted>0</tilted></_>
    <_>
      <rects>
        <_>
          10 14 3 2 -1.</_>
        <_>
          11 14 1 2 3.</_></rects>
      <tilted>0</tilted></_>
    <_>
      <rects>
        <_>
          10 22 6 2 -1.</_>
        <_>
          10 22 3 1 2.</_>
        <_>
          13 23 3 1 2.</_></rects>
      <tilted>0</tilted></_>
    <_>
      <rects>
        <_>
          11 0 2 2 -1.</_>
        <_>
          11 1 2 1 2.</_></rects>
      <tilted>0</tilted></_>
    <_>
      <rects>
        <_>
          11 9 6 8 -1.</_>
        <_>
          11 9 3 4 2.</_>
        <_>
          14 13 3 4 2.</_></rects>
      <tilted>0</tilted></_>
    <_>
      <rects>
        <_>
          11 12 2 4 -1.</_>
        <_>
          11 12 1 2 2.</_>
        <_>
          12 14 1 2 2.</_></rects>
      <tilted>0</tilted></_>
    <_>
      <rects>
        <_>
          11 15 2 3 -1.</_>
        <_>
          11 16 2 1 3.</_></rects>
      <tilted>0</tilted></_>
    <_>
      <rects>
        <_>
          11 16 2 3 -1.</_>
        <_>
          11 17 2 1 3.</_></rects>
      <tilted>0</tilted></_>
    <_>
      <rects>
        <_>
          11 22 1 2 -1.</_>
        <_>
          11 23 1 1 2.</_></rects>
      <tilted>0</tilted></_>
    <_>
      <rects>
        <_>
          12 12 2 2 -1.</_>
        <_>
          12 12 1 1 2.</_>
        <_>
          13 13 1 1 2.</_></rects>
      <tilted>0</tilted></_>
    <_>
      <rects>
        <_>
          12 21 1 3 -1.</_>
        <_>
          12 22 1 1 3.</_></rects>
      <tilted>0</tilted></_></features></cascade>
</opencv_storage>
