<?xml version="1.0"?>
<opencv_storage>
<cascade>
  <stageType>BOOST</stageType>
  <featureType>HAAR</featureType>
  <height>24</height>
  <width>24</width>
  <stageParams>
    <boostType>GAB</boostType>
    <minHitRate>9.9900001287460327e-01</minHitRate>
    <maxFalseAlarm>1.0000000149011612e-01</maxFalseAlarm>
    <weightTrimRate>9.4999999999999996e-01</weightTrimRate>
    <maxDepth>1</maxDepth>
    <maxWeakCount>100</maxWeakCount></stageParams>
  <featureParams>
    <maxCatCount>0</maxCatCount>
    <featSize>1</featSize>
    <mode>BASIC</mode></featureParams>
  <stageNum>10</stageNum>
  <stages>
    <!-- stage 0 -->
    <_>
      <maxWeakCount>8</maxWeakCount>
      <stageThreshold>-5.9208518266677856e-01</stageThreshold>
      <weakClassifiers>
        <_>
          <internalNodes>
            0 -1 128 -5.5250171571969986e-02</internalNodes>
          <leafValues>
            8.3518517017364502e-01 -7.8627449274063110e-01</leafValues></_>
        <_>
          <internalNodes>
            0 -1 80 6.3127474859356880e-03</internalNodes>
          <leafValues>
            -8.8847208023071289e-01 5.3074812889099121e-01</leafValues></_>
        <_>
          <internalNodes>
            0 -1 154 -3.0761487782001495e-02</internalNodes>
          <leafValues>
            6.2327653169631958e-01 -6.5162801742553711e-01</leafValues></_>
        <_>
          <internalNodes>
            0 -1 49 1.2734578376694117e-05</internalNodes>
          <leafValues>
            3.6612027883529663e-01 -9.6616524457931519e-01</leafValues></_>
        <_>
          <internalNodes>
            0 -1 49 -2.5140048819594085e-05</internalNodes>
          <leafValues>
            -8.9212709665298462e-01 4.4663023948669434e-01</leafValues></_>
        <_>
          <internalNodes>
            0 -1 51 3.7443292967509478e-05</internalNodes>
          <leafValues>
            2.6681357622146606e-01 -9.6117341518402100e-01</leafValues></_>
        <_>
          <internalNodes>
            0 -1 66 -2.9647242627106607e-05</internalNodes>
          <leafValues>
            -8.8649392127990723e-01 3.2299241423606873e-01</leafValues></_>
        <_>
          <internalNodes>
            0 -1 83 2.6293186238035560e-05</internalNodes>
          <leafValues>
            3.3173289895057678e-01 -9.5702838897705078e-01</leafValues></_></weakClassifiers></_>
    <!-- stage 1 -->
    <_>
      <maxWeakCount>11</maxWeakCount>
      <stageThreshold>-4.9574327468872070e-01</stageThreshold>
      <weakClassifiers>
        <_>
          <internalNodes>
            0 -1 132 8.7981313467025757e-02</internalNodes>
          <leafValues>
            -7.2340422868728638e-01 6.7241376638412476e-01</leafValues></_>
        <_>
          <internalNodes>
            0 -1 86 -1.1936700502701569e-05</internalNodes>
          <leafValues>
            -9.4635510444641113e-01 4.0338841080665588e-01</leafValues></_>
        <_>
          <internalNodes>
            0 -1 56 3.4303513530176133e-05</internalNodes>
          <leafValues>
            3.6769467592239380e-01 -9.2789989709854126e-01</leafValues></_>
        <_>
          <internalNodes>
            0 -1 56 -6.1451617511920631e-05</internalNodes>
          <leafValues>
            -9.1871309280395508e-01 3.1975546479225159e-01</leafValues></_>
        <_>
          <internalNodes>
            0 -1 101 -2.8194312006235123e-02</internalNodes>
          <leafValues>
            6.9217854738235474e-01 -5.3511130809783936e-01</leafValues></_>
        <_>
          <internalNodes>
            0 -1 38 2.4725068215047941e-05</internalNodes>
          <leafValues>
            4.0865474939346313e-01 -8.8092130422592163e-01</leafValues></_>
        <_>
          <internalNodes>
            0 -1 87 -5.6520781072322279e-05</internalNodes>
          <leafValues>
            -9.1282474994659424e-01 2.4057175219058990e-01</leafValues></_>
        <_>
          <internalNodes>
            0 -1 38 -4.2006264266092330e-05</internalNodes>
          <leafValues>
            -7.5620245933532715e-01 3.6012515425682068e-01</leafValues></_>
        <_>
          <internalNodes>
            0 -1 65 3.8762671465519816e-05</internalNodes>
          <leafValues>
            2.1343676745891571e-01 -9.1433107852935791e-01</leafValues></_>
        <_>
          <internalNodes>
            0 -1 90 -4.0992665162775666e-05</internalNodes>
          <leafValues>
            -9.0454804897308350e-01 2.6954779028892517e-01</leafValues></_>
        <_>
          <internalNodes>
            0 -1 1 1.1139834299683571e-02</internalNodes>
          <leafValues>
            -4.2696914076805115e-01 6.9087481498718262e-01</leafValues></_></weakClassifiers></_>
    <!-- stage 2 -->
    <_>
      <maxWeakCount>14</maxWeakCount>
      <stageThreshold>-8.4306246042251587e-01</stageThreshold>
      <weakClassifiers>
        <_>
          <internalNodes>
            0 -1 50 -4.6710381866432726e-05</internalNodes>
          <leafValues>
            -8.7172013521194458e-01 4.9363508820533752e-01</leafValues></_>
        <_>
          <internalNodes>
            0 -1 42 4.2910479009151459e-02</internalNodes>
          <leafValues>
            -6.1653882265090942e-01 5.2372050285339355e-01</leafValues></_>
        <_>
          <internalNodes>
            0 -1 55 3.5636803659144789e-05</internalNodes>
          <leafValues>
            2.7770867943763733e-01 -9.4079256057739258e-01</leafValues></_>
        <_>
          <internalNodes>
            0 -1 63 1.5663180965930223e-04</internalNodes>
          <leafValues>
            2.8578415513038635e-01 -8.1584775447845459e-01</leafValues></_>
        <_>
          <internalNodes>
            0 -1 31 2.0052629709243774e-01</internalNodes>
          <leafValues>
            -6.3865005970001221e-01 4.5212244987487793e-01</leafValues></_>
        <_>
          <internalNodes>
            0 -1 88 3.8784157368354499e-05</internalNodes>
          <leafValues>
            2.6832297444343567e-01 -9.0328115224838257e-01</leafValues></_>
        <_>
          <internalNodes>
            0 -1 37 1.2271902050997596e-05</internalNodes>
          <leafValues>
            2.6465269923210144e-01 -8.3989840745925903e-01</leafValues></_>
        <_>
          <internalNodes>
            0 -1 93 1.5306760906241834e-04</internalNodes>
          <leafValues>
            2.8799796104431152e-01 -6.9785016775131226e-01</leafValues></_>
        <_>
          <internalNodes>
            0 -1 85 -5.2157338359393179e-05</internalNodes>
          <leafValues>
            -7.4807268381118774e-01 2.7377846837043762e-01</leafValues></_>
        <_>
          <internalNodes>
            0 -1 155 2.0366286858916283e-02</internalNodes>
          <leafValues>
            -3.4841567277908325e-01 6.6357237100601196e-01</leafValues></_>
        <_>
          <internalNodes>
            0 -1 133 6.3929542899131775e-02</internalNodes>
          <leafValues>
            -5.4037064313888550e-01 5.1222574710845947e-01</leafValues></_>
        <_>
          <internalNodes>
            0 -1 68 7.9421493865083903e-05</internalNodes>
          <leafValues>
            2.5922507047653198e-01 -9.6239447593688965e-01</leafValues></_>
        <_>
          <internalNodes>
            0 -1 71 -5.5972195696085691e-05</internalNodes>
          <leafValues>
            -9.4197893142700195e-01 1.2690295279026031e-01</leafValues></_>
        <_>
          <internalNodes>
            0 -1 91 2.7821623007184826e-05</internalNodes>
          <leafValues>
            2.1649861335754395e-01 -8.1548649072647095e-01</leafValues></_></weakClassifiers></_>
    <!-- stage 3 -->
    <_>
      <maxWeakCount>15</maxWeakCount>
      <stageThreshold>-9.3697541952133179e-01</stageThreshold>
      <weakClassifiers>
        <_>
          <internalNodes>
            0 -1 23 2.4636767804622650e-02</internalNodes>
          <leafValues>
            -9.1666668653488159e-01 5.2564102411270142e-01</leafValues></_>
        <_>
          <internalNodes>
            0 -1 79 -3.8858102634549141e-03</internalNodes>
          <leafValues>
            5.2259862422943115e-01 -5.4648554325103760e-01</leafValues></_>
        <_>
          <internalNodes>
            0 -1 60 1.1508698662510142e-05</internalNodes>
          <leafValues>
            3.2513228058815002e-01 -7.9788964986801147e-01</leafValues></_>
        <_>
          <internalNodes>
            0 -1 78 1.5163005627982784e-05</internalNodes>
          <leafValues>
            2.7774831652641296e-01 -9.5223724842071533e-01</leafValues></_>
        <_>
          <internalNodes>
            0 -1 143 -3.3596597611904144e-02</internalNodes>
          <leafValues>
            3.1988766789436340e-01 -7.1035593748092651e-01</leafValues></_>
        <_>
          <internalNodes>
            0 -1 37 -1.3909695553593338e-04</internalNodes>
          <leafValues>
            -7.3614227771759033e-01 2.3919665813446045e-01</leafValues></_>
        <_>
          <internalNodes>
            0 -1 111 4.2373460019007325e-04</internalNodes>
          <leafValues>
            -8.2694399356842041e-01 2.3676373064517975e-01</leafValues></_>
        <_>
          <internalNodes>
            0 -1 130 1.5927117317914963e-02</internalNodes>
          <leafValues>
            -3.0707594752311707e-01 8.8648021221160889e-01</leafValues></_>
        <_>
          <internalNodes>
            0 -1 157 8.3976704627275467e-03</internalNodes>
          <leafValues>
            -2.7104198932647705e-01 7.4734795093536377e-01</leafValues></_>
        <_>
          <internalNodes>
            0 -1 104 1.5505908057093620e-02</internalNodes>
          <leafValues>
            -2.7635455131530762e-01 7.1865171194076538e-01</leafValues></_>
        <_>
          <internalNodes>
            0 -1 52 3.8010657590348274e-05</internalNodes>
          <leafValues>
            3.2041934132575989e-01 -8.2811945676803589e-01</leafValues></_>
        <_>
          <internalNodes>
            0 -1 2 3.4106675535440445e-02</internalNodes>
          <leafValues>
            -3.7055075168609619e-01 5.9518468379974365e-01</leafValues></_>
        <_>
          <internalNodes>
            0 -1 48 2.9989712857059203e-05</internalNodes>
          <leafValues>
            2.7494221925735474e-01 -6.8992054462432861e-01</leafValues></_>
        <_>
          <internalNodes>
            0 -1 110 -1.3545476576837245e-05</internalNodes>
          <leafValues>
            3.8813462853431702e-01 -5.1064646244049072e-01</leafValues></_>
        <_>
          <internalNodes>
            0 -1 33 4.0022961911745369e-04</internalNodes>
          <leafValues>
            -5.5562990903854370e-01 3.2541796565055847e-01</leafValues></_></weakClassifiers></_>
    <!-- stage 4 -->
    <_>
      <maxWeakCount>17</maxWeakCount>
      <stageThreshold>-9.1025310754776001e-01</stageThreshold>
      <weakClassifiers>
        <_>
          <internalNodes>
            0 -1 16 -4.0756419301033020e-02</internalNodes>
          <leafValues>
            5.6086629629135132e-01 -8.5545337200164795e-01</leafValues></_>
        <_>
          <internalNodes>
            0 -1 167 3.7526725791394711e-03</internalNodes>
          <leafValues>
            -3.7107971310615540e-01 6.6592830419540405e-01</leafValues></_>
        <_>
          <internalNodes>
            0 -1 145 -5.9700468555092812e-03</internalNodes>
          <leafValues>
            4.0554812550544739e-01 -5.4277282953262329e-01</leafValues></_>
        <_>
          <internalNodes>
            0 -1 114 -1.3490421224560123e-05</internalNodes>
          <leafValues>
            3.6477667093276978e-01 -5.6062877178192139e-01</leafValues></_>
        <_>
          <internalNodes>
            0 -1 76 4.9761417321860790e-03</internalNodes>
          <leafValues>
            2.0595012605190277e-01 -9.2585045099258423e-01</leafValues></_>
        <_>
          <internalNodes>
            0 -1 99 6.1631159042008221e-05</internalNodes>
          <leafValues>
            -8.6020487546920776e-01 2.0140331983566284e-01</leafValues></_>
        <_>
          <internalNodes>
            0 -1 105 8.2457959651947021e-03</internalNodes>
          <leafValues>
            -3.8512456417083740e-01 5.8912527561187744e-01</leafValues></_>
        <_>
          <internalNodes>
            0 -1 20 1.4826992154121399e-01</internalNodes>
          <leafValues>
            2.6163494586944580e-01 -9.4573438167572021e-01</leafValues></_>
        <_>
          <internalNodes>
            0 -1 5 6.3819810748100281e-03</internalNodes>
          <leafValues>
            -3.5959392786026001e-01 5.7409018278121948e-01</leafValues></_>
        <_>
          <internalNodes>
            0 -1 126 6.1614403966814280e-04</internalNodes>
          <leafValues>
            -6.9939076900482178e-01 2.4342158436775208e-01</leafValues></_>
        <_>
          <internalNodes>
            0 -1 142 -2.4253006558865309e-03</internalNodes>
          <leafValues>
            7.6613152027130127e-01 -2.3868565261363983e-01</leafValues></_>
        <_>
          <internalNodes>
            0 -1 78 -5.2416497055673972e-05</internalNodes>
          <leafValues>
            -7.9518115520477295e-01 2.7120620012283325e-01</leafValues></_>
        <_>
          <internalNodes>
            0 -1 146 -3.5529755055904388e-02</internalNodes>
          <leafValues>
            8.1457453966140747e-01 -2.2741082310676575e-01</leafValues></_>
        <_>
          <internalNodes>
            0 -1 98 -7.4996063485741615e-03</internalNodes>
          <leafValues>
            6.4490526914596558e-01 -3.3277994394302368e-01</leafValues></_>
        <_>
          <internalNodes>
            0 -1 148 -1.2506174854934216e-02</internalNodes>
          <leafValues>
            8.4767943620681763e-01 -1.5326726436614990e-01</leafValues></_>
        <_>
          <internalNodes>
            0 -1 115 -5.1297910511493683e-02</internalNodes>
          <leafValues>
            6.9288629293441772e-01 -2.5491559505462646e-01</leafValues></_>
        <_>
          <internalNodes>
            0 -1 67 -7.6703276135958731e-05</internalNodes>
          <leafValues>
            -8.5296374559402466e-01 2.7990919351577759e-01</leafValues></_></weakClassifiers></_>
    <!-- stage 5 -->
    <_>
      <maxWeakCount>16</maxWeakCount>
      <stageThreshold>-7.8141164779663086e-01</stageThreshold>
      <weakClassifiers>
        <_>
          <internalNodes>
            0 -1 118 -2.1767850965261459e-02</internalNodes>
          <leafValues>
            6.7801856994628906e-01 -4.9248453974723816e-01</leafValues></_>
        <_>
          <internalNodes>
            0 -1 92 1.4703069609822705e-05</internalNodes>
          <leafValues>
            -6.9446521997451782e-01 3.5556080937385559e-01</leafValues></_>
        <_>
          <internalNodes>
            0 -1 144 2.9038120061159134e-02</internalNodes>
          <leafValues>
            -4.7065976262092590e-01 4.7362387180328369e-01</leafValues></_>
        <_>
          <internalNodes>
            0 -1 30 -1.5068525499373209e-05</internalNodes>
          <leafValues>
            4.8127016425132751e-01 -4.0866723656654358e-01</leafValues></_>
        <_>
          <internalNodes>
            0 -1 36 1.6248501196969301e-04</internalNodes>
          <leafValues>
            3.2343867421150208e-01 -6.9785982370376587e-01</leafValues></_>
        <_>
          <internalNodes>
            0 -1 131 -2.3466264829039574e-03</internalNodes>
          <leafValues>
            6.2736922502517700e-01 -3.7387815117835999e-01</leafValues></_>
        <_>
          <internalNodes>
            0 -1 150 -2.3875396436778829e-05</internalNodes>
          <leafValues>
            5.6070762872695923e-01 -3.0167898535728455e-01</leafValues></_>
        <_>
          <internalNodes>
            0 -1 153 -1.2605733900272753e-05</internalNodes>
          <leafValues>
            5.5746430158615112e-01 -3.6165267229080200e-01</leafValues></_>
        <_>
          <internalNodes>
            0 -1 161 3.8054925389587879e-03</internalNodes>
          <leafValues>
            -2.4601995944976807e-01 6.8558484315872192e-01</leafValues></_>
        <_>
          <internalNodes>
            0 -1 162 -4.0154466405510902e-03</internalNodes>
          <leafValues>
            7.8007608652114868e-01 -2.2608767449855804e-01</leafValues></_>
        <_>
          <internalNodes>
            0 -1 19 -2.5125778847723268e-05</internalNodes>
          <leafValues>
            6.2438780069351196e-01 -2.8808000683784485e-01</leafValues></_>
        <_>
          <internalNodes>
            0 -1 108 2.1242622460704297e-04</internalNodes>
          <leafValues>
            -7.7494740486145020e-01 2.8335973620414734e-01</leafValues></_>
        <_>
          <internalNodes>
            0 -1 165 3.7631541490554810e-03</internalNodes>
          <leafValues>
            -3.1095239520072937e-01 7.3330831527709961e-01</leafValues></_>
        <_>
          <internalNodes>
            0 -1 29 -2.4435861269012094e-04</internalNodes>
          <leafValues>
            7.0005881786346436e-01 -2.7123075723648071e-01</leafValues></_>
        <_>
          <internalNodes>
            0 -1 73 1.1290578404441476e-03</internalNodes>
          <leafValues>
            -3.1268665194511414e-01 5.8970820903778076e-01</leafValues></_>
        <_>
          <internalNodes>
            0 -1 140 -7.2427978739142418e-03</internalNodes>
          <leafValues>
            7.7199679613113403e-01 -2.5278627872467041e-01</leafValues></_></weakClassifiers></_>
    <!-- stage 6 -->
    <_>
      <maxWeakCount>20</maxWeakCount>
      <stageThreshold>-7.3531520366668701e-01</stageThreshold>
      <weakClassifiers>
        <_>
          <internalNodes>
            0 -1 103 3.0558014259440824e-05</internalNodes>
          <leafValues>
            -6.6233766078948975e-01 4.5864662528038025e-01</leafValues></_>
        <_>
          <internalNodes>
            0 -1 14 1.3598412806459237e-05</internalNodes>
          <leafValues>
            -3.6738666892051697e-01 5.7313591241836548e-01</leafValues></_>
        <_>
          <internalNodes>
            0 -1 141 2.0273189991712570e-02</internalNodes>
          <leafValues>
            -3.5100346803665161e-01 5.0060456991195679e-01</leafValues></_>
        <_>
          <internalNodes>
            0 -1 0 2.6962416246533394e-02</internalNodes>
          <leafValues>
            -3.9246791601181030e-01 4.5195877552032471e-01</leafValues></_>
        <_>
          <internalNodes>
            0 -1 14 -1.2639055967156310e-05</internalNodes>
          <leafValues>
            5.2785247564315796e-01 -3.5832649469375610e-01</leafValues></_>
        <_>
          <internalNodes>
            0 -1 163 5.6917697656899691e-04</internalNodes>
          <leafValues>
            -1.9596406817436218e-01 6.1681735515594482e-01</leafValues></_>
        <_>
          <internalNodes>
            0 -1 116 -3.1152347102761269e-02</internalNodes>
          <leafValues>
            7.4298119544982910e-01 -2.0662890374660492e-01</leafValues></_>
        <_>
          <internalNodes>
            0 -1 41 -1.6848989616846666e-05</internalNodes>
          <leafValues>
            4.7325977683067322e-01 -4.3298736214637756e-01</leafValues></_>
        <_>
          <internalNodes>
            0 -1 7 -4.4411839917302132e-04</internalNodes>
          <leafValues>
            6.0026615858078003e-01 -2.2503654658794403e-01</leafValues></_>
        <_>
          <internalNodes>
            0 -1 100 8.9168699923902750e-04</internalNodes>
          <leafValues>
            2.1376921236515045e-01 -7.0942562818527222e-01</leafValues></_>
        <_>
          <internalNodes>
            0 -1 102 -1.0812424588948488e-03</internalNodes>
          <leafValues>
            -6.8907374143600464e-01 1.9316293299198151e-01</leafValues></_>
        <_>
          <internalNodes>
            0 -1 149 1.5334711861214601e-05</internalNodes>
          <leafValues>
            -3.2150572538375854e-01 5.0770914554595947e-01</leafValues></_>
        <_>
          <internalNodes>
            0 -1 136 -4.6124503016471863e-02</internalNodes>
          <leafValues>
            8.4827512502670288e-01 -1.6353358328342438e-01</leafValues></_>
        <_>
          <internalNodes>
            0 -1 117 2.8438616544008255e-02</internalNodes>
          <leafValues>
            -3.4834772348403931e-01 4.0102297067642212e-01</leafValues></_>
        <_>
          <internalNodes>
            0 -1 122 -3.2823784276843071e-03</internalNodes>
          <leafValues>
            7.7949243783950806e-01 -1.7268902063369751e-01</leafValues></_>
        <_>
          <internalNodes>
            0 -1 43 8.9045939967036247e-04</internalNodes>
          <leafValues>
            -2.5271278619766235e-01 5.4695647954940796e-01</leafValues></_>
        <_>
          <internalNodes>
            0 -1 113 -5.8685163821792230e-05</internalNodes>
          <leafValues>
            -7.5023245811462402e-01 2.1227763593196869e-01</leafValues></_>
        <_>
          <internalNodes>
            0 -1 81 4.0311886550625786e-05</internalNodes>
          <leafValues>
            1.0987215489149094e-01 -9.1544336080551147e-01</leafValues></_>
        <_>
          <internalNodes>
            0 -1 6 2.4128982331603765e-03</internalNodes>
          <leafValues>
            -3.1740859150886536e-01 4.9763891100883484e-01</leafValues></_>
        <_>
          <internalNodes>
            0 -1 44 2.6644498575478792e-05</internalNodes>
          <leafValues>
            -2.6803606748580933e-01 5.2180469036102295e-01</leafValues></_></weakClassifiers></_>
    <!-- stage 7 -->
    <_>
      <maxWeakCount>22</maxWeakCount>
      <stageThreshold>-8.0333566665649414e-01</stageThreshold>
      <weakClassifiers>
        <_>
          <internalNodes>
            0 -1 106 4.2558233253657818e-03</internalNodes>
          <leafValues>
            3.2239001989364624e-01 -6.7764300107955933e-01</leafValues></_>
        <_>
          <internalNodes>
            0 -1 39 8.6146319517865777e-05</internalNodes>
          <leafValues>
            2.0675450563430786e-01 -7.8207838535308838e-01</leafValues></_>
        <_>
          <internalNodes>
            0 -1 27 -1.2639055967156310e-05</internalNodes>
          <leafValues>
            3.9413195848464966e-01 -4.1932323575019836e-01</leafValues></_>
        <_>
          <internalNodes>
            0 -1 54 2.0950842008460313e-04</internalNodes>
          <leafValues>
            1.7762213945388794e-01 -9.1681170463562012e-01</leafValues></_>
        <_>
          <internalNodes>
            0 -1 47 -1.3737769040744752e-04</internalNodes>
          <leafValues>
            -7.9097831249237061e-01 1.4863164722919464e-01</leafValues></_>
        <_>
          <internalNodes>
            0 -1 159 5.0634085200726986e-03</internalNodes>
          <leafValues>
            -2.9255846142768860e-01 5.2320742607116699e-01</leafValues></_>
        <_>
          <internalNodes>
            0 -1 18 1.2185491868876852e-05</internalNodes>
          <leafValues>
            -2.8536614775657654e-01 5.0202620029449463e-01</leafValues></_>
        <_>
          <internalNodes>
            0 -1 18 -2.8564336389536038e-05</internalNodes>
          <leafValues>
            5.5551934242248535e-01 -3.4888613224029541e-01</leafValues></_>
        <_>
          <internalNodes>
            0 -1 45 1.2185491868876852e-05</internalNodes>
          <leafValues>
            -2.5738698244094849e-01 5.0172960758209229e-01</leafValues></_>
        <_>
          <internalNodes>
            0 -1 45 -1.3872669114789460e-05</internalNodes>
          <leafValues>
            5.2995628118515015e-01 -2.4705463647842407e-01</leafValues></_>
        <_>
          <internalNodes>
            0 -1 13 1.6395676136016846e-01</internalNodes>
          <leafValues>
            -4.5602428913116455e-01 2.9689249396324158e-01</leafValues></_>
        <_>
          <internalNodes>
            0 -1 58 1.9795920525211841e-04</internalNodes>
          <leafValues>
            -2.8776720166206360e-01 4.9339434504508972e-01</leafValues></_>
        <_>
          <internalNodes>
            0 -1 164 3.1247306615114212e-03</internalNodes>
          <leafValues>
            -2.0284622907638550e-01 6.2544453144073486e-01</leafValues></_>
        <_>
          <internalNodes>
            0 -1 53 8.2618534564971924e-02</internalNodes>
          <leafValues>
            1.8606682121753693e-01 -9.0207695960998535e-01</leafValues></_>
        <_>
          <internalNodes>
            0 -1 123 3.0237738974392414e-04</internalNodes>
          <leafValues>
            -8.3836072683334351e-01 1.3833467662334442e-01</leafValues></_>
        <_>
          <internalNodes>
            0 -1 75 6.6957809031009674e-03</internalNodes>
          <leafValues>
            9.8968066275119781e-02 -9.5779085159301758e-01</leafValues></_>
        <_>
          <internalNodes>
            0 -1 46 -2.1005659364163876e-03</internalNodes>
          <leafValues>
            -6.4075964689254761e-01 1.6457681357860565e-01</leafValues></_>
        <_>
          <internalNodes>
            0 -1 61 1.1320855264784768e-04</internalNodes>
          <leafValues>
            1.4454436302185059e-01 -6.8668740987777710e-01</leafValues></_>
        <_>
          <internalNodes>
            0 -1 95 2.9327678494155407e-03</internalNodes>
          <leafValues>
            -2.2320382297039032e-01 6.1327385902404785e-01</leafValues></_>
        <_>
          <internalNodes>
            0 -1 74 3.6615980789065361e-03</internalNodes>
          <leafValues>
            -5.3821265697479248e-01 2.6280432939529419e-01</leafValues></_>
        <_>
          <internalNodes>
            0 -1 69 -1.4723308850079775e-03</internalNodes>
          <leafValues>
            -6.6330617666244507e-01 1.8567292392253876e-01</leafValues></_>
        <_>
          <internalNodes>
            0 -1 72 -1.5252721823344473e-05</internalNodes>
          <leafValues>
            2.8437608480453491e-01 -5.0641226768493652e-01</leafValues></_></weakClassifiers></_>
    <!-- stage 8 -->
    <_>
      <maxWeakCount>30</maxWeakCount>
      <stageThreshold>-8.0477035045623779e-01</stageThreshold>
      <weakClassifiers>
        <_>
          <internalNodes>
            0 -1 124 -1.5252721823344473e-05</internalNodes>
          <leafValues>
            3.8039216399192810e-01 -4.6666666865348816e-01</leafValues></_>
        <_>
          <internalNodes>
            0 -1 40 4.0200240619014949e-05</internalNodes>
          <leafValues>
            2.0525839924812317e-01 -6.7021423578262329e-01</leafValues></_>
        <_>
          <internalNodes>
            0 -1 32 1.4432128518819809e-02</internalNodes>
          <leafValues>
            2.0681332051753998e-01 -7.7785271406173706e-01</leafValues></_>
        <_>
          <internalNodes>
            0 -1 62 -4.4720887672156096e-05</internalNodes>
          <leafValues>
            -7.4709200859069824e-01 1.3752183318138123e-01</leafValues></_>
        <_>
          <internalNodes>
            0 -1 168 -3.4558251500129700e-03</internalNodes>
          <leafValues>
            6.0749524831771851e-01 -2.2477748990058899e-01</leafValues></_>
        <_>
          <internalNodes>
            0 -1 109 5.3818508982658386e-02</internalNodes>
          <leafValues>
            -1.6977104544639587e-01 7.8639394044876099e-01</leafValues></_>
        <_>
          <internalNodes>
            0 -1 152 -2.9710796661674976e-03</internalNodes>
          <leafValues>
            3.7453112006187439e-01 -3.7346521019935608e-01</leafValues></_>
        <_>
          <internalNodes>
            0 -1 119 -1.7670716624706984e-03</internalNodes>
          <leafValues>
            -8.9888334274291992e-01 1.2705552577972412e-01</leafValues></_>
        <_>
          <internalNodes>
            0 -1 4 1.8808350432664156e-03</internalNodes>
          <leafValues>
            -2.5194737315177917e-01 4.7709587216377258e-01</leafValues></_>
        <_>
          <internalNodes>
            0 -1 38 5.4882795666344464e-05</internalNodes>
          <leafValues>
            1.7234644293785095e-01 -8.4646868705749512e-01</leafValues></_>
        <_>
          <internalNodes>
            0 -1 8 7.0295026525855064e-03</internalNodes>
          <leafValues>
            -3.2080134749412537e-01 3.7798613309860229e-01</leafValues></_>
        <_>
          <internalNodes>
            0 -1 28 -8.5442436102312058e-05</internalNodes>
          <leafValues>
            3.5970586538314819e-01 -3.8534185290336609e-01</leafValues></_>
        <_>
          <internalNodes>
            0 -1 120 -3.4679453819990158e-03</internalNodes>
          <leafValues>
            4.9960771203041077e-01 -2.7142027020454407e-01</leafValues></_>
        <_>
          <internalNodes>
            0 -1 121 2.2652382031083107e-03</internalNodes>
          <leafValues>
            -1.9257421791553497e-01 7.3135006427764893e-01</leafValues></_>
        <_>
          <internalNodes>
            0 -1 21 8.3329307381063700e-04</internalNodes>
          <leafValues>
            -1.4321349561214447e-01 6.8930482864379883e-01</leafValues></_>
        <_>
          <internalNodes>
            0 -1 21 -6.0079421382397413e-04</internalNodes>
          <leafValues>
            6.5249168872833252e-01 -1.5214137732982635e-01</leafValues></_>
        <_>
          <internalNodes>
            0 -1 57 -7.7863965998403728e-05</internalNodes>
          <leafValues>
            -7.6462358236312866e-01 1.5148946642875671e-01</leafValues></_>
        <_>
          <internalNodes>
            0 -1 134 -6.1687409877777100e-02</internalNodes>
          <leafValues>
            7.6371955871582031e-01 -1.6473110020160675e-01</leafValues></_>
        <_>
          <internalNodes>
            0 -1 137 4.2987987399101257e-03</internalNodes>
          <leafValues>
            -3.9562141895294189e-01 3.8964146375656128e-01</leafValues></_>
        <_>
          <internalNodes>
            0 -1 138 -1.1602204758673906e-03</internalNodes>
          <leafValues>
            -7.6485025882720947e-01 1.7540119588375092e-01</leafValues></_>
        <_>
          <internalNodes>
            0 -1 156 5.8459388092160225e-03</internalNodes>
          <leafValues>
            -2.2826875746250153e-01 5.9384769201278687e-01</leafValues></_>
        <_>
          <internalNodes>
            0 -1 158 -4.9529280513525009e-03</internalNodes>
          <leafValues>
            6.5267449617385864e-01 -1.7142970860004425e-01</leafValues></_>
        <_>
          <internalNodes>
            0 -1 127 -1.2369343312457204e-03</internalNodes>
          <leafValues>
            -7.7420455217361450e-01 1.8570998311042786e-01</leafValues></_>
        <_>
          <internalNodes>
            0 -1 22 -4.9617030890658498e-04</internalNodes>
          <leafValues>
            5.6071376800537109e-01 -2.1992817521095276e-01</leafValues></_>
        <_>
          <internalNodes>
            0 -1 129 -2.9113325290381908e-03</internalNodes>
          <leafValues>
            6.3063728809356689e-01 -1.6251002252101898e-01</leafValues></_>
        <_>
          <internalNodes>
            0 -1 139 5.0398078747093678e-03</internalNodes>
          <leafValues>
            -1.7359034717082977e-01 5.6286221742630005e-01</leafValues></_>
        <_>
          <internalNodes>
            0 -1 160 -2.8115129098296165e-03</internalNodes>
          <leafValues>
            4.5381933450698853e-01 -2.5613352656364441e-01</leafValues></_>
        <_>
          <internalNodes>
            0 -1 9 1.1279323697090149e-01</internalNodes>
          <leafValues>
            -2.7862238883972168e-01 4.2634546756744385e-01</leafValues></_>
        <_>
          <internalNodes>
            0 -1 84 -4.7590034228051081e-05</internalNodes>
          <leafValues>
            -6.9233262538909912e-01 1.6933366656303406e-01</leafValues></_>
        <_>
          <internalNodes>
            0 -1 17 4.6579315676353872e-04</internalNodes>
          <leafValues>
            -3.2866975665092468e-01 4.2568787932395935e-01</leafValues></_></weakClassifiers></_>
    <!-- stage 9 -->
    <_>
      <maxWeakCount>28</maxWeakCount>
      <stageThreshold>-5.7275241613388062e-01</stageThreshold>
      <weakClassifiers>
        <_>
          <internalNodes>
            0 -1 12 6.7648398689925671e-03</internalNodes>
          <leafValues>
            -6.3375222682952881e-01 2.9358392953872681e-01</leafValues></_>
        <_>
          <internalNodes>
            0 -1 10 8.0377727746963501e-02</internalNodes>
          <leafValues>
            -5.4579806327819824e-01 2.8570342063903809e-01</leafValues></_>
        <_>
          <internalNodes>
            0 -1 97 -1.4039525922271423e-05</internalNodes>
          <leafValues>
            2.8445744514465332e-01 -5.2179515361785889e-01</leafValues></_>
        <_>
          <internalNodes>
            0 -1 34 5.1396811613813043e-05</internalNodes>
          <leafValues>
            2.1353055536746979e-01 -6.0065591335296631e-01</leafValues></_>
        <_>
          <internalNodes>
            0 -1 70 3.9420798420906067e-03</internalNodes>
          <leafValues>
            1.6283781826496124e-01 -6.4470273256301880e-01</leafValues></_>
        <_>
          <internalNodes>
            0 -1 166 4.8403781838715076e-03</internalNodes>
          <leafValues>
            -1.8369877338409424e-01 7.0331907272338867e-01</leafValues></_>
        <_>
          <internalNodes>
            0 -1 151 2.6914559304714203e-02</internalNodes>
          <leafValues>
            -2.4466957151889801e-01 5.1791703701019287e-01</leafValues></_>
        <_>
          <internalNodes>
            0 -1 35 1.1896601319313049e-01</internalNodes>
          <leafValues>
            1.8289244174957275e-01 -8.4589689970016479e-01</leafValues></_>
        <_>
          <internalNodes>
            0 -1 77 6.2827672809362411e-04</internalNodes>
          <leafValues>
            7.8729510307312012e-02 -8.0585587024688721e-01</leafValues></_>
        <_>
          <internalNodes>
            0 -1 26 -6.7567365476861596e-05</internalNodes>
          <leafValues>
            -5.6857383251190186e-01 1.7998860776424408e-01</leafValues></_>
        <_>
          <internalNodes>
            0 -1 25 -8.1704623880796134e-05</internalNodes>
          <leafValues>
            2.4752628803253174e-01 -5.2424001693725586e-01</leafValues></_>
        <_>
          <internalNodes>
            0 -1 24 8.8715598394628614e-05</internalNodes>
          <leafValues>
            -2.6274314522743225e-01 4.8174178600311279e-01</leafValues></_>
        <_>
          <internalNodes>
            0 -1 96 1.3066593557596207e-02</internalNodes>
          <leafValues>
            1.7339943349361420e-01 -7.8851121664047241e-01</leafValues></_>
        <_>
          <internalNodes>
            0 -1 125 3.5766921937465668e-03</internalNodes>
          <leafValues>
            -3.5922974348068237e-01 3.5767829418182373e-01</leafValues></_>
        <_>
          <internalNodes>
            0 -1 107 -2.5026373565196991e-02</internalNodes>
          <leafValues>
            7.0077550411224365e-01 -2.3667566478252411e-01</leafValues></_>
        <_>
          <internalNodes>
            0 -1 59 -9.7510102204978466e-04</internalNodes>
          <leafValues>
            5.0485640764236450e-01 -1.9493684172630310e-01</leafValues></_>
        <_>
          <internalNodes>
            0 -1 11 -3.1444325577467680e-04</internalNodes>
          <leafValues>
            4.0788930654525757e-01 -2.6378399133682251e-01</leafValues></_>
        <_>
          <internalNodes>
            0 -1 147 -1.5137398149818182e-03</internalNodes>
          <leafValues>
            -6.7400741577148438e-01 1.6183701157569885e-01</leafValues></_>
        <_>
          <internalNodes>
            0 -1 89 4.4533223845064640e-03</internalNodes>
          <leafValues>
            8.9475326240062714e-02 -8.9638745784759521e-01</leafValues></_>
        <_>
          <internalNodes>
            0 -1 63 -3.5902026866097003e-05</internalNodes>
          <leafValues>
            -6.8692356348037720e-01 1.3362047076225281e-01</leafValues></_>
        <_>
          <internalNodes>
            0 -1 112 1.6009435057640076e-03</internalNodes>
          <leafValues>
            -3.9530205726623535e-01 2.5602459907531738e-01</leafValues></_>
        <_>
          <internalNodes>
            0 -1 94 -1.8148294184356928e-03</internalNodes>
          <leafValues>
            7.0599883794784546e-01 -1.6420719027519226e-01</leafValues></_>
        <_>
          <internalNodes>
            0 -1 64 -1.3490421224560123e-05</internalNodes>
          <leafValues>
            2.7862074971199036e-01 -3.7717080116271973e-01</leafValues></_>
        <_>
          <internalNodes>
            0 -1 135 3.6971636582165956e-03</internalNodes>
          <leafValues>
            -2.2629518806934357e-01 4.9240174889564514e-01</leafValues></_>
        <_>
          <internalNodes>
            0 -1 3 -4.6840339899063110e-02</internalNodes>
          <leafValues>
            2.2165068984031677e-01 -4.9688422679901123e-01</leafValues></_>
        <_>
          <internalNodes>
            0 -1 82 2.8222239052411169e-05</internalNodes>
          <leafValues>
            1.0951050370931625e-01 -9.4065654277801514e-01</leafValues></_>
        <_>
          <internalNodes>
            0 -1 15 -1.5708366845501587e-05</internalNodes>
          <leafValues>
            3.2010459899902344e-01 -3.1973934173583984e-01</leafValues></_>
        <_>
          <internalNodes>
            0 -1 169 1.4023769836057909e-05</internalNodes>
          <leafValues>
            -2.0979258418083191e-01 4.6703070402145386e-01</leafValues></_></weakClassifiers></_></stages>
  <features>
    <_>
      <rects>
        <_>
          0 1 14 11 -1.</_>
        <_>
          7 1 7 11 2.</_></rects>
      <tilted>0</tilted></_>
    <_>
      <rects>
        <_>
          0 3 8 6 -1.</_>
        <_>
          0 3 4 3 2.</_>
        <_>
          4 6 4 3 2.</_></rects>
      <tilted>0</tilted></_>
    <_>
      <rects>
        <_>
          0 6 8 9 -1.</_>
        <_>
          4 6 4 9 2.</_></rects>
      <tilted>0</tilted></_>
    <_>
      <rects>
        <_>
          0 6 18 18 -1.</_>
        <_>
          0 6 9 9 2.</_>
        <_>
          9 15 9 9 2.</_></rects>
      <tilted>0</tilted></_>
    <_>
      <rects>
        <_>
          0 10 6 1 -1.</_>
        <_>
          2 10 2 1 3.</_></rects>
      <tilted>0</tilted></_>
    <_>
      <rects>
        <_>
          0 12 6 4 -1.</_>
        <_>
          2 12 2 4 3.</_></rects>
      <tilted>0</tilted></_>
    <_>
      <rects>
        <_>
          0 15 9 1 -1.</_>
        <_>
          3 15 3 1 3.</_></rects>
      <tilted>0</tilted></_>
    <_>
      <rects>
        <_>
          1 13 3 1 -1.</_>
        <_>
          2 13 1 1 3.</_></rects>
      <tilted>0</tilted></_>
    <_>
      <rects>
        <_>
          1 14 10 2 -1.</_>
        <_>
          6 14 5 2 2.</_></rects>
      <tilted>0</tilted></_>
    <_>
      <rects>
        <_>
          2 0 15 12 -1.</_>
        <_>
          2 6 15 6 2.</_></rects>
      <tilted>0</tilted></_>
    <_>
      <rects>
        <_>
          2 6 13 15 -1.</_>
        <_>
          2 11 13 5 3.</_></rects>
      <tilted>0</tilted></_>
    <_>
      <rects>
        <_>
          2 10 3 5 -1.</_>
        <_>
          3 10 1 5 3.</_></rects>
      <tilted>0</tilted></_>
    <_>
      <rects>
        <_>
          2 10 18 1 -1.</_>
        <_>
          11 10 9 1 2.</_></rects>
      <tilted>0</tilted></_>
    <_>
      <rects>
        <_>
          3 2 13 21 -1.</_>
        <_>
          3 9 13 7 3.</_></rects>
      <tilted>0</tilted></_>
    <_>
      <rects>
        <_>
          3 6 2 2 -1.</_>
        <_>
          3 6 1 1 2.</_>
        <_>
          4 7 1 1 2.</_></rects>
      <tilted>0</tilted></_>
    <_>
      <rects>
        <_>
          3 9 6 1 -1.</_>
        <_>
          5 9 2 1 3.</_></rects>
      <tilted>0</tilted></_>
    <_>
      <rects>
        <_>
          3 10 14 10 -1.</_>
        <_>
          3 15 14 5 2.</_></rects>
      <tilted>0</tilted></_>
    <_>
      <rects>
        <_>
          4 4 4 2 -1.</_>
        <_>
          4 4 2 1 2.</_>
        <_>
          6 5 2 1 2.</_></rects>
      <tilted>0</tilted></_>
    <_>
      <rects>
        <_>
          4 5 2 2 -1.</_>
        <_>
          4 5 1 1 2.</_>
        <_>
          5 6 1 1 2.</_></rects>
      <tilted>0</tilted></_>
    <_>
      <rects>
        <_>
          4 8 2 1 -1.</_>
        <_>
          5 8 1 1 2.</_></rects>
      <tilted>0</tilted></_>
    <_>
      <rects>
        <_>
          4 8 16 11 -1.</_>
        <_>
          12 8 8 11 2.</_></rects>
      <tilted>0</tilted></_>
    <_>
      <rects>
        <_>
          4 15 2 2 -1.</_>
        <_>
          4 15 1 1 2.</_>
        <_>
          5 16 1 1 2.</_></rects>
      <tilted>0</tilted></_>
    <_>
      <rects>
        <_>
          4 16 2 2 -1.</_>
        <_>
          4 16 1 1 2.</_>
        <_>
          5 17 1 1 2.</_></rects>
      <tilted>0</tilted></_>
    <_>
      <rects>
        <_>
          5 6 12 10 -1.</_>
        <_>
          11 6 6 10 2.</_></rects>
      <tilted>0</tilted></_>
    <_>
      <rects>
        <_>
          5 7 2 2 -1.</_>
        <_>
          5 7 1 1 2.</_>
        <_>
          6 8 1 1 2.</_></rects>
      <tilted>0</tilted></_>
    <_>
      <rects>
        <_>
          5 10 6 7 -1.</_>
        <_>
          7 10 2 7 3.</_></rects>
      <tilted>0</tilted></_>
    <_>
      <rects>
        <_>
          5 11 4 2 -1.</_>
        <_>
          7 11 2 2 2.</_></rects>
      <tilted>0</tilted></_>
    <_>
      <rects>
        <_>
          5 12 8 3 -1.</_>
        <_>
          5 13 8 1 3.</_></rects>
      <tilted>0</tilted></_>
    <_>
      <rects>
        <_>
          5 13 8 3 -1.</_>
        <_>
          5 14 8 1 3.</_></rects>
      <tilted>0</tilted></_>
    <_>
      <rects>
        <_>
          5 16 2 2 -1.</_>
        <_>
          5 16 1 1 2.</_>
        <_>
          6 17 1 1 2.</_></rects>
      <tilted>0</tilted></_>
    <_>
      <rects>
        <_>
          5 16 10 1 -1.</_>
        <_>
          10 16 5 1 2.</_></rects>
      <tilted>0</tilted></_>
    <_>
      <rects>
        <_>
          6 0 15 21 -1.</_>
        <_>
          6 7 15 7 3.</_></rects>
      <tilted>0</tilted></_>
    <_>
      <rects>
        <_>
          6 6 5 14 -1.</_>
        <_>
          6 13 5 7 2.</_></rects>
      <tilted>0</tilted></_>
    <_>
      <rects>
        <_>
          6 6 7 8 -1.</_>
        <_>
          6 10 7 4 2.</_></rects>
      <tilted>0</tilted></_>
    <_>
      <rects>
        <_>
          6 7 6 2 -1.</_>
        <_>
          9 7 3 2 2.</_></rects>
      <tilted>0</tilted></_>
    <_>
      <rects>
        <_>
          6 7 14 10 -1.</_>
        <_>
          13 7 7 10 2.</_></rects>
      <tilted>0</tilted></_>
    <_>
      <rects>
        <_>
          6 8 6 2 -1.</_>
        <_>
          9 8 3 2 2.</_></rects>
      <tilted>0</tilted></_>
    <_>
      <rects>
        <_>
          6 10 3 2 -1.</_>
        <_>
          7 10 1 2 3.</_></rects>
      <tilted>0</tilted></_>
    <_>
      <rects>
        <_>
          6 10 4 1 -1.</_>
        <_>
          8 10 2 1 2.</_></rects>
      <tilted>0</tilted></_>
    <_>
      <rects>
        <_>
          6 10 6 3 -1.</_>
        <_>
          6 11 6 1 3.</_></rects>
      <tilted>0</tilted></_>
    <_>
      <rects>
        <_>
          6 11 4 3 -1.</_>
        <_>
          6 12 4 1 3.</_></rects>
      <tilted>0</tilted></_>
    <_>
      <rects>
        <_>
          6 11 9 3 -1.</_>
        <_>
          6 12 9 1 3.</_></rects>
      <tilted>0</tilted></_>
    <_>
      <rects>
        <_>
          6 12 18 2 -1.</_>
        <_>
          12 12 6 2 3.</_></rects>
      <tilted>0</tilted></_>
    <_>
      <rects>
        <_>
          6 14 6 2 -1.</_>
        <_>
          6 14 3 1 2.</_>
        <_>
          9 15 3 1 2.</_></rects>
      <tilted>0</tilted></_>
    <_>
      <rects>
        <_>
          7 2 2 2 -1.</_>
        <_>
          7 2 1 1 2.</_>
        <_>
          8 3 1 1 2.</_></rects>
      <tilted>0</tilted></_>
    <_>
      <rects>
        <_>
          7 3 2 2 -1.</_>
        <_>
          7 3 1 1 2.</_>
        <_>
          8 4 1 1 2.</_></rects>
      <tilted>0</tilted></_>
    <_>
      <rects>
        <_>
          7 6 3 12 -1.</_>
        <_>
          8 6 1 12 3.</_></rects>
      <tilted>0</tilted></_>
    <_>
      <rects>
        <_>
          7 8 6 1 -1.</_>
        <_>
          10 8 3 1 2.</_></rects>
      <tilted>0</tilted></_>
    <_>
      <rects>
        <_>
          7 8 3 3 -1.</_>
        <_>
          7 9 3 1 3.</_></rects>
      <tilted>0</tilted></_>
    <_>
      <rects>
        <_>
          7 9 2 1 -1.</_>
        <_>
          8 9 1 1 2.</_></rects>
      <tilted>0</tilted></_>
    <_>
      <rects>
        <_>
          7 9 4 1 -1.</_>
        <_>
          9 9 2 1 2.</_></rects>
      <tilted>0</tilted></_>
    <_>
      <rects>
        <_>
          7 9 2 2 -1.</_>
        <_>
          7 10 2 1 2.</_></rects>
      <tilted>0</tilted></_>
    <_>
      <rects>
        <_>
          7 9 3 2 -1.</_>
        <_>
          7 10 3 1 2.</_></rects>
      <tilted>0</tilted></_>
    <_>
      <rects>
        <_>
          7 9 10 12 -1.</_>
        <_>
          12 9 5 12 2.</_></rects>
      <tilted>0</tilted></_>
    <_>
      <rects>
        <_>
          7 9 6 3 -1.</_>
        <_>
          7 10 6 1 3.</_></rects>
      <tilted>0</tilted></_>
    <_>
      <rects>
        <_>
          7 10 3 1 -1.</_>
        <_>
          8 10 1 1 3.</_></rects>
      <tilted>0</tilted></_>
    <_>
      <rects>
        <_>
          7 10 4 1 -1.</_>
        <_>
          9 10 2 1 2.</_></rects>
      <tilted>0</tilted></_>
    <_>
      <rects>
        <_>
          7 11 4 4 -1.</_>
        <_>
          9 11 2 4 2.</_></rects>
      <tilted>0</tilted></_>
    <_>
      <rects>
        <_>
          7 15 1 4 -1.</_>
        <_>
          7 17 1 2 2.</_></rects>
      <tilted>0</tilted></_>
    <_>
      <rects>
        <_>
          8 3 2 6 -1.</_>
        <_>
          8 5 2 2 3.</_></rects>
      <tilted>0</tilted></_>
    <_>
      <rects>
        <_>
          8 7 2 3 -1.</_>
        <_>
          8 8 2 1 3.</_></rects>
      <tilted>0</tilted></_>
    <_>
      <rects>
        <_>
          8 7 3 4 -1.</_>
        <_>
          8 9 3 2 2.</_></rects>
      <tilted>0</tilted></_>
    <_>
      <rects>
        <_>
          8 8 1 4 -1.</_>
        <_>
          8 10 1 2 2.</_></rects>
      <tilted>0</tilted></_>
    <_>
      <rects>
        <_>
          8 8 4 2 -1.</_>
        <_>
          10 8 2 2 2.</_></rects>
      <tilted>0</tilted></_>
    <_>
      <rects>
        <_>
          8 8 8 3 -1.</_>
        <_>
          8 9 8 1 3.</_></rects>
      <tilted>0</tilted></_>
    <_>
      <rects>
        <_>
          8 9 2 2 -1.</_>
        <_>
          9 9 1 2 2.</_></rects>
      <tilted>0</tilted></_>
    <_>
      <rects>
        <_>
          8 9 2 2 -1.</_>
        <_>
          8 10 2 1 2.</_></rects>
      <tilted>0</tilted></_>
    <_>
      <rects>
        <_>
          8 10 3 1 -1.</_>
        <_>
          9 10 1 1 3.</_></rects>
      <tilted>0</tilted></_>
    <_>
      <rects>
        <_>
          8 10 3 2 -1.</_>
        <_>
          9 10 1 2 3.</_></rects>
      <tilted>0</tilted></_>
    <_>
      <rects>
        <_>
          8 10 3 8 -1.</_>
        <_>
          9 10 1 8 3.</_></rects>
      <tilted>0</tilted></_>
    <_>
      <rects>
        <_>
          8 10 13 3 -1.</_>
        <_>
          8 11 13 1 3.</_></rects>
      <tilted>0</tilted></_>
    <_>
      <rects>
        <_>
          8 11 2 2 -1.</_>
        <_>
          9 11 1 2 2.</_></rects>
      <tilted>0</tilted></_>
    <_>
      <rects>
        <_>
          8 11 3 7 -1.</_>
        <_>
          9 11 1 7 3.</_></rects>
      <tilted>0</tilted></_>
    <_>
      <rects>
        <_>
          8 13 6 2 -1.</_>
        <_>
          8 14 6 1 2.</_></rects>
      <tilted>0</tilted></_>
    <_>
      <rects>
        <_>
          9 3 4 14 -1.</_>
        <_>
          11 3 2 14 2.</_></rects>
      <tilted>0</tilted></_>
    <_>
      <rects>
        <_>
          9 6 1 12 -1.</_>
        <_>
          9 12 1 6 2.</_></rects>
      <tilted>0</tilted></_>
    <_>
      <rects>
        <_>
          9 7 1 12 -1.</_>
        <_>
          9 13 1 6 2.</_></rects>
      <tilted>0</tilted></_>
    <_>
      <rects>
        <_>
          9 7 3 10 -1.</_>
        <_>
          10 7 1 10 3.</_></rects>
      <tilted>0</tilted></_>
    <_>
      <rects>
        <_>
          9 8 2 2 -1.</_>
        <_>
          9 9 2 1 2.</_></rects>
      <tilted>0</tilted></_>
    <_>
      <rects>
        <_>
          9 8 9 4 -1.</_>
        <_>
          12 8 3 4 3.</_></rects>
      <tilted>0</tilted></_>
    <_>
      <rects>
        <_>
          9 8 6 8 -1.</_>
        <_>
          12 8 3 8 2.</_></rects>
      <tilted>0</tilted></_>
    <_>
      <rects>
        <_>
          9 8 5 3 -1.</_>
        <_>
          9 9 5 1 3.</_></rects>
      <tilted>0</tilted></_>
    <_>
      <rects>
        <_>
          9 9 2 1 -1.</_>
        <_>
          10 9 1 1 2.</_></rects>
      <tilted>0</tilted></_>
    <_>
      <rects>
        <_>
          9 9 1 2 -1.</_>
        <_>
          9 10 1 1 2.</_></rects>
      <tilted>0</tilted></_>
    <_>
      <rects>
        <_>
          9 9 3 1 -1.</_>
        <_>
          10 9 1 1 3.</_></rects>
      <tilted>0</tilted></_>
    <_>
      <rects>
        <_>
          9 9 1 4 -1.</_>
        <_>
          9 11 1 2 2.</_></rects>
      <tilted>0</tilted></_>
    <_>
      <rects>
        <_>
          9 9 2 2 -1.</_>
        <_>
          9 10 2 1 2.</_></rects>
      <tilted>0</tilted></_>
    <_>
      <rects>
        <_>
          9 9 4 2 -1.</_>
        <_>
          9 9 2 1 2.</_>
        <_>
          11 10 2 1 2.</_></rects>
      <tilted>0</tilted></_>
    <_>
      <rects>
        <_>
          9 9 4 3 -1.</_>
        <_>
          9 10 4 1 3.</_></rects>
      <tilted>0</tilted></_>
    <_>
      <rects>
        <_>
          9 9 11 3 -1.</_>
        <_>
          9 10 11 1 3.</_></rects>
      <tilted>0</tilted></_>
    <_>
      <rects>
        <_>
          9 10 2 2 -1.</_>
        <_>
          9 10 1 1 2.</_>
        <_>
          10 11 1 1 2.</_></rects>
      <tilted>0</tilted></_>
    <_>
      <rects>
        <_>
          9 10 3 2 -1.</_>
        <_>
          10 10 1 2 3.</_></rects>
      <tilted>0</tilted></_>
    <_>
      <rects>
        <_>
          9 10 2 8 -1.</_>
        <_>
          10 10 1 8 2.</_></rects>
      <tilted>0</tilted></_>
    <_>
      <rects>
        <_>
          9 10 2 2 -1.</_>
        <_>
          9 11 2 1 2.</_></rects>
      <tilted>0</tilted></_>
    <_>
      <rects>
        <_>
          9 12 1 3 -1.</_>
        <_>
          9 13 1 1 3.</_></rects>
      <tilted>0</tilted></_>
    <_>
      <rects>
        <_>
          9 16 3 3 -1.</_>
        <_>
          9 17 3 1 3.</_></rects>
      <tilted>0</tilted></_>
    <_>
      <rects>
        <_>
          10 5 2 16 -1.</_>
        <_>
          10 13 2 8 2.</_></rects>
      <tilted>0</tilted></_>
    <_>
      <rects>
        <_>
          10 8 3 7 -1.</_>
        <_>
          11 8 1 7 3.</_></rects>
      <tilted>0</tilted></_>
    <_>
      <rects>
        <_>
          10 8 9 3 -1.</_>
        <_>
          13 8 3 3 3.</_></rects>
      <tilted>0</tilted></_>
    <_>
      <rects>
        <_>
          10 9 2 8 -1.</_>
        <_>
          11 9 1 8 2.</_></rects>
      <tilted>0</tilted></_>
    <_>
      <rects>
        <_>
          10 9 3 9 -1.</_>
        <_>
          11 9 1 9 3.</_></rects>
      <tilted>0</tilted></_>
    <_>
      <rects>
        <_>
          10 10 10 6 -1.</_>
        <_>
          10 10 5 3 2.</_>
        <_>
          15 13 5 3 2.</_></rects>
      <tilted>0</tilted></_>
    <_>
      <rects>
        <_>
          10 11 3 7 -1.</_>
        <_>
          11 11 1 7 3.</_></rects>
      <tilted>0</tilted></_>
    <_>
      <rects>
        <_>
          10 11 5 2 -1.</_>
        <_>
          10 12 5 1 2.</_></rects>
      <tilted>0</tilted></_>
    <_>
      <rects>
        <_>
          10 13 10 4 -1.</_>
        <_>
          10 13 5 2 2.</_>
        <_>
          15 15 5 2 2.</_></rects>
      <tilted>0</tilted></_>
    <_>
      <rects>
        <_>
          11 1 4 9 -1.</_>
        <_>
          11 4 4 3 3.</_></rects>
      <tilted>0</tilted></_>
    <_>
      <rects>
        <_>
          11 5 2 13 -1.</_>
        <_>
          12 5 1 13 2.</_></rects>
      <tilted>0</tilted></_>
    <_>
      <rects>
        <_>
          11 5 6 10 -1.</_>
        <_>
          11 5 3 5 2.</_>
        <_>
          14 10 3 5 2.</_></rects>
      <tilted>0</tilted></_>
    <_>
      <rects>
        <_>
          11 6 2 12 -1.</_>
        <_>
          12 6 1 12 2.</_></rects>
      <tilted>0</tilted></_>
    <_>
      <rects>
        <_>
          11 6 9 4 -1.</_>
        <_>
          14 6 3 4 3.</_></rects>
      <tilted>0</tilted></_>
    <_>
      <rects>
        <_>
          11 7 3 8 -1.</_>
        <_>
          12 7 1 8 3.</_></rects>
      <tilted>0</tilted></_>
    <_>
      <rects>
        <_>
          11 7 2 10 -1.</_>
        <_>
          12 7 1 10 2.</_></rects>
      <tilted>0</tilted></_>
    <_>
      <rects>
        <_>
          11 7 11 6 -1.</_>
        <_>
          11 9 11 2 3.</_></rects>
      <tilted>0</tilted></_>
    <_>
      <rects>
        <_>
          11 8 3 2 -1.</_>
        <_>
          11 9 3 1 2.</_></rects>
      <tilted>0</tilted></_>
    <_>
      <rects>
        <_>
          11 9 5 3 -1.</_>
        <_>
          11 10 5 1 3.</_></rects>
      <tilted>0</tilted></_>
    <_>
      <rects>
        <_>
          11 9 6 8 -1.</_>
        <_>
          11 13 6 4 2.</_></rects>
      <tilted>0</tilted></_>
    <_>
      <rects>
        <_>
          11 10 4 6 -1.</_>
        <_>
          11 13 4 3 2.</_></rects>
      <tilted>0</tilted></_>
    <_>
      <rects>
        <_>
          11 10 12 3 -1.</_>
        <_>
          15 10 4 3 3.</_></rects>
      <tilted>0</tilted></_>
    <_>
      <rects>
        <_>
          11 10 8 6 -1.</_>
        <_>
          11 10 4 3 2.</_>
        <_>
          15 13 4 3 2.</_></rects>
      <tilted>0</tilted></_>
    <_>
      <rects>
        <_>
          11 11 3 6 -1.</_>
        <_>
          12 11 1 6 3.</_></rects>
      <tilted>0</tilted></_>
    <_>
      <rects>
        <_>
          11 14 1 6 -1.</_>
        <_>
          11 16 1 2 3.</_></rects>
      <tilted>0</tilted></_>
    <_>
      <rects>
        <_>
          11 15 1 3 -1.</_>
        <_>
          11 16 1 1 3.</_></rects>
      <tilted>0</tilted></_>
    <_>
      <rects>
        <_>
          11 17 2 3 -1.</_>
        <_>
          11 18 2 1 3.</_></rects>
      <tilted>0</tilted></_>
    <_>
      <rects>
        <_>
          12 5 2 11 -1.</_>
        <_>
          13 5 1 11 2.</_></rects>
      <tilted>0</tilted></_>
    <_>
      <rects>
        <_>
          12 6 3 7 -1.</_>
        <_>
          13 6 1 7 3.</_></rects>
      <tilted>0</tilted></_>
    <_>
      <rects>
        <_>
          12 6 4 8 -1.</_>
        <_>
          12 6 2 4 2.</_>
        <_>
          14 10 2 4 2.</_></rects>
      <tilted>0</tilted></_>
    <_>
      <rects>
        <_>
          12 8 2 9 -1.</_>
        <_>
          13 8 1 9 2.</_></rects>
      <tilted>0</tilted></_>
    <_>
      <rects>
        <_>
          12 10 3 7 -1.</_>
        <_>
          13 10 1 7 3.</_></rects>
      <tilted>0</tilted></_>
    <_>
      <rects>
        <_>
          12 10 6 10 -1.</_>
        <_>
          12 15 6 5 2.</_></rects>
      <tilted>0</tilted></_>
    <_>
      <rects>
        <_>
          12 11 1 6 -1.</_>
        <_>
          12 13 1 2 3.</_></rects>
      <tilted>0</tilted></_>
    <_>
      <rects>
        <_>
          12 12 2 6 -1.</_>
        <_>
          12 14 2 2 3.</_></rects>
      <tilted>0</tilted></_>
    <_>
      <rects>
        <_>
          12 16 2 3 -1.</_>
        <_>
          12 17 2 1 3.</_></rects>
      <tilted>0</tilted></_>
    <_>
      <rects>
        <_>
          13 1 4 21 -1.</_>
        <_>
          13 8 4 7 3.</_></rects>
      <tilted>0</tilted></_>
    <_>
      <rects>
        <_>
          13 2 5 15 -1.</_>
        <_>
          13 7 5 5 3.</_></rects>
      <tilted>0</tilted></_>
    <_>
      <rects>
        <_>
          13 6 8 5 -1.</_>
        <_>
          17 6 4 5 2.</_></rects>
      <tilted>0</tilted></_>
    <_>
      <rects>
        <_>
          13 7 4 8 -1.</_>
        <_>
          13 7 2 4 2.</_>
        <_>
          15 11 2 4 2.</_></rects>
      <tilted>0</tilted></_>
    <_>
      <rects>
        <_>
          13 7 6 6 -1.</_>
        <_>
          16 7 3 6 2.</_></rects>
      <tilted>0</tilted></_>
    <_>
      <rects>
        <_>
          13 8 4 9 -1.</_>
        <_>
          15 8 2 9 2.</_></rects>
      <tilted>0</tilted></_>
    <_>
      <rects>
        <_>
          13 9 3 7 -1.</_>
        <_>
          14 9 1 7 3.</_></rects>
      <tilted>0</tilted></_>
    <_>
      <rects>
        <_>
          13 9 6 1 -1.</_>
        <_>
          15 9 2 1 3.</_></rects>
      <tilted>0</tilted></_>
    <_>
      <rects>
        <_>
          13 12 2 6 -1.</_>
        <_>
          13 14 2 2 3.</_></rects>
      <tilted>0</tilted></_>
    <_>
      <rects>
        <_>
          13 13 8 6 -1.</_>
        <_>
          13 13 4 3 2.</_>
        <_>
          17 16 4 3 2.</_></rects>
      <tilted>0</tilted></_>
    <_>
      <rects>
        <_>
          13 15 1 3 -1.</_>
        <_>
          13 16 1 1 3.</_></rects>
      <tilted>0</tilted></_>
    <_>
      <rects>
        <_>
          14 1 10 14 -1.</_>
        <_>
          19 1 5 14 2.</_></rects>
      <tilted>0</tilted></_>
    <_>
      <rects>
        <_>
          14 2 6 8 -1.</_>
        <_>
          14 6 6 4 2.</_></rects>
      <tilted>0</tilted></_>
    <_>
      <rects>
        <_>
          14 3 10 7 -1.</_>
        <_>
          19 3 5 7 2.</_></rects>
      <tilted>0</tilted></_>
    <_>
      <rects>
        <_>
          14 6 6 6 -1.</_>
        <_>
          17 6 3 6 2.</_></rects>
      <tilted>0</tilted></_>
    <_>
      <rects>
        <_>
          14 10 3 8 -1.</_>
        <_>
          15 10 1 8 3.</_></rects>
      <tilted>0</tilted></_>
    <_>
      <rects>
        <_>
          14 12 6 4 -1.</_>
        <_>
          14 12 3 2 2.</_>
        <_>
          17 14 3 2 2.</_></rects>
      <tilted>0</tilted></_>
    <_>
      <rects>
        <_>
          14 16 6 2 -1.</_>
        <_>
          14 17 6 1 2.</_></rects>
      <tilted>0</tilted></_>
    <_>
      <rects>
        <_>
          15 5 4 2 -1.</_>
        <_>
          15 5 2 1 2.</_>
        <_>
          17 6 2 1 2.</_></rects>
      <tilted>0</tilted></_>
    <_>
      <rects>
        <_>
          15 6 6 7 -1.</_>
        <_>
          17 6 2 7 3.</_></rects>
      <tilted>0</tilted></_>
    <_>
      <rects>
        <_>
          15 9 4 4 -1.</_>
        <_>
          15 9 2 2 2.</_>
        <_>
          17 11 2 2 2.</_></rects>
      <tilted>0</tilted></_>
    <_>
      <rects>
        <_>
          16 3 2 2 -1.</_>
        <_>
          16 3 1 1 2.</_>
        <_>
          17 4 1 1 2.</_></rects>
      <tilted>0</tilted></_>
    <_>
      <rects>
        <_>
          16 7 8 7 -1.</_>
        <_>
          20 7 4 7 2.</_></rects>
      <tilted>0</tilted></_>
    <_>
      <rects>
        <_>
          16 8 6 5 -1.</_>
        <_>
          18 8 2 5 3.</_></rects>
      <tilted>0</tilted></_>
    <_>
      <rects>
        <_>
          17 6 3 8 -1.</_>
        <_>
          18 6 1 8 3.</_></rects>
      <tilted>0</tilted></_>
    <_>
      <rects>
        <_>
          17 9 6 2 -1.</_>
        <_>
          19 9 2 2 3.</_></rects>
      <tilted>0</tilted></_>
    <_>
      <rects>
        <_>
          17 14 4 4 -1.</_>
        <_>
          17 14 2 2 2.</_>
        <_>
          19 16 2 2 2.</_></rects>
      <tilted>0</tilted></_>
    <_>
      <rects>
        <_>
          18 5 3 8 -1.</_>
        <_>
          19 5 1 8 3.</_></rects>
      <tilted>0</tilted></_>
    <_>
      <rects>
        <_>
          18 8 2 6 -1.</_>
        <_>
          18 8 1 3 2.</_>
        <_>
          19 11 1 3 2.</_></rects>
      <tilted>0</tilted></_>
    <_>
      <rects>
        <_>
          18 8 3 5 -1.</_>
        <_>
          19 8 1 5 3.</_></rects>
      <tilted>0</tilted></_>
    <_>
      <rects>
        <_>
          18 10 3 3 -1.</_>
        <_>
          19 10 1 3 3.</_></rects>
      <tilted>0</tilted></_>
    <_>
      <rects>
        <_>
          18 14 2 2 -1.</_>
        <_>
          18 14 1 1 2.</_>
        <_>
          19 15 1 1 2.</_></rects>
      <tilted>0</tilted></_>
    <_>
      <rects>
        <_>
          18 14 6 1 -1.</_>
        <_>
          20 14 2 1 3.</_></rects>
      <tilted>0</tilted></_>
    <_>
      <rects>
        <_>
          19 8 3 4 -1.</_>
        <_>
          20 8 1 4 3.</_></rects>
      <tilted>0</tilted></_>
    <_>
      <rects>
        <_>
          19 9 3 3 -1.</_>
        <_>
          20 9 1 3 3.</_></rects>
      <tilted>0</tilted></_>
    <_>
      <rects>
        <_>
          19 11 2 6 -1.</_>
        <_>
          19 11 1 3 2.</_>
        <_>
          20 14 1 3 2.</_></rects>
      <tilted>0</tilted></_>
    <_>
      <rects>
        <_>
          19 12 3 2 -1.</_>
        <_>
          20 12 1 2 3.</_></rects>
      <tilted>0</tilted></_>
    <_>
      <rects>
        <_>
          20 11 2 1 -1.</_>
        <_>
          21 11 1 1 2.</_></rects>
      <tilted>0</tilted></_></features></cascade>
</opencv_storage>
