<?xml version="1.0"?>
<opencv_storage>
<stage5>
  <maxWeakCount>16</maxWeakCount>
  <stageThreshold>-7.8141164779663086e-01</stageThreshold>
  <weakClassifiers>
    <_>
      <internalNodes>
        0 -1 119125 -2.1767850965261459e-02</internalNodes>
      <leafValues>
        6.7801856994628906e-01 -4.9248453974723816e-01</leafValues></_>
    <_>
      <internalNodes>
        0 -1 104044 1.4703069609822705e-05</internalNodes>
      <leafValues>
        -6.9446521997451782e-01 3.5556080937385559e-01</leafValues></_>
    <_>
      <internalNodes>
        0 -1 134954 2.9038120061159134e-02</internalNodes>
      <leafValues>
        -4.7065976262092590e-01 4.7362387180328369e-01</leafValues></_>
    <_>
      <internalNodes>
        0 -1 69661 -1.5068525499373209e-05</internalNodes>
      <leafValues>
        4.8127016425132751e-01 -4.0866723656654358e-01</leafValues></_>
    <_>
      <internalNodes>
        0 -1 76383 1.6248501196969301e-04</internalNodes>
      <leafValues>
        3.2343867421150208e-01 -6.9785982370376587e-01</leafValues></_>
    <_>
      <internalNodes>
        0 -1 127313 -2.3466264829039574e-03</internalNodes>
      <leafValues>
        6.2736922502517700e-01 -3.7387815117835999e-01</leafValues></_>
    <_>
      <internalNodes>
        0 -1 141089 -2.3875396436778829e-05</internalNodes>
      <leafValues>
        5.6070762872695923e-01 -3.0167898535728455e-01</leafValues></_>
    <_>
      <internalNodes>
        0 -1 145038 -1.2605733900272753e-05</internalNodes>
      <leafValues>
        5.5746430158615112e-01 -3.6165267229080200e-01</leafValues></_>
    <_>
      <internalNodes>
        0 -1 153758 3.8054925389587879e-03</internalNodes>
      <leafValues>
        -2.4601995944976807e-01 6.8558484315872192e-01</leafValues></_>
    <_>
      <internalNodes>
        0 -1 154098 -4.0154466405510902e-03</internalNodes>
      <leafValues>
        7.8007608652114868e-01 -2.2608767449855804e-01</leafValues></_>
    <_>
      <internalNodes>
        0 -1 55540 -2.5125778847723268e-05</internalNodes>
      <leafValues>
        6.2438780069351196e-01 -2.8808000683784485e-01</leafValues></_>
    <_>
      <internalNodes>
        0 -1 117478 2.1242622460704297e-04</internalNodes>
      <leafValues>
        -7.7494740486145020e-01 2.8335973620414734e-01</leafValues></_>
    <_>
      <internalNodes>
        0 -1 156561 3.7631541490554810e-03</internalNodes>
      <leafValues>
        -3.1095239520072937e-01 7.3330831527709961e-01</leafValues></_>
    <_>
      <internalNodes>
        0 -1 69561 -2.4435861269012094e-04</internalNodes>
      <leafValues>
        7.0005881786346436e-01 -2.7123075723648071e-01</leafValues></_>
    <_>
      <internalNodes>
        0 -1 96962 1.1290578404441476e-03</internalNodes>
      <leafValues>
        -3.1268665194511414e-01 5.8970820903778076e-01</leafValues></_>
    <_>
      <internalNodes>
        0 -1 132362 -7.2427978739142418e-03</internalNodes>
      <leafValues>
        7.7199679613113403e-01 -2.5278627872467041e-01</leafValues></_></weakClassifiers></stage5>
</opencv_storage>
