<?xml version="1.0"?>
<opencv_storage>
<stage7>
  <maxWeakCount>22</maxWeakCount>
  <stageThreshold>-8.0333566665649414e-01</stageThreshold>
  <weakClassifiers>
    <_>
      <internalNodes>
        0 -1 117041 4.2558233253657818e-03</internalNodes>
      <leafValues>
        3.2239001989364624e-01 -6.7764300107955933e-01</leafValues></_>
    <_>
      <internalNodes>
        0 -1 77555 8.6146319517865777e-05</internalNodes>
      <leafValues>
        2.0675450563430786e-01 -7.8207838535308838e-01</leafValues></_>
    <_>
      <internalNodes>
        0 -1 68390 -1.2639055967156310e-05</internalNodes>
      <leafValues>
        3.9413195848464966e-01 -4.1932323575019836e-01</leafValues></_>
    <_>
      <internalNodes>
        0 -1 86516 2.0950842008460313e-04</internalNodes>
      <leafValues>
        1.7762213945388794e-01 -9.1681170463562012e-01</leafValues></_>
    <_>
      <internalNodes>
        0 -1 85882 -1.3737769040744752e-04</internalNodes>
      <leafValues>
        -7.9097831249237061e-01 1.4863164722919464e-01</leafValues></_>
    <_>
      <internalNodes>
        0 -1 153166 5.0634085200726986e-03</internalNodes>
      <leafValues>
        -2.9255846142768860e-01 5.2320742607116699e-01</leafValues></_>
    <_>
      <internalNodes>
        0 -1 53560 1.2185491868876852e-05</internalNodes>
      <leafValues>
        -2.8536614775657654e-01 5.0202620029449463e-01</leafValues></_>
    <_>
      <internalNodes>
        0 -1 53560 -2.8564336389536038e-05</internalNodes>
      <leafValues>
        5.5551934242248535e-01 -3.4888613224029541e-01</leafValues></_>
    <_>
      <internalNodes>
        0 -1 82885 1.2185491868876852e-05</internalNodes>
      <leafValues>
        -2.5738698244094849e-01 5.0172960758209229e-01</leafValues></_>
    <_>
      <internalNodes>
        0 -1 82885 -1.3872669114789460e-05</internalNodes>
      <leafValues>
        5.2995628118515015e-01 -2.4705463647842407e-01</leafValues></_>
    <_>
      <internalNodes>
        0 -1 40520 1.6395676136016846e-01</internalNodes>
      <leafValues>
        -4.5602428913116455e-01 2.9689249396324158e-01</leafValues></_>
    <_>
      <internalNodes>
        0 -1 88541 1.9795920525211841e-04</internalNodes>
      <leafValues>
        -2.8776720166206360e-01 4.9339434504508972e-01</leafValues></_>
    <_>
      <internalNodes>
        0 -1 154677 3.1247306615114212e-03</internalNodes>
      <leafValues>
        -2.0284622907638550e-01 6.2544453144073486e-01</leafValues></_>
    <_>
      <internalNodes>
        0 -1 86506 8.2618534564971924e-02</internalNodes>
      <leafValues>
        1.8606682121753693e-01 -9.0207695960998535e-01</leafValues></_>
    <_>
      <internalNodes>
        0 -1 123880 3.0237738974392414e-04</internalNodes>
      <leafValues>
        -8.3836072683334351e-01 1.3833467662334442e-01</leafValues></_>
    <_>
      <internalNodes>
        0 -1 102227 6.6957809031009674e-03</internalNodes>
      <leafValues>
        9.8968066275119781e-02 -9.5779085159301758e-01</leafValues></_>
    <_>
      <internalNodes>
        0 -1 84756 -2.1005659364163876e-03</internalNodes>
      <leafValues>
        -6.4075964689254761e-01 1.6457681357860565e-01</leafValues></_>
    <_>
      <internalNodes>
        0 -1 94331 1.1320855264784768e-04</internalNodes>
      <leafValues>
        1.4454436302185059e-01 -6.8668740987777710e-01</leafValues></_>
    <_>
      <internalNodes>
        0 -1 105936 2.9327678494155407e-03</internalNodes>
      <leafValues>
        -2.2320382297039032e-01 6.1327385902404785e-01</leafValues></_>
    <_>
      <internalNodes>
        0 -1 100680 3.6615980789065361e-03</internalNodes>
      <leafValues>
        -5.3821265697479248e-01 2.6280432939529419e-01</leafValues></_>
    <_>
      <internalNodes>
        0 -1 95664 -1.4723308850079775e-03</internalNodes>
      <leafValues>
        -6.6330617666244507e-01 1.8567292392253876e-01</leafValues></_>
    <_>
      <internalNodes>
        0 -1 96074 -1.5252721823344473e-05</internalNodes>
      <leafValues>
        2.8437608480453491e-01 -5.0641226768493652e-01</leafValues></_></weakClassifiers></stage7>
</opencv_storage>
