<?xml version="1.0"?>
<opencv_storage>
<stage8>
  <maxWeakCount>30</maxWeakCount>
  <stageThreshold>-8.0477035045623779e-01</stageThreshold>
  <weakClassifiers>
    <_>
      <internalNodes>
        0 -1 124292 -1.5252721823344473e-05</internalNodes>
      <leafValues>
        3.8039216399192810e-01 -4.6666666865348816e-01</leafValues></_>
    <_>
      <internalNodes>
        0 -1 77922 4.0200240619014949e-05</internalNodes>
      <leafValues>
        2.0525839924812317e-01 -6.7021423578262329e-01</leafValues></_>
    <_>
      <internalNodes>
        0 -1 75361 1.4432128518819809e-02</internalNodes>
      <leafValues>
        2.0681332051753998e-01 -7.7785271406173706e-01</leafValues></_>
    <_>
      <internalNodes>
        0 -1 94714 -4.4720887672156096e-05</internalNodes>
      <leafValues>
        -7.4709200859069824e-01 1.3752183318138123e-01</leafValues></_>
    <_>
      <internalNodes>
        0 -1 157011 -3.4558251500129700e-03</internalNodes>
      <leafValues>
        6.0749524831771851e-01 -2.2477748990058899e-01</leafValues></_>
    <_>
      <internalNodes>
        0 -1 117569 5.3818508982658386e-02</internalNodes>
      <leafValues>
        -1.6977104544639587e-01 7.8639394044876099e-01</leafValues></_>
    <_>
      <internalNodes>
        0 -1 142211 -2.9710796661674976e-03</internalNodes>
      <leafValues>
        3.7453112006187439e-01 -3.7346521019935608e-01</leafValues></_>
    <_>
      <internalNodes>
        0 -1 119324 -1.7670716624706984e-03</internalNodes>
      <leafValues>
        -8.9888334274291992e-01 1.2705552577972412e-01</leafValues></_>
    <_>
      <internalNodes>
        0 -1 8856 1.8808350432664156e-03</internalNodes>
      <leafValues>
        -2.5194737315177917e-01 4.7709587216377258e-01</leafValues></_>
    <_>
      <internalNodes>
        0 -1 77368 5.4882795666344464e-05</internalNodes>
      <leafValues>
        1.7234644293785095e-01 -8.4646868705749512e-01</leafValues></_>
    <_>
      <internalNodes>
        0 -1 23756 7.0295026525855064e-03</internalNodes>
      <leafValues>
        -3.2080134749412537e-01 3.7798613309860229e-01</leafValues></_>
    <_>
      <internalNodes>
        0 -1 68780 -8.5442436102312058e-05</internalNodes>
      <leafValues>
        3.5970586538314819e-01 -3.8534185290336609e-01</leafValues></_>
    <_>
      <internalNodes>
        0 -1 120132 -3.4679453819990158e-03</internalNodes>
      <leafValues>
        4.9960771203041077e-01 -2.7142027020454407e-01</leafValues></_>
    <_>
      <internalNodes>
        0 -1 120361 2.2652382031083107e-03</internalNodes>
      <leafValues>
        -1.9257421791553497e-01 7.3135006427764893e-01</leafValues></_>
    <_>
      <internalNodes>
        0 -1 58880 8.3329307381063700e-04</internalNodes>
      <leafValues>
        -1.4321349561214447e-01 6.8930482864379883e-01</leafValues></_>
    <_>
      <internalNodes>
        0 -1 58880 -6.0079421382397413e-04</internalNodes>
      <leafValues>
        6.5249168872833252e-01 -1.5214137732982635e-01</leafValues></_>
    <_>
      <internalNodes>
        0 -1 87206 -7.7863965998403728e-05</internalNodes>
      <leafValues>
        -7.6462358236312866e-01 1.5148946642875671e-01</leafValues></_>
    <_>
      <internalNodes>
        0 -1 130727 -6.1687409877777100e-02</internalNodes>
      <leafValues>
        7.6371955871582031e-01 -1.6473110020160675e-01</leafValues></_>
    <_>
      <internalNodes>
        0 -1 131294 4.2987987399101257e-03</internalNodes>
      <leafValues>
        -3.9562141895294189e-01 3.8964146375656128e-01</leafValues></_>
    <_>
      <internalNodes>
        0 -1 131546 -1.1602204758673906e-03</internalNodes>
      <leafValues>
        -7.6485025882720947e-01 1.7540119588375092e-01</leafValues></_>
    <_>
      <internalNodes>
        0 -1 149898 5.8459388092160225e-03</internalNodes>
      <leafValues>
        -2.2826875746250153e-01 5.9384769201278687e-01</leafValues></_>
    <_>
      <internalNodes>
        0 -1 151296 -4.9529280513525009e-03</internalNodes>
      <leafValues>
        6.5267449617385864e-01 -1.7142970860004425e-01</leafValues></_>
    <_>
      <internalNodes>
        0 -1 125778 -1.2369343312457204e-03</internalNodes>
      <leafValues>
        -7.7420455217361450e-01 1.8570998311042786e-01</leafValues></_>
    <_>
      <internalNodes>
        0 -1 59204 -4.9617030890658498e-04</internalNodes>
      <leafValues>
        5.6071376800537109e-01 -2.1992817521095276e-01</leafValues></_>
    <_>
      <internalNodes>
        0 -1 126070 -2.9113325290381908e-03</internalNodes>
      <leafValues>
        6.3063728809356689e-01 -1.6251002252101898e-01</leafValues></_>
    <_>
      <internalNodes>
        0 -1 131566 5.0398078747093678e-03</internalNodes>
      <leafValues>
        -1.7359034717082977e-01 5.6286221742630005e-01</leafValues></_>
    <_>
      <internalNodes>
        0 -1 153750 -2.8115129098296165e-03</internalNodes>
      <leafValues>
        4.5381933450698853e-01 -2.5613352656364441e-01</leafValues></_>
    <_>
      <internalNodes>
        0 -1 26658 1.1279323697090149e-01</internalNodes>
      <leafValues>
        -2.7862238883972168e-01 4.2634546756744385e-01</leafValues></_>
    <_>
      <internalNodes>
        0 -1 103605 -4.7590034228051081e-05</internalNodes>
      <leafValues>
        -6.9233262538909912e-01 1.6933366656303406e-01</leafValues></_>
    <_>
      <internalNodes>
        0 -1 52886 4.6579315676353872e-04</internalNodes>
      <leafValues>
        -3.2866975665092468e-01 4.2568787932395935e-01</leafValues></_></weakClassifiers></stage8>
</opencv_storage>
