<?xml version="1.0"?>
<opencv_storage>
<stage3>
  <maxWeakCount>15</maxWeakCount>
  <stageThreshold>-9.3697541952133179e-01</stageThreshold>
  <weakClassifiers>
    <_>
      <internalNodes>
        0 -1 65256 2.4636767804622650e-02</internalNodes>
      <leafValues>
        -9.1666668653488159e-01 5.2564102411270142e-01</leafValues></_>
    <_>
      <internalNodes>
        0 -1 103283 -3.8858102634549141e-03</internalNodes>
      <leafValues>
        5.2259862422943115e-01 -5.4648554325103760e-01</leafValues></_>
    <_>
      <internalNodes>
        0 -1 94273 1.1508698662510142e-05</internalNodes>
      <leafValues>
        3.2513228058815002e-01 -7.9788964986801147e-01</leafValues></_>
    <_>
      <internalNodes>
        0 -1 103214 1.5163005627982784e-05</internalNodes>
      <leafValues>
        2.7774831652641296e-01 -9.5223724842071533e-01</leafValues></_>
    <_>
      <internalNodes>
        0 -1 134527 -3.3596597611904144e-02</internalNodes>
      <leafValues>
        3.1988766789436340e-01 -7.1035593748092651e-01</leafValues></_>
    <_>
      <internalNodes>
        0 -1 77329 -1.3909695553593338e-04</internalNodes>
      <leafValues>
        -7.3614227771759033e-01 2.3919665813446045e-01</leafValues></_>
    <_>
      <internalNodes>
        0 -1 117900 4.2373460019007325e-04</internalNodes>
      <leafValues>
        -8.2694399356842041e-01 2.3676373064517975e-01</leafValues></_>
    <_>
      <internalNodes>
        0 -1 126396 1.5927117317914963e-02</internalNodes>
      <leafValues>
        -3.0707594752311707e-01 8.8648021221160889e-01</leafValues></_>
    <_>
      <internalNodes>
        0 -1 150535 8.3976704627275467e-03</internalNodes>
      <leafValues>
        -2.7104198932647705e-01 7.4734795093536377e-01</leafValues></_>
    <_>
      <internalNodes>
        0 -1 112951 1.5505908057093620e-02</internalNodes>
      <leafValues>
        -2.7635455131530762e-01 7.1865171194076538e-01</leafValues></_>
    <_>
      <internalNodes>
        0 -1 86368 3.8010657590348274e-05</internalNodes>
      <leafValues>
        3.2041934132575989e-01 -8.2811945676803589e-01</leafValues></_>
    <_>
      <internalNodes>
        0 -1 6050 3.4106675535440445e-02</internalNodes>
      <leafValues>
        -3.7055075168609619e-01 5.9518468379974365e-01</leafValues></_>
    <_>
      <internalNodes>
        0 -1 85885 2.9989712857059203e-05</internalNodes>
      <leafValues>
        2.7494221925735474e-01 -6.8992054462432861e-01</leafValues></_>
    <_>
      <internalNodes>
        0 -1 117896 -1.3545476576837245e-05</internalNodes>
      <leafValues>
        3.8813462853431702e-01 -5.1064646244049072e-01</leafValues></_>
    <_>
      <internalNodes>
        0 -1 75463 4.0022961911745369e-04</internalNodes>
      <leafValues>
        -5.5562990903854370e-01 3.2541796565055847e-01</leafValues></_></weakClassifiers></stage3>
</opencv_storage>
