<?xml version="1.0"?>
<opencv_storage>
<stage4>
  <maxWeakCount>17</maxWeakCount>
  <stageThreshold>-9.1025310754776001e-01</stageThreshold>
  <weakClassifiers>
    <_>
      <internalNodes>
        0 -1 46001 -4.0756419301033020e-02</internalNodes>
      <leafValues>
        5.6086629629135132e-01 -8.5545337200164795e-01</leafValues></_>
    <_>
      <internalNodes>
        0 -1 156917 3.7526725791394711e-03</internalNodes>
      <leafValues>
        -3.7107971310615540e-01 6.6592830419540405e-01</leafValues></_>
    <_>
      <internalNodes>
        0 -1 135317 -5.9700468555092812e-03</internalNodes>
      <leafValues>
        4.0554812550544739e-01 -5.4277282953262329e-01</leafValues></_>
    <_>
      <internalNodes>
        0 -1 118823 -1.3490421224560123e-05</internalNodes>
      <leafValues>
        3.6477667093276978e-01 -5.6062877178192139e-01</leafValues></_>
    <_>
      <internalNodes>
        0 -1 102731 4.9761417321860790e-03</internalNodes>
      <leafValues>
        2.0595012605190277e-01 -9.2585045099258423e-01</leafValues></_>
    <_>
      <internalNodes>
        0 -1 111459 6.1631159042008221e-05</internalNodes>
      <leafValues>
        -8.6020487546920776e-01 2.0140331983566284e-01</leafValues></_>
    <_>
      <internalNodes>
        0 -1 115222 8.2457959651947021e-03</internalNodes>
      <leafValues>
        -3.8512456417083740e-01 5.8912527561187744e-01</leafValues></_>
    <_>
      <internalNodes>
        0 -1 55926 1.4826992154121399e-01</internalNodes>
      <leafValues>
        2.6163494586944580e-01 -9.4573438167572021e-01</leafValues></_>
    <_>
      <internalNodes>
        0 -1 10065 6.3819810748100281e-03</internalNodes>
      <leafValues>
        -3.5959392786026001e-01 5.7409018278121948e-01</leafValues></_>
    <_>
      <internalNodes>
        0 -1 125085 6.1614403966814280e-04</internalNodes>
      <leafValues>
        -6.9939076900482178e-01 2.4342158436775208e-01</leafValues></_>
    <_>
      <internalNodes>
        0 -1 132947 -2.4253006558865309e-03</internalNodes>
      <leafValues>
        7.6613152027130127e-01 -2.3868565261363983e-01</leafValues></_>
    <_>
      <internalNodes>
        0 -1 103214 -5.2416497055673972e-05</internalNodes>
      <leafValues>
        -7.9518115520477295e-01 2.7120620012283325e-01</leafValues></_>
    <_>
      <internalNodes>
        0 -1 136288 -3.5529755055904388e-02</internalNodes>
      <leafValues>
        8.1457453966140747e-01 -2.2741082310676575e-01</leafValues></_>
    <_>
      <internalNodes>
        0 -1 111130 -7.4996063485741615e-03</internalNodes>
      <leafValues>
        6.4490526914596558e-01 -3.3277994394302368e-01</leafValues></_>
    <_>
      <internalNodes>
        0 -1 137941 -1.2506174854934216e-02</internalNodes>
      <leafValues>
        8.4767943620681763e-01 -1.5326726436614990e-01</leafValues></_>
    <_>
      <internalNodes>
        0 -1 118868 -5.1297910511493683e-02</internalNodes>
      <leafValues>
        6.9288629293441772e-01 -2.5491559505462646e-01</leafValues></_>
    <_>
      <internalNodes>
        0 -1 95633 -7.6703276135958731e-05</internalNodes>
      <leafValues>
        -8.5296374559402466e-01 2.7990919351577759e-01</leafValues></_></weakClassifiers></stage4>
</opencv_storage>
