<?xml version="1.0"?>
<opencv_storage>
<cascade>
  <stageType>BOOST</stageType>
  <featureType>HAAR</featureType>
  <height>24</height>
  <width>24</width>
  <stageParams>
    <boostType>GAB</boostType>
    <minHitRate>9.9900001287460327e-01</minHitRate>
    <maxFalseAlarm>1.0000000149011612e-01</maxFalseAlarm>
    <weightTrimRate>9.4999999999999996e-01</weightTrimRate>
    <maxDepth>1</maxDepth>
    <maxWeakCount>100</maxWeakCount></stageParams>
  <featureParams>
    <maxCatCount>0</maxCatCount>
    <featSize>1</featSize>
    <mode>BASIC</mode></featureParams>
  <stageNum>10</stageNum>
  <stages>
    <!-- stage 0 -->
    <_>
      <maxWeakCount>4</maxWeakCount>
      <stageThreshold>3.6675894260406494e-01</stageThreshold>
      <weakClassifiers>
        <_>
          <internalNodes>
            0 -1 48 1.5955172479152679e-02</internalNodes>
          <leafValues>
            -8.4115523099899292e-01 9.7370725870132446e-01</leafValues></_>
        <_>
          <internalNodes>
            0 -1 6 -2.3700514808297157e-02</internalNodes>
          <leafValues>
            9.4502586126327515e-01 -8.1732678413391113e-01</leafValues></_>
        <_>
          <internalNodes>
            0 -1 68 2.1627504378557205e-02</internalNodes>
          <leafValues>
            -6.2933337688446045e-01 9.3868398666381836e-01</leafValues></_>
        <_>
          <internalNodes>
            0 -1 43 -2.4379708338528872e-03</internalNodes>
          <leafValues>
            8.9222168922424316e-01 -6.3876068592071533e-01</leafValues></_></weakClassifiers></_>
    <!-- stage 1 -->
    <_>
      <maxWeakCount>6</maxWeakCount>
      <stageThreshold>1.7617228627204895e-01</stageThreshold>
      <weakClassifiers>
        <_>
          <internalNodes>
            0 -1 61 -8.1800501793622971e-03</internalNodes>
          <leafValues>
            9.6033829450607300e-01 -7.1217709779739380e-01</leafValues></_>
        <_>
          <internalNodes>
            0 -1 49 4.1014472953975201e-03</internalNodes>
          <leafValues>
            -5.8436208963394165e-01 9.5854061841964722e-01</leafValues></_>
        <_>
          <internalNodes>
            0 -1 75 -4.1306167840957642e-03</internalNodes>
          <leafValues>
            9.2837476730346680e-01 -6.1391693353652954e-01</leafValues></_>
        <_>
          <internalNodes>
            0 -1 69 -1.7319072037935257e-02</internalNodes>
          <leafValues>
            8.4198641777038574e-01 -6.6584056615829468e-01</leafValues></_>
        <_>
          <internalNodes>
            0 -1 30 3.9656482636928558e-02</internalNodes>
          <leafValues>
            -7.9187130928039551e-01 6.6459661722183228e-01</leafValues></_>
        <_>
          <internalNodes>
            0 -1 29 -3.8949027657508850e-02</internalNodes>
          <leafValues>
            5.4496967792510986e-01 -9.6015977859497070e-01</leafValues></_></weakClassifiers></_>
    <!-- stage 2 -->
    <_>
      <maxWeakCount>9</maxWeakCount>
      <stageThreshold>-6.3830250501632690e-01</stageThreshold>
      <weakClassifiers>
        <_>
          <internalNodes>
            0 -1 76 -2.1980733145028353e-03</internalNodes>
          <leafValues>
            9.6628534793853760e-01 -2.9100528359413147e-01</leafValues></_>
        <_>
          <internalNodes>
            0 -1 20 -1.6416970174759626e-03</internalNodes>
          <leafValues>
            8.2567238807678223e-01 -9.2996078729629517e-01</leafValues></_>
        <_>
          <internalNodes>
            0 -1 21 -4.4650051859207451e-04</internalNodes>
          <leafValues>
            -9.4794690608978271e-01 6.8082988262176514e-01</leafValues></_>
        <_>
          <internalNodes>
            0 -1 68 4.2392790317535400e-02</internalNodes>
          <leafValues>
            -6.8020939826965332e-01 8.0566185712814331e-01</leafValues></_>
        <_>
          <internalNodes>
            0 -1 38 -4.6019311994314194e-03</internalNodes>
          <leafValues>
            7.1476131677627563e-01 -6.5696382522583008e-01</leafValues></_>
        <_>
          <internalNodes>
            0 -1 8 -7.4855476617813110e-02</internalNodes>
          <leafValues>
            6.5731364488601685e-01 -6.9041007757186890e-01</leafValues></_>
        <_>
          <internalNodes>
            0 -1 16 5.4036686196923256e-04</internalNodes>
          <leafValues>
            3.6757466197013855e-01 -9.5931953191757202e-01</leafValues></_>
        <_>
          <internalNodes>
            0 -1 77 3.8575818762183189e-03</internalNodes>
          <leafValues>
            -5.7330477237701416e-01 7.0832628011703491e-01</leafValues></_>
        <_>
          <internalNodes>
            0 -1 31 -6.5927265677601099e-04</internalNodes>
          <leafValues>
            -9.7772377729415894e-01 3.7951388955116272e-01</leafValues></_></weakClassifiers></_>
    <!-- stage 3 -->
    <_>
      <maxWeakCount>7</maxWeakCount>
      <stageThreshold>1.9912254810333252e-01</stageThreshold>
      <weakClassifiers>
        <_>
          <internalNodes>
            0 -1 15 1.4226320199668407e-03</internalNodes>
          <leafValues>
            9.2412233352661133e-01 -9.7619044780731201e-01</leafValues></_>
        <_>
          <internalNodes>
            0 -1 3 -8.1438053166493773e-04</internalNodes>
          <leafValues>
            9.1306811571121216e-01 -5.6131696701049805e-01</leafValues></_>
        <_>
          <internalNodes>
            0 -1 66 6.2773404642939568e-03</internalNodes>
          <leafValues>
            -8.2813543081283569e-01 7.4064683914184570e-01</leafValues></_>
        <_>
          <internalNodes>
            0 -1 59 9.5356145175173879e-04</internalNodes>
          <leafValues>
            -8.0028694868087769e-01 5.7387566566467285e-01</leafValues></_>
        <_>
          <internalNodes>
            0 -1 36 7.3585170321166515e-03</internalNodes>
          <leafValues>
            -7.1659052371978760e-01 6.7660725116729736e-01</leafValues></_>
        <_>
          <internalNodes>
            0 -1 28 3.1631506863050163e-04</internalNodes>
          <leafValues>
            -9.3220728635787964e-01 4.4569692015647888e-01</leafValues></_>
        <_>
          <internalNodes>
            0 -1 58 -3.6209193058311939e-04</internalNodes>
          <leafValues>
            -9.1960883140563965e-01 3.6147058010101318e-01</leafValues></_></weakClassifiers></_>
    <!-- stage 4 -->
    <_>
      <maxWeakCount>8</maxWeakCount>
      <stageThreshold>-2.7228876948356628e-01</stageThreshold>
      <weakClassifiers>
        <_>
          <internalNodes>
            0 -1 24 -3.6664709448814392e-02</internalNodes>
          <leafValues>
            9.2802053689956665e-01 -7.4874371290206909e-01</leafValues></_>
        <_>
          <internalNodes>
            0 -1 13 -2.9267353238537908e-04</internalNodes>
          <leafValues>
            -8.7279355525970459e-01 7.9495573043823242e-01</leafValues></_>
        <_>
          <internalNodes>
            0 -1 79 2.5446438230574131e-03</internalNodes>
          <leafValues>
            -7.4609977006912231e-01 7.2980439662933350e-01</leafValues></_>
        <_>
          <internalNodes>
            0 -1 5 -5.3060392383486032e-04</internalNodes>
          <leafValues>
            7.2501736879348755e-01 -6.7944008111953735e-01</leafValues></_>
        <_>
          <internalNodes>
            0 -1 52 4.0643100510351360e-04</internalNodes>
          <leafValues>
            4.6413633227348328e-01 -9.5304858684539795e-01</leafValues></_>
        <_>
          <internalNodes>
            0 -1 56 -2.8057419694960117e-03</internalNodes>
          <leafValues>
            5.7149899005889893e-01 -7.2546315193176270e-01</leafValues></_>
        <_>
          <internalNodes>
            0 -1 41 -5.7344132801517844e-04</internalNodes>
          <leafValues>
            -9.5263183116912842e-01 4.1096210479736328e-01</leafValues></_>
        <_>
          <internalNodes>
            0 -1 71 1.9639221951365471e-02</internalNodes>
          <leafValues>
            -7.1936053037643433e-01 4.9093344807624817e-01</leafValues></_></weakClassifiers></_>
    <!-- stage 5 -->
    <_>
      <maxWeakCount>8</maxWeakCount>
      <stageThreshold>1.2989291548728943e-01</stageThreshold>
      <weakClassifiers>
        <_>
          <internalNodes>
            0 -1 13 6.2519439961761236e-04</internalNodes>
          <leafValues>
            9.3942856788635254e-01 -9.3999999761581421e-01</leafValues></_>
        <_>
          <internalNodes>
            0 -1 10 -5.4357043700292706e-04</internalNodes>
          <leafValues>
            -8.5451912879943848e-01 8.8378036022186279e-01</leafValues></_>
        <_>
          <internalNodes>
            0 -1 57 -8.8074259459972382e-02</internalNodes>
          <leafValues>
            7.1896034479141235e-01 -8.0446797609329224e-01</leafValues></_>
        <_>
          <internalNodes>
            0 -1 65 -1.6268137842416763e-02</internalNodes>
          <leafValues>
            5.8476823568344116e-01 -7.9813337326049805e-01</leafValues></_>
        <_>
          <internalNodes>
            0 -1 45 3.5464880056679249e-04</internalNodes>
          <leafValues>
            4.1648671030998230e-01 -9.6392065286636353e-01</leafValues></_>
        <_>
          <internalNodes>
            0 -1 7 8.7988097220659256e-05</internalNodes>
          <leafValues>
            -9.3318754434585571e-01 3.9087635278701782e-01</leafValues></_>
        <_>
          <internalNodes>
            0 -1 10 2.8999315691180527e-04</internalNodes>
          <leafValues>
            3.4258687496185303e-01 -9.3981778621673584e-01</leafValues></_>
        <_>
          <internalNodes>
            0 -1 32 4.8544676974415779e-04</internalNodes>
          <leafValues>
            2.9827043414115906e-01 -9.5409137010574341e-01</leafValues></_></weakClassifiers></_>
    <!-- stage 6 -->
    <_>
      <maxWeakCount>10</maxWeakCount>
      <stageThreshold>1.7857046425342560e-01</stageThreshold>
      <weakClassifiers>
        <_>
          <internalNodes>
            0 -1 18 -7.9229119000956416e-04</internalNodes>
          <leafValues>
            -8.2248520851135254e-01 9.1730386018753052e-01</leafValues></_>
        <_>
          <internalNodes>
            0 -1 33 1.7109338659793139e-04</internalNodes>
          <leafValues>
            -9.3972927331924438e-01 7.5931471586227417e-01</leafValues></_>
        <_>
          <internalNodes>
            0 -1 54 -2.1523693576455116e-03</internalNodes>
          <leafValues>
            7.0877605676651001e-01 -7.5642555952072144e-01</leafValues></_>
        <_>
          <internalNodes>
            0 -1 74 -6.9115674123167992e-03</internalNodes>
          <leafValues>
            7.6563054323196411e-01 -5.8226412534713745e-01</leafValues></_>
        <_>
          <internalNodes>
            0 -1 50 -4.7806708607822657e-04</internalNodes>
          <leafValues>
            4.8383629322052002e-01 -8.9248967170715332e-01</leafValues></_>
        <_>
          <internalNodes>
            0 -1 25 -1.0570086538791656e-02</internalNodes>
          <leafValues>
            -9.4148349761962891e-01 3.4771001338958740e-01</leafValues></_>
        <_>
          <internalNodes>
            0 -1 0 -4.2830165475606918e-02</internalNodes>
          <leafValues>
            3.8161069154739380e-01 -8.3360958099365234e-01</leafValues></_>
        <_>
          <internalNodes>
            0 -1 51 -3.8203524309210479e-04</internalNodes>
          <leafValues>
            -9.4511753320693970e-01 3.0416473746299744e-01</leafValues></_>
        <_>
          <internalNodes>
            0 -1 37 -5.7503930293023586e-04</internalNodes>
          <leafValues>
            5.7863479852676392e-01 -5.8561706542968750e-01</leafValues></_>
        <_>
          <internalNodes>
            0 -1 58 2.0725901413243264e-04</internalNodes>
          <leafValues>
            3.5799953341484070e-01 -9.6522939205169678e-01</leafValues></_></weakClassifiers></_>
    <!-- stage 7 -->
    <_>
      <maxWeakCount>9</maxWeakCount>
      <stageThreshold>-1.3104346394538879e-01</stageThreshold>
      <weakClassifiers>
        <_>
          <internalNodes>
            0 -1 26 2.0213849842548370e-02</internalNodes>
          <leafValues>
            9.2181301116943359e-01 -9.0588235855102539e-01</leafValues></_>
        <_>
          <internalNodes>
            0 -1 19 5.0125631969422102e-04</internalNodes>
          <leafValues>
            7.7713805437088013e-01 -8.7693881988525391e-01</leafValues></_>
        <_>
          <internalNodes>
            0 -1 1 -3.2433937303721905e-03</internalNodes>
          <leafValues>
            7.1034175157546997e-01 -7.0867133140563965e-01</leafValues></_>
        <_>
          <internalNodes>
            0 -1 67 -1.2812572822440416e-04</internalNodes>
          <leafValues>
            -8.7171447277069092e-01 5.2827030420303345e-01</leafValues></_>
        <_>
          <internalNodes>
            0 -1 44 -2.3998278193175793e-03</internalNodes>
          <leafValues>
            5.3009289503097534e-01 -7.3674499988555908e-01</leafValues></_>
        <_>
          <internalNodes>
            0 -1 42 -3.8222450762987137e-02</internalNodes>
          <leafValues>
            5.5505096912384033e-01 -7.1117907762527466e-01</leafValues></_>
        <_>
          <internalNodes>
            0 -1 27 -2.1565935458056629e-04</internalNodes>
          <leafValues>
            -9.0524435043334961e-01 3.8792237639427185e-01</leafValues></_>
        <_>
          <internalNodes>
            0 -1 46 1.2362988665699959e-02</internalNodes>
          <leafValues>
            -7.7064442634582520e-01 4.0630021691322327e-01</leafValues></_>
        <_>
          <internalNodes>
            0 -1 64 1.3030305271968246e-03</internalNodes>
          <leafValues>
            -6.7710298299789429e-01 5.7177805900573730e-01</leafValues></_></weakClassifiers></_>
    <!-- stage 8 -->
    <_>
      <maxWeakCount>10</maxWeakCount>
      <stageThreshold>-2.8024750947952271e-01</stageThreshold>
      <weakClassifiers>
        <_>
          <internalNodes>
            0 -1 47 7.2037696372717619e-04</internalNodes>
          <leafValues>
            -8.4079599380493164e-01 9.3426692485809326e-01</leafValues></_>
        <_>
          <internalNodes>
            0 -1 78 7.6639745384454727e-04</internalNodes>
          <leafValues>
            -6.0724759101867676e-01 8.3671164512634277e-01</leafValues></_>
        <_>
          <internalNodes>
            0 -1 60 1.7787078832043335e-05</internalNodes>
          <leafValues>
            -7.9469984769821167e-01 6.4725530147552490e-01</leafValues></_>
        <_>
          <internalNodes>
            0 -1 55 -7.2431046282872558e-04</internalNodes>
          <leafValues>
            6.1833751201629639e-01 -7.4965125322341919e-01</leafValues></_>
        <_>
          <internalNodes>
            0 -1 62 2.3084806278347969e-02</internalNodes>
          <leafValues>
            -6.5669989585876465e-01 6.6706138849258423e-01</leafValues></_>
        <_>
          <internalNodes>
            0 -1 4 -1.4934225473552942e-03</internalNodes>
          <leafValues>
            4.3253970146179199e-01 -8.2214206457138062e-01</leafValues></_>
        <_>
          <internalNodes>
            0 -1 35 5.2716309437528253e-04</internalNodes>
          <leafValues>
            -7.7840030193328857e-01 3.9961084723472595e-01</leafValues></_>
        <_>
          <internalNodes>
            0 -1 53 2.0406162366271019e-04</internalNodes>
          <leafValues>
            2.8768187761306763e-01 -9.5782482624053955e-01</leafValues></_>
        <_>
          <internalNodes>
            0 -1 72 -1.7696860595606267e-05</internalNodes>
          <leafValues>
            2.7823904156684875e-01 -8.9055812358856201e-01</leafValues></_>
        <_>
          <internalNodes>
            0 -1 70 -1.6276510432362556e-02</internalNodes>
          <leafValues>
            6.0278683900833130e-01 -4.8233464360237122e-01</leafValues></_></weakClassifiers></_>
    <!-- stage 9 -->
    <_>
      <maxWeakCount>13</maxWeakCount>
      <stageThreshold>1.0726837068796158e-01</stageThreshold>
      <weakClassifiers>
        <_>
          <internalNodes>
            0 -1 34 1.7787078832043335e-05</internalNodes>
          <leafValues>
            -4.8917749524116516e-01 9.2620348930358887e-01</leafValues></_>
        <_>
          <internalNodes>
            0 -1 22 1.4525646110996604e-04</internalNodes>
          <leafValues>
            -7.7817362546920776e-01 7.5702607631683350e-01</leafValues></_>
        <_>
          <internalNodes>
            0 -1 14 -3.5839021438732743e-04</internalNodes>
          <leafValues>
            -9.1066890954971313e-01 4.6528962254524231e-01</leafValues></_>
        <_>
          <internalNodes>
            0 -1 9 -1.1356577277183533e-02</internalNodes>
          <leafValues>
            4.7478699684143066e-01 -7.3836708068847656e-01</leafValues></_>
        <_>
          <internalNodes>
            0 -1 2 -2.1300942171365023e-04</internalNodes>
          <leafValues>
            4.1117906570434570e-01 -7.2303771972656250e-01</leafValues></_>
        <_>
          <internalNodes>
            0 -1 23 5.7887088041752577e-04</internalNodes>
          <leafValues>
            3.0390989780426025e-01 -8.7755125761032104e-01</leafValues></_>
        <_>
          <internalNodes>
            0 -1 12 -3.9803746039979160e-04</internalNodes>
          <leafValues>
            2.9397287964820862e-01 -8.1284219026565552e-01</leafValues></_>
        <_>
          <internalNodes>
            0 -1 39 -4.5232167467474937e-03</internalNodes>
          <leafValues>
            -8.4706848859786987e-01 3.5974580049514771e-01</leafValues></_>
        <_>
          <internalNodes>
            0 -1 11 -1.2946178903803229e-03</internalNodes>
          <leafValues>
            -9.2216205596923828e-01 2.4823388457298279e-01</leafValues></_>
        <_>
          <internalNodes>
            0 -1 73 -2.3721121251583099e-03</internalNodes>
          <leafValues>
            3.1053435802459717e-01 -8.1830078363418579e-01</leafValues></_>
        <_>
          <internalNodes>
            0 -1 17 4.9534742720425129e-04</internalNodes>
          <leafValues>
            2.8240725398063660e-01 -8.8385379314422607e-01</leafValues></_>
        <_>
          <internalNodes>
            0 -1 40 -7.1664393180981278e-04</internalNodes>
          <leafValues>
            -8.3827257156372070e-01 2.7627804875373840e-01</leafValues></_>
        <_>
          <internalNodes>
            0 -1 63 -2.1776513312943280e-04</internalNodes>
          <leafValues>
            -9.4209635257720947e-01 2.2453717887401581e-01</leafValues></_></weakClassifiers></_></stages>
  <features>
    <_>
      <rects>
        <_>
          0 6 18 9 -1.</_>
        <_>
          6 6 6 9 3.</_></rects>
      <tilted>0</tilted></_>
    <_>
      <rects>
        <_>
          0 9 2 7 -1.</_>
        <_>
          1 9 1 7 2.</_></rects>
      <tilted>0</tilted></_>
    <_>
      <rects>
        <_>
          0 10 3 1 -1.</_>
        <_>
          1 10 1 1 3.</_></rects>
      <tilted>0</tilted></_>
    <_>
      <rects>
        <_>
          0 10 3 3 -1.</_>
        <_>
          1 10 1 3 3.</_></rects>
      <tilted>0</tilted></_>
    <_>
      <rects>
        <_>
          0 10 6 5 -1.</_>
        <_>
          2 10 2 5 3.</_></rects>
      <tilted>0</tilted></_>
    <_>
      <rects>
        <_>
          0 12 2 1 -1.</_>
        <_>
          1 12 1 1 2.</_></rects>
      <tilted>0</tilted></_>
    <_>
      <rects>
        <_>
          0 13 20 6 -1.</_>
        <_>
          0 13 10 3 2.</_>
        <_>
          10 16 10 3 2.</_></rects>
      <tilted>0</tilted></_>
    <_>
      <rects>
        <_>
          2 11 16 2 -1.</_>
        <_>
          2 11 8 1 2.</_>
        <_>
          10 12 8 1 2.</_></rects>
      <tilted>0</tilted></_>
    <_>
      <rects>
        <_>
          2 11 16 10 -1.</_>
        <_>
          2 11 8 5 2.</_>
        <_>
          10 16 8 5 2.</_></rects>
      <tilted>0</tilted></_>
    <_>
      <rects>
        <_>
          2 17 9 6 -1.</_>
        <_>
          2 19 9 2 3.</_></rects>
      <tilted>0</tilted></_>
    <_>
      <rects>
        <_>
          3 9 3 6 -1.</_>
        <_>
          3 11 3 2 3.</_></rects>
      <tilted>0</tilted></_>
    <_>
      <rects>
        <_>
          3 12 19 3 -1.</_>
        <_>
          3 13 19 1 3.</_></rects>
      <tilted>0</tilted></_>
    <_>
      <rects>
        <_>
          4 7 3 12 -1.</_>
        <_>
          4 11 3 4 3.</_></rects>
      <tilted>0</tilted></_>
    <_>
      <rects>
        <_>
          4 9 2 6 -1.</_>
        <_>
          4 11 2 2 3.</_></rects>
      <tilted>0</tilted></_>
    <_>
      <rects>
        <_>
          4 13 17 3 -1.</_>
        <_>
          4 14 17 1 3.</_></rects>
      <tilted>0</tilted></_>
    <_>
      <rects>
        <_>
          5 6 3 9 -1.</_>
        <_>
          5 9 3 3 3.</_></rects>
      <tilted>0</tilted></_>
    <_>
      <rects>
        <_>
          5 6 13 3 -1.</_>
        <_>
          5 7 13 1 3.</_></rects>
      <tilted>0</tilted></_>
    <_>
      <rects>
        <_>
          5 7 6 3 -1.</_>
        <_>
          7 7 2 3 3.</_></rects>
      <tilted>0</tilted></_>
    <_>
      <rects>
        <_>
          5 8 3 6 -1.</_>
        <_>
          5 10 3 2 3.</_></rects>
      <tilted>0</tilted></_>
    <_>
      <rects>
        <_>
          5 13 8 3 -1.</_>
        <_>
          5 14 8 1 3.</_></rects>
      <tilted>0</tilted></_>
    <_>
      <rects>
        <_>
          6 3 6 15 -1.</_>
        <_>
          6 8 6 5 3.</_></rects>
      <tilted>0</tilted></_>
    <_>
      <rects>
        <_>
          6 6 1 9 -1.</_>
        <_>
          6 9 1 3 3.</_></rects>
      <tilted>0</tilted></_>
    <_>
      <rects>
        <_>
          6 7 14 2 -1.</_>
        <_>
          6 7 7 1 2.</_>
        <_>
          13 8 7 1 2.</_></rects>
      <tilted>0</tilted></_>
    <_>
      <rects>
        <_>
          6 9 13 3 -1.</_>
        <_>
          6 10 13 1 3.</_></rects>
      <tilted>0</tilted></_>
    <_>
      <rects>
        <_>
          6 15 10 9 -1.</_>
        <_>
          6 18 10 3 3.</_></rects>
      <tilted>0</tilted></_>
    <_>
      <rects>
        <_>
          7 2 2 18 -1.</_>
        <_>
          7 8 2 6 3.</_></rects>
      <tilted>0</tilted></_>
    <_>
      <rects>
        <_>
          7 5 12 16 -1.</_>
        <_>
          7 13 12 8 2.</_></rects>
      <tilted>0</tilted></_>
    <_>
      <rects>
        <_>
          7 6 2 6 -1.</_>
        <_>
          7 8 2 2 3.</_></rects>
      <tilted>0</tilted></_>
    <_>
      <rects>
        <_>
          7 8 13 2 -1.</_>
        <_>
          7 9 13 1 2.</_></rects>
      <tilted>0</tilted></_>
    <_>
      <rects>
        <_>
          7 15 11 9 -1.</_>
        <_>
          7 18 11 3 3.</_></rects>
      <tilted>0</tilted></_>
    <_>
      <rects>
        <_>
          8 3 16 10 -1.</_>
        <_>
          16 3 8 10 2.</_></rects>
      <tilted>0</tilted></_>
    <_>
      <rects>
        <_>
          8 5 3 6 -1.</_>
        <_>
          8 7 3 2 3.</_></rects>
      <tilted>0</tilted></_>
    <_>
      <rects>
        <_>
          8 7 8 3 -1.</_>
        <_>
          8 8 8 1 3.</_></rects>
      <tilted>0</tilted></_>
    <_>
      <rects>
        <_>
          8 13 7 2 -1.</_>
        <_>
          8 14 7 1 2.</_></rects>
      <tilted>0</tilted></_>
    <_>
      <rects>
        <_>
          8 17 6 4 -1.</_>
        <_>
          8 17 3 2 2.</_>
        <_>
          11 19 3 2 2.</_></rects>
      <tilted>0</tilted></_>
    <_>
      <rects>
        <_>
          8 20 1 4 -1.</_>
        <_>
          8 22 1 2 2.</_></rects>
      <tilted>0</tilted></_>
    <_>
      <rects>
        <_>
          8 22 6 2 -1.</_>
        <_>
          8 23 6 1 2.</_></rects>
      <tilted>0</tilted></_>
    <_>
      <rects>
        <_>
          9 0 1 3 -1.</_>
        <_>
          9 1 1 1 3.</_></rects>
      <tilted>0</tilted></_>
    <_>
      <rects>
        <_>
          9 0 6 2 -1.</_>
        <_>
          9 1 6 1 2.</_></rects>
      <tilted>0</tilted></_>
    <_>
      <rects>
        <_>
          9 1 2 21 -1.</_>
        <_>
          9 8 2 7 3.</_></rects>
      <tilted>0</tilted></_>
    <_>
      <rects>
        <_>
          9 2 4 18 -1.</_>
        <_>
          9 2 2 9 2.</_>
        <_>
          11 11 2 9 2.</_></rects>
      <tilted>0</tilted></_>
    <_>
      <rects>
        <_>
          9 3 4 8 -1.</_>
        <_>
          9 3 2 4 2.</_>
        <_>
          11 7 2 4 2.</_></rects>
      <tilted>0</tilted></_>
    <_>
      <rects>
        <_>
          9 13 4 10 -1.</_>
        <_>
          9 18 4 5 2.</_></rects>
      <tilted>0</tilted></_>
    <_>
      <rects>
        <_>
          10 0 3 2 -1.</_>
        <_>
          10 1 3 1 2.</_></rects>
      <tilted>0</tilted></_>
    <_>
      <rects>
        <_>
          10 0 3 3 -1.</_>
        <_>
          10 1 3 1 3.</_></rects>
      <tilted>0</tilted></_>
    <_>
      <rects>
        <_>
          10 1 1 6 -1.</_>
        <_>
          10 3 1 2 3.</_></rects>
      <tilted>0</tilted></_>
    <_>
      <rects>
        <_>
          10 6 12 3 -1.</_>
        <_>
          16 6 6 3 2.</_></rects>
      <tilted>0</tilted></_>
    <_>
      <rects>
        <_>
          10 8 1 10 -1.</_>
        <_>
          10 13 1 5 2.</_></rects>
      <tilted>0</tilted></_>
    <_>
      <rects>
        <_>
          10 15 12 6 -1.</_>
        <_>
          10 15 6 3 2.</_>
        <_>
          16 18 6 3 2.</_></rects>
      <tilted>0</tilted></_>
    <_>
      <rects>
        <_>
          10 22 5 2 -1.</_>
        <_>
          10 23 5 1 2.</_></rects>
      <tilted>0</tilted></_>
    <_>
      <rects>
        <_>
          11 0 3 8 -1.</_>
        <_>
          11 4 3 4 2.</_></rects>
      <tilted>0</tilted></_>
    <_>
      <rects>
        <_>
          11 3 4 2 -1.</_>
        <_>
          11 4 4 1 2.</_></rects>
      <tilted>0</tilted></_>
    <_>
      <rects>
        <_>
          11 8 6 3 -1.</_>
        <_>
          11 9 6 1 3.</_></rects>
      <tilted>0</tilted></_>
    <_>
      <rects>
        <_>
          11 19 3 2 -1.</_>
        <_>
          11 20 3 1 2.</_></rects>
      <tilted>0</tilted></_>
    <_>
      <rects>
        <_>
          11 21 2 3 -1.</_>
        <_>
          11 22 2 1 3.</_></rects>
      <tilted>0</tilted></_>
    <_>
      <rects>
        <_>
          12 0 1 3 -1.</_>
        <_>
          12 1 1 1 3.</_></rects>
      <tilted>0</tilted></_>
    <_>
      <rects>
        <_>
          12 0 3 2 -1.</_>
        <_>
          12 1 3 1 2.</_></rects>
      <tilted>0</tilted></_>
    <_>
      <rects>
        <_>
          12 12 9 12 -1.</_>
        <_>
          12 16 9 4 3.</_></rects>
      <tilted>0</tilted></_>
    <_>
      <rects>
        <_>
          12 18 2 3 -1.</_>
        <_>
          12 19 2 1 3.</_></rects>
      <tilted>0</tilted></_>
    <_>
      <rects>
        <_>
          13 1 2 15 -1.</_>
        <_>
          14 1 1 15 2.</_></rects>
      <tilted>0</tilted></_>
    <_>
      <rects>
        <_>
          13 15 2 6 -1.</_>
        <_>
          13 15 1 3 2.</_>
        <_>
          14 18 1 3 2.</_></rects>
      <tilted>0</tilted></_>
    <_>
      <rects>
        <_>
          14 7 6 10 -1.</_>
        <_>
          14 7 3 5 2.</_>
        <_>
          17 12 3 5 2.</_></rects>
      <tilted>0</tilted></_>
    <_>
      <rects>
        <_>
          14 10 9 4 -1.</_>
        <_>
          17 10 3 4 3.</_></rects>
      <tilted>0</tilted></_>
    <_>
      <rects>
        <_>
          14 18 3 2 -1.</_>
        <_>
          14 19 3 1 2.</_></rects>
      <tilted>0</tilted></_>
    <_>
      <rects>
        <_>
          14 22 1 2 -1.</_>
        <_>
          14 23 1 1 2.</_></rects>
      <tilted>0</tilted></_>
    <_>
      <rects>
        <_>
          16 4 6 10 -1.</_>
        <_>
          16 4 3 5 2.</_>
        <_>
          19 9 3 5 2.</_></rects>
      <tilted>0</tilted></_>
    <_>
      <rects>
        <_>
          16 13 4 8 -1.</_>
        <_>
          16 13 2 4 2.</_>
        <_>
          18 17 2 4 2.</_></rects>
      <tilted>0</tilted></_>
    <_>
      <rects>
        <_>
          16 17 2 2 -1.</_>
        <_>
          16 18 2 1 2.</_></rects>
      <tilted>0</tilted></_>
    <_>
      <rects>
        <_>
          17 11 6 10 -1.</_>
        <_>
          17 11 3 5 2.</_>
        <_>
          20 16 3 5 2.</_></rects>
      <tilted>0</tilted></_>
    <_>
      <rects>
        <_>
          18 8 2 12 -1.</_>
        <_>
          18 14 2 6 2.</_></rects>
      <tilted>0</tilted></_>
    <_>
      <rects>
        <_>
          18 14 6 4 -1.</_>
        <_>
          20 14 2 4 3.</_></rects>
      <tilted>0</tilted></_>
    <_>
      <rects>
        <_>
          19 8 4 12 -1.</_>
        <_>
          19 8 2 6 2.</_>
        <_>
          21 14 2 6 2.</_></rects>
      <tilted>0</tilted></_>
    <_>
      <rects>
        <_>
          19 11 4 2 -1.</_>
        <_>
          19 12 4 1 2.</_></rects>
      <tilted>0</tilted></_>
    <_>
      <rects>
        <_>
          21 6 2 6 -1.</_>
        <_>
          21 9 2 3 2.</_></rects>
      <tilted>0</tilted></_>
    <_>
      <rects>
        <_>
          21 9 3 3 -1.</_>
        <_>
          22 9 1 3 3.</_></rects>
      <tilted>0</tilted></_>
    <_>
      <rects>
        <_>
          21 9 3 7 -1.</_>
        <_>
          22 9 1 7 3.</_></rects>
      <tilted>0</tilted></_>
    <_>
      <rects>
        <_>
          21 11 3 2 -1.</_>
        <_>
          22 11 1 2 3.</_></rects>
      <tilted>0</tilted></_>
    <_>
      <rects>
        <_>
          22 9 2 4 -1.</_>
        <_>
          23 9 1 4 2.</_></rects>
      <tilted>0</tilted></_>
    <_>
      <rects>
        <_>
          22 12 2 1 -1.</_>
        <_>
          23 12 1 1 2.</_></rects>
      <tilted>0</tilted></_>
    <_>
      <rects>
        <_>
          22 12 2 2 -1.</_>
        <_>
          23 12 1 2 2.</_></rects>
      <tilted>0</tilted></_></features></cascade>
</opencv_storage>
