<?xml version="1.0"?>
<opencv_storage>
<stage1>
  <maxWeakCount>6</maxWeakCount>
  <stageThreshold>1.7617228627204895e-01</stageThreshold>
  <weakClassifiers>
    <_>
      <internalNodes>
        0 -1 136616 -8.1800501793622971e-03</internalNodes>
      <leafValues>
        9.6033829450607300e-01 -7.1217709779739380e-01</leafValues></_>
    <_>
      <internalNodes>
        0 -1 114383 4.1014472953975201e-03</internalNodes>
      <leafValues>
        -5.8436208963394165e-01 9.5854061841964722e-01</leafValues></_>
    <_>
      <internalNodes>
        0 -1 160646 -4.1306167840957642e-03</internalNodes>
      <leafValues>
        9.2837476730346680e-01 -6.1391693353652954e-01</leafValues></_>
    <_>
      <internalNodes>
        0 -1 153815 -1.7319072037935257e-02</internalNodes>
      <leafValues>
        8.4198641777038574e-01 -6.6584056615829468e-01</leafValues></_>
    <_>
      <internalNodes>
        0 -1 92364 3.9656482636928558e-02</internalNodes>
      <leafValues>
        -7.9187130928039551e-01 6.6459661722183228e-01</leafValues></_>
    <_>
      <internalNodes>
        0 -1 88759 -3.8949027657508850e-02</internalNodes>
      <leafValues>
        5.4496967792510986e-01 -9.6015977859497070e-01</leafValues></_></weakClassifiers></stage1>
</opencv_storage>
