<?xml version="1.0"?>
<opencv_storage>
<stage9>
  <maxWeakCount>13</maxWeakCount>
  <stageThreshold>1.0726837068796158e-01</stageThreshold>
  <weakClassifiers>
    <_>
      <internalNodes>
        0 -1 97941 1.7787078832043335e-05</internalNodes>
      <leafValues>
        -4.8917749524116516e-01 9.2620348930358887e-01</leafValues></_>
    <_>
      <internalNodes>
        0 -1 76044 1.4525646110996604e-04</internalNodes>
      <leafValues>
        -7.7817362546920776e-01 7.5702607631683350e-01</leafValues></_>
    <_>
      <internalNodes>
        0 -1 58475 -3.5839021438732743e-04</internalNodes>
      <leafValues>
        -9.1066890954971313e-01 4.6528962254524231e-01</leafValues></_>
    <_>
      <internalNodes>
        0 -1 37101 -1.1356577277183533e-02</internalNodes>
      <leafValues>
        4.7478699684143066e-01 -7.3836708068847656e-01</leafValues></_>
    <_>
      <internalNodes>
        0 -1 8810 -2.1300942171365023e-04</internalNodes>
      <leafValues>
        4.1117906570434570e-01 -7.2303771972656250e-01</leafValues></_>
    <_>
      <internalNodes>
        0 -1 77251 5.7887088041752577e-04</internalNodes>
      <leafValues>
        3.0390989780426025e-01 -8.7755125761032104e-01</leafValues></_>
    <_>
      <internalNodes>
        0 -1 55056 -3.9803746039979160e-04</internalNodes>
      <leafValues>
        2.9397287964820862e-01 -8.1284219026565552e-01</leafValues></_>
    <_>
      <internalNodes>
        0 -1 99432 -4.5232167467474937e-03</internalNodes>
      <leafValues>
        -8.4706848859786987e-01 3.5974580049514771e-01</leafValues></_>
    <_>
      <internalNodes>
        0 -1 47017 -1.2946178903803229e-03</internalNodes>
      <leafValues>
        -9.2216205596923828e-01 2.4823388457298279e-01</leafValues></_>
    <_>
      <internalNodes>
        0 -1 160429 -2.3721121251583099e-03</internalNodes>
      <leafValues>
        3.1053435802459717e-01 -8.1830078363418579e-01</leafValues></_>
    <_>
      <internalNodes>
        0 -1 65617 4.9534742720425129e-04</internalNodes>
      <leafValues>
        2.8240725398063660e-01 -8.8385379314422607e-01</leafValues></_>
    <_>
      <internalNodes>
        0 -1 100062 -7.1664393180981278e-04</internalNodes>
      <leafValues>
        -8.3827257156372070e-01 2.7627804875373840e-01</leafValues></_>
    <_>
      <internalNodes>
        0 -1 138924 -2.1776513312943280e-04</internalNodes>
      <leafValues>
        -9.4209635257720947e-01 2.2453717887401581e-01</leafValues></_></weakClassifiers></stage9>
</opencv_storage>
