<?xml version="1.0"?>
<opencv_storage>
<stage6>
  <maxWeakCount>10</maxWeakCount>
  <stageThreshold>1.7857046425342560e-01</stageThreshold>
  <weakClassifiers>
    <_>
      <internalNodes>
        0 -1 66238 -7.9229119000956416e-04</internalNodes>
      <leafValues>
        -8.2248520851135254e-01 9.1730386018753052e-01</leafValues></_>
    <_>
      <internalNodes>
        0 -1 96986 1.7109338659793139e-04</internalNodes>
      <leafValues>
        -9.3972927331924438e-01 7.5931471586227417e-01</leafValues></_>
    <_>
      <internalNodes>
        0 -1 121245 -2.1523693576455116e-03</internalNodes>
      <leafValues>
        7.0877605676651001e-01 -7.5642555952072144e-01</leafValues></_>
    <_>
      <internalNodes>
        0 -1 160627 -6.9115674123167992e-03</internalNodes>
      <leafValues>
        7.6563054323196411e-01 -5.8226412534713745e-01</leafValues></_>
    <_>
      <internalNodes>
        0 -1 114588 -4.7806708607822657e-04</internalNodes>
      <leafValues>
        4.8383629322052002e-01 -8.9248967170715332e-01</leafValues></_>
    <_>
      <internalNodes>
        0 -1 82302 -1.0570086538791656e-02</internalNodes>
      <leafValues>
        -9.4148349761962891e-01 3.4771001338958740e-01</leafValues></_>
    <_>
      <internalNodes>
        0 -1 6172 -4.2830165475606918e-02</internalNodes>
      <leafValues>
        3.8161069154739380e-01 -8.3360958099365234e-01</leafValues></_>
    <_>
      <internalNodes>
        0 -1 116242 -3.8203524309210479e-04</internalNodes>
      <leafValues>
        -9.4511753320693970e-01 3.0416473746299744e-01</leafValues></_>
    <_>
      <internalNodes>
        0 -1 98655 -5.7503930293023586e-04</internalNodes>
      <leafValues>
        5.7863479852676392e-01 -5.8561706542968750e-01</leafValues></_>
    <_>
      <internalNodes>
        0 -1 127631 2.0725901413243264e-04</internalNodes>
      <leafValues>
        3.5799953341484070e-01 -9.6522939205169678e-01</leafValues></_></weakClassifiers></stage6>
</opencv_storage>
