<?xml version="1.0"?>
<opencv_storage>
<stage8>
  <maxWeakCount>10</maxWeakCount>
  <stageThreshold>-2.8024750947952271e-01</stageThreshold>
  <weakClassifiers>
    <_>
      <internalNodes>
        0 -1 111033 7.2037696372717619e-04</internalNodes>
      <leafValues>
        -8.4079599380493164e-01 9.3426692485809326e-01</leafValues></_>
    <_>
      <internalNodes>
        0 -1 161870 7.6639745384454727e-04</internalNodes>
      <leafValues>
        -6.0724759101867676e-01 8.3671164512634277e-01</leafValues></_>
    <_>
      <internalNodes>
        0 -1 132958 1.7787078832043335e-05</internalNodes>
      <leafValues>
        -7.9469984769821167e-01 6.4725530147552490e-01</leafValues></_>
    <_>
      <internalNodes>
        0 -1 121347 -7.2431046282872558e-04</internalNodes>
      <leafValues>
        6.1833751201629639e-01 -7.4965125322341919e-01</leafValues></_>
    <_>
      <internalNodes>
        0 -1 137470 2.3084806278347969e-02</internalNodes>
      <leafValues>
        -6.5669989585876465e-01 6.6706138849258423e-01</leafValues></_>
    <_>
      <internalNodes>
        0 -1 8876 -1.4934225473552942e-03</internalNodes>
      <leafValues>
        4.3253970146179199e-01 -8.2214206457138062e-01</leafValues></_>
    <_>
      <internalNodes>
        0 -1 98400 5.2716309437528253e-04</internalNodes>
      <leafValues>
        -7.7840030193328857e-01 3.9961084723472595e-01</leafValues></_>
    <_>
      <internalNodes>
        0 -1 121072 2.0406162366271019e-04</internalNodes>
      <leafValues>
        2.8768187761306763e-01 -9.5782482624053955e-01</leafValues></_>
    <_>
      <internalNodes>
        0 -1 156984 -1.7696860595606267e-05</internalNodes>
      <leafValues>
        2.7823904156684875e-01 -8.9055812358856201e-01</leafValues></_>
    <_>
      <internalNodes>
        0 -1 154692 -1.6276510432362556e-02</internalNodes>
      <leafValues>
        6.0278683900833130e-01 -4.8233464360237122e-01</leafValues></_></weakClassifiers></stage8>
</opencv_storage>
