<?xml version="1.0"?>
<opencv_storage>
<stage7>
  <maxWeakCount>9</maxWeakCount>
  <stageThreshold>-1.3104346394538879e-01</stageThreshold>
  <weakClassifiers>
    <_>
      <internalNodes>
        0 -1 84632 2.0213849842548370e-02</internalNodes>
      <leafValues>
        9.2181301116943359e-01 -9.0588235855102539e-01</leafValues></_>
    <_>
      <internalNodes>
        0 -1 68780 5.0125631969422102e-04</internalNodes>
      <leafValues>
        7.7713805437088013e-01 -8.7693881988525391e-01</leafValues></_>
    <_>
      <internalNodes>
        0 -1 8165 -3.2433937303721905e-03</internalNodes>
      <leafValues>
        7.1034175157546997e-01 -7.0867133140563965e-01</leafValues></_>
    <_>
      <internalNodes>
        0 -1 147955 -1.2812572822440416e-04</internalNodes>
      <leafValues>
        -8.7171447277069092e-01 5.2827030420303345e-01</leafValues></_>
    <_>
      <internalNodes>
        0 -1 106963 -2.3998278193175793e-03</internalNodes>
      <leafValues>
        5.3009289503097534e-01 -7.3674499988555908e-01</leafValues></_>
    <_>
      <internalNodes>
        0 -1 105203 -3.8222450762987137e-02</internalNodes>
      <leafValues>
        5.5505096912384033e-01 -7.1117907762527466e-01</leafValues></_>
    <_>
      <internalNodes>
        0 -1 84777 -2.1565935458056629e-04</internalNodes>
      <leafValues>
        -9.0524435043334961e-01 3.8792237639427185e-01</leafValues></_>
    <_>
      <internalNodes>
        0 -1 110406 1.2362988665699959e-02</internalNodes>
      <leafValues>
        -7.7064442634582520e-01 4.0630021691322327e-01</leafValues></_>
    <_>
      <internalNodes>
        0 -1 139198 1.3030305271968246e-03</internalNodes>
      <leafValues>
        -6.7710298299789429e-01 5.7177805900573730e-01</leafValues></_></weakClassifiers></stage7>
</opencv_storage>
