<?xml version="1.0"?>
<opencv_storage>
<stage8>
  <maxWeakCount>12</maxWeakCount>
  <stageThreshold>-1.0745575428009033e+00</stageThreshold>
  <weakClassifiers>
    <_>
      <internalNodes>
        0 -1 111836 1.6161275198101066e-05</internalNodes>
      <leafValues>
        -9.0294629335403442e-01 4.0774786472320557e-01</leafValues></_>
    <_>
      <internalNodes>
        0 -1 119125 -1.9712146371603012e-02</internalNodes>
      <leafValues>
        5.0728857517242432e-01 -5.8573168516159058e-01</leafValues></_>
    <_>
      <internalNodes>
        0 -1 30471 4.6159010380506516e-03</internalNodes>
      <leafValues>
        -3.5266733169555664e-01 6.3619548082351685e-01</leafValues></_>
    <_>
      <internalNodes>
        0 -1 144275 -2.3794431239366531e-02</internalNodes>
      <leafValues>
        4.4910353422164917e-01 -4.5660540461540222e-01</leafValues></_>
    <_>
      <internalNodes>
        0 -1 111043 -1.4039525922271423e-05</internalNodes>
      <leafValues>
        3.8792157173156738e-01 -5.4226559400558472e-01</leafValues></_>
    <_>
      <internalNodes>
        0 -1 142454 9.5726232975721359e-03</internalNodes>
      <leafValues>
        -2.9030105471611023e-01 8.0307412147521973e-01</leafValues></_>
    <_>
      <internalNodes>
        0 -1 151172 9.1132093220949173e-03</internalNodes>
      <leafValues>
        -2.1663357317447662e-01 8.0991894006729126e-01</leafValues></_>
    <_>
      <internalNodes>
        0 -1 159199 1.4372290934261400e-05</internalNodes>
      <leafValues>
        -1.8848915398120880e-01 7.3274296522140503e-01</leafValues></_>
    <_>
      <internalNodes>
        0 -1 4985 -2.7095364202978089e-05</internalNodes>
      <leafValues>
        5.8762633800506592e-01 -3.0648770928382874e-01</leafValues></_>
    <_>
      <internalNodes>
        0 -1 76310 -5.1459966925904155e-05</internalNodes>
      <leafValues>
        4.3893995881080627e-01 -4.0266698598861694e-01</leafValues></_>
    <_>
      <internalNodes>
        0 -1 156690 6.7611499689519405e-03</internalNodes>
      <leafValues>
        -2.2774103283882141e-01 8.4689408540725708e-01</leafValues></_>
    <_>
      <internalNodes>
        0 -1 44801 9.9088512361049652e-02</internalNodes>
      <leafValues>
        2.9035067558288574e-01 -7.1100473403930664e-01</leafValues></_></weakClassifiers></stage8>
</opencv_storage>
