<?xml version="1.0"?>
<opencv_storage>
<stage6>
  <maxWeakCount>10</maxWeakCount>
  <stageThreshold>-1.3617824316024780e+00</stageThreshold>
  <weakClassifiers>
    <_>
      <internalNodes>
        0 -1 46508 -5.0938844680786133e-02</internalNodes>
      <leafValues>
        6.4397048950195313e-01 -7.7752554416656494e-01</leafValues></_>
    <_>
      <internalNodes>
        0 -1 146314 -1.1458717286586761e-02</internalNodes>
      <leafValues>
        5.4073578119277954e-01 -6.0754376649856567e-01</leafValues></_>
    <_>
      <internalNodes>
        0 -1 153758 3.9267363026738167e-03</internalNodes>
      <leafValues>
        -3.2486575841903687e-01 7.1420872211456299e-01</leafValues></_>
    <_>
      <internalNodes>
        0 -1 132856 -1.2268196791410446e-02</internalNodes>
      <leafValues>
        5.6233704090118408e-01 -3.9131292700767517e-01</leafValues></_>
    <_>
      <internalNodes>
        0 -1 137900 -1.1256313882768154e-02</internalNodes>
      <leafValues>
        8.1330114603042603e-01 -2.6964411139488220e-01</leafValues></_>
    <_>
      <internalNodes>
        0 -1 154646 1.0646475711837411e-03</internalNodes>
      <leafValues>
        -1.8394130468368530e-01 8.6783599853515625e-01</leafValues></_>
    <_>
      <internalNodes>
        0 -1 131259 4.8240115866065025e-03</internalNodes>
      <leafValues>
        -2.1842278540134430e-01 7.6280581951141357e-01</leafValues></_>
    <_>
      <internalNodes>
        0 -1 150306 2.2061883937567472e-03</internalNodes>
      <leafValues>
        -2.9988428950309753e-01 5.9735596179962158e-01</leafValues></_>
    <_>
      <internalNodes>
        0 -1 54687 1.6038757562637329e-01</internalNodes>
      <leafValues>
        2.7370083332061768e-01 -9.4557785987854004e-01</leafValues></_>
    <_>
      <internalNodes>
        0 -1 96076 -2.7513804525369778e-05</internalNodes>
      <leafValues>
        3.0238148570060730e-01 -6.1545044183731079e-01</leafValues></_></weakClassifiers></stage6>
</opencv_storage>
