svm_type c_svc
kernel_type polynomial
degree 3
gamma 1
coef0 0
nr_class 2
total_sv 145
rho 1.34245
label 1 -1
nr_sv 65 80
SV
0.000207285076148951 0:0.20323254 1:0.22686927 2:0.22682245 3:0.070430607 4:0.05357505 5:0.082783431 6:0.08455006 7:0.20059024 8:0.30212253 9:0.19516592 10:0.026890898 11:0.010424705 12:0.0036007883 13:0.050293699 14:0.03293613 15:0.30212253 16:0.30212253 17:0.30212253 18:0.041807823 19:0.020526158 20:0.011916793 21:0.0070844186 22:0.052538436 23:0.10068898 24:0.032538109 25:0.30212253 26:0.30212253 27:0.023465555 28:0.0097888988 29:0.0045261895 30:0.00068341906 31:0.015792141 32:0.0082355235 33:0.024783192 34:0.30212253 35:0.30212253 36:0.1370655 37:0.0090132346 38:0.012200424 39:0.0026268549 40:0.02823643 41:0.029017581 42:0.27742055 43:0.27742055 44:0.22409576 45:0.24796864 46:0.008071796 47:0.035404842 48:0.0097429277 49:0.093060732 50:0.044665966 51:0.27742055 52:0.27742055 53:0.23610531 54:0.049877413 55:0.03539218 56:0.013085091 57:0.0037844223 58:0.0063869748 59:0.0029604891 60:0.10415569 61:0.27742055 62:0.27320167 63:0.23451491 64:0.17667863 65:0.057761192 66:0.01152642 67:0.040096946 68:0.02434057 69:0.27742055 70:0.27742055 71:0.27742055 72:0.16828325 73:0.0087856902 74:0.042760279 75:0.0048005716 76:0.14225377 77:0.042176072 78:0.26309714 79:0.17786819 80:0.16777381 81:0.080619022 82:0.0065495931 83:0.016859232 84:4.3994944e-05 85:0.10096148 86:0.025596306 87:0.068189003 88:0.066474564 89:0.08619079 90:0.26309714 91:0.17168793 92:0.21577644 93:0.02062938 94:0.1054628 95:0.11147716 96:0.26309714 97:0.26309714 98:0.26309714 99:0.21100011 100:0.082029685 101:0.227751 102:0.014829276 103:0.17336692 104:0.25294608 105:0.26309714 106:0.26309714 107:0.26309714 108:0.055886533 109:0.0062654288 110:0.0086414684 111:0.049895987 112:0.044767749 113:0.063063987 114:0.006667336 115:0.16225432 116:0.31000391 117:0.08504013 118:0.076831467 119:0.041368905 120:3.1917418e-05 121:0.00022294144 123:0.00023325068 124:0.28709045 125:0.31000391 126:0.31000391 127:0.070874393 128:0.11246698 129:0.13599941 130:0.15778621 131:0.11279759 132:0.25448069 133:0.16320591 134:0.31000391 135:0.31000391 136:0.28087899 137:0.19005977 138:0.0012192047 139:0.0052495841 140:0.00082606124 141:0.001191812 142:0.068633422 143:0.31000391 144:0.084415995 145:0.22744997 146:0.054748967 147:0.00095735991 148:0.00070390088 149:6.5311098e-05 150:0.0010122512 151:0.2349856 152:0.27737117 153:0.16886687 154:0.27737117 155:0.099339008 156:0.034365177 157:0.038228493 158:0.051488675 159:0.051148254 160:0.27414438 161:0.27737117 162:0.18897271 163:0.27737117 164:0.12322803 165:0.002121621 166:0.002818096 167:0.0007622448 168:0.0015173599 169:0.065892853 170:0.27737117 171:0.1077319 172:0.27737117 173:0.27737117 174:0.049556799 175:0.19301856 176:0.12424468 177:0.011149934 178:0.14522703 179:0.27737117 180:0.12041982 181:0.19126476 182:0.24316864 183:0.093475431 184:0.11031471 185:0.13931532 186:0.10616267 187:0.23976848 188:0.24332629 189:0.092303358 190:0.062214211 191:0.22336583 192:0.070847265 193:0.1238153 194:0.16257316 195:0.19225736 196:0.24332629 197:0.24152227 198:0.053615656 199:0.07260862 200:0.24332629 201:0.10813844 202:0.24332629 203:0.21031779 204:0.02190822 205:0.1482331 206:0.24332629 207:0.086104363 208:0.023939058 209:0.14974304 210:0.11642666 211:0.14221133 212:0.093465649 213:0.05034855 214:0.23809101 215:0.24332629 216:0.11432828 217:0.031986367 218:0.03768402 219:0.035838794 220:0.20676157 221:0.030666612 222:0.3156659 223:0.22221477 224:0.14148536 225:0.12037934 226:0.061927073 227:0.045915119 228:0.0010434375 229:0.020302353 230:0.0022899925 231:0.043212119 232:0.03842229 233:0.1376839 234:0.11131113 235:0.077383429 236:0.0323692 237:0.0098840939 238:0.23388118 239:0.03820594 240:0.3156659 241:0.3156659 242:0.20239396 243:0.3156659 244:0.18444134 245:0.057758141 246:0.0041034049 247:0.098368555 248:0.069366246 249:0.3156659 250:0.23964381 251:0.3156659 252:0.10520301 253:0.10827871 254:0.13192494 255:0.0068231188 256:0.007744425 257:0.0023281993 258:0.0062294086 259:0.011190607 260:0.11932381 261:0.06977924 262:0.14046969 263:0.32044166 264:0.034255385 265:0.13532084 266:0.047385093 267:0.018836835 268:0.019031549 269:0.11664522 270:0.32044166 271:0.28366849 272:0.26351205 273:0.0078540761 274:0.030263897 275:0.030241026 276:0.20854577 277:0.063778035 278:0.32044166 279:0.32044166 280:0.19831072 281:0.32044166 282:0.052306522 283:0.019265383 284:0.0053023263 285:0.031452265 286:0.15009025 287:0.32044166 288:0.072296873 289:0.043193575 290:0.28689519 291:0.023995722 292:0.14900745 293:0.063326687 294:0.0080778431 295:0.023264462 296:0.13067232 297:0.1187542 298:0.12910779 299:0.20384748 300:0.09635298 301:0.084760226 302:0.067786656 303:0.040324342 304:0.073826604 305:0.2556085 306:0.28689519 307:0.055764828 308:0.28689519 309:0.094078094 310:0.033189304 311:0.0048465976 312:0.011472845 313:0.12888673 314:0.28689519 315:0.28689519 316:0.28689519 317:0.28689519 318:0.26726559 319:0.11956796 320:0.044109914 321:0.027866641 322:0.054950982 323:0.28689519 
0.001123221539051928 0:0.11823026 1:0.062547475 2:0.089183725 3:0.022012999 4:0.016265232 5:0.00051118137 6:0.00040746966 7:0.083240859 8:0.15174785 9:0.21413903 10:0.037095778 11:0.027473066 12:0.0072832624 13:0.0011995006 14:5.490896e-05 15:0.00052978727 16:0.057389077 17:0.29542795 18:0.22650707 19:0.22358505 20:0.32595694 21:0.062522069 22:0.048744425 23:0.0079280203 24:0.0061881887 25:0.3585051 26:0.36638993 27:0.36638993 28:0.092383467 29:0.064598247 30:0.016293962 31:0.0061021983 32:0.00094195234 33:0.0069749323 34:0.20721099 35:0.36638993 36:0.331909 37:0.025421971 38:0.0012530355 39:0.00010540821 40:0.0014248685 41:0.009438388 42:0.034504861 43:0.012037994 44:0.25677493 45:0.2841363 46:0.063135289 47:0.0011349358 48:0.0004567689 49:0.0011787998 50:0.039836373 51:0.13979605 52:0.024381796 53:0.15973416 54:0.3402589 55:0.074992463 56:0.0070094611 57:0.0015811232 58:0.022906249 59:0.025029441 60:0.080772713 61:0.086391106 62:0.3402589 63:0.3402589 64:0.21534212 65:0.018830251 66:0.0068515334 67:0.027219566 68:0.14247678 69:0.3402589 70:0.13768801 71:0.3402589 72:0.12394059 73:0.043028597 74:0.00026170263 75:0.00019887983 76:0.037035983 77:0.038163047 78:0.095828615 79:0.038624961 80:0.097437866 81:0.070670009 82:0.0028391213 83:0.0010561328 85:0.10238394 86:0.009549831 87:0.064719692 88:0.026991714 89:0.071479112 90:0.30090937 91:0.23921919 92:0.047233798 93:0.010354829 94:0.083391868 95:0.19874063 96:0.30090937 97:0.29685906 98:0.30090937 99:0.30090937 100:0.17395578 101:0.063394576 102:0.022711638 103:0.26221788 104:0.14314972 105:0.30090937 106:0.30090937 107:0.2640343 108:0.075988039 109:0.052684445 110:0.056836583 111:0.0093428763 112:0.0092777815 113:0.0079500256 114:0.031076498 115:0.24153221 116:0.36940897 117:0.054376971 118:0.017105881 119:0.0080585713 120:0.0017351636 121:0.0011901773 122:0.00084215193 123:0.0045221723 124:0.19291826 125:0.36940897 126:0.18142362 127:0.039956961 128:0.022111405 129:0.0048530265 130:0.018454013 131:0.023100784 132:0.1291811 133:0.34888303 134:0.36940897 135:0.15822174 136:0.030117258 137:0.021455953 138:0.0028019743 139:0.016334793 140:0.0026742574 141:0.033588916 142:0.36940897 143:0.36940897 144:0.057544652 145:0.01178275 146:0.0018216945 147:0.00038522983 148:0.0064687389 149:0.0034383982 150:0.010018993 151:0.14139907 152:0.38154116 153:0.12565276 154:0.037096351 155:0.0065282434 156:0.0016693292 157:0.0081393346 158:0.025032824 159:0.050622799 160:0.12500037 161:0.38154116 162:0.13780378 163:0.01592375 164:0.0049086646 165:0.0010983428 166:0.0072943452 167:0.0016849246 168:0.026816564 169:0.38154116 170:0.38154116 171:0.32292366 172:0.023921104 173:0.00060178305 175:0.0039662565 176:0.017280225 177:0.037958026 178:0.28631487 179:0.38154116 180:0.1807121 181:0.082998879 182:0.020493455 183:0.012050631 184:0.0092034908 185:0.059220701 186:0.12476575 187:0.118867 188:0.34137949 189:0.15226716 190:0.10090374 191:0.034959242 192:0.035793468 193:0.059898175 194:0.10625605 195:0.27347389 196:0.19713005 197:0.26091015 198:0.34137949 199:0.045535218 200:0.0051728506 201:0.0088860402 202:0.001354631 203:0.055561278 204:0.065411918 205:0.18449318 206:0.34137949 207:0.22229351 208:0.050241254 209:0.02665844 210:0.030098138 211:0.021650784 212:0.081846498 213:0.15148628 214:0.31193733 215:0.34137949 216:0.3464407 217:0.10864627 218:0.079484761 219:0.014623837 220:0.13117726 221:0.024740506 222:0.15978123 223:0.37717384 224:0.37717384 225:0.37717384 226:0.0900186 227:0.10313758 228:0.013700246 229:0.13587122 230:0.0092671905 231:0.098391384 232:0.37717384 233:0.37717384 234:0.072317697 235:0.02309614 236:0.019600363 237:0.0024245381 238:0.067655459 240:0.0014832637 241:0.0084676817 242:0.077530645 243:0.096715167 244:0.029062254 245:0.036080811 246:0.0031615952 247:0.077017009 248:0.0034544994 249:0.019931279 250:0.048592608 251:0.1379887 252:0.36608431 253:0.041951086 254:0.016245347 255:0.0034215425 256:0.050569966 257:0.0076610218 258:0.087533072 259:0.38972467 260:0.38972467 261:0.38972467 262:0.078501336 265:0.031423233 266:0.05196353 267:0.13017812 268:0.29146403 269:0.38972467 270:0.10897719 271:0.011083385 272:0.005783251 273:0.00078958669 274:0.035589103 275:0.0034574929 276:0.027355753 277:0.052992638 278:0.13268645 279:0.2086283 280:0.028047588 283:0.02444029 284:0.021206509 285:0.052049775 286:0.043046359 287:0.21468808 288:0.38833866 289:0.064393125 292:0.0051423451 293:0.040774692 294:0.068544254 295:0.16593844 296:0.38833866 297:0.38833866 298:0.057638843 299:0.023100622 300:0.0024107099 301:0.0036846043 302:0.01691871 303:0.031327948 304:0.34502605 305:0.38833866 306:0.16847526 307:0.034183182 310:0.003999602 311:0.011040067 312:0.023051921 313:0.025686596 314:0.197207 315:0.21549842 316:0.032153856 317:0.0088550672 318:0.00013324509 319:0.00013034519 320:0.00022180151 321:0.00059845718 322:0.074371368 323:0.32830185 
0.001842919738221103 0:0.06438785 1:0.014405541 2:0.0044903033 3:0.0018865406 4:0.11113986 5:0.0014841517 6:0.027922111 7:0.016680628 8:0.060169846 9:0.11038847 10:0.028206335 11:0.020982005 12:0.014061742 13:0.073269077 14:0.0028381282 15:0.044472083 16:0.013840497 17:0.09245009 18:0.30522671 19:0.2080754 20:0.3131434 21:0.045313947 22:0.3131434 23:0.052189101 24:0.087126359 25:0.085953005 26:0.30977908 27:0.3131434 28:0.3131434 29:0.3131434 30:0.12510593 31:0.23725915 32:0.023323234 33:0.11367629 34:0.14074594 35:0.3131434 36:0.1332956 37:0.037083603 38:0.032508377 39:0.010593503 40:0.035937801 41:0.0073352945 42:0.0086167147 43:0.0103508 44:0.11885076 45:0.15501371 46:0.024469318 47:0.032129429 48:0.0010346998 49:0.048592016 50:0.0087281195 51:0.0278394 52:0.035256267 53:0.16748059 54:0.36731213 55:0.26319462 56:0.36731213 57:0.098332167 58:0.068633988 59:0.017304057 60:0.023764655 61:0.16831751 62:0.36731213 63:0.36731213 64:0.13091089 65:0.15789816 66:0.017467108 67:0.070995063 68:0.019201864 69:0.04983354 70:0.25395948 71:0.36731213 72:0.1378427 73:0.031791389 74:0.036215816 75:0.0012529292 76:0.020475511 77:0.012860375 78:0.027750229 79:0.025178341 80:0.10485087 81:0.13623711 82:0.049421802 83:0.034144159 84:0.019165618 85:0.031734921 86:0.025970936 87:0.024956703 88:0.02831728 89:0.097128406 90:0.34093091 91:0.21593565 92:0.083208576 93:0.009704601 94:0.037070453 95:0.055648558 96:0.15105364 97:0.14118722 98:0.34093091 99:0.34093091 100:0.29303893 101:0.13545181 102:0.065002784 103:0.059356172 104:0.17857687 105:0.34093091 106:0.32855105 107:0.33106473 108:0.20572531 109:0.17993779 110:0.23245552 111:0.016137986 112:0.059478108 113:0.013128871 114:0.01272003 115:0.023547191 116:0.21082616 117:0.33584979 118:0.11613047 119:0.1806867 120:0.022181449 121:0.033505522 122:0.005165671 123:0.0088944687 124:0.043376725 125:0.23468085 126:0.33584979 127:0.25146037 128:0.23011857 129:0.012374417 130:0.020042017 131:0.0037339402 132:0.01141813 133:0.016926367 134:0.33584979 135:0.33584979 136:0.15587692 137:0.087722257 138:0.0052571683 139:0.022739207 140:0.003301336 141:0.003852031 142:0.015861321 143:0.33584979 144:0.36547241 145:0.063793123 146:0.084296986 147:0.017048016 148:0.0061789695 149:0.0013873968 150:0.003674085 151:0.043917973 152:0.22737302 153:0.36547241 154:0.060269851 155:0.028003886 156:0.0034620485 157:0.0033466942 158:0.0012569259 159:0.0048748921 160:0.049522664 161:0.2896111 162:0.36547241 163:0.056181636 164:0.021652021 165:0.0022914305 166:0.030604908 167:0.0015207197 168:0.0046216161 169:0.013017573 170:0.36547241 171:0.36547241 172:0.17112164 173:0.044468738 174:0.0026653416 175:0.034762733 176:0.00081853749 177:0.015520109 178:0.038874146 179:0.36547241 180:0.32997152 181:0.13437331 182:0.025955951 183:0.0050086849 184:0.0022384482 185:0.014491207 186:0.027690342 187:0.055264525 188:0.18860096 189:0.32997152 190:0.13892452 191:0.058117036 192:0.021695936 193:0.0038357498 194:0.053616568 195:0.16926295 196:0.16739021 197:0.21519852 198:0.32997152 199:0.30975655 200:0.082923315 201:0.0055586579 202:0.027308684 203:0.0079602478 204:0.018296931 205:0.064743489 206:0.32997152 207:0.32997152 208:0.17341162 209:0.05713769 210:0.012510725 211:0.048588894 212:0.022357054 213:0.039176028 214:0.099784002 215:0.32997152 216:0.43989196 217:0.1817982 218:0.12918189 219:0.012211222 220:0.050632372 221:0.008030667 222:0.040114913 223:0.013191884 224:0.43989196 225:0.43989196 226:0.28893754 227:0.1053875 228:0.011258488 229:0.098984413 230:0.006351707 231:0.023611283 232:0.030933283 233:0.43989196 234:0.1338208 235:0.0087709734 236:0.0081345905 237:0.0021385294 238:0.033683784 239:0.0036246679 240:0.019394703 241:0.005486954 242:0.13418044 243:0.095354892 244:0.02495753 245:0.018815389 246:0.0037948366 247:0.053006984 248:0.0025026132 249:0.012639695 250:0.016110927 251:0.10140501 252:0.45405054 253:0.12565105 254:0.062497858 255:0.0100282 256:0.16449898 257:0.0062474385 258:0.027984036 259:0.030021902 260:0.45405054 261:0.45405054 262:0.20110197 263:0.074815847 264:0.011481978 265:0.16371502 266:0.0054207579 267:0.074712858 268:0.066261545 269:0.45405054 270:0.078154266 271:0.014758718 272:0.016024802 273:0.0036225982 274:0.071972527 275:0.0025677229 276:0.015050453 277:0.010912845 278:0.08078181 279:0.086366743 280:0.00072432117 281:0.0061054379 282:0.0032444142 283:0.060188469 284:0.0024639808 285:0.039854169 286:0.01257348 287:0.087901741 288:0.40206227 289:0.40206227 290:0.14128123 291:0.018677846 292:0.13753784 293:0.0098624332 294:0.081882551 295:0.096419796 296:0.40206227 297:0.40206227 298:0.21570368 299:0.049595922 300:0.019892728 301:0.21202403 302:0.034997251 303:0.065085948 304:0.045767941 305:0.40206227 306:0.068368003 307:0.0011385265 308:0.0040672454 309:0.0043102717 310:0.043604732 311:0.0023104078 312:0.035387728 313:0.015297134 314:0.077318393 315:0.075013652 316:0.026218399 317:0.0031275142 318:0.0045562568 319:0.05530683 320:0.011483806 321:0.022129074 322:0.0075432356 323:0.07956598 
0.001093834164576698 0:0.25498906 1:0.052639339 2:0.019802194 3:0.034176484 4:0.049475007 5:0.083422996 6:0.25498906 7:0.21893951 8:0.25498906 9:0.25498906 10:0.049822256 11:0.050940901 12:0.014159286 13:0.10626178 14:0.073549762 15:0.25498906 16:0.25498906 17:0.25498906 18:0.14903924 19:0.037368804 20:0.024121242 21:0.11322045 22:0.050008614 23:0.057607241 24:0.21286631 25:0.22611026 26:0.22479312 27:0.25498906 28:0.033144563 29:0.022533825 30:0.019172942 31:0.044550393 32:0.069488496 33:0.25498906 34:0.25498906 35:0.25498906 36:0.23723812 37:0.037558988 38:0.057224222 39:0.007620947 40:0.17905638 41:0.045386214 42:0.28040299 43:0.12841092 44:0.23285811 45:0.1037915 46:0.012689766 47:0.021960219 48:0.0057418356 49:0.1232602 50:0.0069752908 51:0.10117137 52:0.055787597 53:0.12343492 54:0.28735748 55:0.052618075 56:0.052751806 57:0.017324768 58:0.077792436 59:0.057605103 60:0.28735748 61:0.27098098 62:0.28735748 63:0.28735748 64:0.10441539 65:0.040039387 66:0.018956659 67:0.12711056 68:0.040923301 69:0.28735748 70:0.28735748 71:0.28735748 72:0.059076574 73:0.00030780354 74:0.0015516171 75:0.010839623 76:0.1090074 77:0.0054644016 78:0.060061339 79:0.090122283 80:0.081201553 81:0.051515937 83:0.0012068133 84:0.0084308181 85:0.097713947 86:0.0064895139 87:0.051795848 88:0.0263837 89:0.054010704 90:0.32579648 91:0.13087322 92:0.035486806 93:0.039905161 94:0.22592764 95:0.12742957 96:0.32579648 97:0.32579648 98:0.32579648 99:0.25845063 100:0.11950342 101:0.072333656 102:0.052584115 103:0.32579648 104:0.10102652 105:0.32579648 106:0.24999577 107:0.24163173 108:0.10668712 109:0.041985486 110:0.044149291 111:0.11729062 112:0.10572637 113:0.20132664 114:0.28212479 115:0.21232367 116:0.19839329 117:0.26591262 118:0.029695336 119:0.017299002 120:0.031775683 121:0.0347789 122:0.054781433 123:0.14116156 124:0.12967794 125:0.24893321 126:0.0956975 127:0.048517928 128:0.049058363 129:0.025347697 130:0.22561042 131:0.28212479 132:0.28212479 133:0.28212479 134:0.12874046 135:0.15919338 136:0.053400502 137:0.063848473 138:0.037447385 139:0.081724085 140:0.15904373 141:0.28212479 142:0.28212479 143:0.17637406 144:0.27126876 145:0.059104227 146:0.068367966 147:0.041761246 148:0.023107918 149:0.03354067 150:0.21650933 151:0.1614152 152:0.25816521 153:0.27126876 154:0.20887882 155:0.13637374 156:0.049770255 157:0.096227951 158:0.072070234 159:0.27126876 160:0.27126876 161:0.27126876 162:0.21276496 163:0.10506798 164:0.078973144 165:0.057532616 166:0.029893154 167:0.051988963 168:0.14317757 169:0.14727202 170:0.21334061 171:0.20053165 172:0.26401114 173:0.27126876 174:0.075213447 175:0.14382784 176:0.048592661 177:0.060202245 178:0.068775304 179:0.14604895 180:0.23748702 181:0.18083782 182:0.12792896 183:0.03262594 184:0.099204838 185:0.12131878 186:0.26114053 187:0.26114053 188:0.20551246 189:0.1967005 190:0.17189105 191:0.11480633 192:0.034152187 193:0.16565169 194:0.11032147 195:0.26114053 196:0.26114053 197:0.15493779 198:0.090254992 199:0.18328196 200:0.26114053 201:0.048822816 202:0.15403533 203:0.070060328 204:0.10721906 205:0.1009675 206:0.066629395 207:0.14406301 208:0.14350784 209:0.14210376 210:0.040592197 211:0.09489198 212:0.11772911 213:0.26114053 214:0.26005003 215:0.12699284 216:0.090402633 217:0.080605499 218:0.1005898 219:0.010893921 220:0.21188863 221:0.13914678 222:0.28037232 223:0.23118338 224:0.098277308 225:0.16809185 226:0.15018973 227:0.15829477 228:0.018371141 229:0.13369106 230:0.2161494 231:0.28037232 232:0.28037232 233:0.18220961 234:0.081175186 235:0.074888036 236:0.07431303 237:0.0043828785 238:0.14526017 239:0.023126069 240:0.055711132 241:0.0293638 242:0.076165244 243:0.24063835 244:0.24120325 245:0.17542298 246:0.011990733 247:0.27261329 248:0.13932207 249:0.28037232 250:0.14689186 251:0.21223311 252:0.20862472 253:0.12814908 254:0.06284257 255:0.016614644 256:0.049863908 257:0.10728597 258:0.26482925 259:0.18428069 260:0.19955868 261:0.21155173 262:0.17248082 263:0.17632994 264:0.02963482 265:0.052560825 266:0.048719399 267:0.10398923 268:0.068014257 269:0.20506033 270:0.23590395 271:0.18714349 272:0.096859269 273:0.010389443 274:0.14438315 275:0.1657085 276:0.26482925 277:0.17738721 278:0.20432073 279:0.26482925 280:0.14964531 281:0.059099201 282:0.019300099 283:0.13474585 284:0.11542997 285:0.26482925 286:0.21496104 287:0.26482925 288:0.11751452 289:0.11681432 290:0.17114495 291:0.051876828 292:0.079129145 293:0.046982899 294:0.055386499 295:0.046699919 296:0.11387686 297:0.13377351 298:0.20459764 299:0.27957124 300:0.11354437 301:0.086509131 302:0.099253029 303:0.080140665 304:0.098568276 305:0.11240485 306:0.28201532 307:0.14145836 308:0.1391211 309:0.11620165 310:0.1059114 311:0.043931298 312:0.18348534 313:0.16291383 314:0.28201532 315:0.28201532 316:0.28201532 317:0.28201532 318:0.22674485 319:0.11545906 320:0.056195371 321:0.10917879 322:0.20270517 323:0.26333633 
0.001858386868571522 0:0.020772241 1:0.011869438 2:0.027894812 4:0.053022984 6:0.012632652 7:0.0056676073 8:0.02026833 9:0.10668114 10:0.027780255 11:0.050095808 13:0.15822439 14:0.012709756 15:0.094122581 16:0.058219381 17:0.11135317 18:0.10222059 19:0.030772433 20:0.047917258 21:0.0037455061 22:0.26291925 23:0.03803543 24:0.098801896 25:0.077176534 26:0.10889566 27:0.36253521 28:0.20996018 29:0.27686 30:0.0071224631 31:0.36253521 32:0.19314983 33:0.36253521 34:0.36253521 35:0.36253521 36:0.03906947 37:0.016446887 38:0.025413567 39:0.0097493613 40:0.035663266 41:0.007047235 42:0.044298917 43:0.033649724 44:0.041619897 45:0.072738819 46:0.076695397 47:0.12374967 48:0.036886107 49:0.071395099 50:0.001711853 51:0.019556947 52:0.031223662 53:0.092785768 54:0.20544404 55:0.23013608 56:0.31124425 57:0.038929034 58:0.11338933 59:0.061855298 60:0.18143533 61:0.15036184 62:0.32765764 63:0.36094201 64:0.36094201 65:0.36094201 66:0.12731306 67:0.11529009 68:0.012716698 69:0.072221756 70:0.12517919 71:0.36094201 72:0.059546363 73:0.092393786 74:0.11875647 75:0.011755609 76:0.060592644 77:0.0058967578 78:0.0043606125 79:0.036287185 80:0.093508415 81:0.19925052 82:0.31926796 83:0.23236166 84:0.07045047 85:0.098285548 86:0.022976341 87:0.016345738 88:0.050516762 89:0.18408145 90:0.20312184 91:0.36164269 92:0.36164269 93:0.03741448 94:0.041778073 95:0.004769512 96:0.0098967664 97:0.078929916 98:0.19461139 99:0.24964623 100:0.36164269 101:0.36164269 102:0.047886577 103:0.033419903 104:0.032563698 105:0.026388673 106:0.06327486 107:0.15979041 108:0.069172785 109:0.067656428 110:0.065460563 111:0.010248151 112:0.057752676 113:0.0074829026 114:0.016958283 115:0.015275077 116:0.056380246 117:0.19367148 118:0.3709583 119:0.22087552 120:0.00732372 121:0.073844202 122:0.029166803 123:0.058549948 124:0.046418272 125:0.12656318 126:0.20510915 127:0.3709583 128:0.36204818 129:0.040355466 130:0.044149339 131:0.0033362026 132:0.014974111 133:0.023395047 134:0.15005744 135:0.31734633 136:0.3709583 137:0.3709583 138:0.016762434 139:0.018450869 140:0.0033185629 141:0.0092444951 142:0.0063049793 143:0.096252725 144:0.12094483 145:0.35157368 146:0.23329461 147:0.011357673 148:0.018325811 149:0.017414438 150:0.035372224 151:0.027529493 152:0.11957932 153:0.13150494 154:0.35157368 155:0.33945712 156:0.026603321 157:0.0085786479 158:0.003525991 159:0.016532019 160:0.022171644 161:0.10238949 162:0.17048767 163:0.35157368 164:0.25723368 165:0.0023678492 166:0.0017860245 167:0.0023491315 168:0.0036512942 169:0.001951139 170:0.043759339 171:0.2003182 172:0.35157368 173:0.35157368 174:0.022624414 175:0.0093769981 176:0.00071892893 177:0.0069353511 178:0.0085345162 179:0.098690368 180:0.13772763 181:0.33901536 182:0.33901536 183:0.016936213 184:0.0049869092 185:0.00029776286 186:0.0061477111 187:0.023944531 188:0.061428744 189:0.084975675 190:0.33901536 191:0.33901536 192:0.018309569 193:0.013814632 194:0.0061648474 195:0.025231265 196:0.023974922 197:0.045973446 198:0.15012059 199:0.33901536 200:0.33901536 201:0.027334593 202:0.027000105 203:0.00022460058 204:0.0071036234 205:0.021846591 206:0.074398227 207:0.055374254 208:0.33901536 209:0.33901536 210:0.035163525 211:0.063444875 212:0.0011107428 213:0.020474918 214:0.025338875 215:0.054038793 216:0.29284087 217:0.29880163 218:0.19098425 219:0.012274286 220:0.0090386998 221:0.0029136303 222:0.020698361 223:0.044700168 224:0.1234081 225:0.29880163 226:0.29880163 227:0.239684 228:0.0038120057 229:0.0068506142 230:0.00067207002 231:0.0047900104 232:0.0080246124 233:0.086265706 234:0.29880163 235:0.29880163 236:0.091432624 237:0.012624395 238:0.047202744 239:0.0070611951 240:0.054212701 241:0.094909146 242:0.26061878 243:0.29880163 244:0.29880163 245:0.2118822 246:0.010368541 247:0.055640541 248:0.0056471583 249:0.025708865 250:0.035467677 251:0.16172744 252:0.31984127 253:0.31984127 254:0.31984127 255:0.005650477 256:0.014495554 257:0.00011059088 258:0.002907071 259:0.017958883 260:0.11685389 261:0.28772977 262:0.31984127 263:0.31984127 264:0.041393422 265:0.036052082 266:4.6727509e-05 267:0.0048592016 268:0.029856632 269:0.17741811 270:0.31984127 271:0.29601163 272:0.2724815 273:0.019471424 274:0.071285561 275:0.0018189031 276:0.019827571 277:0.034567524 278:0.14962031 279:0.12068706 280:0.12861665 281:0.13896476 282:0.017013775 283:0.045325231 285:0.0053839069 286:0.023552747 287:0.077059977 288:0.35841161 289:0.35841161 290:0.35841161 291:0.11435517 292:0.18196823 293:7.7902507e-05 294:0.015236243 295:0.10015333 296:0.33066857 297:0.19852433 298:0.25916079 299:0.35841161 300:0.069662347 301:0.28202289 303:0.018551243 304:0.068240128 305:0.21832266 306:0.10189774 307:0.052104596 308:0.11459769 309:0.026380466 310:0.087861106 312:0.0045517697 313:0.032885477 314:0.10280549 315:0.09650705 316:0.021858461 317:0.0280276 318:0.015704514 319:0.077029429 321:0.0020853304 322:0.010896295 323:0.099802509 
0.000148255011515104 0:0.26792037 1:0.36196509 2:0.36196509 3:0.095241584 4:0.18217425 5:0.16706069 6:0.041874506 7:0.13095391 8:0.13496473 9:0.18739501 10:0.19676453 11:0.36196509 12:0.024317425 13:0.069728903 14:0.022063315 15:0.030212881 16:0.14440393 17:0.15160309 18:0.084519364 19:0.2531274 20:0.36196509 21:0.051824413 22:0.16354427 23:0.1849371 24:0.070471801 25:0.053668689 26:0.082977429 27:0.088585332 28:0.04772871 29:0.036266055 30:0.0051380633 31:0.017643293 32:0.010013656 33:0.020600606 34:0.02930644 35:0.077295616 36:0.20248644 37:0.11883496 38:0.12949084 39:0.043858405 40:0.12112781 41:0.041873973 42:0.081766903 43:0.13837357 44:0.18685177 45:0.21548434 46:0.19138151 47:0.18962538 48:0.15615325 49:0.28781351 50:0.068335839 51:0.15289816 52:0.15585047 53:0.18668684 54:0.13428295 55:0.076603748 56:0.064380452 57:0.029706046 58:0.029176962 59:0.011209695 60:0.042582672 61:0.05472431 62:0.11370403 63:0.088394716 64:0.34658322 65:0.35645574 66:0.2431177 67:0.35645574 68:0.10217003 69:0.07327719 70:0.10877927 71:0.12482699 72:0.050202895 73:0.11009524 74:0.13320863 75:0.084958136 76:0.25548756 77:0.071521215 78:0.18501808 79:0.12982057 80:0.053121131 81:0.040923584 82:0.098146044 83:0.11046696 84:0.073055699 85:0.27235332 86:0.16731091 87:0.31048915 88:0.31048915 89:0.098486088 90:0.012520584 91:0.13631968 92:0.31048915 93:0.087595008 94:0.31048915 95:0.097178943 96:0.035975616 97:0.025938235 98:0.024342839 99:0.048819892 100:0.10407506 101:0.18817522 102:0.086555153 103:0.31048915 104:0.1187022 105:0.2682811 106:0.14557327 107:0.092058219 108:0.17923735 109:0.17280246 110:0.10848597 111:0.069201812 112:0.25424561 113:0.17788239 114:0.12792994 115:0.066097133 116:0.15738368 117:0.16136296 118:0.091715723 119:0.065210514 120:0.028149197 121:0.040197544 122:0.020313216 123:0.043595508 124:0.041785844 125:0.15138547 126:0.27489039 127:0.20709085 128:0.098993123 129:0.15262298 130:0.29568785 131:0.10515884 132:0.078637831 133:0.12696302 134:0.18981688 135:0.34128031 136:0.34128031 137:0.34128031 138:0.096853033 139:0.092115849 140:0.075715654 141:0.091028444 142:0.048743524 143:0.12698346 144:0.052516971 145:0.064231843 146:0.1306061 147:0.025574123 148:0.02271474 149:0.0079297032 150:0.0094128801 151:0.013956294 152:0.050020784 153:0.032591201 154:0.23351023 155:0.30454516 156:0.13518736 157:0.30454516 158:0.060213327 159:0.017158484 160:0.027160434 161:0.042312566 162:0.24264061 163:0.30454516 164:0.30454516 165:0.1048867 166:0.033576403 167:0.021158068 168:0.015307324 169:0.012692959 170:0.047288541 171:0.30454516 172:0.30454516 173:0.30454516 174:0.1849051 175:0.30055124 176:0.16258734 177:0.040581781 178:0.054392081 179:0.099026777 180:0.017768323 181:0.11082895 182:0.23409404 183:0.094189778 184:0.32035848 185:0.10629272 186:0.029367799 187:0.014388377 188:0.019788867 189:0.074611127 190:0.047941186 191:0.085568704 192:0.074598394 193:0.32035848 194:0.086537942 195:0.059838496 196:0.025052847 197:0.060998488 198:0.30934653 199:0.14940982 200:0.18838835 201:0.15033415 202:0.32035848 203:0.20831297 204:0.067115277 205:0.053164884 206:0.08907374 207:0.32035848 208:0.20895769 209:0.14863509 210:0.10900956 211:0.32035848 212:0.11879382 213:0.11404265 214:0.044811398 215:0.13007101 216:0.19282323 217:0.12909611 218:0.021052355 219:0.044369292 220:0.04675442 221:0.016277933 222:0.099963129 223:0.086603135 224:0.051097952 225:0.32101789 226:0.32101789 227:0.074492097 228:0.0071713459 229:0.0055761714 230:0.0056403792 231:0.0067270533 232:0.0040982687 233:0.033024501 234:0.32101789 235:0.27717283 236:0.025664899 237:0.053298004 238:0.080639929 239:0.058206439 240:0.32101789 241:0.31173542 242:0.21797694 243:0.32101789 244:0.32101789 245:0.035718787 246:0.00028034669 247:0.042832501 248:0.0029957376 249:0.16074651 250:0.10805094 251:0.13155444 252:0.35102612 253:0.28722924 254:0.13750431 255:0.025189726 256:0.0050577801 257:0.0037701479 258:0.0023457215 259:0.0022284251 260:0.023237012 261:0.35102612 262:0.24853536 263:0.12789923 264:0.031155277 265:0.050600812 266:0.064050861 267:0.026835589 268:0.036735646 269:0.072312474 270:0.35102612 271:0.35102612 272:0.083874509 273:0.00049708824 274:0.039333843 276:0.010761959 277:0.011032835 278:0.068503246 279:0.35102612 280:0.35102612 281:0.16859169 282:0.026123296 283:0.063855328 284:0.012601295 285:0.046315867 286:0.049598914 287:0.10011956 288:0.31178254 289:0.16698608 290:0.057129528 291:0.028705234 292:0.072533183 293:0.089768529 294:0.04271483 295:0.042957805 296:0.074013151 297:0.31178254 298:0.31178254 299:0.19792396 300:0.025107712 301:0.10504596 302:0.056590039 303:0.062218815 304:0.032684635 305:0.055949006 306:0.31178254 307:0.31178254 308:0.18583623 309:0.079733677 310:0.047205754 311:0.016772734 312:0.069288805 313:0.061880011 314:0.10487914 315:0.31178254 316:0.31178254 317:0.31178254 318:0.083980538 319:0.12598678 320:0.027386826 321:0.049418055 322:0.043036047 323:0.10800665 
0.001826643977338354 0:0.073082842 1:0.33936691 2:0.33936691 3:0.047100138 4:0.33936691 5:0.2314969 6:0.0069915159 7:0.025969082 8:0.078919955 9:0.10452916 10:0.082867928 11:0.17444339 12:0.02564922 13:0.08727257 14:0.029325994 15:0.016709436 16:0.039612629 17:0.098359771 18:0.02646126 19:0.25155526 20:0.17864488 21:0.053342335 22:0.33936691 23:0.28621393 24:0.07354977 25:0.25338933 26:0.27136362 27:0.021488892 28:0.0081395814 29:0.0059873145 30:0.0050684013 31:0.0076854294 32:0.0081919581 33:0.013875317 34:0.16729254 35:0.21480034 36:0.18409909 37:0.06031166 38:0.028909827 39:0.022740452 40:0.1325652 41:0.03390535 42:0.085796624 43:0.08291702 44:0.15913323 45:0.28362304 46:0.20654869 47:0.045262087 48:0.027557541 49:0.17819928 50:0.060683805 51:0.40234777 52:0.40234777 53:0.24315207 54:0.038389917 55:0.028068054 56:0.029139591 57:0.019305043 58:0.0097832866 59:0.014779939 60:0.025045274 61:0.17941493 62:0.23076041 63:0.072885536 64:0.20608304 65:0.40234777 66:0.041809399 67:0.15419762 68:0.039116137 69:0.061723638 70:0.098966576 71:0.11993431 72:0.041577172 73:0.035417721 74:0.043787427 75:0.024220778 76:0.043109816 77:0.03836498 78:0.30084381 79:0.24141358 80:0.04487443 81:0.051469009 82:0.063295424 83:0.10374455 84:0.077318251 85:0.14907522 86:0.077496953 87:0.30084381 88:0.30084381 89:0.063643686 90:0.024499228 91:0.10766566 92:0.2797462 93:0.049019523 94:0.15883739 95:0.035398819 96:0.16500071 97:0.081277989 98:0.020568637 99:0.039557315 100:0.18846093 101:0.30084381 102:0.14691234 103:0.30084381 104:0.14938504 105:0.30084381 106:0.30084381 107:0.063921668 108:0.0099467086 109:0.043805476 110:0.018299114 111:0.071280882 112:0.23632731 113:0.059400294 114:0.1253252 115:0.29836711 116:0.29836711 117:0.0050308676 118:0.0022258749 119:5.8769871e-05 121:0.00011453068 122:0.0007324788 123:0.0037675819 124:0.29836711 125:0.29836711 126:0.021564808 127:0.058557697 128:0.055301871 129:0.10796381 130:0.29836711 131:0.093812168 132:0.29836711 133:0.29836711 134:0.27088219 135:0.041562844 136:0.098453872 137:0.025489205 138:0.00062069652 139:0.0097500263 140:0.0075002853 141:0.015482767 142:0.29836711 143:0.29836711 144:0.01498247 145:0.074087352 146:0.0095208194 147:0.0032035212 148:0.0010017477 149:0.00088420126 150:0.0054854061 151:0.26649413 152:0.28431422 153:0.03139561 154:0.28431422 155:0.28431422 156:0.025974629 157:0.10628965 158:0.026959203 159:0.010155621 160:0.12654029 161:0.15348703 162:0.091710441 163:0.28431422 164:0.021896759 165:0.0006790125 166:0.00044623372 167:0.00036988501 168:0.0010590751 169:0.28431422 170:0.28431422 171:0.09314885 172:0.28431422 173:0.24023899 174:0.081011482 175:0.19730964 176:0.13427877 177:0.024809001 178:0.28431422 179:0.28431422 180:0.011962407 181:0.18834426 182:0.26570174 183:0.047426853 184:0.26570174 185:0.046133682 186:0.018844984 187:0.032366417 188:0.033619612 189:0.031057363 190:0.17056021 191:0.26570174 192:0.10497303 193:0.26570174 194:0.11751637 195:0.15056373 196:0.26570174 197:0.080357127 198:0.012085992 199:0.13717215 200:0.24261884 201:0.10222547 202:0.26570174 203:0.17612003 204:0.040828601 205:0.15012966 206:0.15605102 207:0.022299694 208:0.061519984 209:0.19445156 210:0.10631401 211:0.26570174 212:0.1110247 213:0.13673477 214:0.26567236 215:0.23188597 216:0.024921147 217:0.044365223 218:0.029742509 219:0.030745825 220:0.20786293 221:0.099329203 222:0.3229247 223:0.3229247 224:0.075573884 225:0.046878979 226:0.065029867 227:0.016600786 228:0.00044233419 229:0.019795308 230:0.0094573563 231:0.16912627 232:0.24895152 233:0.14777216 234:0.062117789 235:0.042621139 236:0.020486517 237:0.0067031053 238:0.11202756 239:0.061284952 240:0.3229247 241:0.3229247 242:0.10985485 243:0.13314676 244:0.14010823 245:0.03741112 246:0.0067410134 247:0.080135919 248:0.12839592 249:0.3229247 250:0.3229247 251:0.30341688 252:0.06949199 253:0.14543627 254:0.020696204 255:0.00047892719 256:0.0031823332 257:0.00048273106 258:0.010246993 259:0.18929628 260:0.19965921 261:0.043058638 262:0.27869698 263:0.090974875 264:0.05158449 265:0.11090127 266:0.062171556 267:0.020063128 268:0.16088785 269:0.15748629 270:0.22512572 271:0.27869698 272:0.14406769 273:0.0038905509 274:0.093857259 275:0.16512597 276:0.27869698 277:0.27869698 278:0.27869698 279:0.18740335 280:0.27869698 281:0.19414236 282:0.011897001 283:0.096343413 284:0.036337651 285:0.049888048 286:0.27869698 287:0.27869698 288:0.0057741371 289:0.10284463 290:0.081442952 291:0.076282635 292:0.15062681 293:0.10795092 294:0.046586316 295:0.21545884 296:0.16983272 297:0.0054813507 298:0.067650653 299:0.12920329 300:0.13511202 301:0.14357451 302:0.12368734 303:0.1200032 304:0.28454873 305:0.28454873 306:0.068157092 307:0.19913556 308:0.12016918 309:0.030853016 310:0.077931665 311:0.012558598 312:0.017960187 313:0.28454873 314:0.27730319 315:0.023768714 316:0.28454873 317:0.28454873 318:0.20078522 319:0.18018891 320:0.097955316 321:0.069341496 322:0.28454873 323:0.23610428 
0.003810382444229011 0:0.0757301 1:0.033760905 2:0.024479104 3:0.004079775 4:0.057452973 5:0.0091529237 6:0.014681978 7:0.039208043 8:0.074972846 9:0.10143872 10:0.029471641 11:0.003495408 12:0.00027198499 13:0.13355747 14:0.011768044 15:0.0044999691 16:0.0049554138 17:0.096577138 18:0.39324769 19:0.21428373 20:0.32698971 21:0.086046986 22:0.11040341 23:0.025494492 24:0.046780635 25:0.16796327 26:0.39324769 27:0.39324769 28:0.14267723 29:0.1101682 30:0.021810405 31:0.26443058 32:0.025889698 33:0.014406605 34:0.11608161 35:0.39324769 36:0.095503323 37:0.011912804 38:0.0053829947 39:0.0016734288 40:0.094646089 41:0.0046173129 42:0.0208156 43:0.0074141319 44:0.092260659 45:0.10194834 46:0.016680965 47:0.011473589 48:0.002151551 49:0.087859049 50:0.0073000346 51:0.0467228 52:0.01052844 53:0.091359623 54:0.42397234 55:0.080646865 56:0.023326309 57:0.0072515244 58:0.16864955 59:0.0073574926 60:0.036785442 61:0.082148872 62:0.42397234 63:0.42397234 64:0.23290664 65:0.038502581 66:0.0093233883 67:0.18529627 68:0.055001844 69:0.28110415 70:0.066077843 71:0.42397234 72:0.064197384 73:0.04012553 74:0.037068099 75:0.00095788838 76:0.059060052 77:0.0031117536 78:0.032192525 79:0.009385041 80:0.056354489 81:0.076406874 82:0.043444242 83:0.065198936 84:0.012525816 85:0.07310006 86:0.00071225385 87:0.0083726235 88:0.017912583 89:0.075019635 90:0.30757472 91:0.30757472 92:0.077096522 93:0.0027455341 94:0.20056608 95:0.11429691 96:0.30757472 97:0.14592722 98:0.30757472 99:0.30757472 100:0.24435055 101:0.1170431 102:0.0431122 103:0.28802907 104:0.10528497 105:0.21782373 106:0.30597091 107:0.30757472 108:0.34543043 109:0.082227379 110:0.10138822 111:0.026609987 112:0.0074481987 113:0.0040372391 114:0.010493262 115:0.043831192 116:0.34295213 117:0.34918147 118:0.0250166 119:0.027567836 120:0.0058794455 121:0.015291316 122:0.0014878958 123:0.0026926955 124:0.031538147 125:0.34918147 126:0.34918147 127:0.037434231 128:0.026101166 129:0.0058225933 130:0.019492028 131:0.0031459001 132:0.018652454 133:0.045029942 134:0.34918147 135:0.34918147 136:0.005191891 137:0.010762583 138:0.0011747275 139:0.01631308 140:8.6036904e-05 141:0.00082911493 142:0.014261259 143:0.34918147 144:0.34928736 145:0.016917976 146:0.002317891 147:0.00070112653 148:0.0095061865 149:0.00064530264 150:0.002147618 151:0.020107394 152:0.34928736 153:0.34928736 154:0.081931248 155:0.0076081338 156:0.0021911347 157:0.01506632 158:0.012008089 159:0.06129729 160:0.024878781 161:0.34928736 162:0.34928736 163:0.0056922617 164:0.0089010857 165:0.0019314417 166:0.012505567 167:0.00067035836 168:0.00062197185 169:0.022736931 170:0.34928736 171:0.34928736 172:0.07365302 173:0.014940929 174:0.013344734 175:0.013108787 176:0.0035847162 177:0.0083340127 178:0.036228556 179:0.34928736 180:0.31361541 181:0.11897447 182:0.0097159976 183:0.0048660138 184:0.026150217 185:0.033553362 186:0.11543061 187:0.091563679 188:0.28010103 189:0.31361541 190:0.10306554 191:0.007516135 192:0.0073099593 193:0.045912229 194:0.047767308 195:0.14827132 196:0.22748235 197:0.293621 198:0.31361541 199:0.15334769 200:0.01389451 201:0.018404191 202:0.018030507 203:0.0087145492 204:0.032227624 205:0.068878494 206:0.31361541 207:0.31361541 208:0.13121031 209:0.010942455 210:0.011412 211:0.025085201 212:0.015601629 213:0.11181889 214:0.23313044 215:0.31361541 216:0.48103628 217:0.032993838 218:0.022527372 219:0.0070031751 220:0.13873029 221:0.0074790558 222:0.042805709 223:0.071266018 224:0.48103628 225:0.48103628 226:0.015865479 227:0.054893989 228:0.0031832615 229:0.11734945 230:0.0004375634 231:0.0014075302 232:0.017936537 233:0.48103628 234:0.054519989 235:0.016676769 236:0.0051986245 237:0.0016161172 238:0.064235628 239:0.0015146425 240:0.0048722196 241:0.0062137712 242:0.055662483 243:0.072894983 244:0.005516422 245:0.018870199 246:0.00073459884 247:0.054130681 248:0.00010097617 249:0.00032481464 251:0.071994707 252:0.48078576 253:0.019172644 254:0.056679863 255:0.011909157 256:0.082912326 257:0.00043855098 258:0.00040689638 259:0.027773488 260:0.48078576 261:0.48078576 262:0.11211965 263:0.047325797 264:0.063796751 265:0.076282531 266:0.010514029 267:0.006328125 268:0.042911772 269:0.48078576 270:0.072456025 271:0.0078502763 272:0.021150803 273:0.0042114104 274:0.041726127 277:0.00014958894 278:0.075527847 279:0.095679335 280:0.025818164 281:0.014759528 282:0.020634264 283:0.039391495 284:0.0022961949 285:0.001339609 286:0.002141332 287:0.085253246 288:0.43535501 289:0.23917738 290:0.048015937 291:0.054709807 292:0.081522122 293:0.018401887 294:0.032095101 295:0.066357411 296:0.43535501 297:0.43535501 298:0.21805772 299:0.061040752 300:0.029196147 301:0.12484117 302:0.0052922824 303:0.12171609 304:0.21860147 305:0.43535501 306:0.083280973 307:0.025200402 308:0.017294036 309:0.013464199 310:0.037854008 311:0.004348503 312:0.009079814 313:0.014220629 314:0.07421542 315:0.072683476 316:0.028813608 317:0.027656246 318:0.0056191101 319:0.050895702 320:0.0014874904 321:0.02749134 322:0.020937385 323:0.079111829 
0.0003114857707251518 0:0.075400114 1:0.018055284 2:0.01924862 3:0.011502814 4:0.094632357 5:0.00013222746 6:0.014090358 7:0.018237522 8:0.060276777 9:0.18553947 10:0.057266664 11:0.096781634 12:0.044307441 13:0.080988482 14:3.0514027e-05 15:0.014627881 16:0.078508027 17:0.15051898 18:0.29846933 19:0.29047891 20:0.29846933 21:0.1017248 22:0.18144256 23:0.0031764344 24:0.074264914 25:0.10271694 26:0.22833933 27:0.29846933 28:0.29846933 29:0.29846933 30:0.22381729 31:0.14414988 32:0.009745365 33:0.048360333 34:0.29846933 35:0.29846933 36:0.29572186 37:0.048027158 38:0.067135155 39:0.042319499 40:0.015759166 42:0.0020025857 43:0.068922222 44:0.24748401 45:0.32303905 46:0.040653847 47:0.010742706 48:0.0092745265 49:0.00039268509 51:0.02261723 52:0.083932668 53:0.32303905 54:0.32303905 55:0.15886997 56:0.22405145 57:0.13060673 58:0.045885179 59:0.0077621993 60:0.021041719 61:0.2020451 62:0.32303905 63:0.32303905 64:0.12463596 65:0.042895492 66:0.038099296 67:0.032953653 68:0.0089578191 69:0.066674985 70:0.19637799 71:0.32303905 72:0.23382618 73:0.032038882 74:0.016718848 75:0.00012221481 76:0.014905497 77:0.0044730389 78:0.098335922 79:0.083276771 80:0.29819536 81:0.079595536 82:0.026011109 83:0.021287661 85:0.047636136 86:0.025054764 87:0.12053747 88:0.1027967 89:0.14955957 90:0.317579 91:0.12451459 92:0.066479087 93:0.0095888311 94:0.041358653 95:0.028895935 96:0.30358699 97:0.26042831 98:0.317579 99:0.15162851 100:0.14848445 101:0.15214469 102:0.0089163575 103:0.086016014 104:0.12147344 105:0.317579 106:0.317579 107:0.317579 108:0.19844325 109:0.21775331 110:0.35551894 111:0.078972772 112:0.034740608 113:0.0016277021 114:0.031142225 115:0.061949264 116:0.18971606 117:0.1846963 118:0.11341778 119:0.18095537 120:0.066196844 121:0.018567642 122:0.006898921 123:0.02474493 124:0.097700357 125:0.25642842 126:0.35551894 127:0.14946055 128:0.18713912 129:0.043099139 130:0.014464259 131:0.00023307445 132:0.017976636 133:0.05673787 134:0.35551894 135:0.35551894 136:0.026770292 137:0.017260214 138:0.0075516454 139:0.0039013112 140:0.011244085 141:0.065882079 142:0.022497963 143:0.35551894 144:0.18488058 145:0.074481331 146:0.061803032 147:0.03592084 148:0.016997138 149:0.0073869522 150:0.026065549 151:0.075197354 152:0.27705544 153:0.21587069 154:0.080245726 155:0.02143117 156:0.01569731 157:0.023903528 158:0.0087198932 159:0.028442543 160:0.07466954 161:0.29057688 162:0.39020869 163:0.033416867 164:0.009591843 165:0.026337363 166:0.014719667 167:0.015488829 168:0.1071664 169:0.029764876 170:0.39020869 171:0.39020869 172:0.29673296 173:0.084132552 174:0.026943365 175:0.018598167 176:0.01167299 177:0.022602979 178:0.044561975 179:0.39020869 180:0.12728629 181:0.10655677 182:0.085809216 183:0.017953435 184:0.024784239 185:0.022715224 186:0.071135834 187:0.093133047 188:0.15917061 189:0.087221034 190:0.12739158 191:0.22029729 192:0.055436213 193:0.063428916 194:0.080992468 195:0.29816559 196:0.27354363 197:0.12502807 198:0.29816559 199:0.29816559 200:0.17327553 201:0.038426861 202:0.035350855 203:0.075916037 204:0.012083669 205:0.05569043 206:0.29816559 207:0.29816559 208:0.21299082 209:0.26977196 210:0.1085282 211:0.076915741 212:0.11038219 213:0.092619039 214:0.11541746 215:0.29816559 216:0.41067848 217:0.059513327 218:0.027753025 219:0.0033296759 220:0.021030931 222:0.0092743598 223:0.029697208 224:0.41067848 225:0.41067848 226:0.024331881 228:0.0046945554 229:0.01311591 230:0.030773602 231:0.18145199 232:0.020215997 233:0.41067848 234:0.22433417 235:0.010545366 236:0.00023751626 238:0.014933766 240:0.0032806168 241:0.010353306 242:0.25458699 243:0.28966287 244:0.01053253 246:0.0010833589 247:0.0089274803 248:0.013988 249:0.083538584 250:0.010354903 251:0.27110821 252:0.34940633 253:0.015567668 254:0.0064267442 255:0.029079711 256:0.01732867 257:0.02629325 258:0.17876624 259:0.020075301 260:0.34940633 261:0.34940633 262:0.26704434 263:0.054535832 264:0.029380191 265:0.015928678 266:0.0064169173 267:0.028608358 268:0.021111928 269:0.34940633 270:0.257348 271:0.0044178488 272:0.00071808312 273:0.006710703 274:0.0057316818 275:0.011951475 276:0.081257373 277:0.00791228 278:0.2697084 279:0.34940633 280:0.081195623 281:0.0042325058 282:0.0067800437 283:0.0032489947 284:0.0012382818 285:0.0130038 286:0.0097687934 287:0.34940633 288:0.33888337 289:0.33888337 290:0.09158545 291:0.013422688 292:0.015940927 293:0.03820435 294:0.0029206902 295:0.032755252 296:0.33888337 297:0.33888337 298:0.17165941 299:0.094819248 300:0.030807639 301:0.018989567 302:0.045722019 303:0.022418493 304:0.079641357 305:0.33888337 306:0.29106399 307:0.13223527 308:0.0053017712 309:0.00058467017 310:0.00026483333 313:0.017016513 314:0.2805512 315:0.2891137 316:0.052389484 317:0.0081225736 318:0.0013473593 321:0.0069282958 322:0.036245268 323:0.30552506 
0.004232345931984562 0:0.21252598 1:0.030879578 2:0.071299322 3:0.028597368 4:0.035385061 5:0.016132208 6:0.11369812 7:0.31394508 8:0.31394508 9:0.22064526 10:0.025727471 11:0.036013264 12:0.010475416 13:0.078459717 14:0.030607769 15:0.15924861 16:0.31394508 17:0.31394508 18:0.10548953 19:0.030719062 20:0.028717449 21:0.024915565 22:0.012416648 23:0.01534521 24:0.049188141 25:0.31141767 26:0.31394508 27:0.17325239 28:0.026594475 29:0.023650642 30:0.015148634 31:0.017263446 32:0.027529888 33:0.10671967 34:0.31394508 35:0.31394508 36:0.18702872 37:0.01284366 38:0.01788773 39:0.0061187395 40:0.08311756 41:0.01201635 42:0.10166524 43:0.32680604 44:0.29384759 45:0.11237745 46:0.014864784 47:0.0044394084 48:0.0038788503 49:0.035824582 50:0.0035482247 51:0.075504877 52:0.31802133 53:0.2285171 54:0.18362981 55:0.015818523 56:0.03421342 57:0.014671611 58:0.017554229 59:0.018515466 60:0.13428853 61:0.32680604 62:0.32680604 63:0.2051774 64:0.047404531 65:0.028319551 66:0.027661368 67:0.023384167 68:0.020104656 69:0.22213529 70:0.32680604 71:0.32680604 72:0.098162159 73:0.011407111 74:0.00030816923 75:0.0028998118 76:0.010312508 77:0.0016749812 78:0.066374369 79:0.16723754 80:0.14947528 81:0.068226174 82:0.0032637636 83:0.0066441768 84:0.00941501 85:0.0079078572 87:0.028287074 88:0.058860473 89:0.078905433 90:0.30109578 91:0.065223962 92:0.025694663 93:0.05238945 94:0.026339579 95:0.011308799 96:0.340042 97:0.340042 98:0.340042 99:0.340042 100:0.039755452 101:0.041230667 102:0.066232376 103:0.014222156 104:0.015551658 105:0.340042 106:0.340042 107:0.340042 108:0.21031012 109:0.097265556 110:0.078778505 111:0.086207822 112:0.06832315 113:0.060755063 114:0.12267507 115:0.13397384 116:0.24955668 117:0.26496774 118:0.11276669 119:0.12401396 120:0.043242577 121:0.038787149 122:0.023183107 123:0.037790231 124:0.21461897 125:0.27930796 126:0.21111745 127:0.10430975 128:0.072789386 129:0.067590848 130:0.19366568 131:0.25128928 132:0.27930796 133:0.27930796 134:0.22688055 135:0.24884933 136:0.099846065 137:0.10178835 138:0.028494338 139:0.10540698 140:0.10381886 141:0.13723221 142:0.15248759 143:0.27930796 144:0.16926081 145:0.055301253 146:0.13426445 147:0.031542037 148:0.020669993 149:0.021419937 150:0.074378334 151:0.31420594 152:0.31760463 153:0.19401471 154:0.13519694 155:0.20372352 156:0.088814259 157:0.094552912 158:0.043410756 159:0.21605979 160:0.31760463 161:0.31760463 162:0.14897479 163:0.079614602 164:0.17649181 165:0.045131087 166:0.043455269 167:0.034728199 168:0.057445228 169:0.062291104 170:0.24397933 171:0.13687293 172:0.2298279 173:0.31760463 174:0.13652024 175:0.12365569 176:0.038838085 177:0.047843136 178:0.045136537 179:0.17834875 180:0.16221221 181:0.12690435 182:0.12524869 183:0.07057979 184:0.066926315 185:0.02285363 186:0.22931543 187:0.32622448 188:0.32622448 189:0.2837429 190:0.081412129 191:0.067058563 192:0.068755105 193:0.032268595 194:0.048007675 195:0.32622448 196:0.32622448 197:0.32622448 198:0.056424063 199:0.13086072 200:0.18734498 201:0.0663286 202:0.076720476 203:0.043191213 204:0.036499973 205:0.036052335 206:0.080868602 207:0.097696856 208:0.19102125 209:0.20630094 210:0.057985034 211:0.082996868 212:0.091042161 213:0.09536989 214:0.099350743 215:0.2035159 216:0.13310054 217:0.052444715 218:0.019840578 219:0.025077445 220:0.18582146 221:0.18300168 222:0.25889805 223:0.25889805 224:0.16676198 225:0.256495 226:0.12269593 227:0.077145785 228:0.029854197 229:0.16822195 230:0.20726946 231:0.23322992 232:0.17065169 233:0.25889805 234:0.12027456 235:0.02122215 236:0.018072635 237:0.014764072 238:0.14916535 239:0.076790415 240:0.14725691 241:0.055314522 242:0.11415274 243:0.25889805 244:0.1500503 245:0.10954208 246:0.027405918 247:0.25889805 248:0.20810761 249:0.25147069 250:0.1107555 251:0.25889805 252:0.21645069 253:0.14602776 254:0.19080111 255:0.038355216 256:0.0717315 257:0.086559385 258:0.083710708 259:0.10740876 260:0.24842899 261:0.19345757 262:0.20781843 263:0.23709483 264:0.087210581 265:0.070380591 266:0.025406126 267:0.088390134 268:0.13491295 269:0.18642263 270:0.24842899 271:0.21994267 272:0.17658865 273:0.026365021 274:0.17715707 275:0.12411942 276:0.13017039 277:0.14983325 278:0.24842899 279:0.22855555 280:0.24842899 281:0.15152268 282:0.049574755 283:0.15038007 284:0.020478476 285:0.15393944 286:0.24842899 287:0.22377495 288:0.14895505 289:0.21089256 290:0.18658465 291:0.12971762 292:0.052528694 293:0.037002146 294:0.073190279 295:0.095642626 296:0.08134307 297:0.16521156 298:0.27065969 299:0.27065969 300:0.19680038 301:0.099200867 302:0.0912726 303:0.078143045 304:0.059746429 305:0.07103131 306:0.21509442 307:0.27065969 308:0.18022531 309:0.14231902 310:0.13702199 311:0.009377107 312:0.091758333 313:0.19269697 314:0.18517265 315:0.26453617 316:0.27065969 317:0.27065969 318:0.218715 319:0.20021297 320:0.021998465 321:0.038473926 322:0.048721615 323:0.1691051 
9.424787494302043e-05 0:0.35940093 1:0.077348977 2:0.18552941 3:0.033252191 4:0.092121094 5:0.048697505 6:0.30591512 7:0.16099849 8:0.35940093 9:0.35940093 10:0.078115843 11:0.05982836 12:0.037615832 13:0.14241286 14:0.054869186 15:0.35940093 16:0.20934051 17:0.35940093 18:0.072304145 19:0.014081219 20:0.039086074 21:0.014747391 22:0.13591936 23:0.019800274 24:0.028327189 25:0.018956402 26:0.064717062 27:0.14603883 28:0.014224362 29:0.019289324 30:0.013783377 31:0.03193558 32:0.0068355775 33:0.11799681 34:0.041724782 35:0.17398301 36:0.27001116 37:0.066677004 38:0.041271307 39:0.025916513 40:0.075464167 41:0.023256753 42:0.27001116 43:0.097046405 44:0.27001116 45:0.27001116 46:0.1160646 47:0.071514957 48:0.012854421 49:0.089397185 50:0.023051629 51:0.27001116 52:0.21071954 53:0.27001116 54:0.15353325 55:0.036104959 56:0.047237713 57:0.0093624648 58:0.025787555 59:0.0074746758 60:0.14474402 61:0.035611961 62:0.14951128 63:0.25910103 64:0.15918171 65:0.2556811 66:0.026148813 67:0.22161353 68:0.032529559 69:0.27001116 70:0.19675988 71:0.27001116 72:0.20128615 73:0.059852812 74:0.049536575 75:0.0045848647 76:0.12054361 77:0.008471705 78:0.25584516 79:0.23315881 80:0.25584516 81:0.12152237 82:0.010716554 83:0.013761522 84:0.0010331877 85:0.087474473 86:0.0001469062 87:0.11271378 88:0.13501698 89:0.16681002 90:0.20074554 91:0.11961259 92:0.14875934 93:0.036318008 94:0.25584516 95:0.028191116 96:0.24748275 97:0.25584516 98:0.25584516 99:0.25584516 100:0.047265299 101:0.055022489 102:0.016742302 103:0.25584516 104:0.014624653 105:0.25584516 106:0.25584516 107:0.25584516 108:0.052558262 109:0.023671221 110:0.026956374 111:0.085943855 112:0.20832773 113:0.024593536 114:0.03354723 115:0.045567449 116:0.04263078 117:0.026674068 118:0.048243973 119:0.094829805 120:0.011773455 121:0.037811857 122:0.012646892 123:0.021803455 124:0.012092628 125:0.023813348 126:0.14459151 127:0.077575333 128:0.23040858 129:0.34758279 130:0.24198474 131:0.1352051 132:0.34758279 133:0.34758279 134:0.22451259 135:0.1862113 136:0.32570192 137:0.34758279 138:0.072867066 139:0.070170805 140:0.052243546 141:0.062159348 142:0.053444937 143:0.26489237 144:0.015655395 145:0.11444541 146:0.32856631 147:0.01061085 148:0.052739043 149:0.0081391362 150:0.0099703167 151:0.0040585473 152:0.013385627 153:0.040316962 154:0.24538752 155:0.35882232 156:0.075308606 157:0.35882232 158:0.042150933 159:0.042415563 160:0.047523186 161:0.045920931 162:0.078056015 163:0.24723433 164:0.35882232 165:0.024026645 166:0.029435717 167:0.019025434 168:0.022343691 169:0.017431052 170:0.062014055 171:0.034507453 172:0.25994644 173:0.35882232 174:0.062380344 175:0.35882232 176:0.052256208 177:0.039128829 178:0.013652927 179:0.043180812 180:0.042070806 181:0.091418155 182:0.23379281 183:0.087135248 184:0.31833041 185:0.040971681 186:0.063034259 187:0.080231473 188:0.062458273 189:0.16734825 190:0.053509634 191:0.10113771 192:0.052757103 193:0.31833041 194:0.041169193 195:0.1258665 196:0.12992631 197:0.17437465 198:0.045144655 199:0.13670181 200:0.31833041 201:0.079446532 202:0.31833041 203:0.048218645 204:0.035500623 205:0.023031449 206:0.10968985 207:0.12616612 208:0.14297678 209:0.31833041 210:0.10145055 211:0.31833041 212:0.042802416 213:0.054646719 214:0.11653186 215:0.28897053 216:0.073798664 217:0.019800872 218:0.088535041 219:0.11067706 220:0.070409276 221:0.058352776 222:0.29669839 223:0.25633302 224:0.13522314 225:0.086238801 226:0.08212027 227:0.21130924 228:0.034225192 229:0.018316919 230:0.01498183 231:0.088519171 232:0.0573451 233:0.14493395 234:0.17102648 235:0.049291145 236:0.067219213 237:0.027587287 238:0.11984117 239:0.065649942 240:0.29669839 241:0.29669839 242:0.24674016 243:0.29669839 244:0.1815453 245:0.11481442 246:0.053939395 247:0.061462201 248:0.022621294 249:0.29669839 250:0.29669839 251:0.29669839 252:0.074458934 253:0.076700486 254:0.24209838 255:0.056277815 256:0.020140963 257:0.0064163301 258:0.0069597829 259:0.030745074 260:0.11138536 261:0.086841829 262:0.15026934 263:0.30239803 264:0.10928506 265:0.1326216 266:0.016739102 267:0.014706464 268:0.035995569 269:0.15109944 270:0.30239803 271:0.12910727 272:0.30239803 273:0.18775839 274:0.07949952 275:0.0092843175 276:0.030121546 277:0.21258472 278:0.30239803 279:0.21437983 280:0.12676169 281:0.30239803 282:0.27235049 283:0.12889688 284:0.018875748 285:0.031635299 286:0.13556981 287:0.30239803 288:0.10858789 289:0.21131067 290:0.32130694 291:0.080190152 292:0.28062025 293:0.023487845 294:0.020459881 295:0.037266485 296:0.23981504 297:0.12349744 298:0.15371369 299:0.32130694 300:0.056052774 301:0.21768247 302:0.013063975 303:0.037246116 304:0.11997139 305:0.32130694 306:0.16539831 307:0.13072231 308:0.32130694 309:0.10994136 310:0.21435991 311:0.013202535 312:0.022064714 313:0.078929104 314:0.27406323 315:0.076248668 316:0.045252752 317:0.18573751 318:0.0093940496 319:0.16456643 320:7.1395472e-05 321:0.011472985 322:0.04753584 323:0.14346106 
0.001258895457005055 0:0.27130073 1:0.072894096 2:0.018304801 3:0.0029944286 4:0.0073797768 5:0.015554352 6:0.066780888 7:0.29430392 8:0.29783246 9:0.29783246 10:0.088543773 11:0.024752744 12:0.013117326 13:0.030832995 14:0.062795617 15:0.20264763 16:0.17312366 17:0.23813662 18:0.18515508 19:0.047263525 20:0.0080764173 21:0.0015242458 22:0.0056497762 23:0.0080168145 24:0.2945264 25:0.29783246 26:0.27655104 27:0.17380844 28:0.041255828 29:0.0047190734 30:0.0033448096 31:0.0055459524 32:0.033067998 33:0.23754507 34:0.29783246 35:0.20225225 36:0.23440452 37:0.048573427 38:0.032145418 39:0.023143977 40:0.094428688 41:0.071322635 42:0.32504106 43:0.16869079 44:0.2069422 45:0.073275253 46:0.017230757 47:0.015682261 48:0.0074813189 49:0.081720591 50:0.019259406 51:0.19210684 52:0.087682359 53:0.10533039 54:0.17949708 55:0.062739596 56:0.014883213 57:0.0097147021 58:0.027699981 59:0.055274863 60:0.33280954 61:0.33280954 62:0.26193658 63:0.21278374 64:0.083645903 65:0.0098499171 66:0.0051207333 67:0.057198115 68:0.054593347 69:0.33280954 70:0.33280954 71:0.2599161 72:0.084383421 73:0.027564283 74:0.0084494157 76:0.10473999 77:0.020246048 78:0.14983639 79:0.04301177 80:0.10369183 81:0.018639289 82:0.010770882 83:0.0038406432 85:0.046731498 86:0.0093838861 87:0.018287886 88:0.0024008008 89:0.018114246 90:0.40342227 91:0.10506724 92:0.010863535 94:0.22222899 95:0.136847 96:0.44148016 97:0.44148016 98:0.32260677 99:0.057357319 100:0.013848275 101:0.0049379701 103:0.15247597 104:0.052364863 105:0.38143337 106:0.15614 107:0.050142504 108:0.21239726 109:0.023614025 110:0.013986351 111:0.00207439 112:0.028338792 113:0.0039329338 114:0.32881066 115:0.32881066 116:0.21345267 117:0.20292123 118:0.0204909 119:0.01092978 120:0.0043016155 121:0.036248993 122:0.062905982 123:0.32881066 124:0.32881066 125:0.18381633 126:0.088752881 127:0.011016531 128:0.021188417 129:0.008989023 130:0.053302471 131:0.005056629 132:0.13911684 133:0.078034982 134:0.077468462 135:0.28804985 136:0.040391177 137:0.035832744 138:0.012732319 139:0.13094819 140:0.10740849 141:0.32881066 142:0.3074033 143:0.17611606 144:0.097753555 145:0.0162708 146:0.0024754752 147:0.0015118831 148:0.019827465 149:0.049725261 150:0.25865903 151:0.29773933 152:0.088027649 153:0.10451888 154:0.031219264 155:0.00016662673 156:0.0013448779 157:0.015226034 158:0.047770385 159:0.29773933 160:0.29773933 161:0.11827721 162:0.23332499 163:0.018736603 164:0.0083685014 165:0.0018753352 166:0.064700536 167:0.10020906 168:0.29773933 169:0.29773933 170:0.17107251 171:0.29773933 172:0.021711757 173:0.00043888847 174:0.005128724 175:0.036872953 176:0.081290334 177:0.29773933 178:0.29773933 179:0.25545761 180:0.10191596 181:0.016466783 182:0.00031468968 183:0.0056637819 184:0.033439413 185:0.052809138 186:0.3227455 187:0.3227455 188:0.088836506 189:0.046716332 190:0.0006361272 191:0.00014304076 192:0.0044051632 193:0.04013101 194:0.034279726 195:0.3227455 196:0.20241265 197:0.040615696 198:0.3227455 199:0.041275438 200:0.00023896358 201:0.024543054 202:0.032756012 203:0.061532166 204:0.3227455 205:0.3227455 206:0.2102171 207:0.15711159 208:0.033680923 209:0.0035844538 210:0.019978259 211:0.056605864 212:0.056702621 213:0.3227455 214:0.3227455 215:0.096716978 216:0.15149967 217:0.03049583 218:0.095637478 219:0.02279979 220:0.25490093 221:0.004718293 222:0.022729831 224:0.14120883 225:0.39256126 226:0.17320378 227:0.22342178 228:0.029314015 229:0.39256126 230:0.20977405 231:0.39256126 232:0.1945127 233:0.39256126 234:0.037651341 235:0.012323495 236:0.036876526 238:0.070846632 242:0.037651341 243:0.11612063 244:0.059483737 245:0.10701679 247:0.21373671 248:0.0070393654 249:0.0095691457 250:0.013539066 251:0.11913662 252:0.29674312 253:0.052800789 254:0.030676974 255:0.0011441774 256:0.17711529 257:0.1077661 258:0.36350045 259:0.18878402 260:0.28776488 261:0.36350045 262:0.077484235 263:0.0026405766 264:0.0054225149 265:0.13563 266:0.096210957 267:0.36350045 268:0.36350045 269:0.36350045 270:0.037046775 271:0.019208111 272:0.016985282 274:0.06437175 275:0.0057508503 276:0.016037878 277:0.0096558817 278:0.036655378 279:0.13389207 280:0.022013484 281:0.001402142 283:0.06185209 284:0.011280902 285:0.087753035 286:0.072523557 287:0.074614286 288:0.31758016 289:0.050259292 290:0.00029232673 291:0.011217067 292:0.034783244 293:0.025230939 294:0.31758016 295:0.31758016 296:0.23228535 297:0.23341405 298:0.052166894 299:0.0050773639 300:0.014716779 301:0.045643117 302:0.039779469 303:0.31758016 304:0.31758016 305:0.20020656 306:0.10953974 307:0.0070307027 308:0.0014724009 309:0.0025790092 310:0.04371902 311:0.0039219134 312:0.12676057 313:0.098110743 314:0.066982806 315:0.19938818 316:0.021506174 317:0.034359347 318:0.02326425 319:0.092785299 320:0.007179298 321:0.31758016 322:0.29361916 323:0.22595891 
0.0005851252103093257 0:0.33246526 1:0.13160025 2:0.20973769 3:0.048023239 4:0.020960398 5:0.041452225 6:0.14391349 7:0.1654983 8:0.33246526 9:0.33246526 10:0.089779198 11:0.016386492 12:0.00028205823 13:0.023627259 14:0.12110261 15:0.33246526 16:0.20429818 17:0.33246526 18:0.13028711 19:0.036812261 20:0.024638154 21:0.044264555 22:0.037285525 23:0.036658064 24:0.053334318 25:0.1672323 26:0.20902531 27:0.1627029 28:0.033530999 29:0.0076627457 30:0.00080790819 31:0.0044177291 32:0.011882674 33:0.081204712 34:0.1992449 35:0.30431244 36:0.31108293 37:0.033425275 38:0.016819969 39:0.00052361289 40:0.023535643 41:0.079476491 42:0.31108293 43:0.11584493 44:0.31108293 45:0.31108293 46:0.04661439 47:0.049306691 48:0.046327494 49:0.034388997 50:0.067476369 51:0.31108293 52:0.18752833 53:0.31108293 54:0.1208161 55:0.01947445 56:0.033642028 57:0.015926709 58:0.0014438602 59:0.0051178681 60:0.063991427 61:0.12335849 62:0.19772083 63:0.2205072 64:0.033603307 65:0.21743061 66:0.21258424 67:0.021099523 68:0.01272014 69:0.15679318 70:0.18207112 71:0.26749843 72:0.2517544 73:0.039578665 74:0.074300237 75:0.087555237 76:0.039586786 77:0.046910524 78:0.2517544 79:0.23152143 80:0.24326412 81:0.14233294 82:0.038927022 83:0.07114923 84:0.048669796 85:0.044105947 86:0.075748198 87:0.2517544 88:0.19184761 89:0.14126177 90:0.13939857 91:0.10733978 92:0.228091 93:0.2517544 94:0.087567985 95:0.041847315 96:0.21729437 97:0.20097832 98:0.16568506 99:0.1654115 100:0.13300508 101:0.18277368 102:0.1692107 103:0.11618677 104:0.13970895 105:0.2517544 106:0.25021145 107:0.21321647 108:0.10029957 109:0.054487456 110:0.088835835 111:0.10076141 112:0.076147862 113:0.048335686 114:0.17346077 115:0.17441289 116:0.16480461 117:0.2000061 118:0.16656134 119:0.1339851 120:0.0057269935 121:0.018696567 122:0.019120736 123:0.063608125 124:0.12853912 125:0.19617929 126:0.20748459 127:0.058336381 128:0.24481729 129:0.12889299 130:0.17007527 131:0.1798916 132:0.30606315 133:0.30606315 134:0.28921819 135:0.22583878 136:0.26796028 137:0.26819342 138:0.02795564 139:0.0484672 140:0.025032295 141:0.083493538 142:0.06864208 143:0.24311723 144:0.22369063 145:0.19313 146:0.24916719 147:0.053266626 148:0.015031445 149:0.022368975 150:0.056243632 151:0.11296794 152:0.17356806 153:0.15785488 154:0.18618514 155:0.2916733 156:0.2916733 157:0.13308281 158:0.05377144 159:0.030745937 160:0.17148921 161:0.22229405 162:0.18698519 163:0.24950244 164:0.24673872 165:0.03906171 166:0.037764013 167:0.037977822 168:0.034244049 169:0.032527868 170:0.076520391 171:0.1032762 172:0.28031021 173:0.2916733 174:0.11681569 175:0.2916733 176:0.10614359 177:0.05425588 178:0.071997404 179:0.070340671 180:0.058673009 181:0.23823728 182:0.25573942 183:0.25573942 184:0.23891458 185:0.060956959 186:0.053681079 187:0.10551005 188:0.11506122 189:0.13902509 190:0.19741267 191:0.17051807 192:0.21377376 193:0.23206477 194:0.12745629 195:0.25573942 196:0.17908953 197:0.19244029 198:0.056556921 199:0.21252926 200:0.25573942 201:0.13087344 202:0.25573942 203:0.10652635 204:0.064550176 205:0.065468393 206:0.049915344 207:0.12326396 208:0.11675318 209:0.11656793 210:0.090040989 211:0.21879402 212:0.11689254 213:0.12381811 214:0.14404927 215:0.11822668 216:0.11512718 217:0.037303161 218:0.05221995 219:0.02084532 220:0.095941581 221:0.12868339 222:0.31664801 223:0.20914398 224:0.14994469 225:0.15417677 226:0.078278333 227:0.046924092 228:0.011091862 229:0.028129209 230:0.036272176 231:0.24434228 232:0.092404865 233:0.19477798 234:0.12214924 235:0.053654723 236:0.027483162 237:0.021357464 238:0.1722149 239:0.098847166 240:0.31664801 241:0.2080888 242:0.21060358 243:0.28412884 244:0.10937912 245:0.070148751 246:0.027937794 247:0.098910347 248:0.20972876 249:0.31664801 250:0.2172742 251:0.31664801 252:0.18858358 253:0.084808305 254:0.1240385 255:0.014033728 256:0.01869401 257:0.020046065 258:0.050797287 259:0.027332278 260:0.17629683 261:0.09209507 262:0.19258898 263:0.30134526 264:0.0316705 265:0.11514451 266:0.0443624 267:0.032725591 268:0.028294086 269:0.075618364 270:0.30134526 271:0.14085464 272:0.20199484 273:0.016191654 274:0.059026197 275:0.19996302 276:0.30134526 277:0.1091387 278:0.30134526 279:0.30134526 280:0.15674207 281:0.30134526 282:0.079165041 283:0.078986071 284:0.12517978 285:0.14700463 286:0.088307105 287:0.30134526 288:0.055512086 289:0.12440681 290:0.29512295 291:0.043433301 292:0.1322017 293:0.062830426 294:0.055278391 295:0.040739536 296:0.033045389 297:0.073434651 298:0.17725378 299:0.29512295 300:0.063492022 301:0.10413748 302:0.074215777 303:0.1258567 304:0.1267013 305:0.066462167 306:0.29008171 307:0.13742377 308:0.29512295 309:0.18005773 310:0.064672597 311:0.075625375 312:0.094727322 313:0.074929498 314:0.23819084 315:0.15721118 316:0.29512295 317:0.29512295 318:0.25563172 319:0.17622077 320:0.040473279 321:0.1592548 322:0.13157377 323:0.19563669 
0.000300174929462518 0:0.12417103 1:0.37495866 2:0.37495866 3:0.11029035 4:0.18884431 5:0.15493365 6:0.014970454 7:0.057996508 8:0.21229254 9:0.12862426 10:0.095157452 11:0.37495866 12:0.074937612 13:0.070748657 14:0.031607751 15:0.026305942 16:0.13184586 17:0.25322342 18:0.19424668 19:0.22687986 20:0.27908966 21:0.081734709 22:0.12943907 23:0.14964454 24:0.022630846 25:0.068344325 26:0.16065928 27:0.19479348 28:0.019388983 29:0.020400899 30:0.0083236322 31:0.013285535 32:0.0091151306 33:0.0060083061 34:0.027466264 35:0.18808027 36:0.15108591 37:0.04157554 38:0.088118479 39:0.03915276 40:0.160577 41:0.056911465 42:0.074363947 43:0.16727988 44:0.22567333 45:0.24966636 46:0.19017561 47:0.086316474 48:0.039715197 49:0.27415904 50:0.095328577 51:0.21533206 52:0.098331302 53:0.16245835 54:0.26663184 55:0.049303699 56:0.0257807 57:0.01600465 58:0.027601032 59:0.010983915 60:0.023334738 61:0.042229928 62:0.29793584 63:0.18767914 64:0.29793584 65:0.29793584 66:0.14356199 67:0.29647997 68:0.10756645 69:0.06201135 70:0.091521226 71:0.25301895 72:0.10329361 73:0.11134276 74:0.11776081 75:0.014057396 76:0.17226568 77:0.087067641 78:0.2457604 79:0.10142703 80:0.03561867 81:0.10635268 82:0.10892274 83:0.17341146 84:0.02618495 85:0.28416139 86:0.21948762 87:0.28416139 88:0.28416139 89:0.045336545 90:0.030513575 91:0.17026037 92:0.28416139 93:0.079433359 94:0.28416139 95:0.098394774 96:0.030132322 97:0.024295133 98:0.043853655 99:0.086008437 100:0.12013457 101:0.26564044 102:0.10262192 103:0.28416139 104:0.14519492 105:0.18246424 106:0.21078043 107:0.10539456 108:0.34908012 109:0.026704 110:0.012017689 111:0.013349607 112:0.022101214 113:0.035866205 114:0.02418281 115:0.02983319 116:0.33100531 117:0.34908012 118:0.012577069 119:0.00088423223 120:0.00076389004 121:0.0014648201 122:0.00033949522 123:0.00026478531 124:0.0079113469 125:0.34908012 126:0.34908012 127:0.016668744 128:0.0098145632 129:0.026643816 130:0.029638082 131:0.014349583 132:0.067224905 133:0.035585091 134:0.34908012 135:0.34908012 136:0.14400011 137:0.027111949 138:0.0035872611 142:0.001262936 143:0.34908012 144:0.30202627 145:0.10635034 146:0.0062194131 147:0.0022526614 148:0.0016073086 150:0.0011358286 151:0.0049125007 152:0.2847183 153:0.24969199 154:0.30202627 155:0.15687835 156:0.075230099 157:0.060534745 158:0.067625664 159:0.025402486 160:0.019308012 161:0.21020447 162:0.30202627 163:0.30202627 164:0.011877689 165:0.0016759052 166:0.00038749035 168:0.00040598877 169:0.0010451296 170:0.30202627 171:0.30202627 172:0.30202627 173:0.072635613 174:0.073312029 175:0.019932346 176:0.10083434 177:0.085512176 178:0.00671745 179:0.30202627 180:0.16131894 181:0.20609108 182:0.21833092 183:0.12657344 184:0.2108205 185:0.20935063 186:0.068316184 187:0.016722592 188:0.1414049 189:0.2752004 190:0.045810368 191:0.13368729 192:0.13392884 193:0.19880071 194:0.15363963 195:0.066908881 196:0.052903123 197:0.2752004 198:0.2752004 199:0.11596919 200:0.078659639 201:0.12969166 202:0.037974928 203:0.20645437 204:0.19995739 205:0.0096759275 206:0.2752004 207:0.2752004 208:0.028176418 209:0.1218087 210:0.1112396 211:0.039255813 212:0.16799589 213:0.10322876 214:0.01014821 215:0.2752004 216:0.22300886 217:0.02362939 218:0.022594802 219:0.055417139 220:0.08177492 221:0.011344764 222:0.24062115 223:0.1175185 224:0.20540135 225:0.29858848 226:0.11275046 227:0.041327331 228:0.012547854 229:0.0020446365 231:0.0044782087 232:0.0028144114 233:0.25737858 234:0.29002079 235:0.046760526 236:0.028899638 237:0.049590845 238:0.10777753 239:0.015023309 240:0.31719422 241:0.31719422 242:0.23331332 243:0.31719422 244:0.15871921 245:0.026842162 246:0.011925028 247:0.029928977 248:0.0163114 249:0.22359329 250:0.12924844 251:0.31719422 252:0.30170426 253:0.21450852 254:0.017334545 255:0.0035330707 256:0.00087752112 258:0.000893555 259:0.001253012 260:0.24627249 261:0.28003797 262:0.2637549 263:0.073480316 264:0.056498148 265:0.024129666 266:0.048428487 267:0.035415191 268:0.0043505332 269:0.24368504 270:0.30170426 271:0.30170426 272:0.020271603 273:0.0022338885 274:0.07697437 275:0.0056728479 276:0.027428942 277:0.017049937 278:0.30170426 279:0.30170426 280:0.30170426 281:0.10173999 282:0.063705713 283:0.080876723 284:0.012699372 285:0.0065522203 286:0.063980423 287:0.30170426 288:0.18624659 289:0.079590745 290:0.064476416 291:0.061585244 292:0.020904491 293:0.05405397 294:0.06331379 295:0.003816779 296:0.17245229 297:0.25252703 298:0.16386075 299:0.26049426 300:0.13519886 301:0.053040795 302:0.10746345 303:0.029238144 304:0.0040089712 305:0.22928682 306:0.29336312 307:0.22309379 308:0.27607295 309:0.088482969 310:0.045094769 311:0.011486532 312:0.0037509343 313:0.064432643 314:0.30367884 315:0.22819403 316:0.30367884 317:0.30367884 318:0.2044865 319:0.11501724 320:0.054901861 321:0.021299357 322:0.048834939 323:0.22465323 
0.001330076301640163 0:0.13179247 1:0.020230221 2:0.0058158902 3:0.002708436 4:0.033058565 5:0.014166895 6:0.061420426 7:0.032781087 8:0.11683178 9:0.11997926 10:0.016119633 11:0.030062055 13:0.040515527 14:0.010003777 15:0.030524198 16:0.01018471 17:0.091560818 18:0.33857629 19:0.30162424 20:0.027844734 21:0.005958559 22:0.094057903 23:0.15948197 24:0.32189059 25:0.16398942 26:0.33857629 27:0.33857629 28:0.31176338 29:0.12417501 30:0.0057031726 31:0.10757233 32:0.17643197 33:0.21019781 34:0.1328371 35:0.33857629 36:0.095955901 37:0.015576414 38:0.025351625 39:0.0015235515 40:0.051259756 41:0.0035050495 42:0.0010114053 43:0.00097610033 44:0.075211212 45:0.054082319 46:0.0049035498 47:0.026068633 48:0.0066793691 49:0.022552615 50:0.011838861 51:0.016120879 52:0.017470768 53:0.05878986 54:0.34300363 55:0.33214885 56:0.10124997 57:0.015599972 58:0.14805014 59:0.20796832 60:0.098049499 61:0.20622101 62:0.34300363 63:0.34300363 64:0.28871855 65:0.10465452 66:0.013711922 67:0.10682467 68:0.1600628 69:0.29016444 70:0.21301585 71:0.34300363 72:0.061029114 73:0.018592637 74:0.041687753 75:0.014092634 76:0.012438455 77:0.0069286078 78:0.029274888 79:0.02643596 80:0.07075841 81:0.098625511 82:0.052890513 83:0.043109097 84:0.024561817 85:0.057492763 86:0.0019518951 87:0.010447389 88:0.0059275785 89:0.095509008 90:0.33362183 91:0.20139198 92:0.1979216 93:0.037373036 94:0.10964603 95:0.15399092 96:0.2788966 97:0.18753262 98:0.33362183 99:0.33362183 100:0.27253309 101:0.19320033 102:0.087555073 103:0.30722687 104:0.24054557 105:0.081072941 106:0.05668626 107:0.33362183 108:0.27364311 109:0.14894044 110:0.015911261 111:0.0015895447 112:0.048933312 113:0.074124962 114:0.27364311 115:0.14483555 116:0.27364311 117:0.27364311 118:0.20128287 119:0.053229287 120:0.011943319 121:0.040711597 122:0.096785747 123:0.15748468 124:0.12153631 125:0.27364311 126:0.16314001 127:0.054803319 128:0.024980523 129:0.0073906793 130:0.1801078 131:0.031127421 132:0.27364311 133:0.15150304 134:0.22325067 135:0.21399023 136:0.12191244 137:0.059393086 138:0.011799824 139:0.10871243 140:0.082898118 141:0.26970509 142:0.18830043 143:0.27364311 144:0.27282262 145:0.21197501 146:0.044422247 147:0.024634231 148:0.051247925 149:0.11417978 150:0.06231714 151:0.14074153 152:0.27282262 153:0.27282262 154:0.27282262 155:0.078273639 156:0.0099027231 157:0.039394356 158:0.096711077 159:0.2084989 160:0.11167725 161:0.27282262 162:0.24313883 163:0.17286623 164:0.10690898 165:0.021106329 166:0.068085238 167:0.083514541 168:0.075142525 169:0.12140381 170:0.27282262 171:0.27282262 172:0.27282262 173:0.14388704 174:0.0098619023 175:0.051355496 176:0.043296698 177:0.070562594 178:0.065425016 179:0.27282262 180:0.27344364 181:0.21115987 182:0.098994017 183:0.006888431 184:0.035695978 185:0.097363062 186:0.14107828 187:0.067162037 188:0.27344364 189:0.27344364 190:0.19239521 191:0.099714503 192:0.027057562 193:0.09387289 194:0.25186643 195:0.05066945 196:0.030891325 197:0.27344364 198:0.27344364 199:0.19942018 200:0.11268102 201:0.027459472 202:0.036245521 203:0.035316426 204:0.086865708 205:0.065956742 206:0.27344364 207:0.27344364 208:0.19590546 209:0.1580753 210:0.12291332 211:0.058433358 212:0.14790468 213:0.10560647 214:0.058629815 215:0.27344364 216:0.21160612 217:0.10628165 218:0.082652889 219:0.032642748 220:0.31067011 221:0.057113867 222:0.31067011 223:0.14074117 224:0.31067011 225:0.31067011 226:0.17447458 227:0.1329037 228:0.026226409 229:0.31067011 230:0.16284122 231:0.31067011 232:0.27443525 233:0.31067011 234:0.076153077 235:0.017398123 236:0.03189601 237:0.010104952 238:0.11060771 239:0.011762147 240:0.026046865 241:0.0096508367 242:0.076467909 243:0.13983612 244:0.022437394 245:0.040656351 246:0.011418626 247:0.11004315 248:0.012995759 249:0.015209657 250:0.012309133 251:0.1513432 252:0.3280119 253:0.30337426 254:0.20369141 255:0.020951284 256:0.18584594 257:0.16805847 258:0.14652929 259:0.17884831 260:0.3280119 261:0.3280119 262:0.32077956 263:0.19049394 264:0.0080318786 265:0.23308736 266:0.062739082 267:0.067421332 268:0.11536837 269:0.3280119 270:0.1357791 271:0.05439366 272:0.031283826 273:0.0045407857 274:0.066137776 275:0.0099994391 276:0.0081936205 277:0.0069220657 278:0.13865593 279:0.13894318 280:0.050501879 281:0.019186292 282:0.00060699589 283:0.11674712 284:0.0040025967 285:0.0066182911 286:0.0090616168 287:0.13628095 288:0.30869097 289:0.12884636 290:0.15517282 291:0.066169135 292:0.21968025 293:0.02036562 294:0.17240372 295:0.17415051 296:0.30869097 297:0.30869097 298:0.19923243 299:0.276223 300:0.2254722 301:0.28426087 302:0.089218676 303:0.21690971 304:0.17713352 305:0.30869097 306:0.12049924 307:0.01088876 308:0.012032773 309:0.0042317389 310:0.13293658 311:0.010454788 312:0.036804043 313:0.027725926 314:0.1547886 315:0.12796907 316:0.023374094 317:0.021642471 318:0.007218576 319:0.1671727 320:0.03446608 321:0.047537256 322:0.048076924 323:0.13467005 
0.0001510978951722288 0:0.16722988 1:0.30126747 2:0.31277373 3:0.099344261 4:0.25014758 5:0.063821763 6:0.043755863 7:0.11219958 8:0.24247132 9:0.31277373 10:0.11838172 11:0.31277373 12:0.031247439 13:0.09532591 14:0.0021199742 15:0.027760787 16:0.093429342 17:0.31277373 18:0.073377706 19:0.31277373 20:0.31277373 21:0.099937491 22:0.1854538 23:0.1827981 24:0.050425082 25:0.030265752 26:0.074335024 27:0.044471107 28:0.026025146 29:0.076612659 30:0.019887837 31:0.057362355 32:0.0085110674 33:0.013942416 34:0.012336438 35:0.054722168 36:0.32727337 37:0.077161029 38:0.048365593 39:0.012675357 40:0.054323673 41:0.019151896 42:0.21606928 43:0.15332098 44:0.32727337 45:0.32727337 46:0.086652026 47:0.050504334 48:0.012036704 49:0.15313275 50:0.047677893 51:0.32727337 52:0.32494402 53:0.32727337 54:0.054585505 55:0.010827736 56:0.01903161 57:0.016520148 58:0.042388164 59:0.014347024 60:0.043990567 61:0.030151716 62:0.063858017 63:0.13965209 64:0.13923983 65:0.20397785 66:0.11413617 67:0.21023209 68:0.097378865 69:0.17944333 70:0.11666267 71:0.17899369 72:0.24459794 73:0.1021819 74:0.062998876 75:0.012815488 76:0.15882547 77:0.072617568 78:0.24241655 79:0.17496775 80:0.24459794 81:0.24459794 82:0.10155427 83:0.089811333 84:0.012218506 85:0.17354393 86:0.091061994 87:0.17828773 88:0.18795353 89:0.19709378 90:0.10020359 91:0.1472058 92:0.19810598 93:0.1154941 94:0.24459794 95:0.13742582 96:0.12497994 97:0.09893705 98:0.1307978 99:0.24459794 100:0.1465456 101:0.12944639 102:0.094704419 103:0.24459794 104:0.14928837 105:0.20385592 106:0.20145974 107:0.20954195 108:0.073077336 109:0.24088675 110:0.16488917 111:0.09971533 112:0.13206327 113:0.22718725 114:0.088615105 115:0.044886764 116:0.062286273 117:0.068259135 118:0.052821722 119:0.021150108 120:0.028073268 121:0.043449312 122:0.032358468 123:0.040629171 124:0.016619105 125:0.043624178 126:0.38396946 127:0.3940886 128:0.070990115 129:0.036953401 130:0.085151464 131:0.12423685 132:0.067313999 133:0.048940413 134:0.15424551 135:0.3940886 136:0.3940886 137:0.2855773 138:0.053761978 139:0.017478561 140:0.063678458 141:0.057166215 142:0.025020583 143:0.17735653 144:0.03437227 145:0.056082815 146:0.025305329 147:0.010136264 148:0.013834687 149:0.006386112 150:0.011691466 151:0.0060297051 152:0.017484058 153:0.11389095 154:0.16679834 155:0.17016196 156:0.082773753 157:0.072621375 158:0.047495101 159:0.026280085 160:0.026255056 161:0.031246413 162:0.38990331 163:0.38990331 164:0.30110541 165:0.052520692 166:0.014508916 167:0.017627269 168:0.014072837 169:0.0032000686 170:0.073710218 171:0.38990331 172:0.38990331 173:0.38990331 174:0.14600538 175:0.05833061 176:0.050298173 177:0.020537818 178:0.048702832 179:0.11868548 180:0.11772583 181:0.11828265 182:0.15972662 183:0.086966261 184:0.13687409 185:0.081615992 186:0.026027374 187:0.037822366 188:0.040406853 189:0.22576874 190:0.21618761 191:0.21214248 192:0.15501408 193:0.15451579 194:0.0545508 195:0.052621499 196:0.051988009 197:0.12600853 198:0.29439524 199:0.29439524 200:0.29439524 201:0.086922124 202:0.081066258 203:0.067029424 204:0.032016672 205:0.10684838 206:0.13519749 207:0.29439524 208:0.29439524 209:0.29439524 210:0.16593716 211:0.13019638 212:0.037048664 213:0.04386092 214:0.12911882 215:0.24134411 216:0.19653559 217:0.27863249 218:0.1094545 219:0.022004679 220:0.011439436 221:0.012680987 222:0.0081192385 223:0.014163855 224:0.084326029 225:0.27863249 226:0.27863249 227:0.24528979 228:0.030516136 229:0.008410654 230:0.010590316 231:0.0079094172 232:0.0055678268 233:0.12883469 234:0.27863249 235:0.27863249 236:0.27863249 237:0.051401872 238:0.029527981 239:0.017861139 240:0.034856237 241:0.096403897 242:0.27863249 243:0.27863249 244:0.27863249 245:0.27863249 246:0.039407935 247:0.041999552 248:0.020401256 249:0.032819655 250:0.030325012 251:0.25308174 252:0.30708337 253:0.30708337 254:0.30708337 255:0.04688587 256:0.01461192 257:0.018979212 258:0.0088013168 259:0.0078203911 260:0.14182085 261:0.30708337 262:0.30708337 263:0.30708337 264:0.065352328 265:0.04188101 266:0.023340166 267:0.0091702444 268:0.018170414 269:0.12827007 270:0.30708337 271:0.30708337 272:0.29109108 273:0.023702988 274:0.051237311 275:0.017724752 276:0.021648059 277:0.018558601 278:0.15960653 279:0.1673393 280:0.13972759 281:0.15856898 282:0.012518162 283:0.049387965 284:0.0066653029 285:0.0049034501 286:0.0079360502 287:0.078414015 288:0.35198513 289:0.35198513 290:0.35198513 291:0.072127715 292:0.11410411 293:0.044152763 294:0.039983079 295:0.11337291 296:0.24340527 297:0.27386722 298:0.35198513 299:0.35198513 300:0.055455778 301:0.16728494 302:0.015906356 303:0.074109688 304:0.16628005 305:0.30247155 306:0.10768041 307:0.092209443 308:0.090839326 309:0.0044534411 310:0.052973833 311:0.011958673 312:0.0097578717 313:0.010344284 314:0.072295785 315:0.061738033 316:0.013608277 317:0.03409227 318:0.0014736778 319:0.049490843 320:0.003494882 321:0.033002552 322:0.025852343 323:0.077921875 
0.001948954915706004 0:0.068181142 1:0.057541981 2:0.099354513 3:0.0095066102 4:0.088097513 5:0.00056132866 6:0.02136497 7:0.0063450499 8:0.058199715 9:0.20212446 10:0.1437628 11:0.20421845 12:0.044194277 13:0.058430839 14:0.0027982998 15:0.053611681 16:0.043181315 17:0.1035773 18:0.18691747 19:0.32562834 20:0.32562834 21:0.17295703 22:0.23327991 23:0.015531079 24:0.044079602 25:0.095357314 26:0.17847259 27:0.32562834 28:0.32562834 29:0.32562834 30:0.2285617 31:0.1265393 32:0.042619847 33:0.10191376 34:0.12345286 35:0.23418707 36:0.21882363 37:0.1063599 38:0.24421188 39:0.063966453 40:0.07666219 41:0.0018621939 42:0.012282139 43:0.055180531 44:0.20998617 45:0.23181459 46:0.194564 47:0.26293579 48:0.096980534 49:0.14149833 50:0.00093702174 51:0.0026905658 52:0.11452252 53:0.26293579 54:0.26293579 55:0.25557315 56:0.26293579 57:0.10270389 58:0.030963989 59:0.015839124 60:0.027133081 61:0.095185056 62:0.19803482 63:0.26293579 64:0.26293579 65:0.22547509 66:0.10681651 67:0.042101726 68:0.0091666467 69:0.011488083 70:0.11338988 71:0.26293579 72:0.17909724 73:0.17267804 74:0.14940694 75:0.036608227 76:0.073922738 77:0.020819474 78:0.05861596 79:0.1247916 80:0.25086805 81:0.19398277 82:0.13146091 83:0.11158881 84:0.0313261 85:0.12455447 86:0.071694396 87:0.27272096 88:0.17841469 89:0.23342361 90:0.25237656 91:0.27272096 92:0.1517572 93:0.062215079 94:0.048580177 95:0.027523415 96:0.034613721 97:0.11463959 98:0.18323417 99:0.27272096 100:0.27272096 101:0.1965545 102:0.09096545 103:0.10075936 104:0.092706755 105:0.23199317 106:0.1490923 107:0.26023251 108:0.13970986 109:0.20032969 110:0.30893835 111:0.12919207 112:0.071955919 113:0.014871825 114:0.0070648752 115:0.045523889 116:0.076502271 117:0.32389209 118:0.25700313 119:0.1946924 120:0.056333218 121:0.025508031 122:0.016436527 123:0.013257666 124:0.030350858 125:0.076501749 126:0.3666411 127:0.3666411 128:0.17345925 129:0.087672174 130:0.02222969 131:0.012378942 132:0.0032050041 133:0.02773246 134:0.058060642 135:0.3666411 136:0.3666411 137:0.043431979 138:0.014520503 139:0.0025607923 140:0.015908545 141:0.0049385964 142:0.0084473742 143:0.092442945 144:0.32091641 145:0.23793532 146:0.046310101 147:0.015698701 148:0.0062704729 149:0.0043628206 150:0.0050785658 151:0.013890537 152:0.025912505 153:0.36018389 154:0.36018389 155:0.053950027 156:0.016105447 157:0.0083052637 158:0.0030716506 159:0.0038863281 160:0.015159949 161:0.026603021 162:0.36018389 163:0.36018389 164:0.032580972 165:0.0053253062 166:0.0025884318 167:0.004748621 168:0.0019243479 169:0.0048272335 170:0.081431143 171:0.36018389 172:0.36018389 173:0.19374797 174:0.0045020566 175:0.010682748 176:0.00015843028 177:0.0036517095 178:0.016561482 179:0.071609706 180:0.32091027 181:0.32091027 182:0.069233082 183:0.021087078 184:0.0095146075 185:0.0054004327 186:0.0023066108 187:0.035974178 188:0.068062261 189:0.32091027 190:0.32091027 191:0.10243889 192:0.04700426 193:0.021684268 194:0.015194813 195:0.014708815 196:0.06848488 197:0.12009517 198:0.32091027 199:0.32091027 200:0.22657968 201:0.0095562702 202:0.012775199 203:0.00095319253 204:0.0047299443 205:0.050683208 206:0.074080274 207:0.32091027 208:0.32091027 209:0.20590211 210:0.046950474 211:0.023219591 212:0.023319889 213:0.015357525 214:0.11109453 215:0.10473485 216:0.31102479 217:0.31102479 218:0.13000567 219:0.046659868 220:0.0097119287 221:0.014310294 222:0.014407149 223:0.041121248 224:0.13842703 225:0.31102479 226:0.31102479 227:0.15057829 228:0.029054357 229:0.013621524 230:0.018625839 231:0.0093584806 232:0.013923238 233:0.18510993 234:0.31102479 235:0.17185786 236:0.17860931 237:0.047494031 238:0.070719138 239:0.021994993 240:0.055780824 241:0.070891872 242:0.28571504 243:0.31102479 244:0.22072843 245:0.1960993 246:0.04324948 247:0.080838621 248:0.0099362936 249:0.069347426 250:0.041902866 251:0.23716164 252:0.35856223 253:0.35856223 254:0.15661934 255:0.018160546 256:0.036451664 257:0.012727068 258:0.0068019596 259:0.006510206 260:0.23339075 261:0.35856223 262:0.35856223 263:0.23927747 264:0.0018070418 265:0.064884059 267:0.014614006 268:0.026934585 269:0.16500185 270:0.29578257 271:0.29507586 272:0.1587507 273:0.029074986 274:0.10575579 275:0.0087651405 276:0.068848357 277:0.026743792 278:0.1756406 279:0.14793994 280:0.16762057 281:0.026135599 282:0.0004973475 283:0.0758316 284:0.0020075231 285:0.031454284 286:0.012940851 287:0.076555766 288:0.34389588 289:0.34389588 290:0.34389588 291:0.018877573 292:0.13670483 293:0.0033670645 294:0.035128385 295:0.13581818 296:0.24334575 297:0.34389588 298:0.34389588 299:0.34389588 300:0.078846082 301:0.14934781 302:0.06455636 303:0.070049882 304:0.17591019 305:0.25189462 306:0.10842092 307:0.086673848 308:0.032722339 309:0.0010346879 310:0.080044009 311:0.00050103758 312:0.011919846 313:0.023751317 314:0.085879788 315:0.070144661 316:0.069033772 317:0.036570251 318:0.0084452173 319:0.065264776 320:0.0075155636 321:0.02798751 322:0.024995362 323:0.073390096 
0.0003494079214663825 0:0.27502221 1:0.3137691 2:0.3137691 3:0.018040707 4:0.13426095 5:0.084327206 6:0.0068243495 7:0.080691546 8:0.10188153 9:0.29282421 10:0.2588625 11:0.3137691 12:0.012656886 13:0.052907065 14:0.01982821 15:0.0085977232 16:0.028812695 17:0.16063346 18:0.20201634 19:0.3137691 20:0.3137691 21:0.011233027 22:0.099841803 23:0.12896343 24:0.0070478227 25:0.038343228 26:0.050977308 27:0.26652393 28:0.2442839 29:0.029475672 30:0.0030464174 31:0.011348718 32:0.0026968224 33:0.0045702877 34:0.010401869 35:0.015765406 36:0.24858449 37:0.13172972 38:0.21410988 39:0.021531802 40:0.068640046 41:0.0086155897 42:0.013587469 43:0.039813757 44:0.1933887 45:0.18358018 46:0.24723105 47:0.17544517 48:0.19325227 49:0.27621132 50:0.12085538 51:0.015009054 52:0.032677174 53:0.11794276 54:0.27621132 55:0.27621132 56:0.070987687 57:0.015564582 58:0.025777422 59:0.016946854 60:0.0046319473 61:0.0054057385 62:0.014503306 63:0.27621132 64:0.27621132 65:0.27621132 66:0.27602515 67:0.27621132 68:0.13232212 69:0.0030709608 70:0.004659296 71:0.02822121 72:0.091528915 73:0.14768498 74:0.12002227 75:0.11747162 76:0.27370664 77:0.2456686 78:0.074848466 79:0.026687613 80:0.046364307 81:0.21767314 82:0.13657425 83:0.056665331 84:0.098105177 85:0.27370664 86:0.25962973 87:0.27370664 88:0.2289982 89:0.10653996 90:0.091526642 91:0.1692998 92:0.1539762 93:0.2285386 94:0.27370664 95:0.18339762 96:0.00079999951 97:0.0019381524 98:0.034221493 99:0.20699683 100:0.15196408 101:0.037928469 102:0.15127639 103:0.27370664 104:0.17925638 105:0.061401602 106:0.037582271 107:0.10020912 108:0.32723412 109:0.32723412 110:0.072854772 111:0.011804531 112:0.036985662 113:0.1024119 114:0.010064819 115:0.0063244542 116:0.059467126 117:0.32723412 118:0.32723412 119:0.021830129 120:0.004356944 121:0.0017182702 122:0.0022740795 123:0.001443006 124:0.00041329968 125:0.012262871 126:0.32723412 127:0.32723412 128:0.027236925 129:0.087743834 130:0.035105973 131:0.038408235 132:0.017932696 133:0.030774387 134:0.081804045 135:0.32723412 136:0.32723412 137:0.3051382 138:0.01645264 139:0.032436147 140:0.034906764 141:0.0026144052 142:0.00038695772 143:0.060573798 144:0.28034085 145:0.2166291 146:0.16243362 147:0.030861896 148:0.023472875 149:0.057052389 150:0.0079015093 151:3.5067267e-05 152:0.010661574 153:0.23559535 154:0.23431993 155:0.28034085 156:0.19759938 157:0.28034085 158:0.13553308 159:0.010040142 161:0.023842711 162:0.28034085 163:0.17922644 164:0.28034085 165:0.064806469 166:0.064573646 167:0.087700233 168:0.0080018248 169:0.0019392733 170:0.041297972 171:0.22805403 172:0.19897501 173:0.28034085 174:0.21351506 175:0.28034085 176:0.10315683 177:0.012058573 178:0.0053138146 179:0.048575737 180:0.12623361 181:0.16621158 182:0.21603248 183:0.26217622 184:0.26217622 185:0.050196264 186:0.0011997998 187:0.0013273375 188:0.044107966 189:0.22574209 190:0.20024939 191:0.081530288 192:0.17964526 193:0.24921808 194:0.093494765 195:0.021708727 196:0.0075233886 197:0.12268906 198:0.11135473 199:0.17854506 200:0.26217622 201:0.26217622 202:0.26217622 203:0.018655164 204:0.0052718786 205:0.0087872008 206:0.03731459 207:0.2010247 208:0.26217622 209:0.26217622 210:0.13318388 211:0.26217622 212:0.095373578 213:0.11681069 214:0.031333279 215:0.091563858 216:0.24934061 217:0.13411817 218:0.10129767 219:0.10850097 220:0.06908033 221:0.03563191 222:0.15023284 223:0.099651091 224:0.055396259 225:0.2053529 226:0.18231241 227:0.30494928 228:0.0088651916 229:0.017252818 230:0.015747648 231:0.0047087511 232:0.0082832118 233:0.040277604 234:0.27840409 235:0.15828244 236:0.2117469 237:0.10532817 238:0.13028386 239:0.11783557 240:0.30494928 241:0.30494928 242:0.13038506 243:0.26350576 244:0.21821865 245:0.30494928 246:0.008717414 247:0.06847021 248:0.016004866 249:0.21420564 250:0.095196091 251:0.14161667 252:0.10233141 253:0.11195971 254:0.34685859 255:0.027169382 256:0.049031924 257:0.032441027 258:0.0053407624 259:0.010011161 260:0.035737213 261:0.069013052 262:0.17304377 263:0.34685859 264:0.10464698 265:0.29307115 266:0.023313053 267:0.0091801966 268:0.010159233 269:0.035739709 270:0.1693105 271:0.23925301 272:0.34685859 273:0.016007513 274:0.082340576 275:0.0052889138 276:0.030010138 277:0.031441629 278:0.14616272 279:0.20300235 280:0.34685859 281:0.34685859 282:0.12577367 283:0.16778804 284:0.0060939961 285:0.11489303 286:0.057017814 287:0.12214994 288:0.024902027 289:0.11008146 290:0.31093788 291:0.084463924 292:0.2459854 293:0.0082112402 294:0.0078442227 295:0.0092664463 296:0.019759359 297:0.094021276 298:0.32291308 299:0.34153566 300:0.060618069 301:0.20510054 302:0.090680793 303:0.066906311 304:0.019478019 305:0.027148494 306:0.14325196 307:0.24104038 308:0.34153566 309:0.1216116 310:0.097105779 311:0.0069938032 312:0.081300214 313:0.026739918 314:0.065073676 315:0.1469084 316:0.34153566 317:0.34153566 318:0.1276558 319:0.12409705 320:0.046463739 321:0.05625819 322:0.024610991 323:0.077502638 
0.001743420120338602 0:0.31747028 1:0.033582035 2:0.021647194 3:0.0002227215 4:0.031067206 5:0.0040042661 6:0.024572155 7:0.026018532 8:0.31747028 9:0.31747028 10:0.2851291 11:0.019792855 12:0.001468349 13:0.10240795 14:0.0061849477 15:0.056441613 16:0.035633072 17:0.31747028 18:0.31747028 19:0.051606197 20:0.054170892 21:0.026588632 22:0.033560138 23:0.04856921 24:0.057555839 25:0.059651293 26:0.31747028 27:0.31747028 28:0.24231352 29:0.0904186 30:0.014061977 31:0.024639171 32:0.052682787 33:0.029295204 34:0.044789284 35:0.31747028 36:0.28628743 37:0.22049436 38:0.023493825 39:0.0028126175 40:0.10040075 41:0.011258897 42:0.05569702 43:0.048454411 44:0.28628743 45:0.28628743 46:0.15166876 47:0.11563399 48:0.01431168 49:0.17413841 50:0.013122784 51:0.07081604 52:0.066875607 53:0.28628743 54:0.27261633 55:0.22985332 56:0.18358274 57:0.013460816 58:0.021913212 59:0.037572071 60:0.017897168 61:0.033836924 62:0.23182234 63:0.28628743 64:0.1880894 65:0.28628743 66:0.055592827 67:0.14317556 68:0.047922868 69:0.026031781 70:0.044063702 71:0.28628743 72:0.26391056 73:0.20325284 74:0.11742542 75:0.032277633 76:0.20236456 77:0.014559349 78:0.055004753 79:0.086501233 80:0.26391056 81:0.26391056 82:0.15483162 83:0.048382148 84:0.026008561 85:0.20087768 86:0.042571913 87:0.12196223 88:0.17067924 89:0.26391056 90:0.24533091 91:0.14032553 92:0.19697623 93:0.11811966 94:0.26391056 95:0.055036511 96:0.041206326 97:0.067049146 98:0.22275828 99:0.24992234 100:0.09524738 101:0.080008201 102:0.085780464 103:0.26391056 104:0.095069587 105:0.12359157 106:0.12753201 107:0.20285733 108:0.11901765 109:0.064633541 110:0.074295625 111:0.065122038 112:0.060190991 113:0.082745083 114:0.27931172 115:0.12617601 116:0.10990652 117:0.13336673 118:0.12124328 119:0.24795556 120:0.022761393 121:0.025912037 122:0.075105369 123:0.047628175 124:0.049310349 125:0.1129725 126:0.15699805 127:0.13009065 128:0.13682923 129:0.08470691 130:0.083500214 131:0.065562628 132:0.36243188 133:0.36243188 134:0.078895733 135:0.22030893 136:0.20461895 137:0.29101631 138:0.016439887 139:0.033421949 140:0.037047014 141:0.36243188 142:0.23209667 143:0.15089746 144:0.099060953 145:0.19267869 146:0.31610909 147:0.035590198 148:0.025229769 149:0.053961243 150:0.034950916 151:0.043410234 152:0.080893189 153:0.048412904 154:0.17140535 155:0.31610909 156:0.13740918 157:0.26879033 158:0.07663928 159:0.041163314 160:0.032922573 161:0.037890937 162:0.23024139 163:0.18195859 164:0.31610909 165:0.034636751 166:0.042249314 167:0.027457861 168:0.057400137 169:0.07523714 170:0.20830804 171:0.1947203 172:0.20527993 173:0.31610909 174:0.18799862 175:0.29022422 176:0.056838397 177:0.045157194 178:0.043015737 179:0.23203897 180:0.032247361 181:0.076200753 182:0.29061833 183:0.17748208 184:0.31377727 185:0.060473017 186:0.022934176 187:0.017314589 188:0.01635314 189:0.11620827 190:0.11714574 191:0.20238228 192:0.11105773 193:0.29627001 194:0.080533192 195:0.092935473 196:0.054302957 197:0.07834781 198:0.08620473 199:0.12039305 200:0.31377727 201:0.18271239 202:0.24498545 203:0.053139303 204:0.055386625 205:0.022616062 206:0.076208584 207:0.20574647 208:0.31377727 209:0.31377727 210:0.1311104 211:0.23725224 212:0.085536726 213:0.15357277 214:0.063580766 215:0.068461627 216:0.090589702 217:0.03290486 218:0.041171659 219:0.029875077 220:0.071936466 221:0.016526669 222:0.2959134 223:0.2959134 224:0.092047468 225:0.26700598 226:0.17210336 227:0.095233537 228:0.0065219179 229:0.072673477 230:0.060515676 231:0.2959134 232:0.2959134 233:0.26408291 234:0.082760684 235:0.006975593 236:0.010834645 237:0.0013584376 238:0.095302917 239:0.0073468261 240:0.17564993 241:0.12857443 242:0.093590893 243:0.2959134 244:0.14197086 245:0.056075729 246:0.0020425245 247:0.18395364 248:0.082532182 249:0.27645841 250:0.21087559 251:0.2959134 252:0.28972295 253:0.15394299 254:0.16076308 255:0.0064674849 256:0.058631603 257:0.050059184 258:0.081821747 259:0.05808429 260:0.28972295 261:0.28972295 262:0.11512472 263:0.28972295 264:0.086926781 265:0.073055424 266:0.018087709 267:0.030166915 268:0.0300094 269:0.28972295 270:0.28972295 271:0.1731434 272:0.076348044 273:0.0013785781 274:0.14221974 275:0.066985726 276:0.11778165 277:0.070672937 278:0.28972295 279:0.28972295 280:0.11161499 281:0.092420913 282:0.059488848 283:0.19264391 284:0.012120473 285:0.058467779 286:0.056235954 287:0.28972295 288:0.24524345 289:0.17091046 290:0.29182512 291:0.18247148 292:0.073310271 293:0.039401233 294:0.096285187 295:0.028815949 296:0.24849699 297:0.2243816 298:0.29182512 299:0.29182512 300:0.12836301 301:0.086645246 302:0.055592529 303:0.13512743 304:0.041490883 305:0.07883475 306:0.29182512 307:0.15302515 308:0.2091036 309:0.13482325 310:0.19492708 311:0.018370181 312:0.069940247 313:0.041816454 314:0.29182512 315:0.18160997 316:0.10327327 317:0.26259431 318:0.059398055 319:0.094475135 320:0.017821196 321:0.064147063 322:0.014252859 323:0.079006366 
0.0005241328425196839 0:0.26174006 1:0.36047357 2:0.36047357 3:0.1020629 4:0.2244496 5:0.12094924 6:0.062438048 7:0.18278271 8:0.35117894 9:0.1647982 10:0.10775489 11:0.11972419 12:0.022582149 13:0.15272404 14:0.051763766 15:0.088644013 16:0.14588557 17:0.30913523 18:0.15325718 19:0.070036024 20:0.037297379 21:0.046588358 22:0.21315199 23:0.13122179 24:0.082554512 25:0.13781044 26:0.18908143 27:0.024536578 28:0.019009843 29:0.0078209983 30:0.002239686 31:0.0055498951 32:0.01251736 33:0.037876803 34:0.17188977 35:0.19815172 36:0.24642554 37:0.12453686 38:0.016067777 39:0.010791561 40:0.064864568 41:0.049444843 42:0.28768635 43:0.094730452 44:0.17013633 45:0.45198521 46:0.16686273 47:0.028176693 48:0.026692329 49:0.034702238 50:0.14446713 51:0.45198521 52:0.39108348 53:0.14309849 54:0.019514656 55:0.01399585 56:0.0042447774 57:0.0031666786 58:0.0042033051 59:0.0038533208 60:0.024881 61:0.10352107 62:0.10771014 63:0.034962516 64:0.055829484 65:0.065416083 66:0.040277578 67:0.034322191 68:0.034986835 69:0.30422315 70:0.14472812 71:0.091625549 72:0.056633659 73:0.030234929 74:0.018450079 75:0.011887389 76:0.02068744 77:0.030892106 78:0.33413061 79:0.27256799 80:0.019289182 81:0.013708462 82:0.013051338 83:0.021532889 84:0.0065426333 85:0.032775544 86:0.042644974 87:0.33413061 88:0.24663952 89:0.015903542 90:0.0064642942 91:0.069833316 92:0.14070921 93:0.028946288 94:0.099085331 95:0.055228282 96:0.33413061 97:0.23615102 98:0.022600621 99:0.02171549 100:0.12653911 101:0.22830567 102:0.027087653 103:0.26817295 104:0.23403154 105:0.33413061 106:0.33413061 107:0.047144696 108:0.039596029 109:0.0082341805 110:0.014943853 111:0.07324484 112:0.055139404 113:0.033229135 114:0.11095948 115:0.22869384 116:0.14061512 117:0.010229423 118:0.0043995301 119:0.0021329531 120:0.00093583908 121:0.00033269616 122:0.0027020546 123:0.014664433 124:0.12397895 125:0.09945076 126:0.056135006 127:0.0029835333 128:0.019055631 129:0.083746396 130:0.084076203 131:0.021885308 132:0.40131602 133:0.40131602 134:0.39716378 135:0.10700066 136:0.1082461 137:0.0070176697 138:0.00074577233 139:0.00032158461 140:0.0015093184 141:0.1770985 142:0.40131602 143:0.40131602 144:0.036483888 145:0.024748379 146:0.022073593 147:0.0023678897 148:0.00032066501 149:0.0071797604 150:0.021365451 151:0.099417664 152:0.099409491 153:0.068349764 154:0.18098445 155:0.30628863 156:0.043214697 157:0.076449022 158:0.026408246 159:0.031776663 160:0.072351418 161:0.1066867 162:0.23425378 163:0.31339654 164:0.14962474 165:0.0027178531 166:0.00044889768 167:0.0082756225 168:0.026736386 169:0.26905546 170:0.31339654 171:0.26848948 172:0.31339654 173:0.31339654 174:0.029287471 175:0.25941575 176:0.048599195 177:0.036934882 178:0.17715567 179:0.31339654 180:0.010487658 181:0.14485039 182:0.28753853 183:0.045778684 184:0.26400521 185:0.05465778 186:0.055648163 187:0.063710473 188:0.024095122 189:0.010897682 190:0.16158201 191:0.28753853 192:0.053193159 193:0.28753853 194:0.17605247 195:0.28753853 196:0.28753853 197:0.061036143 198:0.035007447 199:0.14619353 200:0.28753853 201:0.025398055 202:0.28753853 203:0.063188516 204:0.016754968 205:0.033075795 206:0.050212264 207:0.02643358 208:0.076154396 209:0.27554908 210:0.052972522 211:0.28753853 212:0.096475117 213:0.11078575 214:0.14594993 215:0.095219932 216:0.045200951 217:0.0049388558 218:0.0033412003 219:0.0062982207 220:0.019584913 221:0.0058197589 222:0.30170608 223:0.30170608 224:0.15425022 225:0.11183996 226:0.055575203 227:0.0018307311 228:6.0821912e-05 229:0.014316576 230:0.019279076 231:0.30170608 232:0.30170608 233:0.30170608 234:0.03969232 235:0.0091079352 236:0.0022762776 237:0.00029576701 238:0.026593901 239:0.0087598115 240:0.30170608 241:0.20757803 242:0.10424452 243:0.27017117 244:0.071800314 245:0.0051387353 246:0.00034128895 247:0.08084166 248:0.12331064 249:0.30170608 250:0.30170608 251:0.26447785 252:0.13862936 253:0.12166083 254:0.029461132 255:0.00028838307 256:0.017053127 257:0.020331316 258:0.07399787 259:0.16880962 260:0.26346129 261:0.083756998 262:0.082433186 263:0.13748476 264:0.05405261 265:0.095796943 266:0.051585726 267:0.022983124 268:0.15206777 269:0.17308675 270:0.26346129 271:0.21994057 272:0.017709445 273:0.0014148443 274:0.079918176 275:0.20054126 276:0.26346129 277:0.26346129 278:0.26346129 279:0.26346129 280:0.26346129 281:0.10399555 282:0.068125315 283:0.060157828 284:0.16390355 285:0.26346129 286:0.24653497 287:0.26346129 288:0.035065856 289:0.062541932 290:0.28039789 291:0.11420771 292:0.28303227 293:0.12724644 294:0.035328127 295:0.16123912 296:0.1039587 297:0.045082189 298:0.028866775 299:0.15178932 300:0.065696836 301:0.28303227 302:0.068556078 303:0.031239223 304:0.13592465 305:0.1301385 306:0.14964035 307:0.1972481 308:0.15113062 309:0.13103503 310:0.12502675 311:0.16672483 312:0.12566672 313:0.28303227 314:0.28303227 315:0.093912818 316:0.14684944 317:0.27873272 318:0.075215042 319:0.12712462 320:0.029479573 321:0.05359507 322:0.28303227 323:0.28303227 
