svm_type c_svc
kernel_type linear
nr_class 3
total_sv 231
rho 1.32801 8.29276 3.70451
label 1 2 -1
nr_sv 41 58 132
SV
0 0.7094515337558828 0:0.13824759 1:0.10054357 2:0.25921455 3:0.1229144 4:0.30252013 5:0.20085408 6:0.014109123 7:0.0040017786 8:0.10660097 9:0.30252013 10:0.073419347 11:0.19093825 12:0.11426862 13:0.30252013 14:0.1527797 15:0.082342975 16:0.051648542 17:0.26114154 18:0.093898229 19:0.042967532 20:0.10919378 21:0.024658969 22:0.30252013 23:0.21010698 24:0.0025668319 25:0.0054705888 26:0.078372993 27:0.20048009 28:0.066450007 29:0.19958407 30:0.037400398 31:0.30252013 32:0.16671899 33:0.058952838 34:0.049046371 35:0.16437069 36:0.22198293 37:0.089618109 38:0.14413968 39:0.102375 40:0.099934243 41:0.1493212 42:0.17828117 43:0.18589859 44:0.18486214 45:0.22125138 46:0.16222373 47:0.21506144 48:0.13187851 49:0.098728992 50:0.12226424 51:0.19466457 52:0.22137092 53:0.13165954 54:0.19803146 55:0.089163654 56:0.22251289 57:0.085362762 58:0.14191842 59:0.15879692 60:0.158245 61:0.13683228 62:0.17251645 63:0.22251289 64:0.13430364 65:0.20361674 66:0.1123561 67:0.19961244 68:0.10313761 69:0.22251289 70:0.19586894 71:0.16040005 72:0.21114382 73:0.058475912 74:0.18206212 75:0.15804419 76:0.11985 77:0.059475832 78:0.081095621 79:0.15512973 80:0.1595749 81:0.16388778 82:0.10833685 83:0.28343531 84:0.30482942 85:0.32741708 86:0.12153653 87:0.035920631 88:0.064044781 89:0.1491904 90:0.17652693 91:0.057142269 92:0.11235262 93:0.14035109 94:0.24729572 95:0.037829075 96:0.16057819 97:0.15596168 98:0.15881561 99:0.11366999 100:0.04178099 101:0.12989438 102:0.30467945 103:0.32741708 104:0.028997779 105:0.041304003 106:0.05358877 107:0.11603565 108:0.040628627 109:0.098819487 110:0.19061248 111:0.010164483 112:0.33897611 113:0.16206281 114:0.010397092 115:0.0064970208 116:0.04102248 117:0.099436134 118:0.14691743 119:0.33897611 120:0.0726851 121:0.33897611 122:0.10964377 123:0.099644974 124:0.042054929 125:0.11036107 126:0.02249885 127:0.10052712 128:0.17329985 129:0.0077184485 130:0.33897611 131:0.19005114 132:0.083614826 133:0.019164216 134:0.027361482 135:0.09197095 136:0.11576702 137:0.25544706 138:0.07919471 139:0.33845681 140:0.12055796 141:0.26018253 142:0.071492448 143:0.090439789 144:0.14549562 145:0.12678806 146:0.2420845 147:0.13115348 148:0.20995429 149:0.11114659 150:0.15137321 151:0.084712334 152:0.14372644 153:0.21805367 154:0.099754475 155:0.1166321 156:0.13576518 157:0.2420845 158:0.14975044 159:0.2420845 160:0.12882304 161:0.18939245 162:0.13745661 163:0.1111356 164:0.23170547 165:0.14140432 166:0.2233683 167:0.06908033 168:0.16767083 169:0.079918161 170:0.13476625 171:0.20520361 172:0.15954161 173:0.21557757 174:0.15262309 175:0.2420845 176:0.12449225 177:0.17330094 178:0.07799951 179:0.18949755 180:0.16209967 181:0.05354717 182:0.11343611 183:0.098848619 184:0.34731299 185:0.067042969 186:0.23019281 187:0.074268587 188:0.16943184 189:0.091453254 190:0.027849734 191:0.21281433 192:0.15767539 193:0.38371429 194:0.0096599394 195:0.041738477 196:0.013989432 197:0.10129535 198:0.15105605 199:0.096896358 200:0.17205724 201:0.12404125 202:0.38371429 203:0.059195004 204:0.099785253 205:0.028160401 206:0.13140184 207:0.060758267 208:0.042038288 209:0.22511154 210:0.17412302 211:0.38371429 212:0.010124323 213:0.011169596 214:0.0015303532 215:0.057956316 216:0.027358117 217:0.058950122 218:0.15078284 219:0.071683973 220:0.35192049 221:0.12734623 222:0.098544955 223:0.022865467 224:0.046493839 225:0.063159108 226:0.052666947 227:0.24702725 228:0.14194682 229:0.35192049 230:0.10719467 231:0.24350551 232:0.064260736 233:0.098936714 234:0.037498187 235:0.12834978 236:0.30118093 237:0.16877952 238:0.35192049 239:0.13785575 240:0.036933426 241:0.031992044 242:0.092708476 243:0.04643435 244:0.11961647 245:0.30669779 246:0.1485371 247:0.25168103 248:0.058315337 249:0.059900388 250:0.027511358 251:0.14439134 252:0.10719995 253:0.08079724 254:0.27806047 255:0.20596807 256:0.27806047 257:0.062428635 258:0.14044943 259:0.073624767 260:0.15791215 261:0.1583342 262:0.13376722 263:0.27806047 264:0.17595473 265:0.27806047 266:0.07038001 267:0.089267917 268:0.075288191 269:0.1726163 270:0.091531329 271:0.068887286 272:0.19552478 273:0.1468647 274:0.27806047 275:0.049056735 276:0.050559036 277:0.05669912 278:0.18818237 279:0.19866109 280:0.046024129 281:0.16623862 282:0.13304417 283:0.27806047 284:0.04653763 285:0.10002824 286:0.12368275 287:0.25628144 288:0.082134262 289:0.071582928 290:0.1527279 291:0.099842519 292:0.38590306 293:0.036177997 294:0.031326972 295:0.023310144 296:0.057892233 297:0.03952039 298:0.044656441 299:0.10977703 300:0.11685195 301:0.38590306 302:0.010635315 303:0.0020163686 304:0.0062585031 305:0.033752479 306:0.12148236 307:0.078879938 308:0.17844285 309:0.1201814 310:0.38590306 311:0.037373535 312:0.040236361 313:0.043865327 314:0.11004034 315:0.078698881 316:0.19447592 317:0.38590306 318:0.18510583 319:0.38590306 320:0.036713693 321:0.0035584969 322:0.021119164 323:0.072338916 
0 0.1161844894437999 0:0.037119064 1:0.016380852 2:0.029745784 3:0.050186839 4:0.37198642 5:0.12162111 6:0.25658366 7:0.09050519 8:0.045124803 9:0.054057907 10:0.040041089 11:0.13476931 12:0.08036162 13:0.37198642 14:0.11382008 15:0.24657623 16:0.094908006 17:0.055651844 18:0.01532297 19:0.0029064701 20:0.0019708148 21:0.01299691 22:0.37198642 23:0.10985999 24:0.24990937 25:0.071804121 26:0.01817967 27:0.038600352 28:0.0088175982 29:0.043541636 30:0.039217629 31:0.37198642 32:0.11174645 33:0.34816524 34:0.10545106 35:0.040297545 36:0.079200558 37:0.048706032 38:0.14794232 39:0.07332474 40:0.32684985 41:0.05295781 42:0.1865472 43:0.10235656 44:0.077162683 45:0.08455614 46:0.018876199 47:0.052744184 48:0.042353515 49:0.34073296 50:0.090934232 51:0.34073296 52:0.14286138 53:0.072213463 54:0.10677922 55:0.035173506 56:0.13171452 57:0.05369176 58:0.34073296 59:0.048956387 60:0.18341503 61:0.066342674 62:0.10517036 63:0.15421438 64:0.040386625 65:0.12466726 66:0.040936265 67:0.34073296 68:0.1411494 69:0.34073296 70:0.082268476 71:0.14020874 72:0.029677158 73:0.013879783 74:0.038799763 75:0.041580215 76:0.38211781 77:0.14764461 78:0.38211781 79:0.10294782 80:0.024994109 81:0.0080329208 82:0.0095603801 83:0.020760175 84:0.011359136 85:0.24373893 86:0.056779254 87:0.095922425 88:0.015896508 89:0.0080329208 90:0.046181843 91:0.0093804318 92:0.029842587 93:0.053835053 94:0.38211781 95:0.30996701 96:0.38211781 97:0.066805638 98:0.038963675 99:0.0028765174 100:0.002502454 101:0.0074313986 102:0.029264204 103:0.38211781 104:0.15264405 105:0.15277243 106:0.016460568 107:0.0030157934 108:0.0020768708 109:0.0003937427 110:2.2020524e-05 111:0.022171874 112:0.4098714 113:0.054379966 114:0.1585404 115:0.05312128 116:0.0019172591 117:0.037950434 118:0.02100575 119:0.066005066 120:0.046005052 121:0.4098714 122:0.11689679 123:0.26831862 124:0.092783712 125:0.033408649 126:0.0075486586 127:0.0011190107 128:2.624497e-05 129:0.046289954 130:0.4098714 131:0.11094285 132:0.082980514 133:0.034025434 134:0.0072929985 135:0.061164051 136:0.044602964 137:0.10157871 138:0.11046164 139:0.4098714 140:0.24909256 141:0.25642782 142:0.09023387 143:0.04441911 144:0.12182344 145:0.05473718 146:0.16172262 147:0.038918197 148:0.30817011 149:0.043895796 150:0.15239523 151:0.052761901 152:0.10860892 153:0.18749318 154:0.045136452 155:0.14161193 156:0.033288922 157:0.30817011 158:0.099669963 159:0.27716234 160:0.071726225 161:0.17698251 162:0.11047659 163:0.094687983 164:0.21100795 165:0.065803647 166:0.30817011 167:0.07800328 168:0.24245308 169:0.08143115 170:0.081190035 171:0.17195748 172:0.068002626 173:0.18377902 174:0.02856206 175:0.30817011 176:0.043611433 177:0.30817011 178:0.10532391 179:0.15928166 180:0.0696209 181:0.0058414 182:0.022646565 183:0.043950062 184:0.37907121 185:0.22710247 186:0.28258437 187:0.043807469 188:0.064967252 189:0.017619716 190:0.0016593611 191:0.0023649959 192:0.028508846 193:0.37907121 194:0.14955261 195:0.1536286 196:0.024257062 197:0.017459016 198:0.11038097 199:0.01677545 200:0.059992135 201:0.044087585 202:0.37907121 203:0.099875711 204:0.30272609 205:0.089910872 206:0.096548051 207:0.057236806 208:0.023253292 209:0.027272604 210:0.048020579 211:0.37907121 212:0.084075406 213:0.2534084 214:0.10236017 215:0.053711668 216:0.011696929 217:0.0049617677 218:7.4952717e-05 219:0.023089793 220:0.33665246 221:0.070700042 222:0.083779871 223:0.017352941 224:0.011238012 225:0.055089436 226:0.040419254 227:0.059880443 228:0.10491687 229:0.43087712 230:0.17591733 231:0.36774227 232:0.070219569 233:0.038561948 234:0.019447355 235:0.0057459199 236:0.0057246983 237:0.01588094 238:0.24848749 239:0.03229649 240:0.067448333 241:0.0230795 242:0.023695687 243:0.057674635 244:0.028627714 245:0.036650635 246:0.11641229 247:0.43087712 248:0.13570623 249:0.43087712 250:0.10211667 251:0.058151748 252:0.10047001 253:0.10728383 254:0.21706107 255:0.099233836 256:0.34184912 257:0.0771323 258:0.27925932 259:0.06582696 260:0.062874429 261:0.11110517 262:0.1058419 263:0.28739578 264:0.07757438 265:0.34184912 266:0.047710169 267:0.17548829 268:0.06089554 269:0.087393947 270:0.085508451 271:0.07476224 272:0.14855528 273:0.12676771 274:0.34184912 275:0.097400293 276:0.34184912 277:0.085274518 278:0.066801079 279:0.10415359 280:0.074026227 281:0.20245753 282:0.10843514 283:0.20405051 284:0.053302921 285:0.083988264 286:0.032755777 287:0.088503197 288:0.057524215 289:0.022760645 290:0.075422153 291:0.048454572 292:0.39876288 293:0.062094744 294:0.20925947 295:0.085802466 296:0.045051236 297:0.04577278 298:0.031481326 299:0.045295123 300:0.056915782 301:0.39876288 302:0.064482264 303:0.23073938 304:0.12084398 305:0.042612299 306:0.051315609 307:0.015268255 308:0.055620354 309:0.05145904 310:0.39876288 311:0.10076249 312:0.17497638 313:0.046403542 314:0.045170449 315:0.050440092 316:0.035703521 317:0.048193611 318:0.078068785 319:0.39876288 320:0.15916982 321:0.32628065 322:0.095559321 323:0.046260308 
0 0.3778044640482946 0:0.038077533 1:0.05941027 2:0.12968525 3:0.1779941 4:0.27544162 5:0.2159498 6:0.20158888 7:0.18223198 8:0.05401396 9:0.11097158 10:0.067835219 11:0.1613114 12:0.13590661 13:0.21483912 14:0.16987163 15:0.13520953 16:0.069235981 17:0.063773453 18:0.052910954 19:0.054980963 20:0.13540076 21:0.14210506 22:0.27544162 23:0.27544162 24:0.25440764 25:0.03143451 26:0.071807824 27:0.059207793 28:0.15359458 29:0.27544162 30:0.19018397 31:0.27544162 32:0.27016896 33:0.15309614 34:0.026386416 35:0.04308188 36:0.20187376 37:0.09572085 38:0.24392705 39:0.12275033 40:0.1338452 41:0.11672086 42:0.14925461 43:0.13752913 44:0.16043484 45:0.23291406 46:0.096345641 47:0.19766095 48:0.12120542 49:0.1527971 50:0.11228254 51:0.20972015 52:0.2446852 53:0.20636955 54:0.15215844 55:0.16618277 56:0.26550633 57:0.19908416 58:0.1622612 59:0.088798687 60:0.071821518 61:0.067940332 62:0.081717908 63:0.19145818 64:0.18102437 65:0.26550633 66:0.1989595 67:0.19147614 68:0.11519291 69:0.093116589 70:0.12703773 71:0.094323061 72:0.089006126 73:0.054099854 74:0.090919554 75:0.086041719 76:0.21875824 77:0.16609758 78:0.28515643 79:0.16437721 80:0.078191228 81:0.095744692 82:0.035044339 83:0.044571497 84:0.091963775 85:0.28515643 86:0.26448232 87:0.28515643 88:0.089561529 89:0.083078794 90:0.10124129 91:0.10617276 92:0.20873165 93:0.15690137 94:0.28515643 95:0.13661891 96:0.15335687 97:0.080299407 98:0.037830923 99:0.10192167 100:0.032718491 101:0.077155016 102:0.14490895 103:0.28515643 104:0.28515643 105:0.28515643 106:0.048452325 107:0.08131998 108:0.065674268 109:0.025187567 110:0.066677324 111:0.084826186 112:0.33127105 113:0.21336426 114:0.23816413 115:0.032452129 116:0.074141167 117:0.029551534 118:0.055260751 119:0.13981691 120:0.14499138 121:0.33127105 122:0.19386333 123:0.32140473 124:0.074514285 125:0.032993734 126:0.036296718 127:0.0093916757 128:0.019597199 129:0.062174886 130:0.33127105 131:0.075464368 132:0.20120651 133:0.045679979 134:0.038546607 135:0.023948612 136:0.06159253 137:0.1121089 138:0.13165195 139:0.33127105 140:0.11703059 141:0.33127105 142:0.15427002 143:0.058384135 144:0.076185167 145:0.10392517 146:0.2273559 147:0.1522661 148:0.20427677 149:0.10251683 150:0.1782283 151:0.089655563 152:0.053490527 153:0.15435687 154:0.20237771 155:0.27660206 156:0.15499692 157:0.11566741 158:0.095720954 159:0.068749219 160:0.1094842 161:0.098848477 162:0.062134359 163:0.23815744 164:0.27660206 165:0.11917628 166:0.23340869 167:0.099363796 168:0.26964834 169:0.13910539 170:0.10951269 171:0.16509071 172:0.27660206 173:0.27660206 174:0.16057336 175:0.097487107 176:0.093581609 177:0.075789295 178:0.089536995 179:0.19681194 180:0.1368718 181:0.10363164 182:0.18848173 183:0.11595097 184:0.21175608 185:0.091012046 186:0.090089664 187:0.068323098 188:0.081200287 189:0.088707052 190:0.020174386 191:0.055126894 192:0.15703179 193:0.30604252 194:0.25847045 195:0.25585321 196:0.075848691 197:0.078174829 198:0.14795591 199:0.1438794 200:0.30604252 201:0.12967451 202:0.18041728 203:0.10858965 204:0.07844995 205:0.073573701 206:0.18114562 207:0.094309323 208:0.020604968 209:0.07553529 210:0.1981619 211:0.30604252 212:0.30604252 213:0.2482547 214:0.10341816 215:0.12842764 216:0.0060892277 217:0.0047842283 218:0.0076776566 219:0.065869123 220:0.36430976 221:0.05859229 222:0.15368488 223:0.032629009 224:0.0067479759 225:0.053712789 226:0.13808335 227:0.19907224 228:0.1487921 229:0.36430976 230:0.14217539 231:0.2457561 232:0.092046 233:0.079105623 234:0.0085735423 235:0.0014353297 236:0.016346997 237:0.11332724 238:0.36430976 239:0.15015192 240:0.089853242 241:0.018635623 242:0.0039361035 243:0.11122192 244:0.12417001 245:0.13360724 246:0.19986157 247:0.36430976 248:0.29586089 249:0.15782119 250:0.058809835 251:0.090229005 252:0.10129745 253:0.28155735 254:0.28155735 255:0.1039582 256:0.28155735 257:0.1298957 258:0.11911315 259:0.079791002 260:0.14448959 261:0.17667718 262:0.28155735 263:0.28155735 264:0.16177887 265:0.1402887 266:0.15841585 267:0.086601757 268:0.063418657 269:0.18543603 270:0.14033523 271:0.18884854 272:0.22942583 273:0.089420371 274:0.28155735 275:0.13996281 276:0.08076974 277:0.061655309 278:0.13896731 279:0.18026865 280:0.14983378 281:0.1287692 282:0.072785236 283:0.10803571 284:0.10241804 285:0.096356444 286:0.065315291 287:0.12782604 288:0.17030695 289:0.23988084 290:0.26667807 291:0.15815221 292:0.16844425 293:0.16041766 294:0.054297894 295:0.047585499 296:0.21928124 297:0.098620877 298:0.060487293 299:0.077793255 300:0.21819711 301:0.34938344 302:0.34858006 303:0.2371785 304:0.058973119 305:0.149427 306:0.1531212 307:0.15635632 308:0.073102646 309:0.065323845 310:0.058840901 311:0.055544075 312:0.043300416 313:0.039977785 314:0.1192084 315:0.071085356 316:0.073956564 317:0.054986384 318:0.16290441 319:0.34938344 320:0.21614486 321:0.12573512 322:0.018494004 323:0.083585739 
0 0.1471691331316055 0:0.085857101 1:0.07865914 2:0.14196615 3:0.10596716 4:0.31497866 5:0.081049979 6:0.012555227 7:0.011760742 8:0.097054176 9:0.17455243 10:0.21815668 11:0.31497866 12:0.016636429 13:0.041905444 14:0.012942238 15:0.016443145 16:0.018984472 17:0.22259435 18:0.091998108 19:0.159179 20:0.30189675 21:0.17258586 22:0.31497866 23:0.14075343 24:0.042047519 25:0.034282226 26:0.077597655 27:0.20576783 28:0.31497866 29:0.31497866 30:0.084795758 31:0.2021621 32:0.045903407 33:0.058358721 34:0.046827354 35:0.16588186 36:0.26547855 37:0.17436489 38:0.26547855 39:0.013419038 40:0.027231561 41:0.012232045 42:0.018036384 43:0.023476556 44:0.26547855 45:0.26547855 46:0.051358566 47:0.071631417 48:0.014106441 49:0.092958026 50:0.055377003 51:0.13856171 52:0.085330315 53:0.26547855 54:0.25967658 55:0.20735404 56:0.26547855 57:0.080386445 58:0.12171812 59:0.052238137 60:0.1159498 61:0.063174352 62:0.2383669 63:0.26547855 64:0.080507308 65:0.17326212 66:0.075369909 67:0.21746233 68:0.11495067 69:0.19340989 70:0.078920513 71:0.26547855 72:0.10111078 73:0.0064736893 74:0.0091089141 75:0.011782872 76:0.40806961 77:0.11199363 78:0.10910884 79:0.067775764 80:0.1263897 81:0.06753584 82:0.0068465206 83:0.017902223 84:0.0089196889 85:0.40806961 86:0.097442865 87:0.011326483 88:0.010119338 89:0.067763917 90:0.10705893 91:0.034062453 92:0.044493474 93:0.071939625 94:0.40806961 95:0.23418471 96:0.11175936 97:0.04211859 98:0.13155672 99:0.1136804 100:0.040592652 101:0.085507549 102:0.061337773 103:0.40806961 104:0.29121146 105:0.12767191 106:0.091740705 107:0.11685933 108:0.095270723 109:0.058013774 110:0.12524888 111:0.16285215 112:0.26776642 113:0.17279942 114:0.0802968 115:0.041479956 116:0.053385306 117:0.14952241 118:0.14893748 119:0.26776642 120:0.12065555 121:0.25476089 122:0.059284672 123:0.092546053 124:0.091335624 125:0.075625837 126:0.25578278 127:0.02075991 128:0.044591472 129:0.26776642 130:0.26776642 131:0.25211579 132:0.10835948 133:0.027221728 134:0.17614077 135:0.26776642 136:0.16560021 137:0.2366181 138:0.22035126 139:0.14977325 140:0.070319295 141:0.10641158 142:0.1289596 143:0.17592299 144:0.16867645 145:0.13002847 146:0.24439287 147:0.1032266 148:0.17511849 149:0.095241956 150:0.13065667 151:0.094543681 152:0.1299881 153:0.18883045 154:0.07395032 155:0.13998169 156:0.105102 157:0.14801243 158:0.14615004 159:0.22184215 160:0.1072188 161:0.1625284 162:0.24439287 163:0.16201811 164:0.24439287 165:0.19497648 166:0.1025036 167:0.14934926 168:0.15259995 169:0.10308225 170:0.17823969 171:0.24439287 172:0.071687944 173:0.11035508 174:0.19954364 175:0.1016096 176:0.24439287 177:0.24439287 178:0.09178336 179:0.24439287 180:0.067620039 181:0.029879205 182:0.024887256 183:0.070292287 184:0.29194853 185:0.18142152 186:0.17126626 187:0.060723554 188:0.052993439 189:0.083214425 190:0.029542128 191:0.042289384 192:0.07415022 193:0.29194853 194:0.27695593 195:0.19673742 196:0.079618603 197:0.072588295 198:0.22909948 199:0.01668022 200:0.010904271 201:0.13770282 202:0.2562606 203:0.29194853 204:0.22416563 205:0.099822775 206:0.12838539 207:0.1736691 208:0.037929628 209:0.034911193 210:0.1861327 211:0.29194853 212:0.29194853 213:0.23212603 214:0.054793037 215:0.10238143 216:0.23697589 217:0.025149155 218:0.029311704 219:0.26706472 220:0.27450791 221:0.1309475 222:0.16895446 223:0.041246913 224:0.16804463 225:0.27450791 226:0.14680611 227:0.13970624 228:0.10786893 229:0.065947361 230:0.050084215 231:0.073090434 232:0.068708964 233:0.16903232 234:0.16291425 235:0.030800566 236:0.02356944 237:0.12525417 238:0.27450791 239:0.27450791 240:0.27450791 241:0.14565958 242:0.10036761 243:0.27450791 244:0.15973771 245:0.11978474 246:0.10259521 247:0.20083399 248:0.12275293 249:0.13058423 250:0.096104562 251:0.18766941 252:0.26085898 253:0.21748497 254:0.12374954 255:0.10507431 256:0.038570654 257:0.093480177 258:0.11967629 259:0.11756337 260:0.16622941 261:0.26085898 262:0.11988447 263:0.05040988 264:0.10956771 265:0.048390538 266:0.14558429 267:0.14803168 268:0.11348205 269:0.26085898 270:0.26085898 271:0.22895579 272:0.12200636 273:0.078506127 274:0.14459275 275:0.068261139 276:0.11118453 277:0.16440612 278:0.26085898 279:0.26085898 280:0.15459634 281:0.08623223 282:0.082277521 283:0.12942018 284:0.10798721 285:0.18598384 286:0.23371896 287:0.26085898 288:0.26096225 289:0.030606557 290:0.022331273 291:0.084323376 292:0.16422871 293:0.18349549 294:0.11321079 295:0.085904576 296:0.15594205 297:0.16269511 298:0.040188204 299:0.041361693 300:0.15566047 301:0.27536407 302:0.27536407 303:0.25612393 304:0.075618513 305:0.089124486 306:0.27536407 307:0.055727202 308:0.097116195 309:0.097789422 310:0.14243418 311:0.07085219 312:0.10298065 313:0.084153034 314:0.20746091 315:0.24014112 316:0.029960547 317:0.065649904 318:0.21376501 319:0.27536407 320:0.23297887 321:0.27536407 322:0.1004446 323:0.1481846 
0 0.9137231591989297 0:0.045487463 1:0.034485187 2:0.11261292 3:0.14898589 4:0.33474681 5:0.055818934 6:0.029778618 7:0.0094588967 8:0.042599976 9:0.071445391 10:0.09603484 11:0.23826875 12:0.19775686 13:0.33474681 14:0.12281451 15:0.046828024 16:0.023849426 17:0.077659786 18:0.10632863 19:0.075501122 20:0.25100198 21:0.20456763 22:0.33474681 23:0.091553129 24:0.049494132 25:0.022524763 26:0.10773987 27:0.070730686 28:0.20130718 29:0.33474681 30:0.22260723 31:0.33474681 32:0.10224739 33:0.050397702 34:0.036246065 35:0.063709848 36:0.15072218 37:0.13897105 38:0.28852019 39:0.069097899 40:0.12801367 41:0.042665258 42:0.027233562 43:0.025795652 44:0.11937727 45:0.28852019 46:0.1877382 47:0.28852019 48:0.05433334 49:0.047884673 50:0.0090265702 51:0.02211388 52:0.03011179 53:0.28852019 54:0.1470014 55:0.22881331 56:0.28852019 57:0.13495228 58:0.16745923 59:0.032877833 60:0.055438943 61:0.03162472 62:0.081420422 63:0.28852019 64:0.21606253 65:0.28852019 66:0.13857287 67:0.14678119 68:0.026320713 69:0.1430877 70:0.066198193 71:0.21630645 72:0.29946342 73:0.096328013 74:0.10935101 75:0.047522459 76:0.1216175 77:0.032426953 78:0.080831103 79:0.038883567 80:0.29946342 81:0.12282596 82:0.085476018 83:0.16926017 84:0.15813148 85:0.29946342 86:0.17029831 87:0.083759278 88:0.019581376 89:0.10515597 90:0.29946342 91:0.10109995 92:0.12919901 93:0.14668 94:0.21600895 95:0.039723828 96:0.096218154 97:0.058231007 98:0.21426526 99:0.1402985 100:0.10087061 101:0.20603301 102:0.29946342 103:0.29946342 104:0.2188163 105:0.055372506 106:0.03050445 107:0.092946365 108:0.087829769 109:0.071994312 110:0.20746891 111:0.17307781 112:0.29709002 113:0.14261226 114:0.032988515 115:0.031695601 116:0.097521268 117:0.079596505 118:0.13580993 119:0.29709002 120:0.12662415 121:0.29709002 122:0.081650741 123:0.050010711 124:0.053600453 125:0.090190656 126:0.087275222 127:0.077503212 128:0.29709002 129:0.28410369 130:0.29709002 131:0.20258121 132:0.026471458 133:0.02569437 134:0.10054272 135:0.088394612 136:0.12335934 137:0.23602994 138:0.15765984 139:0.29709002 140:0.095206246 141:0.059823666 142:0.05353738 143:0.15058124 144:0.14219336 145:0.15767631 146:0.2553528 147:0.073970728 148:0.18321744 149:0.022737779 150:0.057691522 151:0.039336037 152:0.11374446 153:0.2553528 154:0.15585984 155:0.2553528 156:0.10729278 157:0.22558966 158:0.049583875 159:0.13950782 160:0.060189698 161:0.15350288 162:0.15472852 163:0.15892582 164:0.2553528 165:0.073415704 166:0.2330142 167:0.065294355 168:0.097384498 169:0.063580431 170:0.21211037 171:0.2553528 172:0.22316042 173:0.2553528 174:0.10493932 175:0.2553528 176:0.11527593 177:0.1380216 178:0.066436291 179:0.18311249 180:0.18370095 181:0.082963489 182:0.12392993 183:0.12040848 184:0.25835875 185:0.05049444 186:0.080738291 187:0.04709474 188:0.10029665 189:0.083497688 190:0.07247445 191:0.21073677 192:0.24203007 193:0.32000697 194:0.14506496 195:0.041383889 196:0.034939047 197:0.059482127 198:0.1892329 199:0.10960536 200:0.20763439 201:0.14628296 202:0.32000697 203:0.12162752 204:0.11476206 205:0.052419916 206:0.084247537 207:0.084509067 208:0.074730076 209:0.32000697 210:0.32000697 211:0.32000697 212:0.10640152 213:0.062292583 214:0.037336245 215:0.063300669 216:0.096502699 217:0.10425082 218:0.20681348 219:0.20357856 220:0.23439984 221:0.10235991 222:0.01101964 223:0.014592178 224:0.062190358 225:0.14362039 226:0.11834862 227:0.10910915 228:0.10818314 229:0.12372712 230:0.059606738 231:0.067239583 232:0.043153122 233:0.094727896 234:0.28550857 235:0.28550857 236:0.28550857 237:0.28550857 238:0.28499821 239:0.10864826 240:0.01541544 241:0.072904557 242:0.19929458 243:0.28550857 244:0.23539208 245:0.092410967 246:0.093931533 247:0.09777689 248:0.036851227 249:0.065910563 250:0.12345877 251:0.28550857 252:0.15991808 253:0.12569867 254:0.098078929 255:0.052151546 256:0.08909294 257:0.080652677 258:0.09451849 259:0.059251763 260:0.11944915 261:0.25796652 262:0.15833721 263:0.15147823 264:0.047298342 265:0.07760372 266:0.11557527 267:0.10141892 268:0.093313187 269:0.15895523 270:0.31257719 271:0.30644265 272:0.060289074 273:0.048255041 274:0.061530836 275:0.06746456 276:0.083736375 277:0.13389218 278:0.31257719 279:0.31257719 280:0.31257719 281:0.14180133 282:0.053886708 283:0.062915251 284:0.09831579 285:0.06323339 286:0.24344368 287:0.31257719 288:0.18273552 289:0.060116328 290:0.14134957 291:0.063617371 292:0.14771084 293:0.14634508 294:0.078767337 295:0.065860294 296:0.10978071 297:0.087309949 298:0.036053106 299:0.24159665 300:0.15615115 301:0.27565721 302:0.14134656 303:0.05075372 304:0.036347482 305:0.064350016 306:0.27565721 307:0.26617321 308:0.27565721 309:0.061345555 310:0.21483104 311:0.18089874 312:0.061264809 313:0.14769024 314:0.27565721 315:0.17132227 316:0.11510053 317:0.27565721 318:0.11356684 319:0.27565721 320:0.18097977 321:0.081266977 322:0.067673795 323:0.12759848 
0.2430188496747785 0 0:0.13521183 1:0.12661901 2:0.26134092 3:0.11390278 4:0.13504502 5:0.023483695 6:0.05545646 7:0.033615336 8:0.15040472 9:0.22881019 10:0.26490343 11:0.26490343 12:0.070298284 13:0.057738595 14:0.0037762292 15:0.016828446 16:0.01641589 17:0.25651723 18:0.10776135 19:0.2314007 20:0.13694139 21:0.25217995 22:0.26490343 23:0.13193843 24:0.26490343 25:0.071620367 26:0.082591191 27:0.18213564 28:0.26490343 29:0.25786307 30:0.15543613 31:0.17225912 32:0.080387846 33:0.12147722 34:0.034570269 35:0.074184604 36:0.25721121 37:0.27274722 38:0.27274722 39:0.073542126 40:0.02687062 41:6.2861873e-05 42:0.00038151906 43:0.017103661 44:0.23683709 45:0.22988176 46:0.27274722 47:0.23409991 48:0.10749637 49:0.1537261 50:0.14052635 51:0.15617837 52:0.067717388 53:0.17735727 54:0.23778816 55:0.27274722 56:0.23655033 57:0.023883212 58:0.015476375 59:0.0042963265 60:0.00093403016 61:0.0093862293 62:0.082179323 63:0.25044137 64:0.27274722 65:0.24568629 66:0.10988638 67:0.085383266 68:0.032448061 69:0.065749891 70:0.030879948 71:0.068432733 72:0.089386553 73:0.20316094 74:0.058583032 75:0.12926368 76:0.26895651 77:0.26895651 78:0.26895651 79:0.086518809 80:0.0536713 81:0.025803337 82:0.027186248 83:0.0073534497 84:0.063699901 85:0.26895651 86:0.11818091 87:0.21171534 88:0.031619236 89:0.022969844 90:0.12698685 91:0.26895651 92:0.13582958 93:0.26895651 94:0.26895651 95:0.14723846 96:0.26895651 97:0.02920818 98:0.028238628 99:0.078740604 100:0.068884514 101:0.044486675 102:0.18521141 103:0.26895651 104:0.13742565 105:0.26895651 106:0.020860307 107:0.062266823 108:0.065753445 109:0.13234343 110:0.036220819 111:0.14079317 112:0.25838423 113:0.2425503 114:0.25838423 115:0.093304582 116:0.045684937 117:0.17205362 118:0.25838423 119:0.075087972 120:0.09291368 121:0.25838423 122:0.23550083 123:0.20236869 124:0.074152328 125:0.057314806 126:0.036090646 127:0.04350945 128:0.0089881616 129:0.011639033 130:0.25838423 131:0.21893109 132:0.21113716 133:0.082818896 134:0.025836516 135:0.11813188 136:0.25208786 137:0.058722664 138:0.010906518 139:0.25838423 140:0.25838423 141:0.25838423 142:0.1192629 143:0.0539326 144:0.29104748 145:0.29104748 146:0.21131378 147:0.020247798 148:0.034356229 149:0.038083386 150:0.023888716 151:0.046563376 152:0.11084951 153:0.29104748 154:0.29104748 155:0.21575935 156:0.11222778 157:0.085993752 158:0.043376327 159:0.065994516 160:0.053045847 161:0.098021634 162:0.19894151 163:0.29104748 164:0.23801669 165:0.044090252 166:0.15088302 167:0.13808767 168:0.11768457 169:0.10583929 170:0.10329197 171:0.17052874 172:0.2835286 173:0.26052353 174:0.095326334 175:0.16312267 176:0.089564241 177:0.082415357 178:0.1027085 179:0.10723025 180:0.16742209 181:0.2658273 182:0.1042781 183:0.25870228 184:0.2658273 185:0.20607734 186:0.19458807 187:0.015445629 188:0.053653099 189:0.092270568 190:0.064747989 191:0.070388526 192:0.20469789 193:0.2658273 194:0.2658273 195:0.23814356 196:0.016146883 197:0.074465297 198:0.080511175 199:0.1193735 200:0.10343703 201:0.13245125 202:0.2658273 203:0.13599563 204:0.15892515 205:0.038317226 206:0.061270848 207:0.072573721 208:0.037233423 209:0.05649206 210:0.17157619 211:0.2658273 212:0.22161503 213:0.2648662 214:0.026147794 215:0.069389701 216:0.0076468452 217:0.01461997 218:0.00065537856 219:0.036806043 220:0.31692979 221:0.16432744 222:0.16392942 223:0.073003083 224:0.0052542849 225:0.084559605 226:0.12292807 227:0.051588714 228:0.10004603 229:0.31692979 230:0.31692979 231:0.31692979 232:0.21273696 233:0.050164938 234:0.0037003604 235:0.036527395 236:0.010782134 237:0.078098916 238:0.23730814 239:0.07435777 240:0.089421101 241:0.053518206 242:0.0045917514 243:0.083426796 244:0.11105867 245:0.041584454 246:0.19816177 247:0.31692979 248:0.25372607 249:0.31692979 250:0.20340534 251:0.06533388 252:0.11339898 253:0.18020944 254:0.14833766 255:0.097321108 256:0.26538566 257:0.17715612 258:0.2119111 259:0.13553397 260:0.10347161 261:0.12845927 262:0.22190148 263:0.26538566 264:0.12118433 265:0.16160673 266:0.096574932 267:0.038422558 268:0.094268516 269:0.11449814 270:0.18687665 271:0.22638299 272:0.13733944 273:0.10274538 274:0.26538566 275:0.12437943 276:0.17027354 277:0.13871133 278:0.13003278 279:0.26538566 280:0.26538566 281:0.26538566 282:0.059825022 283:0.12017247 284:0.056865364 285:0.064736232 286:0.10884067 287:0.14055362 288:0.12141937 289:0.24592723 290:0.22692509 291:0.091825537 292:0.24545321 293:0.071858004 294:0.074398048 295:0.052440241 296:0.048388857 297:0.11968521 298:0.18867604 299:0.20757207 300:0.11711922 301:0.27232662 302:0.16193202 303:0.20353602 304:0.032234542 305:0.057967801 306:0.26487765 307:0.27232662 308:0.27232662 309:0.032911725 310:0.10134649 311:0.04481072 312:0.092824511 313:0.080423519 314:0.059943348 315:0.18305096 316:0.27232662 317:0.27232662 318:0.042570796 319:0.27232662 320:0.044229753 321:0.12504846 322:0.045624185 323:0.07177227 
0 1 0:0.0046515423 1:0.0049342276 2:0.014430207 3:0.051458653 4:0.48345232 5:0.031766795 6:8.8493871e-05 7:0.00018192662 8:0.0046616336 9:0.066585697 10:0.023592327 11:0.068838559 12:0.089853846 13:0.48345232 14:0.042820204 15:0.0062379967 16:0.002276541 17:0.061622508 18:0.0019397235 19:0.00010759581 20:0.001067489 21:0.040335353 22:0.48345232 23:0.030621283 24:0.053095911 25:0.019713642 26:0.0015975947 27:0.016352283 28:0.007735543 29:0.023064036 30:0.079284102 31:0.48345232 32:0.047823779 33:0.12426005 34:0.04532117 35:0.012214462 36:0.12873361 37:0.023161417 38:0.077815093 39:0.048971426 40:0.42084065 41:0.011823458 42:0.034256257 43:0.012965725 44:0.11310529 45:0.077743813 46:0.0090297228 47:0.019975532 48:0.022711772 49:0.51865047 50:0.043562815 51:0.04444081 52:0.017871933 53:0.064829245 54:0.034054879 55:0.016374005 56:0.050254602 57:0.049355164 58:0.44041166 59:0.022253493 60:0.061959654 61:0.022996275 62:0.032393679 63:0.051048823 64:0.0083370442 65:0.02088332 66:0.037019923 67:0.51865047 68:0.10406286 69:0.02565857 70:0.010096933 71:0.045929331 72:0.021067837 73:0.013594238 74:0.018693529 75:0.018782463 76:0.60506099 77:0.046417505 78:0.010746927 79:0.003269501 80:0.018236274 81:0.0060707107 82:0.0090316189 83:0.012505187 84:0.0059100487 85:0.32193178 86:0.010093018 87:0.00090136251 89:0.0060707107 90:0.039737295 91:0.0044612507 92:0.0051822825 93:0.039468225 94:0.60506099 95:0.12031353 96:0.009752335 97:0.0015131371 98:0.03691474 99:0.019312216 100:0.0021739798 101:0.0031544089 102:0.0086816819 103:0.36522233 104:0.019595552 105:0.0010751669 107:0.019312216 108:0.0030129706 109:1.9797675e-05 110:0.0011532395 111:0.018471621 112:0.47719297 113:0.024794508 114:0.10360764 115:0.03534263 116:0.0025905466 117:0.015376809 118:0.0071285134 119:0.012841976 120:0.044983182 121:0.47719297 122:0.03747157 123:0.22895075 124:0.078426331 125:0.0076402477 126:0.0017357188 128:0.00021607745 129:0.0036613906 130:0.47719297 131:0.0045896368 132:0.036633268 133:0.011120993 134:0.0016238813 135:0.0069595953 136:0.0017374471 137:0.0024424039 138:0.013723672 139:0.47719297 140:0.0064947894 141:0.080599487 142:0.024793893 143:0.0035249316 144:0.030078106 145:0.019755503 146:0.029802673 147:0.034553692 148:0.4606958 149:0.019863235 150:0.093431398 151:0.032600224 152:0.01561476 153:0.036369402 154:0.012721935 155:0.016968241 156:0.040326755 157:0.4606958 158:0.19710451 159:0.13545756 160:0.040755354 161:0.024956571 162:0.013828671 163:0.0054709464 164:0.0056767007 165:0.0098331124 166:0.4606958 167:0.0041839047 168:0.031653296 169:0.010765487 170:0.0053044073 171:0.017211176 172:0.0074079563 173:0.012620228 174:0.050341994 175:0.4606958 176:0.16666673 177:0.18656559 178:0.049935665 179:0.010510134 180:0.021858724 181:0.0049025719 182:0.010768992 183:0.048791993 184:0.48076078 185:0.23108964 186:0.15967301 187:0.047133975 188:0.019355627 189:0.010950176 190:0.0012530549 191:0.0053735184 192:0.015133563 193:0.28421652 194:0.054935858 195:0.035988305 196:0.010655721 197:0.010941745 198:0.013253154 199:0.0039039319 200:0.017889531 201:0.10363197 202:0.48076078 203:0.22771342 204:0.23407242 205:0.06025283 206:0.011697638 207:0.0075982353 208:0.00099647639 209:0.010085485 210:0.049265269 211:0.48076078 212:0.064961985 213:0.053801171 214:0.013700213 215:0.0075617041 216:0.0022987449 218:0.00059135107 219:0.010436167 220:0.47325873 221:0.023435444 222:0.026961954 223:0.0037255853 224:0.0022987449 225:0.0033742872 226:0.00024047124 227:0.0016350804 228:0.023099139 229:0.47325873 230:0.09808106 231:0.10276646 232:0.016338756 233:0.003311123 234:0.0017853801 236:0.01135366 237:0.020710392 238:0.33705503 239:0.066803202 240:0.076078869 241:0.0081962878 242:0.0017853801 243:0.013443998 244:0.0018073051 245:0.023022428 246:0.058254879 247:0.47325873 248:0.29414582 249:0.29062137 250:0.035868257 251:0.0083834128 252:0.0032325981 253:0.0018356785 254:0.0020692952 255:0.0085510137 256:0.4303405 257:0.059099015 258:0.059266914 259:0.011063238 260:0.0025047918 261:0.0071016164 262:0.0043639503 263:0.005695112 264:0.02662315 265:0.4303405 266:0.044868223 267:0.062866755 268:0.012193399 269:0.0057372944 270:0.10247131 271:0.0081622498 272:0.0090385536 273:0.027488723 274:0.4303405 275:0.1835065 276:0.16746528 277:0.024432773 278:0.084474578 279:0.25210917 280:0.021994488 281:0.028585806 282:0.0076313568 283:0.4303405 284:0.044938836 285:0.20127605 286:0.017152395 287:0.22835535 288:0.0065127946 289:0.0047833878 290:0.0059816441 291:0.04454606 292:0.449543 293:0.066545613 294:0.084779948 295:0.011771198 296:0.0061898376 297:0.0039895969 298:0.003284914 299:0.0034838666 300:0.020474579 301:0.449543 302:0.026938966 303:0.030717622 304:0.0034085847 305:0.0039795227 306:0.084860772 307:0.027278548 308:0.047952615 309:0.0084936423 310:0.449543 311:0.082051851 312:0.34654608 313:0.02031121 314:0.078148842 315:0.0074051274 316:0.014494439 317:0.022376848 318:0.0024507402 319:0.449543 320:0.042547353 321:0.15736942 322:0.0082305139 323:0.0065347743 
0 1 0:0.0065059364 1:0.015358222 2:0.033604667 3:0.026704304 4:0.45349231 5:0.032521501 6:9.3764884e-06 7:6.4518434e-05 8:0.006441277 9:0.021357846 10:0.075868726 11:0.15576921 12:0.096210614 13:0.45349231 14:0.076527469 15:0.00072594819 16:0.0015877939 17:0.013802103 18:0.010220906 19:0.024239147 20:0.095416181 21:0.099595316 22:0.45349231 23:0.034536157 24:3.2383661e-05 25:1.2071847e-05 26:0.010216922 27:0.025192652 28:0.058762345 29:0.21645473 30:0.21497329 31:0.45349231 32:0.073172063 33:0.0034564203 34:0.00094647909 35:0.017694589 36:0.053295337 37:0.10477027 38:0.19868818 39:0.11009019 40:0.43506464 41:0.053112354 42:0.0036122992 43:0.0047904882 44:0.035370052 45:0.071696572 46:0.038503125 47:0.11149698 48:0.084551476 49:0.43506464 50:0.055641379 51:0.038657293 52:0.016704049 53:0.065433532 54:0.052943628 55:0.055031829 56:0.14640717 57:0.14996167 58:0.43506464 59:0.069529437 60:0.02070904 61:0.0098928548 62:0.031845883 63:0.060218263 64:0.056351855 65:0.15846318 66:0.17881636 67:0.43506464 68:0.098229587 69:0.020985371 70:0.012162393 71:0.058287013 72:0.016249517 73:0.006223903 74:0.10198667 75:0.11422542 76:0.46523258 77:0.047754928 78:0.015541515 79:0.0050509772 80:0.014021331 81:0.00060230208 82:0.0026985852 83:0.075091787 84:0.083784103 85:0.46523258 86:0.024844442 87:0.0010172055 88:0.00011321071 89:0.0005593386 90:0.01266377 91:0.048450477 92:0.16399507 93:0.19199242 94:0.46523258 95:0.080862962 96:0.0036494408 97:0.0021960596 98:0.013197269 99:0.00047019299 100:0.021308456 101:0.074402489 102:0.092566356 103:0.46523258 104:0.047474351 105:0.00012851323 106:0.00029314961 107:0.00061507523 108:0.0033864779 109:0.023850137 110:0.080881268 111:0.10428453 112:0.46370941 113:0.040934701 114:4.7403817e-05 115:3.8427912e-05 116:0.0033933364 117:0.0098995743 118:0.05503583 119:0.18515036 120:0.20543954 121:0.46370941 122:0.062377743 123:0.0049802596 124:0.0021516653 125:0.0083244517 126:0.00036785126 127:0.0017097933 128:0.013838589 129:0.071054742 130:0.46370941 131:0.065303311 132:0.00037215406 133:9.8480152e-05 134:0.00038828485 135:0.0066982219 136:0.00849983 137:0.034068998 138:0.11376405 139:0.46370941 140:0.09028893 141:0.0058368896 142:0.0048886808 143:0.0060949004 144:0.03051118 145:0.040568784 146:0.11657358 147:0.11636581 148:0.45959768 149:0.042363431 150:0.027347516 151:0.016544186 152:0.02182604 153:0.042167287 154:0.054984756 155:0.16317961 156:0.16327007 157:0.45959768 158:0.083224885 159:0.031736564 160:0.019903911 161:0.043164529 162:0.027143676 163:0.035832223 164:0.051740859 165:0.060630832 166:0.45959768 167:0.049402442 168:0.019598998 169:0.018236628 170:0.021505935 171:0.034988828 172:0.046130273 173:0.058471568 174:0.13491158 175:0.45959768 176:0.097241379 177:0.036368445 178:0.018233998 179:0.033664271 180:0.0088536683 181:0.05206709 182:0.20613445 183:0.20575806 184:0.45911357 185:0.083321005 186:0.010663089 187:0.0044946852 188:0.011777914 189:0.0014421807 190:0.022297852 191:0.097501598 192:0.098258145 193:0.45911357 194:0.041726805 195:0.0042920141 196:0.0015469294 197:0.0014978002 198:0.012193525 199:0.012295623 200:0.048979752 201:0.13984941 202:0.45911357 203:0.090448767 204:0.015012295 205:0.0047508581 206:0.013027307 207:0.0053704712 208:0.0037242176 209:0.026600594 210:0.054089572 211:0.45911357 212:0.037590761 213:0.0063205892 214:0.0018070184 215:0.005350404 216:0.00047987959 217:0.013387277 218:0.11170337 219:0.11194061 220:0.4550676 221:0.032343354 222:0.00057886494 223:0.00050465832 224:0.00087605731 225:0.0071414919 226:0.022607584 227:0.14841637 228:0.15381056 229:0.4550676 230:0.048354551 231:0.0057668462 232:0.0055129258 233:0.0085330429 234:0.00052139658 235:0.01740386 236:0.13462956 237:0.12342371 238:0.4550676 239:0.0021716242 240:0.00019947492 241:0.00084251468 242:0.001266852 243:0.0064316853 244:0.026451103 245:0.17439863 246:0.16493042 247:0.4550676 248:0.0051508131 249:0.001761644 250:0.0035861537 251:0.00907085 252:0.024294147 253:0.034108873 254:0.060339019 255:0.053476188 256:0.42104858 257:0.029086193 258:0.012271342 259:0.012477415 260:0.019335497 261:0.027324598 262:0.061417472 263:0.17218699 264:0.19366308 265:0.48894969 266:0.090159237 267:0.024465008 268:0.012124559 269:0.01928664 270:0.020082626 271:0.023083469 272:0.054447651 273:0.053790923 274:0.24531101 275:0.0055407607 276:0.0038639088 277:0.0063113268 278:0.01679904 279:0.02441626 280:0.065474138 281:0.25487402 282:0.31944183 283:0.48894969 284:0.096067071 285:0.008339732 286:0.008740657 287:0.019775454 288:0.013838567 289:0.044225588 290:0.1594186 291:0.21403773 292:0.45295843 293:0.085293636 294:0.0079713939 295:0.0034030667 296:0.012883377 297:0.0074245976 298:0.012242341 299:0.039474409 300:0.065742463 301:0.45295843 302:0.029888218 303:0.0014152849 304:0.00034512134 305:0.0073894435 306:0.017731579 307:0.062079005 308:0.25334972 309:0.31741008 310:0.45295843 311:0.087712377 312:0.0022830321 313:0.0024914178 314:0.018137168 315:0.010451184 316:0.018548803 317:0.063996971 318:0.084429778 319:0.32040128 320:0.021339722 321:1.2389182e-05 322:5.6340949e-05 323:0.010454184 
0 1 0:0.00029170184 1:0.00014082275 2:0.0007810964 3:0.033155035 4:0.49357292 5:0.030966571 6:0.00023425752 7:0.00067516003 8:0.00046131102 9:0.0047494108 10:0.0080247214 11:0.017004078 12:0.056438792 13:0.49357292 14:0.055340696 15:0.0097762253 16:0.0096437642 17:0.011836604 18:0.00095256901 19:0.00061023189 20:5.2073086e-05 21:0.041080568 22:0.49357292 23:0.037101053 24:0.00037003306 25:0.00027526036 26:0.0013212888 27:0.011977897 28:0.010667175 29:0.0086271828 30:0.066776834 31:0.49357292 32:0.058224719 33:0.0065786075 34:0.0076609654 35:0.015844164 36:0.040794436 37:0.048546061 38:0.10167518 39:0.064275719 40:0.45003819 41:0.10601874 42:0.074360289 43:0.036136493 44:0.076307714 45:0.093088016 46:0.024237933 47:0.055961259 48:0.052875277 49:0.45003819 50:0.070518292 51:0.099769913 52:0.03805076 53:0.11332378 54:0.066298902 55:0.072969854 56:0.092440344 57:0.087398373 58:0.45003819 59:0.078741655 60:0.059361704 61:0.035033491 62:0.078546986 63:0.10517278 64:0.051260669 65:0.10549621 66:0.066183075 67:0.45003819 68:0.070017032 69:0.085676983 70:0.0489746 71:0.10824409 72:0.015092906 73:0.0021601771 74:0.0019689179 75:0.017475085 76:0.4979274 77:0.013186531 78:0.011735996 79:0.0057502836 80:0.019076953 81:0.0020555563 82:0.00075669482 83:0.0002693733 84:0.0093403999 85:0.4979274 86:0.0053413366 87:0.00094451464 88:0.00048604622 89:0.0024326784 90:0.013915154 91:0.0049695647 92:0.0095357196 93:0.017507046 94:0.4979274 95:0.024440164 96:0.0083528776 97:0.0084580528 98:0.017103624 99:0.0013333015 100:0.0013611384 101:0.0015543329 102:0.0084514776 103:0.4979274 104:0.013876592 105:0.00025814332 106:0.0010563124 107:0.0020080484 108:0.0023410504 109:0.0012713529 110:0.0070303772 111:0.051029887 112:0.45401397 113:0.047735739 114:0.00029425655 115:6.6728724e-05 116:0.002342232 117:0.028992137 118:0.0095464084 119:0.026717588 120:0.083271973 121:0.45401397 122:0.092045709 123:0.0068332874 124:0.0052313278 125:0.029326875 126:0.006438578 127:0.015363032 128:0.16427833 129:0.089273803 130:0.45401397 131:0.055322509 132:0.0042615598 133:0.001420629 134:0.0064144512 135:0.059064709 136:0.026114522 137:0.23436682 138:0.15959331 139:0.45401397 140:0.14179908 141:0.038978584 142:0.010274551 143:0.057984911 144:0.092546619 145:0.06830553 146:0.087021753 147:0.075555712 148:0.32411113 149:0.081140287 150:0.035078645 151:0.020483991 152:0.089023583 153:0.093797199 154:0.073605336 155:0.12856947 156:0.075598709 157:0.32411113 158:0.054132774 159:0.069075562 160:0.069377176 161:0.10238605 162:0.17340071 163:0.11758882 164:0.25852686 165:0.15823466 166:0.32411113 167:0.1694207 168:0.07091476 169:0.0237203 170:0.17276773 171:0.1622293 172:0.18283693 173:0.32411113 174:0.19638242 175:0.32411113 176:0.10991139 177:0.11626561 178:0.097459979 179:0.1899164 180:0.020798532 181:0.012815429 182:0.092509843 183:0.065010898 184:0.44757348 185:0.013329837 186:0.018014343 187:0.01813036 188:0.028392922 189:0.0037213441 190:0.0058519873 191:0.062759914 192:0.038797598 193:0.44757348 194:0.0051181754 195:0.00077099825 196:0.00070676848 197:0.004349295 198:0.039233353 199:0.043684229 200:0.26905096 201:0.20520815 202:0.44757348 203:0.020793865 204:0.041088112 205:0.026354447 206:0.049057413 207:0.0049019004 208:0.021847211 209:0.18159498 210:0.13008197 211:0.44757348 212:0.008944666 213:0.0027172461 214:0.00056442147 215:0.005399242 216:0.018965714 217:0.024686662 218:0.1525403 219:0.058956776 220:0.44551513 221:0.04483078 222:0.011161666 223:0.0044820281 224:0.019377649 225:0.053916607 226:0.029280961 227:0.20535763 228:0.093439892 229:0.44551513 230:0.10587179 231:0.096800067 232:0.032287579 233:0.059668299 234:0.043225497 235:0.046272568 236:0.11559426 237:0.070344359 238:0.44551513 239:0.074038401 240:0.020458605 241:0.0082085878 242:0.041517388 243:0.089320064 244:0.033829305 245:0.11278383 246:0.058800209 247:0.44551513 248:0.099797323 249:0.11642036 250:0.052012321 251:0.099962577 252:0.11927909 253:0.061042298 254:0.18952407 255:0.070265979 256:0.34962881 257:0.095685281 258:0.13584051 259:0.050205283 260:0.12562981 261:0.10870375 262:0.093173236 263:0.24815857 264:0.11541325 265:0.34962881 266:0.06562259 267:0.062993772 268:0.034457024 269:0.1242829 270:0.19450893 271:0.046163589 272:0.15037864 273:0.042069495 274:0.34962881 275:0.048604991 276:0.18588892 277:0.085450917 278:0.20557193 279:0.19098344 280:0.060828399 281:0.17331252 282:0.11440468 283:0.34962881 284:0.054799475 285:0.063543707 286:0.039521713 287:0.19946021 288:0.026820948 289:0.03237636 290:0.12942694 291:0.17211387 292:0.46906352 293:0.041648183 294:0.025899464 295:0.013215791 296:0.032016691 297:0.001977599 298:0.009467165 299:0.061542731 300:0.10168794 301:0.46906352 302:0.028026627 303:0.0022020822 304:0.0011930828 305:0.0017875578 306:0.030091317 307:0.029762745 308:0.09047401 309:0.14875887 310:0.46906352 311:0.074766122 312:0.0018531427 313:0.0090862606 314:0.03712989 315:0.00074006733 316:0.0049460498 317:0.018246545 318:0.077241525 319:0.46906352 320:0.054586302 321:0.00017768306 322:0.0014624097 323:0.0014724276 
0.1271239931478995 1 0:0.035346072 1:0.087586775 2:0.21800061 3:0.09901154 4:0.30724618 5:0.093527347 6:0.16540161 7:0.05457009 8:0.047875553 9:0.16169964 10:0.26597133 11:0.30724618 12:0.041399218 13:0.048212126 14:0.015977906 15:0.030063674 16:0.036787346 17:0.16680358 18:0.067865662 19:0.07806889 20:0.19567728 21:0.12548488 22:0.30724618 23:0.12100782 24:0.30724618 25:0.10600249 26:0.093000293 27:0.13504028 28:0.26874322 29:0.30724618 30:0.10162542 31:0.19011658 32:0.040960178 33:0.12603958 34:0.099624351 35:0.1495299 36:0.25171262 37:0.16170843 38:0.25171262 39:0.039065067 40:0.057426058 41:0.021202 42:0.07420823 43:0.050794091 44:0.25171262 45:0.23162501 46:0.045619532 47:0.096708879 48:0.039860427 49:0.25171262 50:0.05305412 51:0.24357869 52:0.10871472 53:0.22988458 54:0.22628391 55:0.19303291 56:0.25171262 57:0.10883474 58:0.17145127 59:0.060328025 60:0.1517794 61:0.094373889 62:0.15733109 63:0.2351118 64:0.067603983 65:0.13922457 66:0.073043682 67:0.25171262 68:0.077360384 69:0.25171262 70:0.11007669 71:0.16812235 72:0.061643805 73:0.012941989 74:0.016924754 75:0.061444882 76:0.32120246 77:0.10805051 78:0.28559771 79:0.10439177 80:0.061740469 81:0.023899848 82:0.014887789 83:0.022969941 84:0.05017953 85:0.32120246 86:0.079873055 87:0.1672242 88:0.06239431 89:0.035764616 90:0.058718611 91:0.021230558 92:0.039309237 93:0.091631748 94:0.32120246 95:0.19780257 96:0.32120246 97:0.13504079 98:0.063313991 99:0.072411381 100:0.053985223 101:0.08662276 102:0.15333843 103:0.32120246 104:0.26512074 105:0.32120246 106:0.15947472 107:0.091238156 108:0.093643092 109:0.022891944 110:0.027833421 111:0.15701443 112:0.2831535 113:0.067496575 114:0.23149064 115:0.069773838 116:0.088267796 117:0.14773992 118:0.073826872 119:0.16783851 120:0.11869336 121:0.13859682 122:0.03483304 123:0.091721378 124:0.046503704 125:0.13614556 126:0.25019717 127:0.032701794 128:0.046177186 129:0.2831535 130:0.2831535 131:0.12485217 132:0.2831535 133:0.077263355 134:0.19373684 135:0.2831535 136:0.14318401 137:0.086641394 138:0.2271421 139:0.23280625 140:0.063387319 141:0.16455971 142:0.041606486 143:0.2831535 144:0.18977959 145:0.1013997 146:0.22697045 147:0.15551402 148:0.12530769 149:0.069441602 150:0.11069997 151:0.055210806 152:0.15918413 153:0.19823684 154:0.069786407 155:0.076557323 156:0.082725964 157:0.18887961 158:0.12459481 159:0.27324644 160:0.12219749 161:0.1948799 162:0.27324644 163:0.22657785 164:0.11547357 165:0.12858446 166:0.074503675 167:0.083076812 168:0.1293003 169:0.035134997 170:0.27324644 171:0.27324644 172:0.21494624 173:0.076972038 174:0.064509906 175:0.060516044 176:0.12518965 177:0.27304429 178:0.13422723 179:0.27324644 180:0.073916741 181:0.014539385 182:0.010273686 183:0.04268495 184:0.22365277 185:0.15323012 186:0.24341021 187:0.10325905 188:0.093118601 189:0.080125995 190:0.017172985 191:0.030985279 192:0.08449094 193:0.26605186 194:0.20850314 195:0.24125013 196:0.15257935 197:0.083520204 198:0.26180607 199:0.063904561 200:0.021550564 201:0.014972765 202:0.13659602 203:0.17749615 204:0.21233869 205:0.17123057 206:0.26605186 207:0.19295885 208:0.022828551 209:0.034859166 210:0.049396466 211:0.26605186 212:0.26605186 213:0.26605186 214:0.24123272 215:0.19875838 216:0.11857984 217:0.030055618 218:0.040834401 219:0.1492682 220:0.25611091 221:0.12529497 222:0.25611091 223:0.10423408 224:0.10926788 225:0.25611091 226:0.1402124 227:0.043423064 228:0.080239989 229:0.25611091 230:0.0932566 231:0.17443028 232:0.13479058 233:0.21085016 234:0.047376845 235:0.019560898 236:0.03012481 237:0.046581049 238:0.25611091 239:0.18084806 240:0.25611091 241:0.19862138 242:0.069018595 243:0.1491735 244:0.084650829 245:0.050688937 246:0.042337932 247:0.25611091 248:0.23418006 249:0.25611091 250:0.25611091 251:0.16944543 252:0.2578651 253:0.21845192 254:0.064051986 255:0.025072675 256:0.051348876 257:0.042322963 258:0.0983437 259:0.10644532 260:0.2578651 261:0.2578651 262:0.15528423 263:0.086009279 264:0.035413865 265:0.027718393 266:0.046101369 267:0.17390932 268:0.19336782 269:0.2578651 270:0.2578651 271:0.10981116 272:0.071578674 273:0.050637577 274:0.12322889 275:0.11699317 276:0.19294883 277:0.21205693 278:0.2578651 279:0.2578651 280:0.055379279 281:0.0718977 282:0.07916718 283:0.051185291 284:0.057986446 285:0.2578651 286:0.2578651 287:0.2578651 288:0.22632235 289:0.094332121 290:0.064764492 291:0.040596999 292:0.085735984 293:0.065531738 294:0.11900609 295:0.15058324 296:0.24224757 297:0.19556494 298:0.068551414 299:0.045882218 300:0.20395973 301:0.27979586 302:0.1979614 303:0.27979586 304:0.16709164 305:0.17513719 306:0.22579992 307:0.076257147 308:0.093972549 309:0.086359434 310:0.039283689 311:0.032983519 312:0.11868981 313:0.15319878 314:0.21211118 315:0.18265389 316:0.097225823 317:0.081207097 318:0.27979586 319:0.27979586 320:0.065148555 321:0.27979586 322:0.12419939 323:0.14445052 
0 1 0:0.13654764 1:0.0069582816 2:0.26332349 3:0.12693107 4:0.30854234 5:0.17964825 6:0.010562261 7:0.068137266 8:0.1869162 9:0.27404788 10:0.060383316 11:0.13472416 12:0.088312753 13:0.22924644 14:0.16003625 15:0.060607117 16:0.22351348 17:0.30854234 18:0.071035564 19:0.026571028 20:0.20985167 21:0.22870257 22:0.30854234 23:0.13512212 24:0.021041557 25:0.02474376 26:0.086941734 27:0.15877762 28:0.10231239 29:0.12249203 30:0.093632177 31:0.24401608 32:0.13312195 33:0.061305318 34:0.0930508 35:0.14359282 36:0.22615084 37:0.087823667 38:0.10672483 39:0.098366626 40:0.089354202 41:0.15157586 42:0.14717747 43:0.22770749 44:0.22770749 45:0.22770749 46:0.11748407 47:0.22770749 48:0.12896115 49:0.070562549 50:0.14797451 51:0.17998339 52:0.16617543 53:0.22479801 54:0.19283886 55:0.096023865 56:0.12699212 57:0.14655244 58:0.19475026 59:0.16554746 60:0.14442462 61:0.144549 62:0.17315504 63:0.22770749 64:0.10009251 65:0.1713628 66:0.14960194 67:0.17293485 68:0.14191763 69:0.19474331 70:0.12412409 71:0.22770749 72:0.19686134 73:0.11642759 74:0.19413115 75:0.15971705 76:0.1248033 77:0.091359317 78:0.11090689 79:0.049429476 80:0.15335608 81:0.17893468 82:0.11112903 83:0.3284643 84:0.33434445 85:0.33434445 86:0.073437132 87:0.02935371 88:0.019685671 89:0.15625435 90:0.16691346 91:0.071959294 92:0.11259151 93:0.14139153 94:0.25936222 95:0.073492929 96:0.14387108 97:0.068574741 98:0.14592426 99:0.085004166 100:0.046394438 101:0.1794222 102:0.2555421 103:0.33434445 104:0.025766168 105:0.035121121 106:0.014835847 107:0.07896284 108:0.060480271 109:0.049835827 110:0.2076017 111:0.23194687 112:0.30994079 113:0.18095328 114:0.031945579 115:0.030772714 116:0.066631988 117:0.15772209 118:0.12653579 119:0.24447194 120:0.10046112 121:0.26562825 122:0.098565862 123:0.079626992 124:0.098611124 125:0.13464074 126:0.068666019 127:0.061755773 128:0.13400902 129:0.11310883 130:0.30994079 131:0.22530448 132:0.15917714 133:0.071574561 134:0.077679642 135:0.21930075 136:0.062287975 137:0.18604241 138:0.11156243 139:0.27635497 140:0.073558778 141:0.24716218 142:0.15583751 143:0.21129976 144:0.16328573 145:0.12375583 146:0.1940136 147:0.14506447 148:0.23500338 149:0.11110729 150:0.11470561 151:0.10577837 152:0.14865817 153:0.20460579 154:0.12390768 155:0.17285155 156:0.1500801 157:0.23500338 158:0.12198129 159:0.18059503 160:0.11447453 161:0.23500338 162:0.22261631 163:0.084412478 164:0.22052759 165:0.13983606 166:0.23500338 167:0.058743294 168:0.10319773 169:0.085315235 170:0.1830045 171:0.1932268 172:0.13334821 173:0.23500338 174:0.13417657 175:0.23500338 176:0.088530473 177:0.17276017 178:0.1318281 179:0.16940418 180:0.17045289 181:0.097990967 182:0.096759245 183:0.10243043 184:0.30423918 185:0.09480226 186:0.13865508 187:0.072850414 188:0.15663901 189:0.08676216 190:0.046702538 191:0.14926793 192:0.19821726 193:0.37872893 194:0.024534781 195:0.031964995 196:0.020483293 197:0.08353243 198:0.11171059 199:0.089953236 200:0.15683308 201:0.11052218 202:0.37872893 203:0.082994565 204:0.11038969 205:0.08889129 206:0.10770407 207:0.090762727 208:0.10007024 209:0.29789186 210:0.23557843 211:0.37872893 212:0.07464797 213:0.021714594 214:0.029369049 215:0.10548575 216:0.082071647 217:0.068775706 218:0.19754241 219:0.14872371 220:0.31976512 221:0.13365552 222:0.20148012 223:0.083289787 224:0.096489765 225:0.20543912 226:0.043869585 227:0.23110645 228:0.12699886 229:0.30972797 230:0.081308089 231:0.28947031 232:0.15965888 233:0.20541596 234:0.11902086 235:0.071507961 236:0.12441225 237:0.13241303 238:0.31976512 239:0.12709881 240:0.079283684 241:0.030684462 242:0.095913239 243:0.17675804 244:0.085026331 245:0.20558718 246:0.1086923 247:0.21249063 248:0.086667553 249:0.10951287 250:0.072841786 251:0.17295705 252:0.23829374 253:0.075576022 254:0.27079934 255:0.16207148 256:0.27079934 257:0.050846476 258:0.13814557 259:0.068609476 260:0.18481977 261:0.18480299 262:0.16279164 263:0.27079934 264:0.17906769 265:0.27079934 266:0.040094614 267:0.1138692 268:0.067194477 269:0.12547925 270:0.18853684 271:0.034221243 272:0.18124117 273:0.1088857 274:0.27079934 275:0.040747631 276:0.11551894 277:0.050845619 278:0.1518712 279:0.19060016 280:0.098332174 281:0.25944507 282:0.13463736 283:0.25480908 284:0.029010078 285:0.10291187 286:0.05754647 287:0.14351642 288:0.055400569 289:0.071208887 290:0.16232547 291:0.10724056 292:0.40869328 293:0.055802099 294:0.054852743 295:0.038397718 296:0.052755125 297:0.092448987 298:0.050698951 299:0.15219124 300:0.16005942 301:0.40869328 302:0.14446305 303:0.026611332 304:0.02663059 305:0.087080434 306:0.050890092 307:0.063651741 308:0.13330984 309:0.092882283 310:0.40869328 311:0.087289028 312:0.039521035 313:0.037716333 314:0.057537332 315:0.080739781 316:0.032136552 317:0.12943265 318:0.18405662 319:0.40869328 320:0.25404373 321:0.049772918 322:0.036917962 323:0.090243012 
0.1404079512572123 1 0:0.045056779 1:0.052750122 2:0.23790213 3:0.21230282 4:0.3081353 5:0.06337925 6:0.024811199 7:0.0072664744 8:0.044498108 9:0.036585085 10:0.093525782 11:0.3081353 12:0.17368867 13:0.3081353 14:0.051899277 15:0.0067370855 16:0.0078011053 17:0.040919524 18:0.076543294 19:0.045140646 20:0.25695276 21:0.29668638 22:0.3081353 23:0.11992764 24:0.034450103 25:0.026008438 26:0.082912438 27:0.077917136 28:0.12226865 29:0.3081353 30:0.20559001 31:0.3081353 32:0.091489643 33:0.041099187 34:0.0210477 35:0.10250115 36:0.11813235 37:0.13258347 38:0.27403972 39:0.022248147 40:0.059933349 41:0.012591717 42:0.0043531745 43:0.01228569 44:0.13690519 45:0.27403972 46:0.1582489 47:0.27403972 48:0.018432183 49:0.046928693 50:0.012643405 51:0.023672424 52:0.02267094 53:0.27403972 54:0.1855817 55:0.20057099 56:0.27403972 57:0.062434152 58:0.18337707 59:0.043199759 60:0.041808583 61:0.042247225 62:0.23286077 63:0.27403972 64:0.27403972 65:0.27403972 66:0.044816781 67:0.17300087 68:0.070865557 69:0.11768802 70:0.12346154 71:0.27403972 72:0.29524165 73:0.064576358 74:0.11274903 75:0.029836599 76:0.097835094 77:0.0068908921 78:0.16389617 79:0.054304793 80:0.29524165 81:0.24751057 82:0.049016919 83:0.11026176 84:0.086840533 85:0.29524165 86:0.026954139 87:0.19169302 88:0.061856359 89:0.19669324 90:0.27952477 91:0.14763297 92:0.20168658 93:0.072529517 94:0.22697148 95:0.057043243 96:0.15617481 97:0.091891192 98:0.24485216 99:0.1784285 100:0.10794437 101:0.16097282 102:0.14131625 103:0.29524165 104:0.12070066 105:0.11419769 106:0.043111913 107:0.12474671 108:0.084180824 109:0.087175533 110:0.2914131 111:0.22919093 112:0.2940242 113:0.12348044 114:0.036447763 115:0.049005158 116:0.089303695 117:0.089242034 118:0.081476063 119:0.24996012 120:0.14700429 121:0.2940242 122:0.078281224 123:0.074956961 124:0.043578483 125:0.11082955 126:0.10389666 127:0.23712166 128:0.29231673 129:0.18612663 130:0.2940242 131:0.12508292 132:0.02598143 133:0.04844949 134:0.10895135 135:0.15488794 136:0.15338734 137:0.13723224 138:0.17443497 139:0.27818576 140:0.068493851 141:0.076183811 142:0.059054602 143:0.16793142 144:0.15456644 145:0.083827086 146:0.23271517 147:0.073093064 148:0.22089781 149:0.065391101 150:0.11555172 151:0.074348748 152:0.18522362 153:0.1959368 154:0.12451366 155:0.23271517 156:0.057000261 157:0.225491 158:0.097764395 159:0.17106846 160:0.11215181 161:0.23271517 162:0.19177471 163:0.089785494 164:0.14311841 165:0.16447595 166:0.19061184 167:0.14020011 168:0.19553694 169:0.078644253 170:0.18124071 171:0.23271517 172:0.055862047 173:0.22501877 174:0.13620202 175:0.21238722 176:0.18828647 177:0.19525184 178:0.091448732 179:0.23271517 180:0.12516592 181:0.12364849 182:0.22586961 183:0.050363753 184:0.22651291 185:0.067113668 186:0.12127061 187:0.063528299 188:0.13224436 189:0.083574645 190:0.14394489 191:0.20855899 192:0.10360368 193:0.33184028 194:0.13965712 195:0.060715239 196:0.031192865 197:0.063424885 198:0.16519131 199:0.068446256 200:0.23418747 201:0.094312668 202:0.28229579 203:0.15157083 204:0.15595682 205:0.11042424 206:0.20583108 207:0.079507999 208:0.11189178 209:0.33184028 210:0.16341043 211:0.33184028 212:0.15615068 213:0.12309074 214:0.083279006 215:0.10190052 216:0.098418109 217:0.18758005 218:0.25053909 219:0.17266227 220:0.25792164 221:0.034558047 222:0.0091758762 223:0.045972195 224:0.12417933 225:0.17007323 226:0.1536926 227:0.14227605 228:0.11024901 229:0.10078858 230:0.03528697 231:0.022181619 232:0.050827019 233:0.19259542 234:0.25497922 235:0.2139881 236:0.25792164 237:0.25515309 238:0.25192803 239:0.097059399 240:0.067536563 241:0.061555542 242:0.25792164 243:0.25792164 244:0.22470824 245:0.16026467 246:0.1166563 247:0.074318096 248:0.083819799 249:0.077546567 250:0.080780752 251:0.25792164 252:0.19126387 253:0.12719913 254:0.1647502 255:0.12410298 256:0.086324245 257:0.097547188 258:0.11410729 259:0.047102179 260:0.21145475 261:0.26354083 262:0.063632749 263:0.15364912 264:0.079203501 265:0.072815023 266:0.13238981 267:0.16079061 268:0.076558307 269:0.26857457 270:0.26857457 271:0.25895268 272:0.1725377 273:0.089689367 274:0.077413775 275:0.064274386 276:0.12826982 277:0.11728951 278:0.26857457 279:0.26857457 280:0.18963674 281:0.14876296 282:0.050172843 283:0.057406276 284:0.081167527 285:0.26857457 286:0.13664396 287:0.26857457 288:0.15709756 289:0.024086729 290:0.15162668 291:0.038685139 292:0.14332737 293:0.13493252 294:0.073700227 295:0.064328372 296:0.21175125 297:0.072737075 298:0.033844624 299:0.28719795 300:0.085672021 301:0.28719795 302:0.15497755 303:0.063811801 304:0.053027369 305:0.10454486 306:0.2054788 307:0.0982292 308:0.28719795 309:0.077035703 310:0.28719795 311:0.16566166 312:0.14891815 313:0.040030248 314:0.28623569 315:0.088940717 316:0.069582865 317:0.28719795 318:0.15773252 319:0.28719795 320:0.22355765 321:0.061418697 322:0.029372524 323:0.14324205 
0.1522533621683902 1 0:0.030782076 1:0.046818979 2:0.14661106 3:0.083017401 4:0.33333752 5:0.021907205 6:0.0013904981 7:0.0029166439 8:0.033480432 9:0.029529456 10:0.10650065 11:0.29101223 12:0.13000987 13:0.33333752 14:0.048518009 15:0.021336457 16:0.025861043 17:0.04881179 18:0.099401236 19:0.15876769 20:0.24327081 21:0.20151617 22:0.33333752 23:0.059288424 24:0.047405783 25:0.025444651 26:0.11260795 27:0.12375961 28:0.18222615 29:0.31598169 30:0.23845853 31:0.33333752 32:0.0702397 33:0.060972448 34:0.055504207 35:0.1687641 36:0.083917893 37:0.16617192 38:0.27089474 39:0.05311846 40:0.19907476 41:0.041345425 42:0.031948667 43:0.044436835 44:0.092929922 45:0.27089474 46:0.14155973 47:0.27089474 48:0.03937041 49:0.07087864 50:0.05692666 51:0.047991168 52:0.047060095 53:0.27089474 54:0.15072852 55:0.18164356 56:0.27089474 57:0.13081641 58:0.18625087 59:0.077393033 60:0.080456905 61:0.14024183 62:0.21482721 63:0.23696032 64:0.18417363 65:0.27089474 66:0.10920194 67:0.098657794 68:0.15562755 69:0.12755384 70:0.14411673 71:0.27089474 72:0.26318687 73:0.041070454 74:0.10013678 75:0.043592088 76:0.12093238 77:0.052005198 78:0.1208823 79:0.064006068 80:0.28061607 81:0.13148941 82:0.061455369 83:0.16800365 84:0.13841218 85:0.30025393 86:0.12125357 87:0.15515384 88:0.059634391 89:0.16724044 90:0.18602052 91:0.15106237 92:0.20445774 93:0.086974137 94:0.13780433 95:0.13739687 96:0.12479465 97:0.067044318 98:0.25815761 99:0.11420146 100:0.20873857 101:0.27507761 102:0.09371838 103:0.30025393 104:0.28306678 105:0.089745224 106:0.062812023 107:0.12536074 108:0.074959524 109:0.15306106 110:0.1637031 111:0.16489847 112:0.28130972 113:0.056418259 114:0.043902401 115:0.022934265 116:0.1085286 117:0.15451001 118:0.13593777 119:0.13495903 120:0.13685317 121:0.28130972 122:0.028064901 123:0.020303944 124:0.03872136 125:0.23074499 126:0.10351002 127:0.20454234 128:0.28130972 129:0.28130972 130:0.28130972 131:0.097170711 132:0.029249696 133:0.011653156 134:0.16074 135:0.21883637 136:0.14030796 137:0.19876143 138:0.16692069 139:0.24581134 140:0.022812214 141:0.010495343 142:0.043219943 143:0.28130972 144:0.20723738 145:0.1634836 146:0.19046548 147:0.070157327 148:0.064799041 149:0.022250934 150:0.065346859 151:0.16954601 152:0.25013432 153:0.19668044 154:0.17245692 155:0.24610315 156:0.075961001 157:0.099768601 158:0.071209624 159:0.13189319 160:0.20290756 161:0.25013432 162:0.25013432 163:0.16204995 164:0.19868819 165:0.06515421 166:0.048384558 167:0.02064717 168:0.083203077 169:0.17754444 170:0.25013432 171:0.25013432 172:0.12626009 173:0.14325373 174:0.037871413 175:0.15621486 176:0.069596559 177:0.18221822 178:0.23155664 179:0.25013432 180:0.099536262 181:0.11005453 182:0.1256678 183:0.035413273 184:0.097074874 185:0.094520561 186:0.10082989 187:0.066647336 188:0.1741813 189:0.081813715 190:0.089913368 191:0.27477032 192:0.050400373 193:0.31452468 194:0.23316158 195:0.059264984 196:0.043624379 197:0.12524611 198:0.13919927 199:0.059359018 200:0.15312503 201:0.036472432 202:0.27969772 203:0.13839716 204:0.11061756 205:0.11540928 206:0.28161407 207:0.12067646 208:0.087253988 209:0.31452468 210:0.1369544 211:0.31452468 212:0.30337891 213:0.066757254 214:0.041110221 215:0.20095664 216:0.092480138 217:0.12968852 218:0.26967332 219:0.26967332 220:0.26967332 221:0.16533838 222:0.04373689 223:0.034310166 224:0.12640066 225:0.17645964 226:0.088770732 227:0.14839187 228:0.10168311 229:0.13831852 230:0.035137523 231:0.031102272 232:0.057465848 233:0.2457132 234:0.1801153 235:0.095123954 236:0.26967332 237:0.099408843 238:0.26967332 239:0.23566657 240:0.11236288 241:0.10478568 242:0.23610753 243:0.2670424 244:0.09273269 245:0.11043917 246:0.034518786 247:0.10135182 248:0.078959107 249:0.11783717 250:0.15113984 251:0.26967332 252:0.21365476 253:0.075747952 254:0.15529509 255:0.067139201 256:0.064091749 257:0.052495498 258:0.071256019 259:0.10994752 260:0.26632491 261:0.20995311 262:0.065987043 263:0.1036289 264:0.060292311 265:0.09558519 266:0.1137624 267:0.15475616 268:0.17974116 269:0.26632491 270:0.26632491 271:0.13648933 272:0.11457933 273:0.053546455 274:0.11775658 275:0.11201886 276:0.16530631 277:0.1864906 278:0.26632491 279:0.26632491 280:0.24673986 281:0.2342616 282:0.12689936 283:0.14727835 284:0.10459356 285:0.1220139 286:0.15510051 287:0.26632491 288:0.08799877 289:0.075977571 290:0.18910545 291:0.061912891 292:0.30258301 293:0.085959241 294:0.046439726 295:0.06858974 296:0.1627862 297:0.085077725 298:0.12817375 299:0.30258301 300:0.10396743 301:0.30258301 302:0.13711338 303:0.038216628 304:0.024000669 305:0.11205342 306:0.12609299 307:0.21300055 308:0.30258301 309:0.16977771 310:0.30258301 311:0.027461955 312:0.01555119 313:0.031866293 314:0.17266278 315:0.077961899 316:0.17758262 317:0.30258301 318:0.14710781 319:0.30258301 320:0.03233707 321:0.040359031 322:0.03511272 323:0.096299857 
0 0.7611099976085 0:0.041598156 1:0.087042257 2:0.15097947 3:0.18780346 4:0.28215653 5:0.15863246 6:0.032548934 7:0.052995939 8:0.15685427 9:0.087906063 10:0.10585906 11:0.1353755 12:0.15368171 13:0.28215653 14:0.13240033 15:0.057710115 16:0.17749171 17:0.28215653 18:0.029850516 19:0.014310353 20:0.12145829 21:0.23423472 22:0.28215653 23:0.25151429 24:0.047901347 25:0.05656112 26:0.14117245 27:0.086163983 28:0.058870167 29:0.057137452 30:0.18623449 31:0.26825449 32:0.2168169 33:0.11203697 34:0.15847091 35:0.28215653 36:0.20506831 37:0.12643111 38:0.0707497 39:0.027885299 40:0.048330236 41:0.03102953 42:0.12984258 43:0.24279712 44:0.26788715 45:0.26788715 46:0.13795197 47:0.034329496 48:0.012522915 49:0.11770166 50:0.073931947 51:0.26788715 52:0.26788715 53:0.26788715 54:0.22842008 55:0.073174991 56:0.010732661 57:0.043848619 58:0.027224863 59:0.049783733 60:0.15455167 61:0.20473738 62:0.26788715 63:0.26788715 64:0.096978694 65:0.030388882 66:0.022399979 67:0.036934435 68:0.030516224 69:0.16467963 70:0.26788715 71:0.26788715 72:0.2188032 73:0.067212537 74:0.03795005 75:0.022006508 76:0.12287099 77:0.10437714 78:0.23653032 79:0.20597005 80:0.25730893 81:0.12464013 82:0.036127049 83:0.13837394 84:0.059715949 85:0.25730893 86:0.15550286 87:0.23999599 88:0.13588451 89:0.24494469 90:0.11865581 91:0.11974896 92:0.080340073 93:0.076497473 94:0.19919649 95:0.13458194 96:0.090793669 97:0.20863195 98:0.25730893 99:0.073250279 100:0.14216974 101:0.22003859 102:0.12087348 103:0.25730893 104:0.25730893 105:0.067059107 106:0.10467342 107:0.18321657 108:0.031194791 109:0.054489441 110:0.18245688 111:0.18489395 112:0.29060897 113:0.23978695 114:0.054961354 115:0.043228857 116:0.071837313 117:0.12190009 118:0.10139003 119:0.1070625 120:0.18929601 121:0.29060897 122:0.1986137 123:0.14730476 124:0.087497734 125:0.25697994 126:0.045186777 127:0.086195417 128:0.20650005 129:0.15470512 130:0.29060897 131:0.24501456 132:0.069669046 133:0.028070213 134:0.05991438 135:0.11628284 136:0.11610018 137:0.20527966 138:0.067228511 139:0.29060897 140:0.19044018 141:0.16359012 142:0.061126877 143:0.1652355 144:0.270244 145:0.074814923 146:0.078487232 147:0.077329695 148:0.11425236 149:0.063596278 150:0.16921195 151:0.11510461 152:0.270244 153:0.270244 154:0.12621194 155:0.091945082 156:0.032471836 157:0.05360524 158:0.023644201 159:0.19586548 160:0.270244 161:0.270244 162:0.18866433 163:0.089409493 164:0.17576323 165:0.098925687 166:0.22418694 167:0.10192999 168:0.10121714 169:0.096666858 170:0.23332359 171:0.19409543 172:0.093610786 173:0.12308712 174:0.16187705 175:0.24861687 176:0.081361271 177:0.13018081 178:0.15180171 179:0.270244 180:0.1502291 181:0.1657795 182:0.11400881 183:0.19819744 184:0.24486129 185:0.075511508 186:0.059470393 187:0.15897381 188:0.27385166 189:0.077496909 190:0.20804241 191:0.22564973 192:0.27188465 193:0.27385166 194:0.20156106 195:0.019358661 196:0.068334199 197:0.1748846 198:0.067438111 199:0.063608818 200:0.1561279 201:0.22681588 202:0.27385166 203:0.057919513 204:0.055249956 205:0.059121322 206:0.1183954 207:0.058480062 208:0.073965564 209:0.233992 210:0.25531727 211:0.27385166 212:0.0781966 213:0.01160694 214:0.035983309 215:0.073432289 216:0.071620837 217:0.07098823 218:0.10600922 219:0.17634441 220:0.279863 221:0.25397086 222:0.039786264 223:0.026399948 224:0.10753393 225:0.12655962 226:0.13564634 227:0.18409997 228:0.047728688 229:0.26378345 230:0.1618171 231:0.081962295 232:0.048092231 233:0.17416482 234:0.15472686 235:0.060951881 236:0.10028354 237:0.077229038 238:0.279863 239:0.14513305 240:0.08104492 241:0.27763677 242:0.279863 243:0.26141599 244:0.061606705 245:0.086359195 246:0.044538703 247:0.13736306 248:0.063270807 249:0.17149043 250:0.25513905 251:0.279863 252:0.14791967 253:0.099814825 254:0.13888687 255:0.15921159 256:0.25407425 257:0.1085478 258:0.093689688 259:0.12396911 260:0.18941276 261:0.15189269 262:0.077332862 263:0.096489206 264:0.25941014 265:0.25941014 266:0.12330441 267:0.089606993 268:0.12669133 269:0.20511834 270:0.25941014 271:0.061135795 272:0.06293609 273:0.10357121 274:0.10785187 275:0.041277383 276:0.18566678 277:0.20786922 278:0.25941014 279:0.25941014 280:0.082622446 281:0.092869878 282:0.19409764 283:0.2266919 284:0.071959235 285:0.12916547 286:0.15895316 287:0.25941014 288:0.072888099 289:0.062917024 290:0.22248124 291:0.25635275 292:0.37152952 293:0.065136962 294:0.038111582 295:0.034534834 296:0.088397972 297:0.088374697 298:0.061596293 299:0.28894114 300:0.18799235 301:0.37152952 302:0.037663143 303:0.0083277868 304:0.012076349 305:0.086475126 306:0.105377 307:0.049320392 308:0.16738048 309:0.25064692 310:0.37152952 311:0.051684845 312:0.034344394 313:0.035420492 314:0.089721359 315:0.047530979 316:0.015382622 317:0.1277668 318:0.16365148 319:0.37152952 320:0.011069096 321:0.0044016675 322:0.0011818805 323:0.046280522 
0.4758693111333457 0 0:0.20563202 1:0.19880445 2:0.2403387 3:0.046849992 4:0.28201255 5:0.035492472 6:0.14050771 7:0.040684815 8:0.15159024 9:0.25898355 10:0.28201255 11:0.28201255 12:0.052418727 13:0.079521477 14:0.010908199 15:0.047387183 16:0.029140454 17:0.19254178 18:0.13369009 19:0.12541561 20:0.1383273 21:0.11878813 22:0.28201255 23:0.17796212 24:0.19550222 25:0.031218069 26:0.076695226 27:0.11690457 28:0.26081026 29:0.28201255 30:0.11217313 31:0.17867824 32:0.063885167 33:0.052412935 34:0.043125469 35:0.1311986 36:0.19709907 37:0.28323242 38:0.28323242 39:0.04046553 40:0.083834633 41:0.023754269 42:0.031485841 43:0.032763369 44:0.145657 45:0.15746823 46:0.10540874 47:0.15338986 48:0.095160648 49:0.28323242 50:0.11858205 51:0.1794281 52:0.13095564 53:0.15956959 54:0.13151993 55:0.23202872 56:0.28323242 57:0.078761823 58:0.12159178 59:0.04154725 60:0.071314499 61:0.10381982 62:0.16858332 63:0.19426766 64:0.08808969 65:0.16231935 66:0.10767303 67:0.28323242 68:0.15694089 69:0.24220334 70:0.18240289 71:0.17091112 72:0.10262313 73:0.01383093 74:0.055557288 75:0.16753758 76:0.34508824 77:0.18876939 78:0.26951116 79:0.16342522 80:0.10700445 81:0.034713868 82:0.0015572562 83:0.017166505 84:0.047278345 85:0.20836574 86:0.051374953 87:0.060517322 88:0.023125915 89:0.034586236 90:0.092461981 91:0.0098071704 92:0.04021015 93:0.25754514 94:0.34508824 95:0.29990062 96:0.34508824 97:0.23677799 98:0.076351523 99:0.011054023 100:0.0011531092 101:0.023456082 102:0.1211638 103:0.32285959 104:0.1184838 105:0.16956009 106:0.069814041 107:0.010971869 108:0.080135427 109:0.035975989 110:0.056894727 111:0.13282326 112:0.29953909 113:0.2126302 114:0.2171416 115:0.07232295 116:0.073085792 117:0.1072193 118:0.12344761 119:0.25393608 120:0.14016451 121:0.28681451 122:0.12520553 123:0.10417239 124:0.052172899 125:0.16088101 126:0.10202275 127:0.041429613 128:0.066935457 129:0.1477709 130:0.29953909 131:0.12587018 132:0.27361679 133:0.12904494 134:0.096256204 135:0.11001653 136:0.19949563 137:0.1986708 138:0.15544285 139:0.29953909 140:0.13339934 141:0.20084095 142:0.072988927 143:0.11824802 144:0.087701686 145:0.13492212 146:0.29357299 147:0.062083378 148:0.10098846 149:0.049949154 150:0.09957815 151:0.079391547 152:0.13057889 153:0.17191638 154:0.09495917 155:0.15557382 156:0.071070127 157:0.26364651 158:0.087289408 159:0.22100247 160:0.15447558 161:0.11106912 162:0.14244457 163:0.29531205 164:0.29531205 165:0.082877047 166:0.1228648 167:0.078751661 168:0.11209652 169:0.041847985 170:0.096484549 171:0.29531205 172:0.29531205 173:0.29531205 174:0.11006359 175:0.13209613 176:0.070594445 177:0.1792227 178:0.10692364 179:0.13756736 180:0.084024951 181:0.040467847 182:0.015231304 183:0.078970477 184:0.2734597 185:0.093755826 186:0.21363373 187:0.13514842 188:0.04341919 189:0.030025171 190:0.039485764 191:0.0067017935 192:0.055186424 193:0.24764389 194:0.05386772 195:0.12661004 196:0.079502568 197:0.028147532 198:0.2734597 199:0.2734597 200:0.19511342 201:0.12540516 202:0.26228458 203:0.1205979 204:0.2734597 205:0.20942308 206:0.076074347 207:0.082388632 208:0.23897243 209:0.089704365 210:0.1324095 211:0.2734597 212:0.17461027 213:0.2734597 214:0.23443335 215:0.064929992 216:0.056479849 217:0.052479066 218:0.040737297 219:0.088703066 220:0.26736483 221:0.078626484 222:0.15233341 223:0.037371505 224:0.040309899 225:0.13984267 226:0.26736483 227:0.19708654 228:0.12382144 229:0.25301799 230:0.086218789 231:0.14211616 232:0.035545047 233:0.035719562 234:0.039199628 235:0.067797214 236:0.040810592 237:0.12470851 238:0.26736483 239:0.10303178 240:0.17111748 241:0.10297503 242:0.02791594 243:0.26736483 244:0.26736483 245:0.26736483 246:0.23001482 247:0.26736483 248:0.13966797 249:0.26736483 250:0.23967579 251:0.071886487 252:0.16862877 253:0.30279961 254:0.20887239 255:0.036209557 256:0.036654603 257:0.019140854 258:0.021954045 259:0.013239321 260:0.03927676 261:0.25346974 262:0.30279961 263:0.26542509 264:0.027744411 265:0.013689956 266:0.013133448 267:0.026311094 268:0.024826156 269:0.057809088 270:0.2612949 271:0.30279961 272:0.29904386 273:0.042427976 274:0.089487493 275:0.026084563 276:0.075068958 277:0.068234317 278:0.12535074 279:0.24996434 280:0.30279961 281:0.30279961 282:0.019695381 283:0.055207923 284:0.016889423 285:0.032478299 286:0.062031046 287:0.23552857 288:0.22167723 289:0.26399028 290:0.26399028 291:0.076169342 292:0.091062211 293:0.062405437 294:0.17339076 295:0.067106605 296:0.071591169 297:0.10494743 298:0.21112366 299:0.21160562 300:0.10280881 301:0.26399028 302:0.12326508 303:0.26399028 304:0.11860628 305:0.078610487 306:0.26082441 307:0.26399028 308:0.26399028 309:0.022776581 310:0.085893273 311:0.0253282 312:0.046590477 313:0.027865805 314:0.21262303 315:0.20592406 316:0.13934277 317:0.26399028 318:0.045743659 319:0.17059252 320:0.036425475 321:0.11605923 322:0.033554476 323:0.15055701 
0 1 0:0.23119065 1:0.082525909 2:0.069735564 3:0.11782508 4:0.28318304 5:0.1012624 6:0.28318304 7:0.11841164 8:0.15560044 9:0.28318304 10:0.13200888 11:0.10613703 12:0.099554338 13:0.22124006 14:0.072323427 15:0.091455676 16:0.068064839 17:0.20579126 18:0.12827374 19:0.057125445 20:0.035767127 21:0.091415241 22:0.28318304 23:0.16567659 24:0.24045707 25:0.19202788 26:0.0661873 27:0.27512515 28:0.054236412 29:0.065787241 30:0.094994344 31:0.28318304 32:0.1403423 33:0.13397312 34:0.10442626 35:0.15547727 36:0.23677562 37:0.11613415 38:0.11696955 39:0.16097076 40:0.11270326 41:0.11550745 42:0.11802512 43:0.13239378 44:0.18971115 45:0.23677562 46:0.06983155 47:0.059023146 48:0.17702043 49:0.23677562 50:0.20605056 51:0.20996377 52:0.13728702 53:0.13130146 54:0.23677562 55:0.081942052 56:0.17084484 57:0.19434653 58:0.081614226 59:0.10315883 60:0.12664112 61:0.11951087 62:0.21988906 63:0.23677562 64:0.13034907 65:0.14604197 66:0.21938872 67:0.14760126 68:0.13715327 69:0.16059026 70:0.17284124 71:0.23677562 72:0.12627086 73:0.025191633 74:0.023346119 75:0.15307838 76:0.31171417 77:0.11533742 78:0.31171417 79:0.12060558 80:0.045849927 81:0.058308765 82:0.0062915832 83:0.0071769473 84:0.10247221 85:0.31171417 86:0.039195918 87:0.27910021 88:0.085127875 89:0.043057557 90:0.14375733 91:0.072850123 92:0.046905864 93:0.22085965 94:0.31171417 95:0.14069821 96:0.23800649 97:0.094286606 98:0.11174261 99:0.10877104 100:0.028891483 101:0.017582143 102:0.17415211 103:0.31171417 104:0.17321591 105:0.26076338 106:0.1064478 107:0.10303045 108:0.095336623 109:0.034503102 110:0.030014032 111:0.089699246 112:0.30361706 113:0.23675372 114:0.18326826 115:0.12083979 116:0.06399978 117:0.15483801 118:0.065704487 119:0.19534394 120:0.097343579 121:0.30361706 122:0.19291387 123:0.17042124 124:0.070492059 125:0.10769634 126:0.072498083 127:0.018965678 128:0.056964524 129:0.076528318 130:0.30361706 131:0.22944836 132:0.21891446 133:0.057932734 134:0.066572174 135:0.069045618 136:0.067699052 137:0.23399681 138:0.10184229 139:0.30361706 140:0.2081795 141:0.2934818 142:0.11367404 143:0.044395171 144:0.18192732 145:0.09175276 146:0.24592903 147:0.1446154 148:0.13984379 149:0.0609915 150:0.13315603 151:0.090802036 152:0.17284113 153:0.2157366 154:0.073443249 155:0.16345091 156:0.16675888 157:0.22117849 158:0.086225495 159:0.1735893 160:0.21059747 161:0.24592903 162:0.11264092 163:0.09483733 164:0.24592903 165:0.095728777 166:0.24592903 167:0.048631519 168:0.20569107 169:0.12503016 170:0.13970463 171:0.16377389 172:0.084107496 173:0.18924731 174:0.14601165 175:0.24592903 176:0.085502669 177:0.15661828 178:0.14919807 179:0.24592903 180:0.11462713 181:0.044765033 182:0.037626799 183:0.15136671 184:0.30503693 185:0.11141437 186:0.1975297 187:0.11123861 188:0.15671839 189:0.081657782 190:0.053390309 191:0.037291192 192:0.16622739 193:0.30503693 194:0.2055656 195:0.23763138 196:0.079772033 197:0.090063669 198:0.085837223 199:0.05002521 200:0.084182404 201:0.13267741 202:0.30503693 203:0.10863579 204:0.20714217 205:0.067734681 206:0.15429807 207:0.064029984 208:0.060841847 209:0.054318316 210:0.18802544 211:0.30503693 212:0.28893924 213:0.30503693 214:0.033059403 215:0.06152609 216:0.051618624 217:0.024444455 218:0.064443998 219:0.036384322 220:0.36708003 221:0.10400388 222:0.18592121 223:0.049984407 224:0.050503705 225:0.058071807 226:0.046553522 227:0.093102284 228:0.067655019 229:0.36708003 230:0.13693273 231:0.36708003 232:0.18456662 233:0.047699075 234:0.024220226 235:0.0053812675 236:0.011115995 237:0.07225623 238:0.36708003 239:0.094493181 240:0.11206189 241:0.045545861 242:0.023223782 243:0.054987662 244:0.055739775 245:0.085680932 246:0.13892223 247:0.36708003 248:0.18915765 249:0.2540541 250:0.15253067 251:0.05590535 252:0.14149211 253:0.068056293 254:0.14128999 255:0.080435567 256:0.26583228 257:0.061229043 258:0.26583228 259:0.16329423 260:0.17854154 261:0.1749218 262:0.1030651 263:0.22290519 264:0.14703086 265:0.26583228 266:0.088825561 267:0.073232569 268:0.047967408 269:0.25821197 270:0.17198285 271:0.134703 272:0.16853221 273:0.1035045 274:0.26583228 275:0.0786779 276:0.12888941 277:0.13273542 278:0.1592465 279:0.26583228 280:0.13449042 281:0.13618696 282:0.085181519 283:0.26583228 284:0.066214256 285:0.023326291 286:0.071577527 287:0.24218352 288:0.081123687 289:0.052705992 290:0.11343424 291:0.12881412 292:0.30005032 293:0.10212926 294:0.1236217 295:0.015740778 296:0.097545736 297:0.077220589 298:0.024263363 299:0.041864268 300:0.18912192 301:0.30005032 302:0.30005032 303:0.24276598 304:0.031823408 305:0.069152914 306:0.23404306 307:0.096162394 308:0.086644612 309:0.058671571 310:0.25777102 311:0.047497652 312:0.037423715 313:0.033835024 314:0.20173877 315:0.2314291 316:0.1106144 317:0.076947272 318:0.24410707 319:0.30005032 320:0.16240117 321:0.22400236 322:0.12365983 323:0.20908956 
0 0.1241693102197739 0:0.0019776213 2:0.0025434839 3:0.027909273 4:0.30349365 5:0.12786256 6:0.13385865 7:0.039875057 8:0.023539864 9:0.045516759 10:0.00019667519 11:0.0049408362 12:0.069506809 13:0.30349365 14:0.30301306 15:0.30349365 16:0.24869089 17:0.30349365 18:0.0030646028 20:0.019361053 21:0.049442682 22:0.22943558 23:0.13962488 24:0.083732605 25:0.030787563 26:0.011073207 27:0.034764949 28:0.0013596418 29:0.031213921 30:0.11018774 31:0.30349365 32:0.30349365 33:0.25338984 34:0.21039864 35:0.20169009 36:0.10490883 37:0.0080796322 38:0.005600729 39:0.025678996 40:0.14238669 41:0.091855094 42:0.1741616 43:0.2553322 44:0.2553322 45:0.13929892 46:0.025337003 47:0.018726185 48:0.07780394 49:0.2553322 50:0.16516162 51:0.2553322 52:0.2553322 53:0.2553322 54:0.080418736 55:0.013853651 56:0.013756283 57:0.026606387 58:0.1098744 59:0.15583007 60:0.16974804 61:0.24199587 62:0.2553322 63:0.16082983 64:0.056599539 65:0.019506836 66:0.18292162 67:0.2553322 68:0.11425954 69:0.17821962 70:0.21713461 71:0.2553322 72:0.07926847 73:0.015380675 74:0.021561764 75:0.16237752 76:0.3227739 77:0.24218282 78:0.3227739 79:0.3227739 80:0.14408296 81:0.01156452 82:0.00080404675 83:0.0087026255 84:0.044028267 85:0.22629361 86:0.037298497 87:0.072657324 88:0.030169984 89:0.011899067 90:0.11631142 91:0.053282484 92:0.024772044 93:0.3227739 94:0.3227739 95:0.19564743 96:0.25898293 97:0.15953401 98:0.15259457 99:0.0078311116 100:0.012886107 101:0.0083242413 102:0.12894464 103:0.3227739 104:0.054277275 105:0.077878274 106:0.028214695 107:0.0059826081 108:0.016722733 110:0.044355407 111:0.11071898 112:0.21904466 113:0.16797256 114:0.058425408 115:0.012812951 116:0.020573301 117:0.064441629 118:0.019548325 119:0.09705627 120:0.29974023 121:0.33688876 122:0.33688876 123:0.2193194 124:0.12440215 125:0.18446621 126:0.019598076 127:0.00092451699 128:0.028184971 129:0.065867364 130:0.20080733 131:0.11984603 132:0.062762536 133:0.016363405 134:0.030062528 135:0.069497406 136:0.027274132 137:0.060756378 138:0.25602117 139:0.33688876 140:0.33688876 141:0.27161321 142:0.09646602 143:0.1527922 144:0.099072523 145:0.05473344 146:0.067276292 147:0.08750654 148:0.20175479 149:0.17228211 150:0.16637394 151:0.18783474 152:0.24560337 153:0.21974 154:0.12389143 155:0.087646097 156:0.24560337 157:0.22804019 158:0.059690204 159:0.17496058 160:0.20516399 161:0.24560337 162:0.091918655 163:0.070889585 164:0.065109365 165:0.12398081 166:0.24560337 167:0.19514261 168:0.18516491 169:0.10904133 170:0.19232489 171:0.17131892 172:0.15218942 173:0.11025104 174:0.13154398 175:0.24560337 176:0.094054297 177:0.15047413 178:0.099505641 179:0.24560337 180:0.13349688 181:0.075486213 182:0.06341058 183:0.33474872 184:0.33474872 185:0.10542046 186:0.23213302 187:0.14100286 188:0.20006624 189:0.010766812 190:0.012155098 191:0.010127574 192:0.21546331 193:0.33474872 194:0.055438187 195:0.094836451 196:0.039892022 197:0.011667652 198:0.096736334 199:0.077960148 200:0.059715658 201:0.33474872 202:0.33474872 203:0.14083229 204:0.10606852 205:0.061608657 206:0.13730092 207:0.0054942858 208:0.0018245801 209:0.0049050455 210:0.17422931 211:0.33474872 212:0.083068706 213:0.030672075 214:0.01541621 215:0.0074985372 216:0.018538274 217:0.0051383409 218:0.022834243 219:0.027316255 220:0.20704229 221:0.078529939 222:0.057015911 223:0.012052191 224:0.024524651 225:0.07613755 226:0.026533144 227:0.038217243 228:0.16602975 229:0.39000589 230:0.39000589 231:0.22076091 232:0.069526136 233:0.12023968 234:0.044054434 235:0.0039964868 236:0.028849952 237:0.033973556 238:0.22301827 239:0.041937195 240:0.062958926 241:0.031228287 242:0.063711494 243:0.17567034 244:0.019436376 245:0.053705379 246:0.13210993 247:0.39000589 248:0.19768009 249:0.29723012 250:0.24871109 251:0.27617836 252:0.09655197 253:0.065310836 254:0.02717977 255:0.09146104 256:0.26168069 257:0.21503051 258:0.17300726 259:0.087451339 260:0.14553125 261:0.16173278 262:0.1047212 263:0.049954683 264:0.12574047 265:0.26168069 266:0.17055067 267:0.18800388 268:0.063146271 269:0.1796035 270:0.18786094 271:0.063118048 272:0.0225549 273:0.060529731 274:0.26168069 275:0.14094603 276:0.18465427 277:0.22196065 278:0.25111729 279:0.2605834 280:0.10735445 281:0.033662468 282:0.10882849 283:0.26168069 284:0.16542345 285:0.21264604 286:0.12812458 287:0.22031593 288:0.089184001 289:0.045353204 290:0.026755141 291:0.28913602 292:0.36269075 293:0.2579585 294:0.15232293 295:0.025411854 296:0.083704874 297:0.0036539424 298:0.0015596433 299:0.0033509473 300:0.14463547 301:0.36269075 302:0.13810968 303:0.060826391 304:0.0095218569 305:0.0028522431 306:0.1446646 307:0.04873335 308:0.033068374 309:0.19289169 310:0.36269075 311:0.24821475 312:0.23991807 313:0.078216054 314:0.089921474 315:0.0080236718 316:0.0053314371 317:0.0096543832 318:0.085715689 319:0.36269075 320:0.13791588 321:0.11096866 322:0.028153287 323:0.0040473645 
0 0.6764253854768029 0:0.061964758 1:0.069149852 2:0.27270648 3:0.2103509 4:0.27270648 5:0.13158436 6:0.025717869 7:0.0087175285 8:0.080302052 9:0.11350071 10:0.049405552 11:0.25764021 12:0.24556279 13:0.27270648 14:0.13620305 15:0.062249124 16:0.011167311 17:0.27270648 18:0.073249102 19:0.10198659 20:0.23825549 21:0.078920409 22:0.27270648 23:0.19430916 24:0.019985085 25:0.025404623 26:0.10248483 27:0.13401166 28:0.070158191 29:0.20991975 30:0.066098921 31:0.27270648 32:0.17295736 33:0.065490134 34:0.034431767 35:0.27270648 36:0.19709122 37:0.033323836 38:0.10755244 39:0.082567371 40:0.097422123 41:0.10069554 42:0.16269943 43:0.07515344 44:0.26398423 45:0.26398423 46:0.13625495 47:0.12276744 48:0.062792085 49:0.082136728 50:0.088428974 51:0.1788691 52:0.17577726 53:0.26398423 54:0.23304027 55:0.079523452 56:0.17612775 57:0.07648211 58:0.059685674 59:0.1379199 60:0.16198701 61:0.10142396 62:0.26398423 63:0.26398423 64:0.1986483 65:0.19189762 66:0.10481175 67:0.10010326 68:0.10509976 69:0.20811626 70:0.21411265 71:0.26398423 72:0.15562904 73:0.090255678 74:0.15056331 75:0.075440317 76:0.079872683 77:0.027276898 78:0.095423467 79:0.10089202 80:0.22959064 81:0.15082161 82:0.10559975 83:0.29470751 84:0.15826795 85:0.29470751 86:0.16755657 87:0.090584874 88:0.071291544 89:0.24353248 90:0.13913484 91:0.13602902 92:0.18935598 93:0.13051799 94:0.19176884 95:0.043485992 96:0.088206768 97:0.11749122 98:0.18647601 99:0.094030954 100:0.23436604 101:0.29470751 102:0.25373346 103:0.29470751 104:0.092240326 105:0.035585783 106:0.040090788 107:0.15770197 108:0.052478455 109:0.12117079 110:0.29292321 111:0.079591446 112:0.30314443 113:0.14324923 114:0.02556245 115:0.019510228 116:0.059927437 117:0.14344513 118:0.11404981 119:0.30314443 120:0.069353528 121:0.30314443 122:0.11955196 123:0.043033101 124:0.032279465 125:0.20644294 126:0.063686453 127:0.092613339 128:0.30314443 129:0.081242897 130:0.30314443 131:0.1510068 132:0.084201358 133:0.036843114 134:0.053307649 135:0.17889568 136:0.095640853 137:0.22154851 138:0.070490703 139:0.30314443 140:0.11407912 141:0.16612302 142:0.052432407 143:0.14416158 144:0.22419682 145:0.096099444 146:0.233702 147:0.071233876 148:0.15352377 149:0.073123768 150:0.080439009 151:0.053503267 152:0.23506987 153:0.23506987 154:0.10425329 155:0.13800107 156:0.085152656 157:0.20323817 158:0.057503693 159:0.23506987 160:0.16011259 161:0.23506987 162:0.23401019 163:0.063163981 164:0.16552299 165:0.057474997 166:0.23319499 167:0.10070138 168:0.14392212 169:0.060521357 170:0.23506987 171:0.23112097 172:0.086771227 173:0.1481438 174:0.071365297 175:0.23506987 176:0.089987658 177:0.23506987 178:0.1276843 179:0.23506987 180:0.14200103 181:0.10138585 182:0.17159997 183:0.12553419 184:0.33617353 185:0.051730353 186:0.16929545 187:0.11544646 188:0.14944589 189:0.068394668 190:0.19817184 191:0.26894861 192:0.16544136 193:0.33617353 194:0.09449482 195:0.059504192 196:0.042557538 197:0.10193173 198:0.10623186 199:0.11857323 200:0.2115694 201:0.10802786 202:0.33617353 203:0.048376217 204:0.14246497 205:0.076444276 206:0.092199095 207:0.049857561 208:0.13365217 209:0.26301441 210:0.10785386 211:0.33617353 212:0.065550312 213:0.060478743 214:0.046429679 215:0.059934236 216:0.097357474 217:0.11197562 218:0.22791918 219:0.1186706 220:0.2885401 221:0.17215037 222:0.10190107 223:0.039801199 224:0.07598538 225:0.21205099 226:0.093960352 227:0.10403815 228:0.048281439 229:0.2885401 230:0.13528486 231:0.25781232 232:0.070545465 233:0.1685086 234:0.21504019 235:0.090521052 236:0.18535239 237:0.15820935 238:0.2885401 239:0.099543832 240:0.11077461 241:0.097135074 242:0.21130909 243:0.2662383 244:0.10136453 245:0.081818551 246:0.024979731 247:0.18907292 248:0.095721617 249:0.13627565 250:0.088326663 251:0.27746642 252:0.21045239 253:0.048651267 254:0.11226988 255:0.047674932 256:0.25159323 257:0.16488266 258:0.25159323 259:0.097944997 260:0.25159323 261:0.17724347 262:0.08053422 263:0.18685727 264:0.12533416 265:0.25159323 266:0.1174942 267:0.16167793 268:0.08230295 269:0.22417258 270:0.24027444 271:0.077104993 272:0.079373665 273:0.028552808 274:0.22598545 275:0.13331206 276:0.15847963 277:0.081054375 278:0.25159323 279:0.17573614 280:0.11592612 281:0.19444862 282:0.12037624 283:0.25159323 284:0.070952997 285:0.11144934 286:0.093136162 287:0.19951832 288:0.071464129 289:0.12139418 290:0.23735008 291:0.23005609 292:0.36082873 293:0.070638292 294:0.041107878 295:0.03048698 296:0.058692243 297:0.05916857 298:0.10295342 299:0.19737935 300:0.17222525 301:0.36082873 302:0.074852787 303:0.0421483 304:0.037622657 305:0.06240461 306:0.046200022 307:0.083952934 308:0.22730494 309:0.31837127 310:0.36082873 311:0.06853836 312:0.020660387 313:0.027921271 314:0.037126832 315:0.028679278 316:0.032565616 317:0.11443714 318:0.22782724 319:0.36082873 320:0.052219648 321:0.0087607419 322:0.0089117456 323:0.027886378 
0 0.0123078188450199 0:0.087175429 1:0.081399433 2:0.11255906 3:0.043086614 4:0.28251293 5:0.16292389 6:0.073637575 7:0.038389079 8:0.080353774 9:0.24089482 10:0.15685281 11:0.23266532 12:0.017337354 13:0.037267428 14:0.0082020583 15:0.04288191 16:0.072698675 17:0.27921104 18:0.10211699 19:0.16823405 20:0.28251293 21:0.093601041 22:0.28251293 23:0.19753511 24:0.17809896 25:0.059041206 26:0.091659315 27:0.26684269 28:0.25806239 29:0.28251293 30:0.083229542 31:0.16470663 32:0.035409328 33:0.069950581 34:0.036159903 35:0.27611399 36:0.22770202 37:0.080950901 38:0.092820667 39:0.0093374178 40:0.019756576 41:0.011909766 42:0.13147379 43:0.14564708 44:0.26673642 45:0.19197723 46:0.03031097 47:0.015223254 48:0.068288572 49:0.26673642 50:0.097383559 51:0.26673642 52:0.23989069 53:0.26673642 54:0.22336344 55:0.10014668 56:0.23111865 57:0.06023879 58:0.14283139 59:0.041972075 60:0.22405548 61:0.10205446 62:0.24332994 63:0.099050745 64:0.031116858 65:0.051175218 66:0.15619522 67:0.26673642 68:0.13917682 69:0.26673642 70:0.16815458 71:0.10107072 72:0.14422111 73:0.028181283 74:0.030831814 75:0.12483677 76:0.36457455 77:0.14010559 78:0.32671094 79:0.19183937 80:0.17943113 81:0.042501356 82:0.01163196 83:0.02005481 84:0.032192994 85:0.25290027 86:0.025083074 87:0.06617903 88:0.037407152 89:0.033786107 90:0.048108503 91:0.028867252 92:0.046621062 93:0.25095856 94:0.36457455 95:0.1928739 96:0.36457455 97:0.15034127 98:0.036862481 99:0.023917001 100:0.0083316313 101:0.017652234 102:0.088283293 103:0.36457455 104:0.049862083 105:0.11736548 106:0.038037051 107:0.01991896 108:0.086170904 109:0.074942522 110:0.14514127 111:0.11708942 112:0.2857587 113:0.21638472 114:0.20072082 115:0.088592418 116:0.1161143 117:0.17170092 118:0.13166946 119:0.2857587 120:0.10644779 121:0.2857587 122:0.077711731 123:0.11766738 124:0.042263906 125:0.18626836 126:0.073027328 127:0.033606999 128:0.053702336 129:0.13085353 130:0.2857587 131:0.2857587 132:0.2857587 133:0.068891168 134:0.087317131 135:0.1283292 136:0.074153647 137:0.12906329 138:0.1249966 139:0.2857587 140:0.1247758 141:0.18312401 142:0.052167051 143:0.099243991 144:0.21802583 145:0.10687494 146:0.17900865 147:0.092170343 148:0.25220272 149:0.087940164 150:0.17215282 151:0.069745779 152:0.16102679 153:0.10383461 154:0.053406935 155:0.074398331 156:0.15863857 157:0.26497579 158:0.16747369 159:0.22664745 160:0.10388064 161:0.067935534 162:0.24164172 163:0.12262862 164:0.16817009 165:0.12169155 166:0.26497579 167:0.1008001 168:0.16337493 169:0.08060915 170:0.12954724 171:0.22201614 172:0.087236248 173:0.0846183 174:0.10093184 175:0.26497579 176:0.22093114 177:0.26497579 178:0.18695414 179:0.10684433 180:0.02130666 181:0.015473226 182:0.034517914 183:0.14371507 184:0.32637376 185:0.18111934 186:0.25443786 187:0.089849137 188:0.024858071 189:0.040499941 190:0.012721282 191:0.038105477 192:0.059837967 193:0.32637376 194:0.075637311 195:0.131088 196:0.044896938 197:0.044291507 198:0.072695859 199:0.016955251 200:0.034387402 201:0.12585239 202:0.32637376 203:0.25529078 204:0.32637376 205:0.17443217 206:0.083112635 207:0.11445019 208:0.02653124 209:0.095521137 210:0.12020777 211:0.32637376 212:0.18998364 213:0.28142986 214:0.083321728 215:0.13012657 216:0.049932767 217:0.029696183 218:0.059099786 219:0.068793833 220:0.26860774 221:0.19403915 222:0.24462835 223:0.069701985 224:0.045030247 225:0.049096208 226:0.074464448 227:0.098003879 228:0.095285006 229:0.26860774 230:0.10907607 231:0.16271147 232:0.072382063 233:0.053244315 234:0.13799796 235:0.059845123 236:0.093462445 237:0.063406028 238:0.26860774 239:0.11527521 240:0.26860774 241:0.13211204 242:0.13320567 243:0.26860774 244:0.17414285 245:0.14301395 246:0.13126922 247:0.26860774 248:0.083793283 249:0.26860774 250:0.26860774 251:0.26860774 252:0.11557452 253:0.091421925 254:0.13796918 255:0.10541262 256:0.20584542 257:0.061071116 258:0.10740487 259:0.054862097 260:0.085995473 261:0.18856576 262:0.063655011 263:0.07285516 264:0.064402349 265:0.17059477 266:0.1392813 267:0.17782992 268:0.13074072 269:0.12287204 270:0.26822937 271:0.24894258 272:0.17595264 273:0.12948292 274:0.085648455 275:0.034590978 276:0.24413331 277:0.24042745 278:0.26822937 279:0.26822937 280:0.21731791 281:0.11718656 282:0.073385462 283:0.064066224 284:0.08138191 285:0.26822937 286:0.20878083 287:0.26822937 288:0.077367194 289:0.014737312 290:0.017688503 291:0.097148232 292:0.27261394 293:0.16546075 294:0.25848761 295:0.12436243 296:0.067814097 297:0.071417943 298:0.0089125261 299:0.035982784 300:0.14086461 301:0.27261394 302:0.15600196 303:0.24278103 304:0.080330163 305:0.076860145 306:0.23510876 307:0.10790116 308:0.06604407 309:0.056640036 310:0.21230146 311:0.13926843 312:0.27261394 313:0.2021405 314:0.22108397 315:0.12534307 316:0.058665127 317:0.030193068 318:0.096385807 319:0.27261394 320:0.18489878 321:0.27261394 322:0.23351091 323:0.16355713 
0 0.8570673906161248 0:0.0070909066 1:0.0091003552 2:0.0058563296 3:0.044498179 4:0.41024119 5:0.068738639 6:0.075557694 7:0.020380188 8:0.0069428096 9:0.039984457 10:0.066832371 11:0.14983691 12:0.20287557 13:0.4453797 14:0.16004641 15:0.20212705 16:0.069398619 17:0.028878786 18:0.0060691084 19:0.020687426 20:0.0046089878 21:0.042615883 22:0.4453797 23:0.051760819 24:0.0028759253 25:0.012993491 26:0.0060691899 27:0.038588226 28:0.036800541 29:0.041366965 30:0.19421193 31:0.4453797 32:0.15640678 33:0.041945823 34:0.049974386 35:0.033703282 36:0.10618886 37:0.070597455 38:0.21234284 39:0.1499988 40:0.32836556 41:0.069673538 42:0.14310436 43:0.056525748 44:0.10767033 45:0.1820958 46:0.034348439 47:0.092784837 48:0.10106583 49:0.32836556 50:0.15012024 51:0.18611348 52:0.072302103 53:0.18391114 54:0.11592182 55:0.046997815 56:0.13297305 57:0.13588168 58:0.32836556 59:0.10321345 60:0.11121079 61:0.048282616 62:0.11581074 63:0.23118693 64:0.052237283 65:0.15816407 66:0.084331401 67:0.32836556 68:0.1333437 69:0.19923869 70:0.07889048 71:0.22249734 72:0.091244221 73:0.0073782564 74:0.011879273 75:0.19116977 76:0.44135576 77:0.26910928 78:0.078486733 79:0.035826072 80:0.089186028 81:0.012557494 83:0.0018729295 84:0.084335268 85:0.37349227 86:0.094866298 87:8.7845117e-05 88:0.0001143477 89:0.01296969 90:0.10951799 91:0.009886127 92:0.040112499 93:0.16936219 94:0.44135576 95:0.21323662 96:0.094716132 97:0.043748073 98:0.10567084 99:0.010709729 101:0.0081160283 102:0.080539517 103:0.44135576 104:0.075405657 105:0.0025180592 106:0.00020301035 107:0.010897141 108:0.0078756381 109:0.016736224 110:0.00075560436 111:0.039670218 112:0.44461882 113:0.016937569 114:4.1118026e-05 115:0.013952364 116:0.0081044184 117:0.026936619 118:0.03932767 119:0.053803686 120:0.15029393 121:0.47627878 122:0.087039523 123:0.013149596 124:0.02504224 125:0.028813353 126:0.0083365347 127:0.0035700044 128:4.84841e-05 129:0.050927501 130:0.47627878 131:0.051532093 132:0.0071856002 133:0.010833785 134:0.0086317556 135:0.077031828 136:0.043943577 137:0.10421554 138:0.17441122 139:0.47627878 140:0.13488212 141:0.013505078 142:0.022327863 143:0.063350685 144:0.082147725 145:0.063946895 146:0.16660742 147:0.11223962 148:0.35262239 149:0.10460667 150:0.031308815 151:0.023715617 152:0.083436832 153:0.19568366 154:0.061839309 155:0.16438945 156:0.077281922 157:0.35262239 158:0.1184944 159:0.056159429 160:0.038316403 161:0.19894041 162:0.1383764 163:0.084060349 164:0.25091621 165:0.11579818 166:0.35262239 167:0.078651913 168:0.030213149 169:0.046307467 170:0.12562826 171:0.18111706 172:0.060271475 173:0.18965532 174:0.1109107 175:0.35262239 176:0.13937365 177:0.1388128 178:0.095856383 179:0.18686059 180:0.094536804 181:0.011369112 182:0.036008757 183:0.13050988 184:0.45326439 185:0.17178847 186:0.039601173 187:0.015957048 188:0.098244146 189:0.0069392389 191:0.0057922998 192:0.058787193 193:0.40318426 194:0.061431807 195:0.01021948 196:6.4104119e-05 197:0.0069529237 198:0.084911868 199:0.015728917 200:0.046971034 201:0.19078609 202:0.45326439 203:0.25068739 204:0.088077858 205:0.039073668 206:0.087317489 207:0.014317144 208:0.0040139523 209:0.01476441 210:0.08059562 211:0.45326439 212:0.087772645 213:0.0079163453 214:9.8908422e-05 215:0.014334895 216:0.0098254681 217:0.00073983788 218:0.0025825235 219:0.046054468 220:0.37034497 221:0.039892383 222:0.0059334207 223:8.0956306e-06 224:0.0090212021 225:0.10301331 226:0.055051826 227:0.082354248 228:0.17494252 229:0.42096668 230:0.092123397 231:0.016567938 232:0.0050458456 233:0.065160289 234:0.0095301168 235:0.005002921 236:0.012815062 237:0.105405 238:0.42096668 239:0.02778762 240:0.00039556142 242:0.007364898 243:0.11367832 244:0.12228125 245:0.17511895 246:0.42096668 247:0.42096668 248:0.072943173 249:0.039963238 250:0.012964576 251:0.062831976 252:0.15616013 253:0.10657203 254:0.21188049 255:0.090457961 256:0.28360066 257:0.038633555 258:0.040972766 259:0.028400358 260:0.11341538 261:0.14684743 262:0.070709325 263:0.17995521 264:0.072994098 265:0.28360066 266:0.13599834 267:0.21905346 268:0.081401221 269:0.11157292 270:0.19521593 271:0.1517638 272:0.2362843 273:0.20157483 274:0.28360066 275:0.048035216 276:0.099441677 277:0.053352311 278:0.13300888 279:0.24022999 280:0.078667052 281:0.14234561 282:0.083102331 283:0.28360066 284:0.2135472 285:0.25984916 286:0.10959962 287:0.11582816 288:0.051531523 289:0.022723658 290:0.035783246 291:0.094606362 292:0.37039849 293:0.1983247 294:0.25328046 295:0.05621459 296:0.037482847 297:0.0057107653 298:0.0084511871 299:0.0068398667 300:0.038066402 301:0.32829314 302:0.051858485 303:0.07310278 304:0.0094929161 305:0.0056170863 306:0.10952257 307:0.024442846 308:0.025424752 309:0.081912853 310:0.37039849 311:0.37039849 312:0.37039849 313:0.09962339 314:0.032459538 315:0.0060181827 316:0.0039417949 317:0.0013756264 318:0.035544034 319:0.37039849 320:0.14730136 321:0.12988807 322:0.022900458 323:0.0020829821 
